{"learner":{"attributes":{"best_iteration":"299","best_ntree_limit":"300","scikit_learn":"{\"use_label_encoder\": false, \"n_estimators\": 300, \"objective\": \"binary:logistic\", \"max_depth\": 5, \"max_leaves\": null, \"max_bin\": null, \"grow_policy\": null, \"learning_rate\": 0.1, \"verbosity\": null, \"booster\": null, \"tree_method\": null, \"gamma\": 2.0, \"min_child_weight\": null, \"max_delta_step\": null, \"subsample\": null, \"sampling_method\": null, \"colsample_bytree\": null, \"colsample_bylevel\": null, \"colsample_bynode\": null, \"reg_alpha\": 1.0, \"reg_lambda\": 3.0, \"scale_pos_weight\": null, \"base_score\": null, \"missing\": NaN, \"num_parallel_tree\": null, \"random_state\": null, \"n_jobs\": null, \"monotone_constraints\": null, \"interaction_constraints\": null, \"importance_type\": null, \"gpu_id\": null, \"validate_parameters\": null, \"predictor\": null, \"enable_categorical\": false, \"feature_types\": null, \"max_cat_to_onehot\": null, \"max_cat_threshold\": null, \"eval_metric\": \"auc\", \"early_stopping_rounds\": null, \"callbacks\": null, \"kwargs\": {\"seed\": 42}, \"classes_\": [0, 1], \"n_classes_\": 2, \"_estimator_type\": \"classifier\"}"},"feature_names":["word_count","pub_month","pub_time","abstract_len","headline_len","len_lead","is_noon","is_weekday","feature_section_name","feature_type_of_material","is_party","is_congress","is_president","is_ukrainian_russian_war","is_storm","is_spell","is_crossword","sentiment_tb_polar_abs","sentiment_tb_subj","sentiment_vader_neg","sentiment_vader_pos","sentiment_vader_compound_abs","sentiment_snow_abs","sentiment_snow_pos","sentiment_abstract_tb_polar","sentiment_abstract_tb_polar_abs","sentiment_abstract_tb_subj","sentiment_abstract_vader_pos","sentiment_abstract_vader_compound_abs","sentiment_abstract_snow_abs","sentiment_abstract_snow_pos"],"feature_types":["float","float","float","float","float","float","float","float","float","float","float","float","float","float","float","float","float","float","float","float","float","float","float","float","float","float","float","float","float","float","float"],"gradient_booster":{"model":{"gbtree_model_param":{"num_parallel_tree":"1","num_trees":"300","size_leaf_vector":"0"},"tree_info":[0,0,0,0,0,0,0,0,0,0,0,0,0,0,0,0,0,0,0,0,0,0,0,0,0,0,0,0,0,0,0,0,0,0,0,0,0,0,0,0,0,0,0,0,0,0,0,0,0,0,0,0,0,0,0,0,0,0,0,0,0,0,0,0,0,0,0,0,0,0,0,0,0,0,0,0,0,0,0,0,0,0,0,0,0,0,0,0,0,0,0,0,0,0,0,0,0,0,0,0,0,0,0,0,0,0,0,0,0,0,0,0,0,0,0,0,0,0,0,0,0,0,0,0,0,0,0,0,0,0,0,0,0,0,0,0,0,0,0,0,0,0,0,0,0,0,0,0,0,0,0,0,0,0,0,0,0,0,0,0,0,0,0,0,0,0,0,0,0,0,0,0,0,0,0,0,0,0,0,0,0,0,0,0,0,0,0,0,0,0,0,0,0,0,0,0,0,0,0,0,0,0,0,0,0,0,0,0,0,0,0,0,0,0,0,0,0,0,0,0,0,0,0,0,0,0,0,0,0,0,0,0,0,0,0,0,0,0,0,0,0,0,0,0,0,0,0,0,0,0,0,0,0,0,0,0,0,0,0,0,0,0,0,0,0,0,0,0,0,0,0,0,0,0,0,0,0,0,0,0,0,0,0,0,0,0,0,0,0,0,0,0,0,0,0,0,0,0,0,0],"trees":[{"base_weights":[-7.23137E-1,-1.0597339E0,7.2442263E-1,-1.5472158E0,-4.6961224E-1,8.631579E-2,1.2523528E0,-1.7209803E0,-1.2042042E0,-1.936093E0,-3.3351222E-1,-9.4586186E-2,1.0635451E0,-3E-1,1.320703E0,-1.8528014E0,-1.4150754E0,-1.3255895E0,-4.888889E-1,-5.790476E-1,2.4977376E-1,2.3594812E-1,-4.293715E-1,-5.4545456E-1,1.1731448E0,-1.5151515E0,2.4657534E-1,7.6393443E-1,1.5285219E0,-1.6071055E0,-1.8785784E0,-1.5174295E0,-8.975469E-1,-1.5892116E0,-1.0463954E0,5.3061223E-1,-7.344913E-1,-8.055426E-1,-2.2059183E-1,-8.7606436E-1,6.026667E-1,-4.8E-1,4.3247464E-1,-5.9915614E-1,8.0203044E-1,-7.368421E-1,-0E0,1.2335767E0,-2.6666668E-1,9.5384616E-1,-2.3655914E-1,-1.0545454E0,9.376114E-1,1.8433421E0,1.3398821E0],"categories":[],"categories_nodes":[],"categories_segments":[],"categories_sizes":[],"default_left":[1,1,1,1,1,1,1,1,1,0,1,1,1,1,1,1,1,1,1,1,1,1,1,1,1,0,1,1,1,1,1,0,0,0,0,0,0,0,0,0,0,0,0,0,0,1,1,0,0,0,0,0,0,0,0],"id":0,"left_children":[1,3,5,7,9,11,13,15,17,-1,19,21,23,25,27,-1,31,33,35,37,39,41,43,-1,47,-1,49,51,53,-1,-1,-1,-1,-1,-1,-1,-1,-1,-1,-1,-1,-1,-1,-1,-1,-1,-1,-1,-1,-1,-1,-1,-1,-1,-1],"loss_changes":[5.3953335E3,2.579545E3,7.021549E2,2.8388184E2,8.0776746E2,1.6921434E2,1.2340625E2,1.2009375E2,1.4081128E2,0E0,5.345343E2,8.941107E1,2.8911087E1,3.5597965E1,1.20932495E2,1.784668E0,4.6205444E1,9.692676E1,6.3345078E1,2.1156036E2,4.4032733E2,5.7524696E1,8.523388E1,1.8851674E0,1.4265747E1,0E0,1.3866513E1,9.9176895E1,3.651648E1,0E0,0E0,0E0,0E0,0E0,0E0,0E0,0E0,0E0,0E0,0E0,0E0,0E0,0E0,0E0,0E0,0E0,0E0,0E0,0E0,0E0,0E0,0E0,0E0,0E0,0E0],"parents":[2147483647,0,0,1,1,2,2,3,3,4,4,5,5,6,6,7,7,8,8,10,10,11,11,12,12,13,13,14,14,15,15,16,16,17,17,18,18,19,19,20,20,21,21,22,22,23,23,24,24,26,26,27,27,28,28],"right_children":[2,4,6,8,10,12,14,16,18,-1,20,22,24,26,28,-1,32,34,36,38,40,42,44,-1,48,-1,50,52,54,-1,-1,-1,-1,-1,-1,-1,-1,-1,-1,-1,-1,-1,-1,-1,-1,-1,-1,-1,-1,-1,-1,-1,-1,-1,-1],"split_conditions":[6.653478E-1,5.885188E-3,1.6279954E0,-2.972997E-1,-1.2599473E0,2.0284026E0,-5.882635E-1,-3.6265433E-1,5.10479E-1,-1.936093E-1,5.10479E-1,-2.8799015E-1,-5.734204E-1,-1.5095711E0,2.1093192E0,-1.8528014E-1,5.10479E-1,-4.7345707E-1,-9.456909E-1,4.6354866E-1,-9.9093354E-1,-1.7838457E-1,1.5206866E0,-5.454546E-2,3.1469016E0,-1.5151516E-1,-4.5241535E-1,-8.9860237E-1,-1.2641038E0,-1.6071056E-1,-1.8785785E-1,-1.5174295E-1,-8.975469E-2,-1.5892117E-1,-1.04639545E-1,5.3061225E-2,-7.344913E-2,-8.055426E-2,-2.2059184E-2,-8.760644E-2,6.026667E-2,-4.8E-2,4.3247465E-2,-5.9915613E-2,8.020305E-2,-7.368421E-2,-0E0,1.2335767E-1,-2.666667E-2,9.538462E-2,-2.3655914E-2,-1.0545454E-1,9.376114E-2,1.843342E-1,1.3398822E-1],"split_indices":[8,0,8,8,8,10,9,0,6,0,6,2,0,3,8,0,6,0,2,0,7,0,2,1,0,0,2,0,4,2147483647,2147483647,0,0,0,0,0,0,0,0,0,0,0,0,0,0,2147483647,2147483647,0,0,0,0,0,0,0,0],"split_type":[0,0,0,0,0,0,0,0,0,0,0,0,0,0,0,0,0,0,0,0,0,0,0,0,0,0,0,0,0,0,0,0,0,0,0,0,0,0,0,0,0,0,0,0,0,0,0,0,0,0,0,0,0,0,0],"sum_hessian":[1.106475E4,8.9785E3,2.08625E3,4.91325E3,4.06525E3,9.47E2,1.13925E3,3.25125E3,1.662E3,3.4125E2,3.724E3,8.005E2,1.465E2,4.7E1,1.09225E3,2.25925E3,9.92E2,1.4175E3,2.445E2,2.622E3,1.102E3,4.0175E2,3.9875E2,8E0,1.385E2,1.35E1,3.35E1,3.02E2,7.9025E2,2.3625E2,2.023E3,8.2175E2,1.7025E2,7.2E2,6.975E2,4.6E1,1.985E2,1.60275E3,1.01925E3,2.6125E2,8.4075E2,8.45E1,3.1725E2,3.525E2,4.625E1,6.5E0,1.5E0,1.34E2,4.5E0,1.325E1,2.025E1,2.45E1,2.775E2,2.8425E2,5.06E2],"tree_param":{"num_deleted":"4","num_feature":"31","num_nodes":"55","size_leaf_vector":"0"}},{"base_weights":[-6.538938E-1,-9.584897E-1,6.54529E-1,-1.3767734E0,-3.8847995E-1,7.7764876E-2,1.1333534E0,-1.5505797E0,-1.0378234E0,-1.759142E0,-2.5674692E-1,-8.501093E-2,9.601467E-1,-2.7545315E-1,1.1956385E0,-1.6747378E0,-1.2768637E0,-1.2449902E0,-7.1538746E-1,1.5407166E-1,-5.336085E-1,2.1217754E-1,-3.8642016E-1,-5.0606865E-1,1.0611407E0,-1.3979605E0,2.2530247E-1,6.886813E-1,1.3854619E0,-1.4367769E0,-1.6988338E0,-7.8402823E-1,-1.4273465E0,-1.3421205E0,-7.524144E-1,1.4305953E0,-7.60663E-1,-8.652187E-1,4.3545395E-1,-7.442305E-1,-1.9747603E-1,-4.3389592E-1,3.898194E-1,-5.402442E-1,7.2785115E-1,-6.9988686E-1,1.8181777E-2,1.1172196E0,-2.506943E-1,-2.8795022E-1,8.5663825E-1,8.487762E-1,-1.0700212E0,1.6536746E0,1.1919256E0],"categories":[],"categories_nodes":[],"categories_segments":[],"categories_sizes":[],"default_left":[1,1,1,1,1,1,1,1,1,0,1,1,1,1,1,1,1,1,1,1,1,1,1,1,1,0,1,1,1,0,0,0,0,0,0,0,0,0,0,0,0,0,0,0,0,1,1,0,0,0,0,0,0,0,0],"id":1,"left_children":[1,3,5,7,9,11,13,15,17,-1,19,21,23,25,27,29,31,33,35,37,39,41,43,-1,47,-1,49,51,53,-1,-1,-1,-1,-1,-1,-1,-1,-1,-1,-1,-1,-1,-1,-1,-1,-1,-1,-1,-1,-1,-1,-1,-1,-1,-1],"loss_changes":[4.3952812E3,2.1289365E3,5.7369965E2,2.963291E2,6.810159E2,1.374105E2,1.0165967E2,1.0618799E2,1.12845825E2,0E0,3.9441193E2,7.234139E1,2.422763E1,3.0160753E1,9.9947876E1,2.8847656E0,7.424585E1,4.5820557E1,7.030591E1,4.007284E2,1.4519623E2,4.6893776E1,6.978575E1,1.8369789E0,1.2078918E1,0E0,1.3125297E1,8.81884E1,3.2176025E1,0E0,0E0,0E0,0E0,0E0,0E0,0E0,0E0,0E0,0E0,0E0,0E0,0E0,0E0,0E0,0E0,0E0,0E0,0E0,0E0,0E0,0E0,0E0,0E0,0E0,0E0],"parents":[2147483647,0,0,1,1,2,2,3,3,4,4,5,5,6,6,7,7,8,8,10,10,11,11,12,12,13,13,14,14,15,15,16,16,17,17,18,18,19,19,20,20,21,21,22,22,23,23,24,24,26,26,27,27,28,28],"right_children":[2,4,6,8,10,12,14,16,18,-1,20,22,24,26,28,30,32,34,36,38,40,42,44,-1,48,-1,50,52,54,-1,-1,-1,-1,-1,-1,-1,-1,-1,-1,-1,-1,-1,-1,-1,-1,-1,-1,-1,-1,-1,-1,-1,-1,-1,-1],"split_conditions":[6.653478E-1,6.489968E-2,1.6279954E0,-3.3134052E-1,-1.2599473E0,2.0284026E0,-5.882635E-1,-2.972997E-1,-2.972997E-1,-1.7591421E-1,-4.5241535E-1,-2.8799015E-1,-5.734204E-1,-1.5095711E0,2.1093192E0,-1.1870508E0,-4.5241535E-1,5.10479E-1,-5.882635E-1,-9.9093354E-1,-2.972997E-1,-1.7838457E-1,1.5206866E0,-5.0606865E-2,3.1469016E0,-1.3979606E-1,-2.7637705E-1,5.341357E-1,-9.9900436E-1,-1.436777E-1,-1.6988339E-1,-7.8402825E-2,-1.4273465E-1,-1.3421206E-1,-7.524144E-2,1.4305954E-1,-7.60663E-2,-8.652187E-2,4.3545395E-2,-7.442305E-2,-1.9747604E-2,-4.3389592E-2,3.898194E-2,-5.4024424E-2,7.278512E-2,-6.998869E-2,1.8181776E-3,1.11721955E-1,-2.506943E-2,-2.8795023E-2,8.5663825E-2,8.4877625E-2,-1.0700212E-1,1.6536747E-1,1.1919256E-1],"split_indices":[8,0,8,0,8,10,9,8,8,0,2,2,0,3,8,0,2,6,9,7,8,0,2,1,0,0,4,2,22,0,0,0,0,0,0,0,0,0,0,0,0,0,0,0,0,2147483647,2147483647,0,0,0,0,0,0,0,0],"split_type":[0,0,0,0,0,0,0,0,0,0,0,0,0,0,0,0,0,0,0,0,0,0,0,0,0,0,0,0,0,0,0,0,0,0,0,0,0,0,0,0,0,0,0,0,0,0,0,0,0,0,0,0,0,0,0],"sum_hessian":[1.1019966E4,8.940271E3,2.079695E3,5.1529453E3,3.7873257E3,9.458974E2,1.1337976E3,3.397239E3,1.7557062E3,3.281651E2,3.4591606E3,7.999126E2,1.4598477E2,4.6889893E1,1.0869077E3,2.3240396E3,1.0731995E3,1.0618057E3,6.939005E2,1.3917473E3,2.0674133E3,4.0155307E2,3.9835956E2,7.9940524E0,1.379907E2,1.3422817E1,3.3467075E1,3.0132303E2,7.855847E2,2.3423401E2,2.0898057E3,2.5695132E2,8.162481E2,8.8089844E2,1.8090718E2,1.1984332E1,6.8191614E2,2.989696E2,1.0927777E3,1.2669315E3,8.004818E2,8.4451355E1,3.171017E2,3.5218384E2,4.6175705E1,6.4951677E0,1.4988848E0,1.3349152E2,4.4992003E0,1.8486223E1,1.4980852E1,2.7812592E2,2.319709E1,3.1761575E2,4.6796896E2],"tree_param":{"num_deleted":"2","num_feature":"31","num_nodes":"55","size_leaf_vector":"0"}},{"base_weights":[-5.954219E-1,-9.63015E-1,3.272284E-1,-1.2813184E0,-4.2400604E-1,-9.795588E-2,9.920144E-1,-1.4576313E0,-9.937552E-1,-1.4744841E0,-2.4546182E-1,-9.584097E-1,2.3411563E-1,5.855243E-1,1.1984413E0,-1.5391667E0,-1.1901056E0,-8.75492E-1,-1.3566575E0,-1.5136222E0,6.5270656E-1,-1.1895727E0,-1.6766365E-1,-8.174519E-1,-1.4109654E0,6.726828E-1,-1.4619672E-1,-1.4906116E-2,8.2951003E-1,-8.848516E-1,1.269489E0,-1.5738584E0,-1.3480996E0,-4.6912462E-1,-1.3482472E0,-1.3364483E0,-7.8368837E-1,-0E0,-1.3597723E0,-1.6596174E0,-9.899368E-1,8.4889054E-1,-0E0,-1.421523E0,-4.5559442E-1,-7.228626E-1,-3.631021E-2,-8.6424047E-1,3.2781664E-1,-1.5111413E0,-8.831657E-3,1.8128256E0,5.436353E-1,-1.0211145E-1,-1.5884823E0,-3.1948337E-1,6.0212666E-1,1.0044352E0,-0E0,-1.3239368E0,-3.3968384E-3,1.5518725E0,1.102484E0],"categories":[],"categories_nodes":[],"categories_segments":[],"categories_sizes":[],"default_left":[1,1,1,1,1,1,1,1,1,1,1,1,1,1,1,1,1,1,1,1,1,1,1,1,1,1,1,1,1,1,1,0,0,0,0,0,0,1,1,0,0,1,1,0,0,0,0,0,0,0,0,0,0,0,0,0,0,0,0,0,0,0,0],"id":2,"left_children":[1,3,5,7,9,11,13,15,17,19,21,23,25,27,29,31,33,35,-1,39,-1,43,45,47,49,51,53,55,57,59,61,-1,-1,-1,-1,-1,-1,-1,-1,-1,-1,-1,-1,-1,-1,-1,-1,-1,-1,-1,-1,-1,-1,-1,-1,-1,-1,-1,-1,-1,-1,-1,-1],"loss_changes":[3.70159E3,1.335375E3,8.801223E2,2.4179639E2,5.416097E2,5.438227E2,9.799402E1,5.7888184E1,7.468384E1,3.881372E1,1.8059746E2,2.812384E1,2.2954752E2,6.185704E1,1.2227759E2,6.0234375E0,7.884155E1,5.503296E1,1.5473633E0,2.4077454E1,1.4602246E0,2.814264E1,1.6694289E2,2.3516113E1,1.5304779E1,8.865167E1,4.460001E1,2.323855E1,4.2860046E1,9.384575E0,2.8810913E1,0E0,0E0,0E0,0E0,0E0,0E0,0E0,0E0,0E0,0E0,0E0,0E0,0E0,0E0,0E0,0E0,0E0,0E0,0E0,0E0,0E0,0E0,0E0,0E0,0E0,0E0,0E0,0E0,0E0,0E0,0E0,0E0],"parents":[2147483647,0,0,1,1,2,2,3,3,4,4,5,5,6,6,7,7,8,8,9,9,10,10,11,11,12,12,13,13,14,14,15,15,16,16,17,17,18,18,19,19,20,20,21,21,22,22,23,23,24,24,25,25,26,26,27,27,28,28,29,29,30,30],"right_children":[2,4,6,8,10,12,14,16,18,20,22,24,26,28,30,32,34,36,-1,40,-1,44,46,48,50,52,54,56,58,60,62,-1,-1,-1,-1,-1,-1,-1,-1,-1,-1,-1,-1,-1,-1,-1,-1,-1,-1,-1,-1,-1,-1,-1,-1,-1,-1,-1,-1,-1,-1,-1,-1],"split_conditions":[1.8402404E-1,1.6486302E-1,1.1466717E0,-3.1688797E-1,-5.882635E-1,-2.096984E-1,2.1093192E0,-2.972997E-1,1.0274112E0,1.0988579E0,-8.862697E-1,1.2378595E0,-4.5241535E-1,-8.862697E-1,-1.1376712E0,-4.4936952E-1,-7.812657E-1,-9.9093354E-1,-1.3566576E-1,1.1101239E-1,6.5270655E-2,5.10479E-1,-9.9093354E-1,2.9145284E0,-3.5723466E-1,-5.882635E-1,6.848556E0,1.2632294E-1,4.086017E-2,-1.1355902E0,-1.2641038E0,-1.5738584E-1,-1.3480996E-1,-4.691246E-2,-1.3482472E-1,-1.3364483E-1,-7.8368835E-2,-0E0,-1.3597724E-1,-1.6596174E-1,-9.899368E-2,8.4889054E-2,-0E0,-1.421523E-1,-4.5559444E-2,-7.228626E-2,-3.6310211E-3,-8.6424045E-2,3.2781664E-2,-1.5111414E-1,-8.831657E-4,1.8128256E-1,5.436353E-2,-1.02111455E-2,-1.5884823E-1,-3.194834E-2,6.0212668E-2,1.0044352E-1,-0E0,-1.3239369E-1,-3.3968384E-4,1.5518725E-1,1.102484E-1],"split_indices":[8,0,8,0,9,0,8,8,2,0,3,5,2,3,0,0,2,7,29,3,26,6,7,17,0,9,0,0,2,3,4,0,0,0,0,0,0,2147483647,2147483647,0,0,2147483647,2147483647,0,0,0,0,0,0,0,0,0,0,0,0,0,0,0,0,0,0,0,0],"split_type":[0,0,0,0,0,0,0,0,0,0,0,0,0,0,0,0,0,0,0,0,0,0,0,0,0,0,0,0,0,0,0,0,0,0,0,0,0,0,0,0,0,0,0,0,0,0,0,0,0,0,0,0,0,0,0,0,0,0,0,0,0,0,0],"sum_hessian":[1.0906336E4,7.7997783E3,3.1065571E3,4.9001084E3,2.89967E3,1.8953693E3,1.2111879E3,3.0279216E3,1.872187E3,4.1726782E2,2.482402E3,5.270488E2,1.3683204E3,4.134288E2,7.9775903E2,2.3068518E3,7.210697E2,1.421831E3,4.5035602E2,4.1104056E2,6.227286E0,1.847435E2,2.2976587E3,4.0998053E2,1.1706832E2,6.356393E2,7.326811E2,1.19085785E2,2.9434302E2,2.4711782E1,7.7304724E2,1.9295594E3,3.772924E2,1.329882E2,5.880815E2,2.2757658E2,1.1942544E3,1.2377223E0,4.491183E2,3.1484875E2,9.619178E1,4.481507E0,1.7457793E0,1.3721002E2,4.7533485E1,4.3555426E2,1.8621044E3,3.954348E2,1.4545711E1,1.0837874E2,8.689586E0,5.986208E1,5.757772E2,7.147399E2,1.7941181E1,8.1783485E1,3.73023E1,2.4227733E2,5.206567E1,1.4732512E1,9.97927E0,2.758151E2,4.9723215E2],"tree_param":{"num_deleted":"4","num_feature":"31","num_nodes":"63","size_leaf_vector":"0"}},{"base_weights":[-5.448192E-1,-8.827634E-1,2.9772425E-1,-1.2510246E0,-4.7601345E-1,-8.90454E-2,9.093573E-1,-1.3895339E0,-1.0335022E0,-1.3671486E0,-3.3271423E-1,-8.761093E-1,2.1131444E-1,5.312981E-1,1.1044413E0,-1.4655559E0,-1.1249033E0,-1.1117581E0,-6.7531806E-1,-1.3975601E0,6.0793084E-1,-6.929189E-1,-1.38496E-1,-7.4417675E-1,-1.3040873E0,6.031443E-1,-1.3828707E-1,2.6905626E-1,1.0302138E0,-7.4149054E-1,1.1747147E0,-1.2037128E0,-1.4978076E0,-2.53913E-1,-1.2873794E0,-1.1693231E0,-4.8167345E-1,-4.76474E-2,-7.6549405E-1,-1.5505539E0,-9.9155027E-1,8.0904233E-1,-0E0,-4.737969E-1,-9.418794E-1,-3.3115128E-1,2.5064394E-1,-8.4965104E-1,-2.2251017E-1,-1.3981698E0,-8.175688E-3,1.6661321E0,4.8644662E-1,-9.8552525E-2,-1.4593332E0,7.9780865E-1,-3.7521598E-1,1.2745435E0,2.8053245E-1,-1.0504634E0,3.9749038E-1,1.421765E0,1.0003186E0],"categories":[],"categories_nodes":[],"categories_segments":[],"categories_sizes":[],"default_left":[1,1,1,1,1,1,1,1,1,1,1,1,1,1,1,1,1,1,1,1,1,1,1,1,1,1,1,1,1,1,1,0,0,0,0,0,0,0,0,0,0,1,1,0,0,0,0,0,0,0,0,0,0,0,0,0,0,0,0,0,0,0,0],"id":3,"left_children":[1,3,5,7,9,11,13,15,17,19,21,23,25,27,29,31,33,35,37,39,-1,43,45,47,49,51,53,55,57,59,61,-1,-1,-1,-1,-1,-1,-1,-1,-1,-1,-1,-1,-1,-1,-1,-1,-1,-1,-1,-1,-1,-1,-1,-1,-1,-1,-1,-1,-1,-1,-1,-1],"loss_changes":[3.0630337E3,1.146293E3,7.295867E2,1.1455322E2,4.634944E2,4.4763187E2,8.46864E1,4.170996E1,4.0264893E1,3.3622986E1,2.1941644E2,2.4576141E1,1.8814598E2,5.2039696E1,1.0465021E2,7.840088E0,7.702899E1,4.3457764E1,1.5680832E1,2.377716E1,1.487299E0,5.7348938E1,1.5429036E2,2.0843185E1,1.2883179E1,7.5684586E1,3.6024197E1,9.5601685E1,2.3065842E1,1.2477749E1,2.5892456E1,0E0,0E0,0E0,0E0,0E0,0E0,0E0,0E0,0E0,0E0,0E0,0E0,0E0,0E0,0E0,0E0,0E0,0E0,0E0,0E0,0E0,0E0,0E0,0E0,0E0,0E0,0E0,0E0,0E0,0E0,0E0,0E0],"parents":[2147483647,0,0,1,1,2,2,3,3,4,4,5,5,6,6,7,7,8,8,9,9,10,10,11,11,12,12,13,13,14,14,15,15,16,16,17,17,18,18,19,19,20,20,21,21,22,22,23,23,24,24,25,25,26,26,27,27,28,28,29,29,30,30],"right_children":[2,4,6,8,10,12,14,16,18,20,22,24,26,28,30,32,34,36,38,40,-1,44,46,48,50,52,54,56,58,60,62,-1,-1,-1,-1,-1,-1,-1,-1,-1,-1,-1,-1,-1,-1,-1,-1,-1,-1,-1,-1,-1,-1,-1,-1,-1,-1,-1,-1,-1,-1,-1,-1],"split_conditions":[1.8402404E-1,-2.5428627E-2,1.1466717E0,-4.4334763E-1,-5.882635E-1,-2.096984E-1,2.1093192E0,-2.972997E-1,5.10479E-1,1.0988579E0,2.7205262E-1,1.2378595E0,-2.8799015E-1,1.7630461E-1,-1.0834743E0,-1.1870508E0,-9.456909E-1,8.527363E-1,-9.456909E-1,1.1101239E-1,6.0793083E-2,3.697105E-1,5.10479E-1,9.683424E-1,-3.5723466E-1,-5.882635E-1,6.848556E0,-1.4858429E-1,-2.8799015E-1,-1.3830814E-1,-9.9900436E-1,-1.2037128E-1,-1.4978077E-1,-2.53913E-2,-1.2873794E-1,-1.1693231E-1,-4.8167344E-2,-4.7647404E-3,-7.65494E-2,-1.5505539E-1,-9.915503E-2,8.090424E-2,-0E0,-4.737969E-2,-9.418794E-2,-3.311513E-2,2.5064394E-2,-8.49651E-2,-2.2251017E-2,-1.3981698E-1,-8.175688E-4,1.666132E-1,4.8644662E-2,-9.855253E-3,-1.4593332E-1,7.978087E-2,-3.7521597E-2,1.2745436E-1,2.8053245E-2,-1.0504635E-1,3.9749037E-2,1.421765E-1,1.0003187E-1],"split_indices":[8,0,8,0,9,0,8,8,6,0,0,5,2,0,0,0,2,5,2,3,26,2,6,20,0,9,0,5,2,3,22,0,0,0,0,0,0,0,0,0,0,2147483647,2147483647,0,0,0,0,0,0,0,0,0,0,0,0,0,0,0,0,0,0,0,0],"split_type":[0,0,0,0,0,0,0,0,0,0,0,0,0,0,0,0,0,0,0,0,0,0,0,0,0,0,0,0,0,0,0,0,0,0,0,0,0,0,0,0,0,0,0,0,0,0,0,0,0,0,0,0,0,0,0,0,0,0,0,0,0,0,0],"sum_hessian":[1.0749753E4,7.6731113E3,3.0766418E3,4.022529E3,3.6505825E3,1.8853551E3,1.1912867E3,2.444934E3,1.5775948E3,5.0119568E2,3.1493867E3,5.2008954E2,1.3652656E3,4.1103183E2,7.8025494E2,1.8857968E3,5.5913745E2,1.2872529E3,2.9034183E2,4.9495804E2,6.2376328E0,1.09875E3,2.0506367E3,4.0560648E2,1.1448306E2,6.440762E2,7.211894E2,2.7375955E2,1.3727226E2,2.7041777E1,7.532132E2,2.2281274E2,1.662984E3,9.008097E1,4.6905646E2,1.1756868E3,1.11566216E2,3.844181E1,2.5190002E2,3.5156158E2,1.4339647E2,4.4881153E0,1.7495176E0,5.9116425E2,5.0758582E2,1.3736082E3,6.770286E2,3.34227E2,7.137949E1,1.0579409E2,8.6889715E0,5.8925774E1,5.851504E2,7.0399536E2,1.7194054E1,1.5081958E2,1.22939995E2,1.0094041E2,3.6331863E1,2.2145472E1,4.896305E0,3.0043048E2,4.527827E2],"tree_param":{"num_deleted":"2","num_feature":"31","num_nodes":"63","size_leaf_vector":"0"}},{"base_weights":[-5.002835E-1,-8.1245804E-1,2.7170613E-1,-1.1646256E0,-4.325383E-1,-8.130161E-2,8.3750385E-1,-1.3021107E0,-9.5222926E-1,-1.2744883E0,-3.009262E-1,-8.0423373E-1,1.9098039E-1,4.8370215E-1,1.0236807E0,-1.3782663E0,-1.0412809E0,-1.0617782E0,-6.883692E-1,-1.4481276E0,-8.407585E-1,-6.296575E-1,-1.2482805E-1,-6.797184E-1,-1.2145336E0,5.53501E-1,-1.2055583E-1,6.8693435E-1,-8.9645006E-2,-6.7846835E-1,1.0896167E0,-1.1217136E0,-1.4102085E0,-4.3728948E-1,-1.2655802E0,-1.1333973E0,-7.201438E-1,7.766458E-1,-7.132832E-1,-1.456972E0,-0E0,-9.875672E-1,4.9113414E-1,-5.0910616E-1,-1.0356563E0,-8.841988E-1,-2.825283E-2,-9.65681E-1,-4.7852132E-1,-1.3042758E0,-7.5683882E-3,1.5514331E0,4.4430375E-1,-8.3058804E-2,-1.3790581E0,4.308705E-1,1.17536E0,-5.211437E-1,4.9711815E-1,-9.7057384E-1,3.7373713E-1,1.3629993E0,9.3315303E-1],"categories":[],"categories_nodes":[],"categories_segments":[],"categories_sizes":[],"default_left":[1,1,1,1,1,1,1,1,1,1,1,1,1,1,1,1,1,1,1,1,1,1,1,1,1,1,1,1,1,1,1,0,0,0,0,0,0,0,0,0,0,0,0,0,0,0,0,0,0,0,0,0,0,0,0,0,0,0,0,0,0,0,0],"id":4,"left_children":[1,3,5,7,9,11,13,15,17,19,21,23,25,27,29,31,33,35,37,39,41,43,45,47,49,51,53,55,57,59,61,-1,-1,-1,-1,-1,-1,-1,-1,-1,-1,-1,-1,-1,-1,-1,-1,-1,-1,-1,-1,-1,-1,-1,-1,-1,-1,-1,-1,-1,-1,-1,-1],"loss_changes":[2.5468435E3,1.0034585E3,6.0871094E2,1.0794141E2,3.9897778E2,3.7023465E2,7.41026E1,4.0095947E1,4.0772095E1,3.081958E1,1.807821E2,2.192337E1,1.5465182E2,4.8682693E1,8.8188416E1,7.572998E0,7.086694E1,2.224231E1,1.8572144E1,5.637268E0,3.0957893E1,5.0349426E1,1.4938286E2,2.0386826E1,1.1022217E1,6.484068E1,3.285189E1,3.50374E1,2.8385399E1,1.0817372E1,2.5354248E1,0E0,0E0,0E0,0E0,0E0,0E0,0E0,0E0,0E0,0E0,0E0,0E0,0E0,0E0,0E0,0E0,0E0,0E0,0E0,0E0,0E0,0E0,0E0,0E0,0E0,0E0,0E0,0E0,0E0,0E0,0E0,0E0],"parents":[2147483647,0,0,1,1,2,2,3,3,4,4,5,5,6,6,7,7,8,8,9,9,10,10,11,11,12,12,13,13,14,14,15,15,16,16,17,17,18,18,19,19,20,20,21,21,22,22,23,23,24,24,25,25,26,26,27,27,28,28,29,29,30,30],"right_children":[2,4,6,8,10,12,14,16,18,20,22,24,26,28,30,32,34,36,38,40,42,44,46,48,50,52,54,56,58,60,62,-1,-1,-1,-1,-1,-1,-1,-1,-1,-1,-1,-1,-1,-1,-1,-1,-1,-1,-1,-1,-1,-1,-1,-1,-1,-1,-1,-1,-1,-1,-1,-1],"split_conditions":[1.8402404E-1,-2.5428627E-2,1.1466717E0,-4.4334763E-1,-5.882635E-1,-2.096984E-1,2.1093192E0,-2.972997E-1,-2.972997E-1,1.1101239E-1,2.7205262E-1,1.2378595E0,-4.5241535E-1,-2.8799015E-1,-1.0834743E0,-1.1870508E0,-4.5241535E-1,5.10479E-1,-1.7588916E0,1.230135E0,6.24333E-1,1.0274112E0,-6.369492E-1,-4.7948834E-1,-3.5723466E-1,-5.882635E-1,6.848556E0,1.769068E-1,-2.7637705E-1,-1.3830814E-1,-1.2641038E0,-1.1217137E-1,-1.4102085E-1,-4.3728948E-2,-1.2655802E-1,-1.1333974E-1,-7.2014384E-2,7.766458E-2,-7.132832E-2,-1.456972E-1,-0E0,-9.875672E-2,4.9113415E-2,-5.091062E-2,-1.0356563E-1,-8.841988E-2,-2.8252832E-3,-9.65681E-2,-4.7852132E-2,-1.3042758E-1,-7.568388E-4,1.551433E-1,4.4430375E-2,-8.30588E-3,-1.3790582E-1,4.308705E-2,1.17536E-1,-5.2114367E-2,4.9711816E-2,-9.705739E-2,3.7373714E-2,1.3629994E-1,9.33153E-2],"split_indices":[8,0,8,0,9,0,8,8,8,3,0,5,2,2,0,0,2,6,3,0,0,2,3,25,0,9,0,0,4,3,4,0,0,0,0,0,0,0,0,0,0,0,0,0,0,0,0,0,0,0,0,0,0,0,0,0,0,0,0,0,0,0,0],"split_type":[0,0,0,0,0,0,0,0,0,0,0,0,0,0,0,0,0,0,0,0,0,0,0,0,0,0,0,0,0,0,0,0,0,0,0,0,0,0,0,0,0,0,0,0,0,0,0,0,0,0,0,0,0,0,0,0,0,0,0,0,0,0,0],"sum_hessian":[1.0560021E4,7.520176E3,3.0398455E3,3.8980442E3,3.6221313E3,1.8724215E3,1.167424E3,2.3541162E3,1.543928E3,4.851131E2,3.1370183E3,5.1167966E2,1.3607418E3,4.0808463E2,7.593393E2,1.8091915E3,5.4492487E2,1.0818894E3,4.6203854E2,3.3976834E2,1.4534476E2,1.0896006E3,2.0474177E3,4.0053488E2,1.1114478E2,6.2931555E2,7.314262E2,3.0213705E2,1.0594757E2,2.6712599E1,7.326267E2,2.1577635E2,1.5934152E3,1.5116798E2,3.9375687E2,8.862242E2,1.9566522E2,5.5412188E0,4.5649734E2,3.3827512E2,1.4932337E0,1.3228944E2,1.3055306E1,8.472543E2,2.4234627E2,2.2707854E2,1.8203392E3,1.5866048E2,2.4187439E2,1.0245638E2,8.6884E0,5.7258736E1,5.720568E2,7.14141E2,1.7285213E1,2.0326596E2,9.88711E1,6.2226616E1,4.372095E1,2.183426E1,4.8783374E0,2.5592825E2,4.7669843E2],"tree_param":{"num_deleted":"0","num_feature":"31","num_nodes":"63","size_leaf_vector":"0"}},{"base_weights":[-4.606623E-1,-7.499837E-1,2.4838321E-1,-1.1497548E0,-4.4463423E-1,-7.441057E-2,7.738246E-1,-1.2116603E0,-8.249831E-1,-1.1976435E0,-3.32947E-1,-7.401057E-1,1.7275442E-1,4.411322E-1,9.526718E-1,-1.3401276E0,-1.0837377E0,-1.0180936E0,-2.4622661E-1,-1.2231748E0,5.5302656E-1,-6.1418164E-1,-1.1270826E-1,-8.5958904E-1,-3.6676082E-1,4.9836653E-1,-1.1430633E-1,-7.44969E-2,6.555221E-1,-6.222928E-1,1.0148195E0,-1.0675622E0,-1.3885858E0,-1.1593622E0,-8.8226366E-1,-1.1413736E0,-4.5850652E-1,1.2266959E0,-7.426381E-1,-1.3813028E0,-9.0752304E-1,7.574374E-1,-0E0,-5.0170916E-1,-1.0071881E0,-9.851231E-1,-4.1958097E-2,-9.756183E-1,-4.069114E-1,-7.350793E-1,-9.227755E-2,-4.1367185E-1,5.9920543E-1,-1.8923087E-1,4.1146538E-1,-8.9478576E-1,1.0630269E-1,8.024297E-1,-0E0,-8.998001E-1,3.5154128E-1,1.2626127E0,8.460177E-1],"categories":[],"categories_nodes":[],"categories_segments":[],"categories_sizes":[],"default_left":[1,1,1,1,1,1,1,1,1,1,1,1,1,1,1,1,1,1,1,1,1,1,1,1,1,1,1,1,1,1,1,0,0,0,0,0,0,0,0,0,0,1,1,0,0,0,0,0,0,0,0,0,0,0,0,0,0,0,0,0,0,0,0],"id":5,"left_children":[1,3,5,7,9,11,13,15,17,19,21,23,25,27,29,31,33,35,37,39,-1,43,45,47,49,51,53,55,57,59,61,-1,-1,-1,-1,-1,-1,-1,-1,-1,-1,-1,-1,-1,-1,-1,-1,-1,-1,-1,-1,-1,-1,-1,-1,-1,-1,-1,-1,-1,-1,-1,-1],"loss_changes":[2.1247412E3,8.945703E2,5.0991638E2,5.8924805E1,3.484536E2,3.071051E2,6.538922E1,3.698242E1,5.6246094E1,2.6703125E1,2.2462408E2,2.0375946E1,1.2751032E2,4.575978E1,7.464093E1,1.0426758E1,1.5518433E1,2.363974E1,1.0145082E2,2.0445007E1,1.4677751E0,6.7552124E1,1.252562E2,1.7315002E1,1.2092485E1,5.9658646E1,2.8479277E1,1.9012766E1,2.8518059E1,9.418237E0,2.4505798E1,0E0,0E0,0E0,0E0,0E0,0E0,0E0,0E0,0E0,0E0,0E0,0E0,0E0,0E0,0E0,0E0,0E0,0E0,0E0,0E0,0E0,0E0,0E0,0E0,0E0,0E0,0E0,0E0,0E0,0E0,0E0,0E0],"parents":[2147483647,0,0,1,1,2,2,3,3,4,4,5,5,6,6,7,7,8,8,9,9,10,10,11,11,12,12,13,13,14,14,15,15,16,16,17,17,18,18,19,19,20,20,21,21,22,22,23,23,24,24,25,25,26,26,27,27,28,28,29,29,30,30],"right_children":[2,4,6,8,10,12,14,16,18,20,22,24,26,28,30,32,34,36,38,40,-1,44,46,48,50,52,54,56,58,60,62,-1,-1,-1,-1,-1,-1,-1,-1,-1,-1,-1,-1,-1,-1,-1,-1,-1,-1,-1,-1,-1,-1,-1,-1,-1,-1,-1,-1,-1,-1,-1,-1],"split_conditions":[1.8402404E-1,-1.8320209E-1,1.1466717E0,5.10479E-1,-5.882635E-1,-2.096984E-1,2.1093192E0,-6.4206994E-1,-2.972997E-1,1.0988579E0,2.7205262E-1,-3.8433313E-1,-2.8799015E-1,-8.862697E-1,-1.0834743E0,-1.1689851E0,-2.972997E-1,-3.596434E-1,-9.456909E-1,5.2865177E-2,5.5302657E-2,1.0274112E0,-8.862697E-1,5.10479E-1,-4.6883363E-1,-9.9093354E-1,1.4395115E0,-8.648798E-1,4.086017E-2,-1.3830814E-1,-9.9900436E-1,-1.06756225E-1,-1.3885859E-1,-1.1593622E-1,-8.822637E-2,-1.1413737E-1,-4.5850653E-2,1.2266959E-1,-7.426381E-2,-1.3813029E-1,-9.07523E-2,7.574374E-2,-0E0,-5.0170917E-2,-1.0071881E-1,-9.8512314E-2,-4.19581E-3,-9.756183E-2,-4.069114E-2,-7.350793E-2,-9.2277555E-3,-4.1367184E-2,5.9920546E-2,-1.8923087E-2,4.114654E-2,-8.9478575E-2,1.063027E-2,8.024297E-2,-0E0,-8.998001E-2,3.515413E-2,1.2626128E-1,8.4601775E-2],"split_indices":[8,0,8,6,9,0,8,0,8,0,0,0,2,3,0,0,8,0,2,4,26,2,3,6,25,7,12,0,2,3,22,0,0,0,0,0,0,0,0,0,0,2147483647,2147483647,0,0,0,0,0,0,0,0,0,0,0,0,0,0,0,0,0,0,0,0],"split_type":[0,0,0,0,0,0,0,0,0,0,0,0,0,0,0,0,0,0,0,0,0,0,0,0,0,0,0,0,0,0,0,0,0,0,0,0,0,0,0,0,0,0,0,0,0,0,0,0,0,0,0,0,0,0,0,0,0,0,0,0,0,0,0],"sum_hessian":[1.0349244E4,7.350967E3,2.998277E3,3.1782944E3,4.1726724E3,1.8577064E3,1.1405707E3,2.659995E3,5.182993E2,5.340328E2,3.6386394E3,5.02466E2,1.3552404E3,4.0436328E2,7.3620734E2,1.3090875E3,1.3509076E3,3.8562485E2,1.3267451E2,5.278105E2,6.2222824E0,1.5936788E3,2.0449606E3,3.75657E2,1.2680899E2,6.3557965E2,7.1966077E2,1.17957344E2,2.8640594E2,2.6310425E1,7.098969E2,2.1114969E2,1.0979379E3,9.682446E2,3.8266296E2,3.1198654E2,7.36383E1,3.1823092E1,1.0085142E2,3.427908E2,1.8501971E2,4.4746695E0,1.747613E0,1.246363E3,3.473159E2,1.4943109E2,1.8955295E3,2.9449744E2,8.115958E1,5.044348E1,7.636551E1,6.1362473E1,5.742172E2,6.332433E2,8.6417435E1,2.0162735E1,9.779461E1,2.3442822E2,5.197772E1,2.1452251E1,4.858174E0,2.7736874E2,4.325282E2],"tree_param":{"num_deleted":"2","num_feature":"31","num_nodes":"63","size_leaf_vector":"0"}},{"base_weights":[-4.2502353E-1,-6.937705E-1,2.2711329E-1,-1.0831836E0,-4.05567E-1,-6.815021E-2,7.1587974E-1,-1.1638069E0,-8.428086E-1,-1.3532233E0,-3.2655406E-1,-6.732585E-1,1.5974897E-1,6.091089E-1,1.2666914E0,-1.229531E0,-8.924584E-1,-9.655629E-1,-2.2290497E-1,-1.3561485E0,-0E0,-5.7484114E-1,-1.0665379E-1,-5.564028E-1,-1.0777727E0,4.5730454E-1,-1.02163285E-1,-1.0048959E-1,7.026715E-1,1.2793827E0,8.125008E-2,-9.824985E-1,-1.2576305E0,-9.7703046E-1,-4.6751162E-1,-1.1461116E0,-7.789566E-1,1.1088513E0,-6.8244326E-1,-1.0793169E0,-4.8483777E-1,-2.8496173E-1,2.6619127E-1,-5.998124E-1,4.5782512E-1,-1.1629018E0,-0E0,1.42689E0,3.5709426E-1,3.24574E-1,-1.9391978E-1,7.5035286E-1,-3.4896716E-1,2.1831644E-1,7.9707944E-1,4.7467074E-1,1.3117608E0,3.7768915E-1,-8.097329E-2],"categories":[],"categories_nodes":[],"categories_segments":[],"categories_sizes":[],"default_left":[1,1,1,1,1,1,1,1,1,1,1,1,1,1,1,1,1,1,1,1,1,1,1,1,1,1,1,1,1,1,1,0,0,0,0,0,0,0,0,0,0,0,0,0,0,0,0,0,0,0,0,0,0,0,0,1,1,1,1],"id":6,"left_children":[1,3,5,7,9,11,13,15,17,-1,21,23,25,27,-1,31,33,35,37,-1,-1,39,41,43,45,47,49,51,53,-1,-1,-1,-1,-1,-1,-1,-1,-1,-1,-1,-1,-1,-1,-1,-1,-1,-1,-1,-1,-1,-1,-1,-1,-1,-1,-1,-1,-1,-1],"loss_changes":[1.7762828E3,8.024873E2,4.275922E2,5.4131104E1,3.0622333E2,2.5528508E2,6.140033E1,3.510327E1,5.7496155E1,6.078491E-1,2.0753198E2,2.0512497E1,1.05046585E2,6.332196E1,9.8727417E-1,6.672119E0,1.3605225E1,1.7247559E1,8.392457E1,0E0,0E0,7.813666E1,1.3520248E2,1.862754E1,1.0969933E1,5.793605E1,2.802223E1,2.3863443E1,3.6573334E1,8.7597656E-1,6.727066E-1,0E0,0E0,0E0,0E0,0E0,0E0,0E0,0E0,0E0,0E0,0E0,0E0,0E0,0E0,0E0,0E0,0E0,0E0,0E0,0E0,0E0,0E0,0E0,0E0,0E0,0E0,0E0,0E0],"parents":[2147483647,0,0,1,1,2,2,3,3,4,4,5,5,6,6,7,7,8,8,9,9,10,10,11,11,12,12,13,13,14,14,15,15,16,16,17,17,18,18,21,21,22,22,23,23,24,24,25,25,26,26,27,27,28,28,29,29,30,30],"right_children":[2,4,6,8,10,12,14,16,18,-1,22,24,26,28,-1,32,34,36,38,-1,-1,40,42,44,46,48,50,52,54,-1,-1,-1,-1,-1,-1,-1,-1,-1,-1,-1,-1,-1,-1,-1,-1,-1,-1,-1,-1,-1,-1,-1,-1,-1,-1,-1,-1,-1,-1],"split_conditions":[1.8402404E-1,-1.8320209E-1,1.1466717E0,-2.972997E-1,-1.2599473E0,-1.9885899E-1,2.8313048E0,-3.746981E-1,5.10479E-1,-1.3532233E-1,2.9252705E-1,1.2378595E0,-2.8799015E-1,-1.3849108E0,1.2666915E-1,-1.1870508E0,5.10479E-1,-5.999167E-1,-9.456909E-1,-1.3561486E-1,-0E0,-9.9093354E-1,5.10479E-1,2.9145284E0,-3.0665076E-1,-5.882635E-1,-7.3603734E-2,-1.593346E0,-8.3356595E-1,1.2793827E-1,8.125008E-3,-9.824985E-2,-1.2576304E-1,-9.770305E-2,-4.6751164E-2,-1.14611164E-1,-7.789566E-2,1.10885136E-1,-6.824433E-2,-1.0793169E-1,-4.8483778E-2,-2.8496174E-2,2.6619127E-2,-5.9981238E-2,4.5782514E-2,-1.16290174E-1,-0E0,1.42689E-1,3.5709426E-2,3.24574E-2,-1.9391978E-2,7.503529E-2,-3.4896716E-2,2.1831645E-2,7.970794E-2,4.7467075E-2,1.3117608E-1,3.7768915E-2,-8.097329E-3],"split_indices":[8,0,8,8,8,0,8,0,6,19,0,5,2,3,3,0,6,0,2,2147483647,2147483647,7,6,17,0,9,0,4,0,2147483647,2147483647,0,0,0,0,0,0,0,0,0,0,0,0,0,0,0,0,0,0,0,0,0,0,0,0,2147483647,2147483647,2147483647,2147483647],"split_type":[0,0,0,0,0,0,0,0,0,0,0,0,0,0,0,0,0,0,0,0,0,0,0,0,0,0,0,0,0,0,0,0,0,0,0,0,0,0,0,0,0,0,0,0,0,0,0,0,0,0,0,0,0,0,0,0,0,0,0],"sum_hessian":[1.0126781E4,7.172373E3,2.9544084E3,3.0455542E3,4.126819E3,1.8421205E3,1.1122881E3,2.268875E3,7.766792E2,3.1290445E2,3.8139146E3,5.0357495E2,1.3385455E3,9.384997E2,1.7378833E2,1.8149833E3,4.5389157E2,6.455587E2,1.3112048E2,3.1187366E2,1.0307832E0,1.7869257E3,2.0269888E3,3.981549E2,1.0542003E2,6.2737354E2,7.11172E2,1.08057655E2,8.304421E2,1.7087761E2,2.9107182E0,2.0001947E2,1.6149639E3,3.7333948E2,8.055209E1,3.1754105E2,3.2801767E2,3.1991913E1,9.912857E1,2.638636E2,1.5230621E3,1.373514E3,6.534747E2,3.8393408E2,1.4220837E1,9.82393E1,7.1807213E0,5.411243E1,5.732611E2,1.2257852E2,5.885935E2,2.214485E1,8.59128E1,1.3881065E2,6.916314E2,9.621215E0,1.612564E2,1.800429E0,1.1102891E0],"tree_param":{"num_deleted":"8","num_feature":"31","num_nodes":"59","size_leaf_vector":"0"}},{"base_weights":[-3.922423E-1,-6.4253E-1,2.0815516E-1,-1.0327055E0,-3.756517E-1,1.1691306E-2,8.3588433E-1,-1.0933086E0,-7.2233343E-1,-1.0801952E0,-2.781767E-1,3.4687498E-1,-2.861935E-1,-5.855053E-1,8.946643E-1,-1.2242699E0,-9.6502805E-1,-8.9928126E-1,-2.1487065E-1,-1.2505203E0,-7.412608E-1,-4.3553334E-1,1.0086155E-2,1.4044455E-1,7.2882235E-1,-8.0762786E-1,-8.523979E-2,-1.0237857E0,-0E0,1.1830539E0,7.39624E-1,-9.397058E-1,-1.2780883E0,-1.0401745E0,-7.7377844E-1,-1.0130746E0,-3.5468718E-1,9.9699295E-1,-6.329501E-1,-1.2586188E0,-0E0,-8.824071E-1,3.0863476E-1,-9.8176E-1,-3.389918E-1,-5.6604576E-1,1.5287107E-1,7.0318943E-1,-0E0,-1.5418905E-1,8.1900173E-1,-8.8482875E-1,-1.1932156E-1,-1.580727E-1,4.2193088E-1,5.407295E-1,-3.3152702E-1,5.805697E-1,1.2643694E0,4.5935738E-1,9.077406E-1],"categories":[],"categories_nodes":[],"categories_segments":[],"categories_sizes":[],"default_left":[1,1,1,1,1,1,1,1,1,1,1,1,1,1,1,1,1,1,1,1,1,1,1,1,1,1,1,0,1,1,1,0,0,0,0,0,0,0,0,0,0,0,0,0,0,0,0,0,0,0,0,0,0,0,0,0,0,0,0,0,0],"id":7,"left_children":[1,3,5,7,9,11,13,15,17,19,21,23,25,27,29,31,33,35,37,39,41,43,45,47,49,51,53,-1,55,57,59,-1,-1,-1,-1,-1,-1,-1,-1,-1,-1,-1,-1,-1,-1,-1,-1,-1,-1,-1,-1,-1,-1,-1,-1,-1,-1,-1,-1,-1,-1],"loss_changes":[1.4893994E3,7.256282E2,3.5868793E2,4.9182373E1,2.8336084E2,2.224993E2,5.9841278E1,3.400122E1,4.096132E1,2.4275696E1,1.6640262E2,8.159658E1,1.2233855E2,7.7896976E0,2.5321838E1,1.1873047E1,1.32022705E1,1.9232666E1,6.649129E1,4.3204956E0,2.7712677E1,1.2261337E2,1.06186356E2,5.4947876E1,3.0180603E1,1.6000092E1,3.1520958E1,0E0,3.2913928E0,7.040344E0,1.8336426E1,0E0,0E0,0E0,0E0,0E0,0E0,0E0,0E0,0E0,0E0,0E0,0E0,0E0,0E0,0E0,0E0,0E0,0E0,0E0,0E0,0E0,0E0,0E0,0E0,0E0,0E0,0E0,0E0,0E0,0E0],"parents":[2147483647,0,0,1,1,2,2,3,3,4,4,5,5,6,6,7,7,8,8,9,9,10,10,11,11,12,12,13,13,14,14,15,15,16,16,17,17,18,18,19,19,20,20,21,21,22,22,23,23,24,24,25,25,26,26,28,28,29,29,30,30],"right_children":[2,4,6,8,10,12,14,16,18,20,22,24,26,28,30,32,34,36,38,40,42,44,46,48,50,52,54,-1,56,58,60,-1,-1,-1,-1,-1,-1,-1,-1,-1,-1,-1,-1,-1,-1,-1,-1,-1,-1,-1,-1,-1,-1,-1,-1,-1,-1,-1,-1,-1,-1],"split_conditions":[1.8402404E-1,-2.0728964E-1,2.1093192E0,5.10479E-1,-5.882635E-1,-2.8799015E-1,-1.0834743E0,-6.5170497E-1,-2.972997E-1,1.1101239E-1,4.6354866E-1,4.442786E-1,-3.373624E-1,-1.1355902E0,-1.2641038E0,-1.1689851E0,-2.972997E-1,-3.596434E-1,-9.456909E-1,1.230135E0,5.038953E-1,-9.9093354E-1,-2.6296842E-1,-7.647816E-1,-9.9093354E-1,1.3409374E0,1.4395115E0,-1.0237857E-1,4.086017E-2,-1.0728803E0,-8.805626E-2,-9.397058E-2,-1.2780884E-1,-1.0401745E-1,-7.737785E-2,-1.0130747E-1,-3.546872E-2,9.9699296E-2,-6.3295014E-2,-1.2586188E-1,-0E0,-8.824071E-2,3.0863477E-2,-9.8176E-2,-3.389918E-2,-5.6604575E-2,1.5287108E-2,7.0318945E-2,-0E0,-1.5418905E-2,8.190017E-2,-8.848288E-2,-1.1932156E-2,-1.580727E-2,4.219309E-2,5.4072954E-2,-3.3152703E-2,5.805697E-2,1.2643693E-1,4.593574E-2,9.077406E-2],"split_indices":[8,0,8,6,9,2,0,0,8,3,0,0,0,3,4,0,8,0,2,0,0,7,3,5,7,18,12,0,2,5,0,0,0,0,0,0,0,0,0,0,0,0,0,0,0,0,0,0,0,0,0,0,0,0,0,0,0,0,0,0,0],"split_type":[0,0,0,0,0,0,0,0,0,0,0,0,0,0,0,0,0,0,0,0,0,0,0,0,0,0,0,0,0,0,0,0,0,0,0,0,0,0,0,0,0,0,0,0,0,0,0,0,0,0,0,0,0,0,0,0,0,0,0,0,0],"sum_hessian":[9.902789E3,6.990228E3,2.9125615E3,2.8342317E3,4.1559966E3,2.2218315E3,6.9072986E2,2.3622004E3,4.720311E2,5.0018503E2,3.6558113E3,1.0468108E3,1.1750209E3,2.5686842E1,6.65043E2,1.152346E3,1.2098546E3,3.468134E2,1.2521771E2,3.2556122E2,1.7462381E2,2.366128E3,1.2896833E3,6.839038E2,3.6290698E2,3.229632E2,8.520577E2,1.3814614E1,1.1872229E1,2.2331471E2,4.4172833E2,1.9503947E2,9.5730646E2,8.552581E2,3.5459653E2,2.832178E2,6.3595566E1,3.0439232E1,9.477848E1,3.2407397E2,1.4872475E0,1.5519121E2,1.94326E1,3.4969675E2,2.0164313E3,2.529883E2,1.0366951E3,1.3552425E2,5.483795E2,3.2403404E1,3.3050357E2,2.883161E2,3.4647106E1,7.4859186E2,1.03465805E2,4.2723894E0,7.5998387E0,3.0922218E1,1.9239249E2,1.7204988E2,2.6967847E2],"tree_param":{"num_deleted":"0","num_feature":"31","num_nodes":"61","size_leaf_vector":"0"}},{"base_weights":[-3.6217877E-1,-5.954025E-1,1.9076914E-1,-9.7869045E-1,-3.427086E-1,-6.076066E-2,6.207166E-1,-1.0613332E0,-7.4163544E-1,-1.2637717E0,-2.7309695E-1,-6.696394E-1,1.0485052E-1,5.227814E-1,1.1589134E0,-1.138232E0,-8.1325203E-1,-8.533395E-1,-1.9510579E-1,-1.2669762E0,-0E0,-3.989399E-1,6.41017E-2,-5.2477556E-1,-1.0428195E0,1.3208686E0,5.618274E-2,3.3195394E-1,8.384151E-1,3.2972774E-1,1.1936147E0,-8.675999E-1,-1.1729993E0,-8.89802E-1,-4.6121854E-1,-1.0205656E0,-6.787224E-1,8.044804E-1,-6.2436527E-1,-5.769272E-1,-2.5654894E-1,-6.426422E-1,2.8679335E-1,-6.4419526E-1,2.2790788E-3,-1.2053713E0,-4.2011952E-1,-1.9891161E-2,6.0260004E-1,6.025036E-1,-3.0051926E-2,-0E0,8.932786E-1,6.6611373E-1,-7.886651E-3,1.2091343E0,-0E0],"categories":[],"categories_nodes":[],"categories_segments":[],"categories_sizes":[],"default_left":[1,1,1,1,1,1,1,1,1,1,1,1,1,1,1,1,1,1,1,1,1,1,1,1,1,0,1,1,1,1,1,0,0,0,0,0,0,0,0,0,0,0,0,0,0,0,0,0,0,0,0,0,0,0,0,1,1],"id":8,"left_children":[1,3,5,7,9,11,13,15,17,-1,21,23,25,27,29,31,33,35,37,-1,-1,39,41,43,45,-1,47,49,51,53,-1,-1,-1,-1,-1,-1,-1,-1,-1,-1,-1,-1,-1,-1,-1,-1,-1,-1,-1,-1,-1,-1,-1,-1,-1,-1,-1],"loss_changes":[1.249644E3,6.575823E2,3.1147348E2,4.8809082E1,2.6110355E2,1.8373882E2,5.250284E1,3.332837E1,4.1923798E1,2.8845215E-1,1.6286206E2,1.7857147E1,8.289645E1,5.256157E1,1.8864746E0,9.135376E0,1.0504608E1,1.3416626E1,5.5497944E1,0E0,0E0,6.94429E1,1.6401399E2,1.8816292E1,7.382347E0,0E0,5.7847153E1,5.6604015E1,1.5815643E1,2.0039935E0,1.6562958E0,0E0,0E0,0E0,0E0,0E0,0E0,0E0,0E0,0E0,0E0,0E0,0E0,0E0,0E0,0E0,0E0,0E0,0E0,0E0,0E0,0E0,0E0,0E0,0E0,0E0,0E0],"parents":[2147483647,0,0,1,1,2,2,3,3,4,4,5,5,6,6,7,7,8,8,9,9,10,10,11,11,12,12,13,13,14,14,15,15,16,16,17,17,18,18,21,21,22,22,23,23,24,24,26,26,27,27,28,28,29,29,30,30],"right_children":[2,4,6,8,10,12,14,16,18,-1,22,24,26,28,30,32,34,36,38,-1,-1,40,42,44,46,-1,48,50,52,54,-1,-1,-1,-1,-1,-1,-1,-1,-1,-1,-1,-1,-1,-1,-1,-1,-1,-1,-1,-1,-1,-1,-1,-1,-1,-1,-1],"split_conditions":[1.8402404E-1,-2.0728964E-1,1.1466717E0,-2.972997E-1,-1.2599473E0,-3.3374926E-1,2.8313048E0,-4.228732E-1,5.10479E-1,-1.2637717E-1,5.10479E-1,1.0452979E0,-5.882635E-1,1.5161487E-1,-1.8781362E0,-1.1870508E0,5.10479E-1,-5.999167E-1,-7.812657E-1,-1.2669763E-1,-0E0,2.3230816E-1,-9.9093354E-1,9.3989563E-1,6.653478E-1,1.3208686E-1,2.0284026E0,-2.2560894E-1,-9.9093354E-1,-2.8799015E-1,1.19361475E-1,-8.675999E-2,-1.1729993E-1,-8.89802E-2,-4.6121854E-2,-1.0205656E-1,-6.787224E-2,8.044804E-2,-6.243653E-2,-5.7692718E-2,-2.5654895E-2,-6.426422E-2,2.8679335E-2,-6.441953E-2,2.2790789E-4,-1.20537125E-1,-4.2011954E-2,-1.9891162E-3,6.0260005E-2,6.025036E-2,-3.0051926E-3,-0E0,8.9327864E-2,6.661137E-2,-7.886651E-4,1.2091344E-1,-0E0],"split_indices":[8,0,8,8,8,0,8,0,6,19,6,5,9,0,29,0,6,0,2,2147483647,2147483647,0,7,20,8,0,10,5,7,2,3,0,0,0,0,0,0,0,0,0,0,0,0,0,0,0,0,0,0,0,0,0,0,0,0,2147483647,2147483647],"split_type":[0,0,0,0,0,0,0,0,0,0,0,0,0,0,0,0,0,0,0,0,0,0,0,0,0,0,0,0,0,0,0,0,0,0,0,0,0,0,0,0,0,0,0,0,0,0,0,0,0,0,0,0,0,0,0,0,0],"sum_hessian":[9.681346E3,6.810412E3,2.8709338E3,2.7009758E3,4.109436E3,1.8114446E3,1.0594894E3,1.9919033E3,7.090725E2,2.8413165E2,3.8253044E3,3.8668466E2,1.4247599E3,9.029521E2,1.5653728E2,1.5092721E3,4.8263126E2,5.858234E2,1.23249084E2,2.8286063E2,1.2709999E0,2.7874436E3,1.037861E3,2.8568405E2,1.0100062E2,5.1019234E1,1.3737406E3,5.6854297E2,3.3440915E2,8.711025E0,1.4782625E2,1.8395699E2,1.3253151E3,3.9033023E2,9.230104E1,2.888954E2,2.9692804E2,3.55393E1,8.7709785E1,1.2316791E3,1.5557644E3,2.4623883E2,7.916222E2,2.3391444E2,5.1769608E1,7.659337E1,2.4407251E1,1.2067885E3,1.6695213E2,3.2581235E2,2.4273062E2,2.035288E1,3.1405627E2,4.3849673E0,4.326058E0,1.4511217E2,2.7140703E0],"tree_param":{"num_deleted":"4","num_feature":"31","num_nodes":"57","size_leaf_vector":"0"}},{"base_weights":[-3.344955E-1,-5.521257E-1,1.7462946E-1,-9.290218E-1,-3.1282753E-1,7.097627E-3,7.369344E-1,-1.0133669E0,-6.923673E-1,-1.2203226E0,-2.4807411E-1,2.9994592E-1,-2.525147E-1,-6.002468E-1,7.958472E-1,-1.0933087E0,-7.6187426E-1,-7.9975283E-1,-1.7748068E-1,-1.2237426E0,-0E0,-4.549345E-1,-6.335951E-2,6.909357E-2,5.790068E-1,-7.3812693E-1,-9.3385406E-2,-8.3480966E-1,2.3454082E-1,1.0744616E0,6.2456954E-1,-8.1726813E-1,-1.1296065E0,-8.3745474E-1,-4.2315927E-1,-7.2347033E-1,-1.2296596E0,8.462555E-1,-5.400217E-1,-0E0,-1.2269243E0,-3.536426E-1,-8.1850785E-1,-2.1477857E-1,2.5110167E-1,6.743037E-1,-9.248189E-2,-1.3480936E-1,6.5814596E-1,-5.660412E-1,-1.1019505E0,-1.8389472E-1,2.4490479E-1,-0E0,-9.106213E-1,-0E0,4.806522E-1,1.1022607E0,-5.935691E-1,-0E0,7.3542076E-1],"categories":[],"categories_nodes":[],"categories_segments":[],"categories_sizes":[],"default_left":[1,1,1,1,1,1,1,1,1,1,1,1,1,1,1,1,1,1,1,1,1,1,1,1,1,1,1,1,1,1,1,0,0,0,0,0,0,0,0,1,1,0,0,0,0,0,0,0,0,0,0,0,0,1,1,1,1,0,0,0,0],"id":9,"left_children":[1,3,5,7,9,11,13,15,17,-1,21,23,25,27,29,31,33,35,37,-1,-1,41,43,45,47,49,51,-1,-1,57,59,-1,-1,-1,-1,-1,-1,-1,-1,-1,-1,-1,-1,-1,-1,-1,-1,-1,-1,-1,-1,-1,-1,-1,-1,-1,-1,-1,-1,-1,-1],"loss_changes":[1.0496238E3,5.962273E2,2.663888E2,4.7552734E1,2.3643536E2,1.6671985E2,5.2799286E1,3.3593872E1,3.667737E1,4.6768188E-1,1.445206E2,6.571348E1,8.862537E1,6.749506E0,2.6072784E1,9.534912E0,9.661774E0,1.3985687E1,4.7203995E1,1.0580444E-1,0E0,6.382837E1,9.59507E1,5.6520912E1,2.7048462E1,1.4266312E1,2.6985355E1,1.9417992E0,7.219444E-1,1.3193817E1,2.7653458E1,0E0,0E0,0E0,0E0,0E0,0E0,0E0,0E0,0E0,0E0,0E0,0E0,0E0,0E0,0E0,0E0,0E0,0E0,0E0,0E0,0E0,0E0,0E0,0E0,0E0,0E0,0E0,0E0,0E0,0E0],"parents":[2147483647,0,0,1,1,2,2,3,3,4,4,5,5,6,6,7,7,8,8,9,9,10,10,11,11,12,12,13,13,14,14,15,15,16,16,17,17,18,18,19,19,21,21,22,22,23,23,24,24,25,25,26,26,27,27,28,28,29,29,30,30],"right_children":[2,4,6,8,10,12,14,16,18,-1,22,24,26,28,30,32,34,36,38,-1,-1,42,44,46,48,50,52,-1,-1,58,60,-1,-1,-1,-1,-1,-1,-1,-1,-1,-1,-1,-1,-1,-1,-1,-1,-1,-1,-1,-1,-1,-1,-1,-1,-1,-1,-1,-1,-1,-1],"split_conditions":[1.8402404E-1,-2.0728964E-1,2.1093192E0,-2.972997E-1,-1.2599473E0,-2.8799015E-1,-1.0834743E0,-4.228732E-1,5.10479E-1,-1.2203226E-1,2.9252705E-1,2.4916944E-1,-3.8433313E-1,-1.3830814E-1,-1.0186353E0,-1.1870508E0,5.10479E-1,1.3698341E0,-9.456909E-1,-1.2237426E-1,-0E0,1.0274112E0,5.10479E-1,-7.647816E-1,-9.9093354E-1,7.7571166E-1,8.119594E-1,-8.348097E-2,2.3454083E-2,1.7315958E0,-6.26413E-1,-8.172681E-2,-1.1296065E-1,-8.374547E-2,-4.2315926E-2,-7.234704E-2,-1.22965954E-1,8.462555E-2,-5.4002173E-2,-0E0,-1.2269243E-1,-3.5364263E-2,-8.185079E-2,-2.1477858E-2,2.5110168E-2,6.743037E-2,-9.248189E-3,-1.3480936E-2,6.58146E-2,-5.6604117E-2,-1.10195056E-1,-1.8389473E-2,2.449048E-2,-0E0,-9.106213E-2,-0E0,4.8065223E-2,1.1022607E-1,-5.935691E-2,-0E0,7.354208E-2],"split_indices":[8,0,8,8,8,2,0,0,6,19,0,0,0,3,22,0,6,4,2,2147483647,2147483647,2,6,5,7,5,26,4,22,3,0,0,0,0,0,0,0,0,0,2147483647,2147483647,0,0,0,0,0,0,0,0,0,0,0,0,2147483647,2147483647,2147483647,2147483647,0,0,0,0],"split_type":[0,0,0,0,0,0,0,0,0,0,0,0,0,0,0,0,0,0,0,0,0,0,0,0,0,0,0,0,0,0,0,0,0,0,0,0,0,0,0,0,0,0,0,0,0,0,0,0,0,0,0,0,0,0,0,0,0,0,0,0,0],"sum_hessian":[9.464041E3,6.631189E3,2.8328518E3,2.570232E3,4.0609573E3,2.18629E3,6.4656195E2,1.8845095E3,6.857223E2,2.6587247E2,3.7950847E3,1.0289725E3,1.1573174E3,2.5404266E1,6.2115765E2,1.4193298E3,4.6517972E2,5.644068E2,1.21315475E2,2.6468408E2,1.1884012E0,1.7856014E3,2.0094833E3,5.671366E2,4.6183597E2,2.8139355E2,8.759238E2,2.0766903E1,4.637362E0,2.2823442E2,3.9292325E2,1.7634451E2,1.2429852E3,3.742911E2,9.088861E1,4.8816214E2,7.624469E1,2.9958435E1,9.135704E1,1.3162661E0,2.633678E2,1.4033071E3,3.8229428E2,1.359155E3,6.503282E2,1.1880396E2,4.483326E2,4.4620804E1,4.1721518E2,1.9810664E2,8.3286896E1,6.944496E2,1.8147429E2,1.4508965E0,1.9316008E1,2.6938994E0,1.9434624E0,2.260836E2,2.1508138E0,5.923075E1,3.3369247E2],"tree_param":{"num_deleted":"8","num_feature":"31","num_nodes":"61","size_leaf_vector":"0"}},{"base_weights":[-3.0912867E-1,-5.1196086E-1,1.5979281E-1,-9.236668E-1,-3.0681813E-1,-5.458925E-2,5.387978E-1,-1.015945E0,-6.644476E-1,-9.508861E-1,-2.2933875E-1,-5.076906E-1,1.1251649E-1,4.4762856E-1,1.075144E0,-1.0591501E0,-8.1457347E-1,-1.2664492E-1,-8.025408E-1,-1.1311162E0,-6.3138425E-1,-4.4669425E-1,-6.1847623E-2,-8.6751294E-1,-3.8837197E-1,1.2509019E0,6.690374E-2,-1.6306263E-1,5.32001E-1,1.0910305E0,-0E0,-7.6998895E-1,-1.1001023E0,-8.2920206E-1,5.149261E-1,-8.791167E-1,6.8457747E-1,-1.8014793E-1,-8.7778586E-1,-1.1397645E0,-0E0,-7.400549E-1,5.364164E-1,-3.4847832E-1,-8.086172E-1,-5.323599E-1,4.620388E-2,-3.6044112E-1,-1.105733E0,-1.1907849E0,-2.9922011E-1,-6.0852454E-3,5.05315E-1,9.1225296E-1,-3.118061E-1,1.267439E-1,6.147164E-1,2.6717982E-1,1.1289041E0,-1.2545964E-1,2.142149E-1],"categories":[],"categories_nodes":[],"categories_segments":[],"categories_sizes":[],"default_left":[1,1,1,1,1,1,1,1,1,1,1,1,1,1,1,1,1,1,1,1,1,1,1,1,1,0,1,1,1,1,1,0,0,0,0,0,0,0,0,0,0,0,0,0,0,0,0,0,0,0,0,0,0,0,0,0,0,0,0,1,1],"id":10,"left_children":[1,3,5,7,9,11,13,15,17,19,21,23,25,27,29,31,33,35,37,39,41,43,45,47,49,-1,51,53,55,57,-1,-1,-1,-1,-1,-1,-1,-1,-1,-1,-1,-1,-1,-1,-1,-1,-1,-1,-1,-1,-1,-1,-1,-1,-1,-1,-1,-1,-1,-1,-1],"loss_changes":[8.806232E2,5.4360144E2,2.276334E2,4.7617188E1,2.1366092E2,1.3579106E2,4.64982E1,9.230469E0,4.1453857E1,2.26622E1,1.399326E2,1.8485443E1,6.622392E1,4.552591E1,1.9516907E0,1.0766235E1,7.3344116E0,7.676335E1,1.9790955E1,3.7520447E0,2.362645E1,5.7603943E1,1.1170305E2,1.1332123E1,2.3945751E1,0E0,4.0805374E1,1.7307777E1,2.4759583E1,2.0902863E0,2.6872838E-1,0E0,0E0,0E0,0E0,0E0,0E0,0E0,0E0,0E0,0E0,0E0,0E0,0E0,0E0,0E0,0E0,0E0,0E0,0E0,0E0,0E0,0E0,0E0,0E0,0E0,0E0,0E0,0E0,0E0,0E0],"parents":[2147483647,0,0,1,1,2,2,3,3,4,4,5,5,6,6,7,7,8,8,9,9,10,10,11,11,12,12,13,13,14,14,15,15,16,16,17,17,18,18,19,19,20,20,21,21,22,22,23,23,24,24,26,26,27,27,28,28,29,29,30,30],"right_children":[2,4,6,8,10,12,14,16,18,20,22,24,26,28,30,32,34,36,38,40,42,44,46,48,50,-1,52,54,56,58,-1,-1,-1,-1,-1,-1,-1,-1,-1,-1,-1,-1,-1,-1,-1,-1,-1,-1,-1,-1,-1,-1,-1,-1,-1,-1,-1,-1,-1,-1,-1],"split_conditions":[1.8402404E-1,-3.1086612E-1,1.1466717E0,-2.972997E-1,-5.882635E-1,-1.8681522E-1,2.8313048E0,-4.4936952E-1,-7.812657E-1,1.1101239E-1,2.2869503E-1,-8.1790906E-1,-5.882635E-1,-1.3849108E0,6.096535E-1,-1.1870508E0,3.9563518E0,-1.4389663E0,-1.1689851E0,1.230135E0,6.24333E-1,1.0274112E0,-9.9093354E-1,-4.5241535E-1,-1.8494816E0,1.250902E-1,1.4395115E0,-2.2518303E0,-8.3356595E-1,-1.8781362E0,-0E0,-7.69989E-2,-1.1001023E-1,-8.292021E-2,5.149261E-2,-8.791167E-2,6.8457745E-2,-1.8014794E-2,-8.777859E-2,-1.13976456E-1,-0E0,-7.400549E-2,5.3641643E-2,-3.4847833E-2,-8.086172E-2,-5.323599E-2,4.620388E-3,-3.6044113E-2,-1.1057331E-1,-1.19078495E-1,-2.9922012E-2,-6.0852454E-4,5.0531503E-2,9.1225296E-2,-3.118061E-2,1.267439E-2,6.147164E-2,2.6717981E-2,1.12890415E-1,-1.2545965E-2,2.142149E-2],"split_indices":[8,0,8,8,9,0,8,0,2,3,0,0,9,3,3,0,17,2,0,0,0,2,7,2,9,0,12,4,0,29,0,0,0,0,0,0,0,0,0,0,0,0,0,0,0,0,0,0,0,0,0,0,0,0,0,0,0,0,0,2147483647,2147483647],"split_type":[0,0,0,0,0,0,0,0,0,0,0,0,0,0,0,0,0,0,0,0,0,0,0,0,0,0,0,0,0,0,0,0,0,0,0,0,0,0,0,0,0,0,0,0,0,0,0,0,0,0,0,0,0,0,0,0,0,0,0,0,0],"sum_hessian":[9.249483E3,6.4579507E3,2.7915325E3,2.1425776E3,4.315373E3,1.7829475E3,1.008585E3,1.5707859E3,5.717918E2,4.5836517E2,3.8570078E3,4.8035406E2,1.3025934E3,8.683495E2,1.4023553E2,1.2786917E3,2.920943E2,1.1947813E2,4.5231372E2,2.861808E2,1.7218437E2,1.6738538E3,2.183154E3,1.12849075E2,3.67505E2,4.628302E1,1.2563104E3,1.03628914E2,7.647206E2,1.377342E2,2.5013292E0,1.6902682E2,1.1096648E3,2.9077594E2,1.3183569E0,6.249281E1,5.6985313E1,5.1316822E1,4.009969E2,2.8469714E2,1.4836371E0,1.593144E2,1.2869971E1,1.3233773E3,3.5047653E2,4.072501E2,1.7759039E3,3.982185E1,7.302723E1,3.1920116E1,3.3558487E2,1.0775857E3,1.7872467E2,9.90442E0,9.372449E1,1.3296352E2,6.31757E2,8.276022E0,1.2945818E2,1.0261788E0,1.4751502E0],"tree_param":{"num_deleted":"2","num_feature":"31","num_nodes":"61","size_leaf_vector":"0"}},{"base_weights":[-2.8542122E-1,-4.74511E-1,1.462117E-1,-8.809291E-1,-2.802702E-1,3.459825E-3,6.509476E-1,-9.756211E-1,-6.2174666E-1,-1.1627167E0,-2.260894E-1,2.5791633E-1,-2.2132783E-1,-5.6198883E-1,7.0710635E-1,-1.062648E0,-8.6084247E-1,-1.1629465E-1,-7.5461453E-1,-1.1663699E0,-0E0,-3.4841183E-1,3.9515402E-2,8.967525E-2,5.78891E-1,-6.5171105E-1,-8.706659E-2,-9.4597036E-1,-0E0,9.9889565E-1,5.360817E-1,-7.2528267E-1,-1.140396E0,-8.678647E-1,1.2111077E-1,-8.248638E-1,6.152117E-1,-1.645343E-1,-8.284242E-1,-0E0,-1.1698922E0,-8.081628E-1,-2.6649502E-1,-7.682286E-1,1.4000486E-1,9.182401E-1,2.4781117E-2,-1.3846831E-1,6.574541E-1,-7.310138E-1,-0E0,-6.1000332E-2,-1.150086E0,4.5298433E-1,-3.359868E-1,1.0287565E0,-5.8506167E-1,-1.8500391E-2,6.401969E-1],"categories":[],"categories_nodes":[],"categories_segments":[],"categories_sizes":[],"default_left":[1,1,1,1,1,1,1,1,1,1,1,1,1,1,1,1,1,1,1,1,1,1,1,1,1,1,1,0,1,1,1,0,0,0,0,0,0,0,0,1,1,0,0,0,0,0,0,0,0,0,0,0,0,0,0,0,0,0,0],"id":11,"left_children":[1,3,5,7,9,11,13,15,17,-1,21,23,25,27,29,31,33,35,37,-1,-1,41,43,45,47,49,51,-1,53,55,57,-1,-1,-1,-1,-1,-1,-1,-1,-1,-1,-1,-1,-1,-1,-1,-1,-1,-1,-1,-1,-1,-1,-1,-1,-1,-1,-1,-1],"loss_changes":[7.391608E2,4.9506946E2,1.9802377E2,4.647058E1,2.0176834E2,1.23421234E2,4.2642853E1,1.0122681E1,3.614029E1,4.1635132E-1,1.3107625E2,5.39252E1,6.515356E1,5.66477E0,2.5885925E1,1.7276611E1,5.6082153E0,6.426391E1,1.7647629E1,3.6712646E-1,0E0,1.0214096E2,1.0268799E2,3.5056263E1,2.0295998E1,1.3768684E1,2.2869709E1,0E0,2.6401787E0,1.2149445E1,2.2330841E1,0E0,0E0,0E0,0E0,0E0,0E0,0E0,0E0,0E0,0E0,0E0,0E0,0E0,0E0,0E0,0E0,0E0,0E0,0E0,0E0,0E0,0E0,0E0,0E0,0E0,0E0,0E0,0E0],"parents":[2147483647,0,0,1,1,2,2,3,3,4,4,5,5,6,6,7,7,8,8,9,9,10,10,11,11,12,12,13,13,14,14,15,15,16,16,17,17,18,18,19,19,21,21,22,22,23,23,24,24,25,25,26,26,28,28,29,29,30,30],"right_children":[2,4,6,8,10,12,14,16,18,-1,22,24,26,28,30,32,34,36,38,-1,-1,42,44,46,48,50,52,-1,54,56,58,-1,-1,-1,-1,-1,-1,-1,-1,-1,-1,-1,-1,-1,-1,-1,-1,-1,-1,-1,-1,-1,-1,-1,-1,-1,-1,-1,-1],"split_conditions":[1.8402404E-1,-3.1086612E-1,2.1093192E0,-2.972997E-1,-1.2599473E0,-2.8799015E-1,-1.0834743E0,-6.577268E-1,-7.812657E-1,-1.16271675E-1,4.767968E-1,4.442786E-1,-3.8433313E-1,-1.1355902E0,-1.0186353E0,-1.1870508E0,3.9563518E0,-1.4389663E0,-1.1689851E0,-1.1663699E-1,-0E0,-9.9093354E-1,-6.369492E-1,-5.882635E-1,-9.9093354E-1,1.3561491E0,6.847954E0,-9.4597034E-2,4.086017E-2,1.7315958E0,-6.324349E-1,-7.2528265E-2,-1.140396E-1,-8.678647E-2,1.2111077E-2,-8.248638E-2,6.1521173E-2,-1.645343E-2,-8.2842425E-2,-0E0,-1.1698922E-1,-8.0816284E-2,-2.6649503E-2,-7.682286E-2,1.4000486E-2,9.182401E-2,2.4781118E-3,-1.3846831E-2,6.5745406E-2,-7.310138E-2,-0E0,-6.1000334E-3,-1.1500861E-1,4.5298435E-2,-3.359868E-2,1.0287565E-1,-5.850617E-2,-1.8500391E-3,6.4019695E-2],"split_indices":[8,0,8,8,8,2,0,0,2,19,0,0,0,3,22,0,17,2,0,2147483647,2147483647,7,3,9,7,18,0,0,2,3,0,0,0,0,0,0,0,0,0,2147483647,2147483647,0,0,0,0,0,0,0,0,0,0,0,0,0,0,0,0,0,0],"split_type":[0,0,0,0,0,0,0,0,0,0,0,0,0,0,0,0,0,0,0,0,0,0,0,0,0,0,0,0,0,0,0,0,0,0,0,0,0,0,0,0,0,0,0,0,0,0,0,0,0,0,0,0,0,0,0,0,0,0,0],"sum_hessian":[9.046843E3,6.2923213E3,2.7545217E3,2.0297134E3,4.262608E3,2.1511304E3,6.033914E2,1.4776901E3,5.520233E2,2.4195949E2,4.0206484E3,1.0108587E3,1.1402716E3,2.471701E1,5.7867444E2,8.2140247E2,6.5628754E2,1.17642685E2,4.343806E2,2.4073349E2,1.2259983E0,2.7547822E3,1.265866E3,6.677871E2,3.430716E2,2.6661362E2,8.736579E2,1.311277E1,1.160424E1,2.0631178E2,3.7236267E2,1.6205557E2,6.593469E2,6.5298474E2,3.3027687E0,6.025816E1,5.738452E1,5.0876694E1,3.8350394E2,1.1972318E0,2.3953625E2,4.1073926E2,2.344043E3,1.3675224E2,1.1291138E3,4.451847E1,6.232687E2,3.238136E1,3.1069022E2,2.3705516E2,2.955846E1,8.5676215E2,1.6895761E1,4.0729403E0,7.5312996E0,2.0414609E2,2.1656907E0,5.7728275E1,3.1463437E2],"tree_param":{"num_deleted":"4","num_feature":"31","num_nodes":"59","size_leaf_vector":"0"}},{"base_weights":[-2.6349956E-1,-4.394152E-1,1.3360754E-1,-8.404339E-1,-2.5578648E-1,2.955323E-3,6.0935706E-1,-9.374438E-1,-5.818083E-1,-1.130714E0,-2.0540716E-1,2.3473425E-1,-2.0156172E-1,-5.255916E-1,6.6297036E-1,-9.864196E-1,-7.1829325E-1,-1.0687294E-1,-7.0945305E-1,-1.134649E0,-0E0,-3.1265074E-1,8.287662E-2,2.7081179E-2,4.606331E-1,-5.823806E-1,-7.084745E-2,-8.6548007E-1,-0E0,9.921068E-1,5.0699234E-1,-6.827944E-1,-1.0318933E0,-7.336589E-1,4.906121E-1,-7.745196E-1,5.540976E-1,-1.501851E-1,-7.81869E-1,-0E0,-1.1384753E0,-8.282541E-1,-2.760786E-1,-5.126882E-1,2.615901E-1,3.8692722E-1,-1.9095266E-1,-1.6270776E-1,5.3186643E-1,-1.0052671E0,-4.3899763E-1,-1.6461405E-1,2.0833093E-1,-9.4759345E-1,-0E0,-1.4644824E-1,3.5281485E-1,2.727072E-1,1.0840931E0,5.786699E-1,-0E0],"categories":[],"categories_nodes":[],"categories_segments":[],"categories_sizes":[],"default_left":[1,1,1,1,1,1,1,1,1,1,1,1,1,1,1,1,1,1,1,1,1,1,1,1,1,1,1,1,1,1,1,0,0,0,0,0,0,0,0,1,1,0,0,0,0,0,0,0,0,0,0,0,0,1,1,1,1,0,0,0,0],"id":12,"left_children":[1,3,5,7,9,11,13,15,17,-1,21,23,25,27,29,31,33,35,37,-1,-1,41,43,45,47,49,51,-1,-1,57,59,-1,-1,-1,-1,-1,-1,-1,-1,-1,-1,-1,-1,-1,-1,-1,-1,-1,-1,-1,-1,-1,-1,-1,-1,-1,-1,-1,-1,-1,-1],"loss_changes":[6.1919745E2,4.5041956E2,1.6842456E2,4.5154785E1,1.8387726E2,1.0153585E2,3.6735275E1,1.1116333E1,3.144815E1,5.6292725E-1,1.2375241E2,4.6665707E1,5.5735065E1,5.2021723E0,2.5746002E1,1.1724243E1,6.322174E0,5.390095E1,1.5735397E1,5.2056885E-1,0E0,5.31463E1,1.153638E2,4.1974903E1,2.1912994E1,1.4678268E1,2.23243E1,1.246151E0,9.2020416E-1,9.329559E0,1.4553291E1,0E0,0E0,0E0,0E0,0E0,0E0,0E0,0E0,0E0,0E0,0E0,0E0,0E0,0E0,0E0,0E0,0E0,0E0,0E0,0E0,0E0,0E0,0E0,0E0,0E0,0E0,0E0,0E0,0E0,0E0],"parents":[2147483647,0,0,1,1,2,2,3,3,4,4,5,5,6,6,7,7,8,8,9,9,10,10,11,11,12,12,13,13,14,14,15,15,16,16,17,17,18,18,19,19,21,21,22,22,23,23,24,24,25,25,26,26,27,27,28,28,29,29,30,30],"right_children":[2,4,6,8,10,12,14,16,18,-1,22,24,26,28,30,32,34,36,38,-1,-1,42,44,46,48,50,52,-1,-1,58,60,-1,-1,-1,-1,-1,-1,-1,-1,-1,-1,-1,-1,-1,-1,-1,-1,-1,-1,-1,-1,-1,-1,-1,-1,-1,-1,-1,-1,-1,-1],"split_conditions":[1.8402404E-1,-3.1086612E-1,2.1093192E0,-2.972997E-1,-1.2599473E0,-2.8799015E-1,-1.0834743E0,-4.4936952E-1,-7.812657E-1,-1.13071404E-1,5.10479E-1,1.9135933E-1,-3.373624E-1,-4.0881944E-1,-1.2641038E0,-1.1870508E0,3.9563518E0,-1.4389663E0,-1.1689851E0,-1.1346491E-1,-0E0,-8.862697E-1,-9.9093354E-1,-3.4114593E-1,-9.9093354E-1,-1.2641038E0,7.203088E-1,-8.654801E-2,-0E0,-1.2654419E0,1.0405918E0,-6.827944E-2,-1.0318933E-1,-7.336589E-2,4.906121E-2,-7.745197E-2,5.540976E-2,-1.501851E-2,-7.81869E-2,-0E0,-1.1384753E-1,-8.2825415E-2,-2.7607862E-2,-5.1268823E-2,2.6159009E-2,3.8692724E-2,-1.9095266E-2,-1.6270777E-2,5.3186644E-2,-1.0052671E-1,-4.3899763E-2,-1.6461406E-2,2.0833094E-2,-9.4759345E-2,-0E0,-1.4644824E-2,3.5281487E-2,2.727072E-2,1.0840931E-1,5.786699E-2,-0E0],"split_indices":[8,0,8,8,8,2,0,0,2,19,6,0,0,25,4,0,17,2,0,2147483647,2147483647,3,7,5,7,4,27,26,8,5,4,0,0,0,0,0,0,0,0,2147483647,2147483647,0,0,0,0,0,0,0,0,0,0,0,0,2147483647,2147483647,2147483647,2147483647,0,0,0,0],"split_type":[0,0,0,0,0,0,0,0,0,0,0,0,0,0,0,0,0,0,0,0,0,0,0,0,0,0,0,0,0,0,0,0,0,0,0,0,0,0,0,0,0,0,0,0,0,0,0,0,0,0,0,0,0,0,0,0,0,0,0,0,0],"sum_hessian":[8.853841E3,6.1372715E3,2.7165696E3,1.9225416E3,4.21473E3,2.1352886E3,5.812808E2,1.3895743E3,5.3296735E2,2.2489204E2,3.989838E3,1.00301697E3,1.1322717E3,2.4187597E1,5.5709326E2,1.1234412E3,2.6613312E2,1.1572573E2,4.1724164E2,2.2375137E2,1.1406738E0,2.9103738E3,1.079464E3,5.266712E2,4.7634573E2,2.8473044E2,8.4754126E2,1.3971569E1,1.0216028E1,1.7188918E2,3.8520407E2,1.5546263E2,9.679786E2,2.647743E2,1.3588222E0,5.8068382E1,5.765735E1,5.0472633E1,3.66769E2,1.1199232E0,2.2263145E2,1.8664993E2,2.7237239E3,2.4656874E2,8.328953E2,1.9956651E2,3.2710474E2,4.70177E1,4.2932806E2,6.576347E1,2.1896695E2,6.3805365E2,2.0948764E2,1.2545478E1,1.4260912E0,7.6602597E0,2.555768E0,2.2067839E1,1.4982133E2,3.3845053E2,4.6753517E1],"tree_param":{"num_deleted":"8","num_feature":"31","num_nodes":"61","size_leaf_vector":"0"}},{"base_weights":[-2.4304838E-1,-4.065833E-1,1.2214268E-1,-6.981116E-1,-1.6993657E-1,-4.8829153E-2,4.4019642E-1,-9.090724E-1,-5.479856E-1,-8.9310336E-1,-8.816455E-2,-4.2058387E-1,8.3316974E-2,3.5895148E-1,9.730569E-1,-4.8717645E-1,-1.005814E0,-6.811437E-1,-2.5752065E-1,-1.023178E0,-4.0202433E-1,-5.05914E-1,1.1304296E-3,-7.824778E-1,-3.0515712E-1,1.166892E0,4.447506E-2,1.9866571E-1,6.381974E-1,1.0999129E0,5.6158566E-1,1.882284E-1,-8.954728E-1,-1.0840912E0,-7.9270834E-1,-5.653496E-1,-8.5034883E-1,-3.461523E-1,3.4552127E-1,-1.0485508E0,-0E0,-5.793014E-1,1.5986332E-1,-7.24603E-1,2.4423164E-1,1.6859977E-1,-3.8152805E-1,-0E0,-8.97695E-1,-1.0834749E0,-2.259923E-1,-1.9809602E-2,4.9054393E-1,4.5505694E-1,-1.259089E-1,-7.5159915E-2,6.923981E-1,-0E0,1.1181244E0,1.0126216E0,-1.817647E-2],"categories":[],"categories_nodes":[],"categories_segments":[],"categories_sizes":[],"default_left":[1,1,1,1,1,1,1,1,1,1,1,1,1,1,1,1,1,1,1,1,1,1,1,1,1,0,1,1,1,1,1,0,0,0,0,0,0,0,0,0,0,0,0,0,0,0,0,0,0,0,0,0,0,0,0,0,0,0,0,0,0],"id":13,"left_children":[1,3,5,7,9,11,13,15,17,19,21,23,25,27,29,31,33,35,37,39,41,43,45,47,49,-1,51,53,55,57,59,-1,-1,-1,-1,-1,-1,-1,-1,-1,-1,-1,-1,-1,-1,-1,-1,-1,-1,-1,-1,-1,-1,-1,-1,-1,-1,-1,-1,-1,-1],"loss_changes":[5.1844336E2,4.1226654E2,1.4636404E2,8.20061E1,1.9475659E2,8.6204926E1,3.833394E1,4.2258667E1,5.9551544E1,1.8745514E1,1.117412E2,1.7423866E1,5.2862087E1,3.5592903E1,2.8032227E0,6.0341434E1,1.05008545E1,1.8253448E1,2.7247337E1,7.714691E0,8.339614E0,8.748508E1,1.5748506E2,1.0158752E1,1.9891258E1,0E0,3.628357E1,4.4533894E1,1.222879E1,2.2655106E0,1.0596608E1,0E0,0E0,0E0,0E0,0E0,0E0,0E0,0E0,0E0,0E0,0E0,0E0,0E0,0E0,0E0,0E0,0E0,0E0,0E0,0E0,0E0,0E0,0E0,0E0,0E0,0E0,0E0,0E0,0E0,0E0],"parents":[2147483647,0,0,1,1,2,2,3,3,4,4,5,5,6,6,7,7,8,8,9,9,10,10,11,11,12,12,13,13,14,14,15,15,16,16,17,17,18,18,19,19,20,20,21,21,22,22,23,23,24,24,26,26,27,27,28,28,29,29,30,30],"right_children":[2,4,6,8,10,12,14,16,18,20,22,24,26,28,30,32,34,36,38,40,42,44,46,48,50,-1,52,54,56,58,60,-1,-1,-1,-1,-1,-1,-1,-1,-1,-1,-1,-1,-1,-1,-1,-1,-1,-1,-1,-1,-1,-1,-1,-1,-1,-1,-1,-1,-1,-1],"split_conditions":[1.8402404E-1,-2.5428627E-2,1.1466717E0,-5.950992E-1,-8.862697E-1,-1.8681522E-1,2.8313048E0,-1.1689851E0,-2.972997E-1,5.10479E-1,-9.9093354E-1,-8.1790906E-1,-5.882635E-1,1.5161487E-1,-2.8799015E-1,-2.8799015E-1,-6.9747126E-1,5.341357E-1,8.527363E-1,1.2036387E0,4.213555E-1,7.7789116E-1,6.9856083E-1,-5.882635E-1,-1.8494816E0,1.16689205E-1,2.0284026E0,-2.2560894E-1,-9.9093354E-1,-1.0154269E0,-9.9093354E-1,1.882284E-2,-8.9547284E-2,-1.0840912E-1,-7.927083E-2,-5.6534957E-2,-8.5034885E-2,-3.461523E-2,3.4552127E-2,-1.0485508E-1,-0E0,-5.793014E-2,1.5986333E-2,-7.24603E-2,2.4423165E-2,1.6859977E-2,-3.8152806E-2,-0E0,-8.9769505E-2,-1.0834749E-1,-2.2599231E-2,-1.9809601E-3,4.9054395E-2,4.5505695E-2,-1.259089E-2,-7.5159916E-3,6.923981E-2,-0E0,1.11812435E-1,1.0126217E-1,-1.817647E-3],"split_indices":[8,0,8,0,3,0,8,0,8,6,7,0,9,0,2,2,0,2,5,0,22,0,2,9,9,0,10,5,7,0,7,0,0,0,0,0,0,0,0,0,0,0,0,0,0,0,0,0,0,0,0,0,0,0,0,0,0,0,0,0,0],"split_type":[0,0,0,0,0,0,0,0,0,0,0,0,0,0,0,0,0,0,0,0,0,0,0,0,0,0,0,0,0,0,0,0,0,0,0,0,0,0,0,0,0,0,0,0,0,0,0,0,0,0,0,0,0,0,0,0,0,0,0,0,0],"sum_hessian":[8.670762E3,5.9905522E3,2.6802097E3,2.679529E3,3.3110232E3,1.7427686E3,9.3744116E2,1.1049701E3,1.5745588E3,3.3209357E2,2.9789297E3,4.5730185E2,1.2854667E3,8.1940454E2,1.1803659E2,2.114161E2,8.93554E2,1.0744979E3,5.0006085E2,2.583707E2,7.3722855E1,5.24123E2,2.4548066E3,1.0429826E2,3.530036E2,4.057835E1,1.2448883E3,5.2612616E2,2.932784E2,8.45273E1,3.3509293E1,7.93398E1,1.3207631E2,6.4110986E2,2.5244415E2,6.4917444E2,4.2532352E2,4.385426E2,6.1518253E1,2.5289124E2,5.479472E0,5.7323788E1,1.639907E1,4.0692722E2,1.1719578E2,1.710502E3,7.4430457E2,1.3169295E1,9.112897E1,2.7910227E1,3.2509338E2,1.0886272E3,1.5626118E2,2.9498422E2,2.3114195E2,1.9324928E1,2.739535E2,1.0158957E0,8.35114E1,1.8557312E1,1.4951982E1],"tree_param":{"num_deleted":"0","num_feature":"31","num_nodes":"61","size_leaf_vector":"0"}},{"base_weights":[-2.2396302E-1,-4.6153453E-1,-2.4679864E-3,-7.592565E-1,-2.0200714E-1,-1.1070909E-1,4.065994E-1,-9.230409E-1,-5.784841E-1,-8.378065E-1,-6.5900564E-2,-4.5299697E-1,3.0045778E-2,3.28871E-1,9.4013643E-1,-6.108829E-1,-9.728891E-1,-4.4075146E-1,-7.824366E-1,-9.7488093E-1,-3.4112793E-1,-5.688415E-1,5.5209838E-2,-3.833205E-1,-1.0200478E0,1.1180557E0,1.1050516E-2,-5.9460465E-2,4.346386E-1,1.0714628E0,5.2939105E-1,1.7308043E-1,-8.865317E-1,-1.0802987E0,-8.3332413E-1,-8.523488E-1,-3.6800775E-1,-8.0197924E-1,-1.5689267E-1,-9.876097E-1,1.5735534E-1,-5.657414E-1,2.047819E-2,-7.5836736E-1,3.082413E-1,4.265199E-1,-1.7709193E-1,-6.185407E-1,-2.6620325E-1,2.0394815E-2,-1.0431029E0,1.132733E0,-0E0,-5.2122E-2,3.0664787E-1,-2.614053E-1,4.112664E-1,4.9156296E-1,-0E0,-0E0,1.0906898E0,9.8194844E-1,-1.664835E-2],"categories":[],"categories_nodes":[],"categories_segments":[],"categories_sizes":[],"default_left":[1,1,1,1,1,1,1,1,1,1,1,1,1,1,1,1,1,1,1,1,1,1,1,1,1,1,1,1,1,1,1,0,0,0,0,0,0,0,0,0,0,0,0,0,0,0,0,0,0,0,0,1,1,0,0,0,0,0,0,0,0,0,0],"id":14,"left_children":[1,3,5,7,9,11,13,15,17,19,21,23,25,27,29,31,33,35,37,39,41,43,45,47,49,-1,53,55,57,59,61,-1,-1,-1,-1,-1,-1,-1,-1,-1,-1,-1,-1,-1,-1,-1,-1,-1,-1,-1,-1,-1,-1,-1,-1,-1,-1,-1,-1,-1,-1,-1,-1],"loss_changes":[4.4695016E2,3.1539294E2,1.9490126E2,5.3350464E1,1.8901039E2,1.6850687E2,3.5977142E1,1.2075928E1,2.350998E1,2.3949066E1,1.11087425E2,3.7668884E1,4.992906E1,3.370909E1,2.8360138E0,3.304442E1,8.096863E0,1.452581E1,3.1007996E0,5.6074524E0,7.859667E0,5.9975044E1,1.2666043E2,2.3787216E1,3.6793137E0,5.0556183E-2,4.5750664E1,1.6707447E1,1.5686615E1,2.177719E0,9.748471E0,0E0,0E0,0E0,0E0,0E0,0E0,0E0,0E0,0E0,0E0,0E0,0E0,0E0,0E0,0E0,0E0,0E0,0E0,0E0,0E0,0E0,0E0,0E0,0E0,0E0,0E0,0E0,0E0,0E0,0E0,0E0,0E0],"parents":[2147483647,0,0,1,1,2,2,3,3,4,4,5,5,6,6,7,7,8,8,9,9,10,10,11,11,12,12,13,13,14,14,15,15,16,16,17,17,18,18,19,19,20,20,21,21,22,22,23,23,24,24,25,25,26,26,27,27,28,28,29,29,30,30],"right_children":[2,4,6,8,10,12,14,16,18,20,22,24,26,28,30,32,34,36,38,40,42,44,46,48,50,-1,54,56,58,60,62,-1,-1,-1,-1,-1,-1,-1,-1,-1,-1,-1,-1,-1,-1,-1,-1,-1,-1,-1,-1,-1,-1,-1,-1,-1,-1,-1,-1,-1,-1,-1,-1],"split_conditions":[-2.972997E-1,2.1542095E-2,1.1466717E0,-4.4936952E-1,-5.122889E-1,-2.0608526E-1,2.8313048E0,-1.1870508E0,5.341357E-1,5.10479E-1,-9.9093354E-1,1.3698341E0,-5.882635E-1,-1.01093E0,-2.8799015E-1,-6.168405E-1,-6.9747126E-1,-1.6033915E0,1.276372E0,3.065004E0,5.2865177E-2,8.194422E-1,-4.5241535E-1,-7.0108443E-1,-1.1232188E0,1.1180557E-1,8.0679625E-1,1.3287045E-1,6.9856083E-1,-1.0154269E0,-9.9093354E-1,1.7308043E-2,-8.865317E-2,-1.08029865E-1,-8.333241E-2,-8.523488E-2,-3.6800776E-2,-8.019792E-2,-1.5689267E-2,-9.876097E-2,1.5735535E-2,-5.6574143E-2,2.047819E-3,-7.583674E-2,3.082413E-2,4.2651992E-2,-1.7709194E-2,-6.1854072E-2,-2.6620327E-2,2.0394817E-3,-1.0431029E-1,1.132733E-1,-0E0,-5.2122003E-3,3.0664787E-2,-2.614053E-2,4.112664E-2,4.9156297E-2,-0E0,-0E0,1.0906898E-1,9.8194845E-2,-1.664835E-3],"split_indices":[8,0,8,0,3,0,8,0,2,6,7,4,9,3,2,2,0,2,5,0,4,0,2,0,0,0,0,26,2,0,7,0,0,0,0,0,0,0,0,0,0,0,0,0,0,0,0,0,0,0,0,2147483647,2147483647,0,0,0,0,0,0,0,0,0,0],"split_type":[0,0,0,0,0,0,0,0,0,0,0,0,0,0,0,0,0,0,0,0,0,0,0,0,0,0,0,0,0,0,0,0,0,0,0,0,0,0,0,0,0,0,0,0,0,0,0,0,0,0,0,0,0,0,0,0,0,0,0,0,0,0,0],"sum_hessian":[8.499659E3,4.097254E3,4.402405E3,1.9037266E3,2.193527E3,3.4849136E3,9.1749146E2,9.8942847E2,9.142981E2,3.827518E2,1.8107754E3,1.0156075E3,2.4693062E3,8.066919E2,1.1079952E2,1.4448196E2,8.449465E2,5.5433344E2,3.5996466E2,2.9612485E2,8.662695E1,3.508694E2,1.459906E3,9.105188E2,1.0508869E2,3.8489372E1,2.4308167E3,1.7093895E2,6.357529E2,7.845502E1,3.2344505E1,3.6932377E1,1.0754959E2,4.620021E2,3.829444E2,7.636241E1,4.7797104E2,3.46689E2,1.3275687E1,2.940851E2,2.0397274E0,5.40965E1,3.2530453E1,2.8979483E2,6.1074566E1,5.6254047E2,8.9736554E2,2.9554962E2,6.149692E2,1.3453909E0,1.037433E2,3.746055E1,1.0288259E0,2.0020449E3,4.2877173E2,1.2204099E2,4.8897957E1,5.6129895E2,7.4453995E1,1.0158957E0,7.743912E1,1.7378033E1,1.4966474E1],"tree_param":{"num_deleted":"2","num_feature":"31","num_nodes":"63","size_leaf_vector":"0"}},{"base_weights":[-2.063177E-1,-4.296572E-1,-2.020055E-3,-6.794206E-1,-1.430997E-1,-1.0058525E-1,3.7531987E-1,-8.832709E-1,-5.0542945E-1,-7.9237634E-1,-7.0447684E-3,-4.180884E-1,2.7308919E-2,3.0110168E-1,9.088689E-1,-5.7406926E-1,-9.315749E-1,-3.507703E-1,-6.8174297E-1,-9.4462305E-1,-2.7121776E-1,-4.717112E-1,1.0656722E-1,-3.5212722E-1,-9.7396266E-1,1.0837196E0,9.942602E-3,1.5263224E-1,5.677547E-1,6.486903E-2,9.549662E-1,2.6530143E-2,-9.1510993E-1,-1.0580608E0,-7.885838E-1,-7.197677E-1,-2.6818338E-1,-9.389284E-1,-6.181416E-1,-9.5979446E-1,1.5070547E-1,-5.573969E-1,1.7756884E-1,-7.307172E-1,1.1155344E-1,2.865107E-1,-3.564523E-1,-3.863498E-1,3.2985565E-1,1.975777E-2,-9.976867E-1,-3.1967506E-2,3.7301025E-1,3.9249945E-1,-1.4367041E-1,3.4743127E-1,7.925185E-1,4.4874486E-1,-1.639529E-1,9.772118E-1,-0E0],"categories":[],"categories_nodes":[],"categories_segments":[],"categories_sizes":[],"default_left":[1,1,1,1,1,1,1,1,1,1,1,1,1,1,1,1,1,1,1,1,1,1,1,1,1,0,1,1,1,1,1,0,0,0,0,0,0,0,0,0,0,0,0,0,0,0,0,0,0,0,0,0,0,0,0,0,0,1,1,0,0],"id":15,"left_children":[1,3,5,7,9,11,13,15,17,19,21,23,25,27,29,31,33,35,37,39,41,43,45,47,49,-1,51,53,55,-1,59,-1,-1,-1,-1,-1,-1,-1,-1,-1,-1,-1,-1,-1,-1,-1,-1,-1,-1,-1,-1,-1,-1,-1,-1,-1,-1,-1,-1,-1,-1],"loss_changes":[3.800684E2,2.83857E2,1.620228E2,7.263196E1,1.6348216E2,1.4100528E2,3.367446E1,1.1403687E1,2.977182E1,2.3478699E1,8.191965E1,3.4183777E1,4.4160316E1,3.0600311E1,2.9563828E0,3.0028938E1,1.0713196E1,1.7479584E1,5.436157E0,5.325485E0,1.0726408E1,4.697429E1,1.0352921E2,2.137703E1,3.4511337E0,0E0,3.7390194E1,3.7298687E1,1.1988251E1,1.3735695E0,2.202774E0,0E0,0E0,0E0,0E0,0E0,0E0,0E0,0E0,0E0,0E0,0E0,0E0,0E0,0E0,0E0,0E0,0E0,0E0,0E0,0E0,0E0,0E0,0E0,0E0,0E0,0E0,0E0,0E0,0E0,0E0],"parents":[2147483647,0,0,1,1,2,2,3,3,4,4,5,5,6,6,7,7,8,8,9,9,10,10,11,11,12,12,13,13,14,14,15,15,16,16,17,17,18,18,19,19,20,20,21,21,22,22,23,23,24,24,26,26,27,27,28,28,29,29,30,30],"right_children":[2,4,6,8,10,12,14,16,18,20,22,24,26,28,30,32,34,36,38,40,42,44,46,48,50,-1,52,54,56,-1,60,-1,-1,-1,-1,-1,-1,-1,-1,-1,-1,-1,-1,-1,-1,-1,-1,-1,-1,-1,-1,-1,-1,-1,-1,-1,-1,-1,-1,-1,-1],"split_conditions":[-2.972997E-1,1.5281925E-1,1.1466717E0,-4.228732E-1,-5.122889E-1,-2.0608526E-1,2.8313048E0,-1.1870508E0,3.697105E-1,5.10479E-1,-9.9093354E-1,1.3698341E0,-5.882635E-1,1.5161487E-1,-1.8781362E0,-2.8799015E-1,-6.9747126E-1,-9.9093354E-1,-7.786235E-1,3.065004E0,5.2865177E-2,6.8876725E-1,6.9856083E-1,2.4409723E0,-1.1232188E0,1.08371966E-1,2.0284026E0,-2.2560894E-1,3.9058834E-1,6.4869034E-3,6.096535E-1,2.6530144E-3,-9.1510996E-2,-1.05806075E-1,-7.885838E-2,-7.197677E-2,-2.6818339E-2,-9.389284E-2,-6.181416E-2,-9.5979445E-2,1.5070547E-2,-5.573969E-2,1.7756885E-2,-7.307172E-2,1.1155344E-2,2.8651072E-2,-3.5645228E-2,-3.8634982E-2,3.2985564E-2,1.975777E-3,-9.976867E-2,-3.1967505E-3,3.7301026E-2,3.9249945E-2,-1.4367041E-2,3.4743126E-2,7.925185E-2,4.4874486E-2,-1.6395291E-2,9.772118E-2,-0E0],"split_indices":[8,0,8,0,3,0,8,0,2,6,7,4,9,0,29,2,0,7,8,0,4,0,2,17,0,0,10,5,5,2,3,0,0,0,0,0,0,0,0,0,0,0,0,0,0,0,0,0,0,0,0,0,0,0,0,0,0,2147483647,2147483647,0,0],"split_type":[0,0,0,0,0,0,0,0,0,0,0,0,0,0,0,0,0,0,0,0,0,0,0,0,0,0,0,0,0,0,0,0,0,0,0,0,0,0,0,0,0,0,0,0,0,0,0,0,0,0,0,0,0,0,0,0,0,0,0,0,0],"sum_hessian":[8.336285E3,3.9786235E3,4.357661E3,2.1217256E3,1.8568978E3,3.4589873E3,8.986738E2,9.6874927E2,1.1529763E3,3.1791812E2,1.5389797E3,9.935258E2,2.4654614E3,7.946966E2,1.0397727E2,1.3891127E2,8.29838E2,6.220047E2,5.309717E2,2.4267015E2,7.524797E1,3.0222858E2,1.2367512E3,8.941263E2,9.939952E1,3.596364E1,2.4294978E3,5.1591064E2,2.7878595E2,6.8823566E0,9.709492E1,5.0250538E1,8.866073E1,4.2643423E2,4.0340378E2,1.0730644E2,5.1469824E2,9.397072E1,4.3700095E2,2.4062149E2,2.048664E0,4.6865383E1,2.8382591E1,2.0995256E2,9.227601E1,8.9300543E2,3.4374573E2,8.540367E2,4.0089607E1,1.3465651E0,9.8052956E1,2.1780588E3,2.5143906E2,2.8643365E2,2.2947697E2,1.468871E2,1.3189885E2,3.1256282E0,3.7567282E0,9.489629E1,2.1986227E0],"tree_param":{"num_deleted":"2","num_feature":"31","num_nodes":"61","size_leaf_vector":"0"}},{"base_weights":[-1.8986808E-1,-3.9973384E-1,-1.4542998E-3,-6.847629E-1,-1.6832453E-1,-6.695991E-2,4.7556993E-1,-8.614169E-1,-5.032544E-1,-8.718832E-1,-7.163995E-2,-3.1873298E-1,4.253837E-2,-5.665453E-1,5.315662E-1,-5.3933084E-1,-9.1632295E-1,-3.395863E-1,-6.597857E-1,-9.808788E-1,-3.0928987E-1,-4.9567235E-1,2.4758486E-2,-5.2733354E-2,-5.2804124E-1,-1.889205E-2,3.270164E-1,-7.341266E-1,2.41084E-1,8.551894E-1,3.630956E-1,2.3988172E-2,-8.7999296E-1,-1.0371593E0,-7.659424E-1,-7.879048E-1,-2.4174304E-1,-7.093452E-1,-3.812167E-1,-9.936629E-1,8.53848E-2,-5.230072E-1,4.0986046E-2,-6.548117E-1,3.3432922E-1,3.3613697E-1,-1.715499E-1,2.8074408E-1,-3.6082932E-1,-9.3620896E-1,-4.199046E-1,1.051251E0,-3.7497826E-2,5.108108E-1,-2.5051835E-1,-8.9428705E-1,-0E0,-0E0,3.2670847E-1,8.9186776E-1,-6.406615E-1,6.0587275E-1,1.4327529E-1],"categories":[],"categories_nodes":[],"categories_segments":[],"categories_sizes":[],"default_left":[1,1,1,1,1,1,1,1,1,1,1,1,1,1,1,1,1,1,1,1,1,1,1,1,1,1,1,1,1,1,1,0,0,0,0,0,0,0,0,0,0,0,0,0,0,0,0,0,0,0,0,0,0,0,0,0,0,1,1,0,0,0,0],"id":16,"left_children":[1,3,5,7,9,11,13,15,17,19,21,23,25,27,29,31,33,35,37,39,41,43,45,47,49,51,53,55,-1,59,61,-1,-1,-1,-1,-1,-1,-1,-1,-1,-1,-1,-1,-1,-1,-1,-1,-1,-1,-1,-1,-1,-1,-1,-1,-1,-1,-1,-1,-1,-1,-1,-1],"loss_changes":[3.2329944E2,2.5407324E2,1.3465147E2,5.284662E1,1.4457004E2,1.0513717E2,3.121453E1,1.2453613E1,2.0461151E1,1.3575378E1,7.766786E1,6.367031E1,4.6630493E1,4.686331E0,2.48909E1,2.7153397E1,9.199768E0,1.7332466E1,4.1075287E0,4.0614166E0,4.1114507E0,4.7433464E1,9.440766E1,5.3223244E1,2.5899673E1,4.2490646E1,5.0916355E1,3.0515451E0,1.654428E-1,1.1048416E1,1.6784042E1,0E0,0E0,0E0,0E0,0E0,0E0,0E0,0E0,0E0,0E0,0E0,0E0,0E0,0E0,0E0,0E0,0E0,0E0,0E0,0E0,0E0,0E0,0E0,0E0,0E0,0E0,0E0,0E0,0E0,0E0,0E0,0E0],"parents":[2147483647,0,0,1,1,2,2,3,3,4,4,5,5,6,6,7,7,8,8,9,9,10,10,11,11,12,12,13,13,14,14,15,15,16,16,17,17,18,18,19,19,20,20,21,21,22,22,23,23,24,24,25,25,26,26,27,27,28,28,29,29,30,30],"right_children":[2,4,6,8,10,12,14,16,18,20,22,24,26,28,30,32,34,36,38,40,42,44,46,48,50,52,54,56,-1,60,62,-1,-1,-1,-1,-1,-1,-1,-1,-1,-1,-1,-1,-1,-1,-1,-1,-1,-1,-1,-1,-1,-1,-1,-1,-1,-1,-1,-1,-1,-1,-1,-1],"split_conditions":[-2.972997E-1,2.1542095E-2,2.1093192E0,-4.4936952E-1,-7.6160944E-1,-2.0608526E-1,-1.0834743E0,-1.1870508E0,2.0528533E-1,5.2865177E-2,-9.9093354E-1,-2.2560894E-1,8.0679625E-1,2.8313048E0,-1.0186353E0,-2.8799015E-1,-6.9747126E-1,-1.6033915E0,3.52076E-1,4.04095E0,5.10479E-1,8.736392E-1,-4.5241535E-1,-2.8799015E-1,-8.215222E-1,-5.882635E-1,1.3035636E0,7.669512E-1,2.41084E-2,1.7315958E0,-2.7469516E-1,2.3988173E-3,-8.79993E-2,-1.03715934E-1,-7.659424E-2,-7.879048E-2,-2.4174305E-2,-7.093453E-2,-3.812167E-2,-9.936629E-2,8.53848E-3,-5.230072E-2,4.098605E-3,-6.548117E-2,3.3432923E-2,3.3613697E-2,-1.715499E-2,2.8074408E-2,-3.6082935E-2,-9.36209E-2,-4.199046E-2,1.0512511E-1,-3.7497827E-3,5.108108E-2,-2.5051836E-2,-8.942871E-2,-0E0,-0E0,3.2670848E-2,8.918678E-2,-6.406615E-2,6.0587276E-2,1.4327529E-2],"split_indices":[8,0,8,0,3,0,0,0,2,4,7,5,0,8,22,2,0,2,5,19,6,0,2,2,0,9,9,22,25,3,24,0,0,0,0,0,0,0,0,0,0,0,0,0,0,0,0,0,0,0,0,0,0,0,0,0,0,2147483647,2147483647,0,0,0,0],"split_type":[0,0,0,0,0,0,0,0,0,0,0,0,0,0,0,0,0,0,0,0,0,0,0,0,0,0,0,0,0,0,0,0,0,0,0,0,0,0,0,0,0,0,0,0,0,0,0,0,0,0,0,0,0,0,0,0,0,0,0,0,0,0,0],"sum_hessian":[8.183375E3,3.8672E3,4.316175E3,1.7282721E3,2.1389277E3,3.7991465E3,5.170287E2,8.6736127E2,8.609108E2,2.5426736E2,1.8846605E3,1.1525195E3,2.6466267E3,2.4059507E1,4.9296918E2,1.3370595E2,7.336553E2,4.286323E2,4.3227856E2,2.0964354E2,4.4623825E1,3.4871204E2,1.5359484E3,5.112855E2,6.412341E2,2.1760208E3,4.706061E2,2.1176626E1,2.882881E0,1.6255164E2,3.3041754E2,5.0331326E1,8.3374626E1,3.9329095E2,3.4036435E2,7.11668E1,3.5746548E2,3.600024E2,7.227615E1,2.0828836E2,1.3551816E0,2.8568531E1,1.6055294E1,2.9415134E2,5.4560722E1,5.9505194E2,9.408964E2,2.4409843E2,2.6718707E2,1.2755405E2,5.1368005E2,3.3422417E1,2.1425984E3,3.5857233E2,1.12033775E2,1.7107977E1,4.0686502E0,1.1295357E0,1.7533453E0,1.604961E2,2.055543E0,1.5234483E2,1.780727E2],"tree_param":{"num_deleted":"2","num_feature":"31","num_nodes":"63","size_leaf_vector":"0"}},{"base_weights":[-1.747417E-1,-3.715207E-1,-1.238016E-3,-7.842622E-1,-2.2037207E-1,-8.507415E-2,3.2807946E-1,-8.859672E-1,-6.552481E-1,-1.0336028E0,-1.6604689E-1,-3.6531866E-1,1.9228566E-2,2.607545E-1,8.517414E-1,-5.0620836E-1,-9.961733E-1,-5.615574E-1,-8.831249E-1,-1.1031674E0,-5.4258674E-1,-3.3668146E-1,-1.2525555E-2,-3.0052897E-1,-9.279577E-1,1.0219834E0,4.80599E-3,-2.1747066E-1,3.322071E-1,1.0062991E0,4.078608E-1,1.5038522E-1,-7.8193265E-1,9.633259E-2,-1.0029137E0,-5.7505953E-1,4.5003572E-1,-9.07135E-1,-0E0,-7.257899E-1,-0E0,-2.1870711E-1,-5.296456E-1,-6.020919E-1,4.3511204E-2,-2.540062E-1,-8.949688E-1,-1.0082712E0,-1.840847E-1,1.0411457E0,-0E0,-5.128831E-2,2.5627467E-1,-3.897742E-1,4.8349282E-1,-2.6929699E-2,4.0165773E-1,-0E0,1.0295932E0,9.076953E-1,-1.2025489E-1],"categories":[],"categories_nodes":[],"categories_segments":[],"categories_sizes":[],"default_left":[1,1,1,1,1,1,1,1,1,1,1,1,1,1,1,1,1,1,1,0,1,1,1,1,1,1,1,1,1,1,1,0,0,0,0,0,0,0,0,0,0,0,0,0,0,0,0,0,0,1,1,0,0,0,0,0,0,1,1,0,0],"id":17,"left_children":[1,3,5,7,9,11,13,15,17,19,21,23,25,27,29,31,33,35,37,-1,39,41,43,45,47,-1,51,53,55,-1,59,-1,-1,-1,-1,-1,-1,-1,-1,-1,-1,-1,-1,-1,-1,-1,-1,-1,-1,-1,-1,-1,-1,-1,-1,-1,-1,-1,-1,-1,-1],"loss_changes":[2.741951E2,2.333913E2,1.1799129E2,9.922485E0,1.203141E2,1.0021457E2,2.8772835E1,1.9999176E1,6.8776245E0,2.407486E0,6.75884E1,3.1809402E1,3.4964294E1,2.6775036E1,3.9203568E0,2.4850334E1,4.297241E0,5.503891E0,2.0191727E0,0E0,3.495843E0,2.6797516E1,4.5952168E1,2.1380798E1,3.8025436E0,2.5808334E-1,3.4921497E1,1.2620691E1,1.72752E1,1.9676895E0,9.412297E0,0E0,0E0,0E0,0E0,0E0,0E0,0E0,0E0,0E0,0E0,0E0,0E0,0E0,0E0,0E0,0E0,0E0,0E0,0E0,0E0,0E0,0E0,0E0,0E0,0E0,0E0,0E0,0E0,0E0,0E0],"parents":[2147483647,0,0,1,1,2,2,3,3,4,4,5,5,6,6,7,7,8,8,9,9,10,10,11,11,12,12,13,13,14,14,15,15,16,16,17,17,18,18,20,20,21,21,22,22,23,23,24,24,25,25,26,26,27,27,28,28,29,29,30,30],"right_children":[2,4,6,8,10,12,14,16,18,20,22,24,26,28,30,32,34,36,38,-1,40,42,44,46,48,-1,52,54,56,-1,60,-1,-1,-1,-1,-1,-1,-1,-1,-1,-1,-1,-1,-1,-1,-1,-1,-1,-1,-1,-1,-1,-1,-1,-1,-1,-1,-1,-1,-1,-1],"split_conditions":[-2.972997E-1,-3.3013615E-1,1.1466717E0,-6.577268E-1,-1.2599473E0,-2.2294654E-1,2.8313048E0,-1.1870508E0,8.6298597E-1,6.460118E-1,2.744614E-1,1.3698341E0,-5.882635E-1,-1.3849108E0,-2.8799015E-1,-6.168405E-1,-1.9225881E0,3.9563518E0,2.427166E0,-1.10316746E-1,5.2088E-1,5.341357E-1,-6.369492E-1,1.9695938E0,5.10479E-1,1.0219834E-1,1.4395115E0,5.774033E-1,-8.636754E-1,1.0062992E-1,-9.9093354E-1,1.5038522E-2,-7.819327E-2,9.633259E-3,-1.0029137E-1,-5.7505954E-2,4.5003574E-2,-9.07135E-2,-0E0,-7.257899E-2,-0E0,-2.1870712E-2,-5.2964564E-2,-6.0209192E-2,4.3511204E-3,-2.5400622E-2,-8.949688E-2,-1.0082712E-1,-1.840847E-2,1.0411457E-1,-0E0,-5.128831E-3,2.5627468E-2,-3.897742E-2,4.8349284E-2,-2.69297E-3,4.0165775E-2,-0E0,1.0295933E-1,9.076953E-2,-1.20254895E-2],"split_indices":[8,0,8,0,8,0,8,0,2,0,0,4,9,3,2,2,4,17,26,0,24,2,3,5,6,0,12,26,0,0,7,0,0,0,0,0,0,0,0,0,0,0,0,0,0,0,0,0,0,2147483647,2147483647,0,0,0,0,0,0,2147483647,2147483647,0,0],"split_type":[0,0,0,0,0,0,0,0,0,0,0,0,0,0,0,0,0,0,0,0,0,0,0,0,0,0,0,0,0,0,0,0,0,0,0,0,0,0,0,0,0,0,0,0,0,0,0,0,0,0,0,0,0,0,0,0,0,0,0,0,0],"sum_hessian":[8.0390093E3,3.7625408E3,4.2764683E3,1.0033932E3,2.7591477E3,3.4128916E3,8.635768E2,5.46903E2,4.5649017E2,1.6823509E2,2.5909126E3,9.262603E2,2.4866313E3,7.708725E2,9.270426E1,1.2882817E2,4.1807486E2,3.3396353E2,1.2252665E2,1.422983E2,2.5936787E1,1.2222849E3,1.3686276E3,8.363336E2,8.9926704E1,3.1303242E1,2.4553281E3,9.758952E1,6.7328296E2,6.427123E1,2.8433033E1,3.743045E1,9.139772E1,1.4093527E0,4.166655E2,3.3181775E2,2.145765E0,1.1842343E2,4.1032124E0,1.9808474E1,6.1283126E0,7.657212E2,4.5656375E2,1.17805016E2,1.2508225E3,7.8116156E2,5.5172035E1,7.898802E1,1.0938689E1,3.0290249E1,1.0129933E0,2.006219E3,4.491092E2,8.05484E1,1.7041126E1,1.0706681E2,5.662162E2,1.1533283E0,6.3117905E1,1.4472677E1,1.3960357E1],"tree_param":{"num_deleted":"4","num_feature":"31","num_nodes":"61","size_leaf_vector":"0"}},{"base_weights":[-1.6051611E-1,-2.7860343E-1,8.9570746E-2,-6.380537E-1,-1.5291177E-1,2.3651722E-1,-8.7522864E-2,-7.5217986E-1,-3.8749105E-1,-1.010991E0,-1.1704418E-1,6.6048485E-1,1.5831025E-1,-6.9988227E-1,-1.1128769E-2,-8.587349E-1,-6.203194E-1,7.7293985E-2,-5.308802E-1,-1.0845158E0,-5.132725E-1,-2.0676883E-1,7.059174E-2,7.5997066E-1,-2.234407E-1,8.277096E-3,3.4385505E-1,-2.9730272E-2,-8.060325E-1,-8.0169976E-2,6.866889E-1,-4.7419336E-1,-9.753699E-1,-5.2674335E-1,-8.536815E-1,-6.0643685E-1,6.733137E-1,-0E0,-6.1357874E-1,-6.972469E-1,-0E0,-1.1978404E-1,-4.6430618E-1,-3.7339064E-1,1.7366637E-1,2.2483575E-1,8.739209E-1,-7.5363696E-1,2.69385E-1,4.5003957E-1,-5.065531E-2,-2.2444952E-1,4.19613E-1,4.4090375E-1,-3.3048257E-1,-3.292584E-1,-9.67224E-1,4.2765513E-1,-1.3244565E-1,8.1912833E-1,-0E0],"categories":[],"categories_nodes":[],"categories_segments":[],"categories_sizes":[],"default_left":[1,1,1,1,1,1,1,1,1,1,1,1,1,1,1,1,1,1,1,0,1,1,1,1,1,1,1,1,1,1,1,0,0,0,0,0,0,0,0,0,0,0,0,0,0,0,0,0,0,0,0,0,0,0,0,0,0,0,0,0,0],"id":18,"left_children":[1,3,5,7,9,11,13,15,17,19,21,23,25,27,29,31,33,35,37,-1,39,41,43,45,47,49,51,53,55,57,59,-1,-1,-1,-1,-1,-1,-1,-1,-1,-1,-1,-1,-1,-1,-1,-1,-1,-1,-1,-1,-1,-1,-1,-1,-1,-1,-1,-1,-1,-1],"loss_changes":[2.3398328E2,2.4194736E2,6.625554E1,3.775244E1,1.2136549E2,4.498597E1,5.3063164E1,1.0264099E1,3.0175072E1,2.5376434E0,6.475951E1,1.9836327E1,3.2494286E1,8.059353E0,4.9034863E1,2.0178314E1,6.865143E0,4.4360054E1,1.53116455E1,0E0,3.2262964E0,5.7479828E1,5.671953E1,1.0126984E1,7.08164E0,1.7614204E1,2.3064114E1,3.3896344E0,6.003067E0,2.4788351E1,8.245499E0,0E0,0E0,0E0,0E0,0E0,0E0,0E0,0E0,0E0,0E0,0E0,0E0,0E0,0E0,0E0,0E0,0E0,0E0,0E0,0E0,0E0,0E0,0E0,0E0,0E0,0E0,0E0,0E0,0E0,0E0],"parents":[2147483647,0,0,1,1,2,2,3,3,4,4,5,5,6,6,7,7,8,8,9,9,10,10,11,11,12,12,13,13,14,14,15,15,16,16,17,17,18,18,20,20,21,21,22,22,23,23,24,24,25,25,26,26,27,27,28,28,29,29,30,30],"right_children":[2,4,6,8,10,12,14,16,18,20,22,24,26,28,30,32,34,36,38,-1,40,42,44,46,48,50,52,54,56,58,60,-1,-1,-1,-1,-1,-1,-1,-1,-1,-1,-1,-1,-1,-1,-1,-1,-1,-1,-1,-1,-1,-1,-1,-1,-1,-1,-1,-1,-1,-1],"split_conditions":[1.8402404E-1,-3.2893175E-1,4.086017E-2,-2.972997E-1,-1.2599473E0,-1.2641038E0,-7.2276324E-1,-6.577268E-1,-7.812657E-1,6.460118E-1,4.767968E-1,1.8925692E0,2.3953444E-1,2.0528533E-1,2.1093192E0,-1.1870508E0,8.6298597E-1,-1.4389663E0,-1.1689851E0,-1.0845158E-1,5.2088E-1,8.6298597E-1,-2.6296842E-1,-1.1386998E0,-5.186212E-1,-1.1113925E0,-9.9093354E-1,-1.0921364E0,-1.1111751E0,-9.188309E-1,1.2198274E0,-4.7419336E-2,-9.753699E-2,-5.2674334E-2,-8.536815E-2,-6.0643684E-2,6.7331366E-2,-0E0,-6.1357874E-2,-6.9724694E-2,-0E0,-1.1978405E-2,-4.6430618E-2,-3.7339065E-2,1.7366638E-2,2.2483576E-2,8.739209E-2,-7.5363696E-2,2.6938502E-2,4.5003958E-2,-5.065531E-3,-2.2444952E-2,4.19613E-2,4.4090375E-2,-3.3048257E-2,-3.292584E-2,-9.67224E-2,4.2765513E-2,-1.3244565E-2,8.191284E-2,-0E0],"split_indices":[8,0,2,8,8,4,0,0,2,0,0,5,0,2,8,0,2,2,0,0,24,2,3,1,0,5,7,5,0,5,25,0,0,0,0,0,0,0,0,0,0,0,0,0,0,0,0,0,0,0,0,0,0,0,0,0,0,0,0,0,0],"split_type":[0,0,0,0,0,0,0,0,0,0,0,0,0,0,0,0,0,0,0,0,0,0,0,0,0,0,0,0,0,0,0,0,0,0,0,0,0,0,0,0,0,0,0,0,0,0,0,0,0,0,0,0,0,0,0,0,0,0,0,0,0],"sum_hessian":[7.9110815E3,5.3761836E3,2.5348982E3,1.3876443E3,3.9885393E3,1.3879023E3,1.1469958E3,9.4652484E2,4.4111942E2,1.5564001E2,3.8328992E3,2.1067732E2,1.177225E3,1.23053085E2,1.02394275E3,5.1015363E2,4.3637122E2,1.0268444E2,3.3843497E2,1.3077531E2,2.4864697E1,2.5963755E3,1.2365237E3,1.9075937E2,1.9917953E1,6.556135E2,5.2161145E2,1.8639328E1,1.0441376E2,9.3547626E2,8.846647E1,1.2425609E2,3.8589755E2,3.215067E2,1.1486452E2,4.701752E1,5.5666924E1,4.5164543E1,2.9327042E2,1.8736383E1,6.1283126E0,1.9470321E3,6.4934344E2,2.2967126E2,1.0068525E3,3.6595264E1,1.5416411E2,9.80785E0,1.0110104E1,7.682036E1,5.7879315E2,5.9109394E1,4.6250208E2,5.4257717E0,1.3213555E1,3.0255495E1,7.4158264E1,8.3514465E1,8.519618E2,7.356922E1,1.48972435E1],"tree_param":{"num_deleted":"0","num_feature":"31","num_nodes":"61","size_leaf_vector":"0"}},{"base_weights":[-1.4740473E-1,-2.5353524E-1,9.5541134E-2,-5.48461E-1,-1.4288263E-1,-3.513498E-3,3.832654E-1,-7.7137613E-1,-3.2401374E-1,-1.0364225E0,-1.1294685E-1,-3.7902063E-1,5.5194825E-2,-1.07710995E-1,5.2357876E-1,-8.9449894E-1,-6.1292005E-1,-2.2902617E-1,-8.6819476E-1,-1.0428009E0,-0E0,-1.4192803E-1,7.341684E-1,-5.404557E-1,3.142321E-1,-9.723818E-1,7.161807E-2,-3.0118677E-1,4.0091458E-1,6.5412E-1,2.3030892E-1,-5.910617E-1,-9.682141E-1,-6.468158E-1,3.197884E-2,-3.3638427E-1,1.5023896E-1,-9.160305E-1,1.4710076E-1,-5.036169E-1,-1.17744274E-1,8.0346197E-1,7.987311E-2,-5.914478E-1,4.374796E-1,8.945851E-1,-1.2874512E-1,-1.00737E0,-0E0,9.027207E-2,-7.687985E-1,-3.791931E-1,4.0072262E-1,7.469765E-1,-0E0,7.416739E-1,2.3044413E-1,-1.941314E-1,4.3601912E-1],"categories":[],"categories_nodes":[],"categories_segments":[],"categories_sizes":[],"default_left":[1,1,1,1,1,1,1,1,1,1,1,1,1,1,1,1,1,1,1,1,1,1,1,1,1,1,1,1,1,1,1,0,0,0,0,0,0,0,0,0,0,0,0,0,0,0,0,1,1,0,0,0,0,0,0,0,0,0,0],"id":19,"left_children":[1,3,5,7,9,11,13,15,17,-1,21,23,25,27,29,31,33,35,37,-1,-1,39,41,43,45,-1,49,51,53,55,57,-1,-1,-1,-1,-1,-1,-1,-1,-1,-1,-1,-1,-1,-1,-1,-1,-1,-1,-1,-1,-1,-1,-1,-1,-1,-1,-1,-1],"loss_changes":[2.011129E2,1.7614575E2,6.787343E1,7.204416E1,1.0421422E2,3.922959E1,4.2544E1,1.1217224E1,3.6727257E1,4.94812E-1,9.371071E1,2.7697277E1,2.5028162E1,1.36732E1,1.6878616E1,5.7693787E0,8.002731E0,2.6334389E1,6.4097977E0,0E0,0E0,3.1612534E1,4.636322E0,1.0787903E1,1.2996479E1,4.6647835E-1,2.3105299E1,6.0115957E0,5.6944094E0,1.0580032E1,1.3901751E1,0E0,0E0,0E0,0E0,0E0,0E0,0E0,0E0,0E0,0E0,0E0,0E0,0E0,0E0,0E0,0E0,0E0,0E0,0E0,0E0,0E0,0E0,0E0,0E0,0E0,0E0,0E0,0E0],"parents":[2147483647,0,0,1,1,2,2,3,3,4,4,5,5,6,6,7,7,8,8,9,9,10,10,11,11,12,12,13,13,14,14,15,15,16,16,17,17,18,18,21,21,22,22,23,23,24,24,25,25,26,26,27,27,28,28,29,29,30,30],"right_children":[2,4,6,8,10,12,14,16,18,-1,22,24,26,28,30,32,34,36,38,-1,-1,40,42,44,46,-1,50,52,54,56,58,-1,-1,-1,-1,-1,-1,-1,-1,-1,-1,-1,-1,-1,-1,-1,-1,-1,-1,-1,-1,-1,-1,-1,-1,-1,-1,-1,-1],"split_conditions":[5.10479E-1,-3.2531863E-1,5.8278203E-1,-2.972997E-1,-1.2599473E0,-9.9093354E-1,-9.9093354E-1,-6.468874E-1,1.0405918E0,-1.0364225E-1,2.1093192E0,1.1466717E0,-1.2599473E0,7.9489726E-1,-6.168405E-1,-1.1870508E0,9.2976093E-1,1.6279954E0,1.3148842E0,-1.0428009E-1,-0E0,-5.882635E-1,1.0405918E0,1.2037408E0,-7.812657E-1,-9.7238176E-2,1.7315958E0,2.512797E0,1.0978827E0,9.2976093E-1,-6.0561925E-1,-5.910617E-2,-9.682141E-2,-6.468158E-2,3.197884E-3,-3.363843E-2,1.50238965E-2,-9.1603056E-2,1.4710076E-2,-5.0361693E-2,-1.1774427E-2,8.03462E-2,7.987311E-3,-5.9144776E-2,4.3747958E-2,8.945851E-2,-1.2874513E-2,-1.00737E-1,-0E0,9.027207E-3,-7.687985E-2,-3.791931E-2,4.0072262E-2,7.469765E-2,-0E0,7.416739E-2,2.3044413E-2,-1.9413142E-2,4.360191E-2],"split_indices":[6,0,0,8,8,7,7,0,4,3,8,8,8,19,2,0,5,8,5,2147483647,2147483647,9,4,29,2,19,3,0,21,5,4,0,0,0,0,0,0,0,0,0,0,0,0,0,0,0,0,2147483647,2147483647,0,0,0,0,0,0,0,0,0,0],"split_type":[0,0,0,0,0,0,0,0,0,0,0,0,0,0,0,0,0,0,0,0,0,0,0,0,0,0,0,0,0,0,0,0,0,0,0,0,0,0,0,0,0,0,0,0,0,0,0,0,0,0,0,0,0,0,0,0,0,0,0],"sum_hessian":[7.7879746E3,5.422952E3,2.3650225E3,1.4738219E3,3.9491301E3,1.7589558E3,6.0606665E2,7.3353186E2,7.4029004E2,1.23664116E2,3.825466E3,2.3791048E2,1.5210453E3,1.3327806E2,4.727886E2,4.013953E2,3.321366E2,6.354683E2,1.048217E2,1.2257438E2,1.0897324E0,3.7024763E3,1.22989815E2,1.9467984E2,4.323064E1,2.0222822E1,1.5008225E3,9.886172E1,3.441634E1,3.222476E2,1.5054103E2,8.639275E1,3.1500253E2,3.1701602E2,1.5120557E1,4.9759158E2,1.3787677E2,1.0132596E2,3.495737E0,2.2572595E2,3.4767502E3,1.092114E2,1.3778409E1,1.8713055E2,7.5492845E0,1.8366863E1,2.4863775E1,1.9097355E1,1.1254687E0,1.472017E3,2.8805449E1,9.1497215E1,7.3644996E0,1.7983833E1,1.6432505E1,2.632369E2,5.901066E1,4.761174E1,1.0292929E2],"tree_param":{"num_deleted":"4","num_feature":"31","num_nodes":"59","size_leaf_vector":"0"}},{"base_weights":[-1.3494988E-1,-3.007132E-1,4.9990127E-3,-7.163617E-1,-1.8076612E-1,-5.989549E-2,2.6867488E-1,-4.046316E-1,-7.6689005E-1,-9.722435E-1,-1.379445E-1,-2.9182395E-1,2.2269847E-2,2.0761019E-1,7.8942347E-1,1.2543495E-1,-7.733584E-1,-9.647278E-1,-6.0801864E-1,-1.0540702E0,-4.531509E-1,-3.2851487E-1,-2.5678558E-2,-2.326157E-1,-8.484401E-1,3.325449E-2,-1.2592319E0,-1.0112142E-1,2.9743257E-1,9.6201503E-1,3.2622793E-1,-8.423243E-1,6.38644E-1,-8.704451E-1,-0E0,-9.677018E-1,-0E0,-5.205244E-1,-9.074571E-1,-6.4508563E-1,1.5441759E-2,-2.2740614E-1,-4.9659055E-1,-3.7643257E-1,5.127264E-2,-4.615805E-1,-1.1985784E-1,-9.020069E-1,-0E0,-1.9366339E-2,2.984761E-1,-1.1723732E0,-1.1439569E-2,9.323912E-1,2.5082624E-1,-0E0,9.893772E-1,8.538877E-1,-1.6902311E-1],"categories":[],"categories_nodes":[],"categories_segments":[],"categories_sizes":[],"default_left":[1,1,1,1,1,1,1,1,1,1,1,1,1,1,1,1,1,1,1,0,1,1,1,1,1,1,0,1,1,1,1,0,0,0,0,1,1,0,0,0,0,0,0,0,0,0,0,0,0,0,0,0,0,0,0,0,0,0,0],"id":20,"left_children":[1,3,5,7,9,11,13,15,17,19,21,23,25,27,29,31,33,-1,37,-1,39,41,43,45,47,49,-1,51,53,55,57,-1,-1,-1,-1,-1,-1,-1,-1,-1,-1,-1,-1,-1,-1,-1,-1,-1,-1,-1,-1,-1,-1,-1,-1,-1,-1,-1,-1],"loss_changes":[1.7859253E2,1.7428705E2,7.1558E1,1.0274658E1,9.131253E1,6.4001595E1,2.4796116E1,2.4141592E1,1.7728455E1,2.9588013E0,5.5309288E1,2.7262497E1,3.364625E1,2.0963295E1,4.4827614E0,2.6328114E1,5.70253E0,5.864258E-1,7.1775055E0,0E0,2.983333E0,1.5275055E1,4.4770973E1,1.9889675E1,3.3036957E0,3.4504036E1,0E0,1.4893957E1,1.5304272E1,2.05505E0,8.671565E0,0E0,0E0,0E0,0E0,0E0,0E0,0E0,0E0,0E0,0E0,0E0,0E0,0E0,0E0,0E0,0E0,0E0,0E0,0E0,0E0,0E0,0E0,0E0,0E0,0E0,0E0,0E0,0E0],"parents":[2147483647,0,0,1,1,2,2,3,3,4,4,5,5,6,6,7,7,8,8,9,9,10,10,11,11,12,12,13,13,14,14,15,15,16,16,17,17,18,18,20,20,21,21,22,22,23,23,24,24,25,25,27,27,28,28,29,29,30,30],"right_children":[2,4,6,8,10,12,14,16,18,20,22,24,26,28,30,32,34,-1,38,-1,40,42,44,46,48,50,-1,52,54,56,58,-1,-1,-1,-1,-1,-1,-1,-1,-1,-1,-1,-1,-1,-1,-1,-1,-1,-1,-1,-1,-1,-1,-1,-1,-1,-1,-1,-1],"split_conditions":[-2.972997E-1,-3.746981E-1,1.1466717E0,-1.1870508E0,-1.2599473E0,-2.2294654E-1,2.8313048E0,-2.8799015E-1,-6.9747126E-1,6.460118E-1,1.6486302E-1,1.3698341E0,6.848556E0,-1.01093E0,-2.8799015E-1,-1.2599473E0,5.2865177E-2,-9.6472785E-2,1.0274112E0,-1.0540702E-1,5.2088E-1,5.341357E-1,-9.9093354E-1,-7.0108443E-1,6.653478E-1,8.0679625E-1,-1.259232E-1,-1.3194726E0,-1.3424666E0,-1.0130181E0,-9.9093354E-1,-8.4232435E-2,6.38644E-2,-8.704451E-2,-0E0,-9.677018E-2,-0E0,-5.205244E-2,-9.074571E-2,-6.4508565E-2,1.5441759E-3,-2.2740616E-2,-4.9659055E-2,-3.7643258E-2,5.1272637E-3,-4.615805E-2,-1.1985784E-2,-9.020069E-2,-0E0,-1.936634E-3,2.984761E-2,-1.1723732E-1,-1.1439569E-3,9.323912E-2,2.5082624E-2,-0E0,9.893772E-2,8.538877E-2,-1.690231E-2],"split_indices":[8,0,8,0,8,0,8,2,0,0,0,4,0,3,2,8,4,21,2,0,24,2,7,0,8,0,0,24,5,0,7,0,0,0,0,2147483647,2147483647,0,0,0,0,0,0,0,0,0,0,0,0,0,0,0,0,0,0,0,0,0,0],"split_type":[0,0,0,0,0,0,0,0,0,0,0,0,0,0,0,0,0,0,0,0,0,0,0,0,0,0,0,0,0,0,0,0,0,0,0,0,0,0,0,0,0,0,0,0,0,0,0,0,0,0,0,0,0,0,0,0,0,0,0],"sum_hessian":[7.6825454E3,3.518608E3,4.1639375E3,7.827875E2,2.7358206E3,3.3403533E3,8.2358405E2,1.1571415E2,6.670733E2,1.3587935E2,2.5999412E3,8.750007E2,2.4653528E3,7.426185E2,8.096553E1,4.7170776E1,6.854337E1,2.8752078E2,3.7955255E2,1.1304185E2,2.2837513E1,9.583926E2,1.6415485E3,7.963425E2,7.86581E1,2.448071E3,1.7281633E1,1.6477032E2,5.778482E2,5.505996E1,2.5905575E1,1.5004456E1,3.216632E1,6.1000324E1,7.543051E0,2.8636404E2,1.1567391E0,3.0266895E2,7.68836E1,1.6913774E1,5.9237375E0,6.0653186E2,3.5186072E2,2.95579E2,1.3459695E3,2.5677963E2,5.395629E2,7.330785E1,5.350245E0,2.0419518E3,4.0611935E2,9.069281E0,1.5570105E2,3.414792E1,5.4370026E2,1.0675838E0,5.3992374E1,1.2468198E1,1.3437377E1],"tree_param":{"num_deleted":"2","num_feature":"31","num_nodes":"59","size_leaf_vector":"0"}},{"base_weights":[-1.23865195E-1,-2.1862476E-1,8.940891E-2,-4.9107748E-1,-1.2257364E-1,-1.1185459E-3,3.365799E-1,-7.128037E-1,-2.8469333E-1,-1.0014634E0,-9.718115E-2,-3.2016852E-1,4.6923596E-2,-1.3126573E-1,4.7144783E-1,-8.472083E-1,-5.48116E-1,-1.9948526E-1,-8.02276E-1,-1.0091264E0,-0E0,-1.22136936E-1,6.796467E-1,8.0485344E-2,-5.539133E-1,1.7234752E-2,6.2417704E-1,-3.5791168E-1,2.5676787E-1,5.913307E-1,2.059668E-1,-5.2818274E-1,-9.30823E-1,-5.835555E-1,7.705291E-2,-1.4130707E-1,-8.853067E-1,-8.518036E-1,1.4718218E-1,-1.0333124E0,-2.1084975E-1,-3.36775E-1,-8.6401165E-2,-0E0,7.4682707E-1,-3.2257602E-1,6.4692587E-1,-6.816018E-1,-1.6977161E-1,6.355638E-1,-5.6616315E-3,7.092308E-1,-0E0,-2.2619471E-3,-5.041445E-1,-0E0,5.724674E-1,5.118211E-1,1.0701313E0,-1.6418931E-1,3.8129184E-1],"categories":[],"categories_nodes":[],"categories_segments":[],"categories_sizes":[],"default_left":[1,1,1,1,1,1,1,1,1,1,1,1,1,1,1,1,1,1,1,1,1,1,1,1,1,1,1,1,1,1,1,0,0,0,0,0,0,0,0,1,1,0,0,0,0,0,0,0,0,0,0,0,0,0,0,0,0,0,0,0,0],"id":21,"left_children":[1,3,5,7,9,11,13,15,17,-1,21,23,25,27,29,31,33,35,37,-1,-1,41,43,45,47,49,51,53,55,57,59,-1,-1,-1,-1,-1,-1,-1,-1,-1,-1,-1,-1,-1,-1,-1,-1,-1,-1,-1,-1,-1,-1,-1,-1,-1,-1,-1,-1,-1,-1],"loss_changes":[1.5344675E2,1.3671706E2,5.2511192E1,6.0899506E1,8.546207E1,2.647834E1,4.015394E1,1.1691193E1,3.0040993E1,4.8672485E-1,7.310539E1,2.1815989E1,2.4745934E1,1.279698E1,1.4426712E1,6.438492E0,7.4166565E0,2.3311384E1,5.707226E0,1.6226959E-1,0E0,2.7660904E1,5.0741196E0,2.0239214E1,5.9129066E0,2.0679396E1,4.426483E0,4.2765265E0,4.1663303E0,9.461319E0,1.0761106E1,0E0,0E0,0E0,0E0,0E0,0E0,0E0,0E0,0E0,0E0,0E0,0E0,0E0,0E0,0E0,0E0,0E0,0E0,0E0,0E0,0E0,0E0,0E0,0E0,0E0,0E0,0E0,0E0,0E0,0E0],"parents":[2147483647,0,0,1,1,2,2,3,3,4,4,5,5,6,6,7,7,8,8,9,9,10,10,11,11,12,12,13,13,14,14,15,15,16,16,17,17,18,18,19,19,21,21,22,22,23,23,24,24,25,25,26,26,27,27,28,28,29,29,30,30],"right_children":[2,4,6,8,10,12,14,16,18,-1,22,24,26,28,30,32,34,36,38,-1,-1,42,44,46,48,50,52,54,56,58,60,-1,-1,-1,-1,-1,-1,-1,-1,-1,-1,-1,-1,-1,-1,-1,-1,-1,-1,-1,-1,-1,-1,-1,-1,-1,-1,-1,-1,-1,-1],"split_conditions":[5.10479E-1,-3.2531863E-1,5.611032E-1,-2.972997E-1,-1.2599473E0,-9.9093354E-1,-9.9093354E-1,-6.468874E-1,1.0405918E0,-1.00146346E-1,2.1093192E0,-1.6152328E-1,2.0284026E0,4.2729574E-1,-6.168405E-1,-1.1870508E0,9.2976093E-1,1.8540568E0,1.3148842E0,-1.00912645E-1,-0E0,-9.9093354E-1,-9.573432E-1,-2.2051391E-1,1.6415456E-1,-1.9225881E0,1.4759988E0,-4.5668292E-1,3.0559278E-1,1.4395115E0,-6.0561925E-1,-5.2818276E-2,-9.30823E-2,-5.835555E-2,7.7052913E-3,-1.4130707E-2,-8.8530675E-2,-8.5180365E-2,1.4718219E-2,-1.03331245E-1,-2.1084975E-2,-3.36775E-2,-8.640117E-3,-0E0,7.4682705E-2,-3.22576E-2,6.469259E-2,-6.8160184E-2,-1.6977161E-2,6.355638E-2,-5.6616316E-4,7.092308E-2,-0E0,-2.2619472E-4,-5.041445E-2,-0E0,5.724674E-2,5.118211E-2,1.0701313E-1,-1.6418932E-2,3.8129184E-2],"split_indices":[6,0,0,8,8,7,7,0,4,5,8,0,10,19,2,0,5,5,5,2147483647,2147483647,7,5,25,17,4,22,5,18,12,4,0,0,0,0,0,0,0,0,2147483647,2147483647,0,0,0,0,0,0,0,0,0,0,0,0,0,0,0,0,0,0,0,0],"split_type":[0,0,0,0,0,0,0,0,0,0,0,0,0,0,0,0,0,0,0,0,0,0,0,0,0,0,0,0,0,0,0,0,0,0,0,0,0,0,0,0,0,0,0,0,0,0,0,0,0,0,0,0,0,0,0,0,0,0,0,0,0],"sum_hessian":[7.580409E3,5.2516626E3,2.3287463E3,1.3629247E3,3.888738E3,1.7036995E3,6.250468E2,6.511564E2,7.117684E2,1.04852776E2,3.7838853E3,2.2346706E2,1.4802324E3,1.3822417E2,4.8682263E2,3.4835358E2,3.0280276E2,6.1638336E2,9.538504E1,1.03698944E2,1.1538284E0,3.6698074E3,1.1407785E2,8.14851E1,1.4198195E2,1.4124124E3,6.782017E1,8.903173E1,4.9192436E1,3.302453E2,1.5657735E2,7.938322E1,2.6897037E2,2.8826114E2,1.4541632E1,5.728636E2,4.3519745E1,9.195033E1,3.4347086E0,9.8576324E1,5.1226234E0,5.1618915E2,3.1536182E3,1.101849E1,1.03059364E2,4.733158E1,3.4153522E1,1.0286382E2,3.9118134E1,4.9126453E1,1.3632859E3,6.0652637E1,7.167531E0,2.8821175E1,6.021056E1,2.8979364E1,2.0213072E1,2.9032874E2,3.9916557E1,4.8554077E1,1.0802326E2],"tree_param":{"num_deleted":"4","num_feature":"31","num_nodes":"61","size_leaf_vector":"0"}},{"base_weights":[-1.1314245E-1,-9.859001E-1,-9.1067E-2,-1.0490278E0,-3.9583948E-1,-2.8902343E-1,-7.6939706E-3,-5.950002E-1,4.328801E-2,-4.0468192E-1,1.15170695E-1,-2.8856707E-1,4.096043E-2,-6.743186E-1,-0E0,6.191021E-1,-1.6205461E-1,-3.3298066E-1,-7.5927365E-1,3.503566E-1,-1.251671E-1,-4.289996E-1,3.6147282E-1,1.3141878E-1,-2.544243E-1,-7.0848083E-1,-0E0,-4.3585852E-1,1.0681666E-1,-5.7692224E-1,-2.1846786E-1,3.2011795E-1,-7.91298E-1,5.2886134E-1,-3.462933E-1,-2.7328706E-1,7.5084054E-1,-5.6579846E-1,-4.860316E-3,1.3443212E-1,1.1145058E0,-3.4932055E-2,2.1213876E-1,-3.2774615E-1,3.236747E-2],"categories":[],"categories_nodes":[],"categories_segments":[],"categories_sizes":[],"default_left":[1,1,1,0,1,1,1,1,1,1,1,1,1,1,1,1,1,1,1,1,1,1,1,1,1,1,1,1,1,0,0,0,0,0,0,0,0,0,0,0,0,0,0,0,0],"id":22,"left_children":[1,3,5,-1,7,9,11,-1,-1,17,19,21,23,-1,-1,-1,-1,29,31,33,35,37,39,41,43,-1,-1,-1,-1,-1,-1,-1,-1,-1,-1,-1,-1,-1,-1,-1,-1,-1,-1,-1,-1],"loss_changes":[1.43116E2,4.1466675E0,1.204671E2,0E0,2.735708E0,1.0163733E2,7.073805E1,1.2779822E0,1.7921634E0,4.1011963E1,2.7605642E1,7.033307E1,1.17384415E2,2.8363562E-1,0E0,0E0,1.0241232E0,3.821408E1,1.0870712E1,3.1390802E1,3.1088821E1,3.6057365E1,2.1588264E1,4.5429863E1,2.1956047E1,0E0,0E0,0E0,0E0,0E0,0E0,0E0,0E0,0E0,0E0,0E0,0E0,0E0,0E0,0E0,0E0,0E0,0E0,0E0,0E0],"parents":[2147483647,0,0,1,1,2,2,4,4,5,5,6,6,7,7,8,8,9,9,10,10,11,11,12,12,13,13,16,16,17,17,18,18,19,19,20,20,21,21,22,22,23,23,24,24],"right_children":[2,4,6,-1,8,10,12,-1,-1,18,20,22,24,-1,-1,-1,-1,30,32,34,36,38,40,42,44,-1,-1,-1,-1,-1,-1,-1,-1,-1,-1,-1,-1,-1,-1,-1,-1,-1,-1,-1,-1],"split_conditions":[-1.2599473E0,6.460118E-1,-2.0488088E-1,-1.0490278E-1,5.2088E-1,6.653478E-1,-9.9093354E-1,-5.950002E-2,4.3288013E-3,1.0405918E0,-2.641213E-1,8.6298597E-1,8.6298597E-1,-6.743186E-2,-0E0,6.1910212E-2,-1.6205462E-2,-6.9747126E-1,-1.1822333E0,2.0528533E-1,2.8313048E0,7.556102E-1,6.653478E-1,-2.7637705E-1,6.653478E-1,-7.0848085E-2,-0E0,-4.358585E-2,1.06816655E-2,-5.7692226E-2,-2.1846786E-2,3.2011796E-2,-7.91298E-2,5.2886136E-2,-3.462933E-2,-2.7328705E-2,7.508405E-2,-5.6579847E-2,-4.860316E-4,1.3443212E-2,1.11450575E-1,-3.4932054E-3,2.1213876E-2,-3.2774616E-2,3.236747E-3],"split_indices":[8,0,0,0,24,8,7,2,26,4,5,2,2,2147483647,2147483647,2147483647,2147483647,0,0,2,8,0,8,4,8,2147483647,2147483647,2147483647,2147483647,0,0,0,0,0,0,0,0,0,0,0,0,0,0,0,0],"split_type":[0,0,0,0,0,0,0,0,0,0,0,0,0,0,0,0,0,0,0,0,0,0,0,0,0,0,0,0,0,0,0,0,0,0,0,0,0,0,0,0,0,0,0,0,0],"sum_hessian":[7.495104E3,1.8055467E2,7.3145493E3,1.5946594E2,2.1088722E1,2.1619465E3,5.152603E3,1.5342629E1,5.7460933E0,1.6828705E3,4.79076E2,7.6162714E2,4.390976E3,1.4091799E1,1.2508309E0,1.2016019E0,4.5444913E0,1.4070011E3,2.7586942E2,2.4354204E2,2.3553395E2,6.284231E2,1.3320401E2,3.3654075E3,1.0255686E3,1.3048315E1,1.0434839E0,3.1711812E0,1.37331E0,4.4282452E2,9.641766E2,6.2714953E0,2.6959793E2,1.9558475E2,4.7957283E1,2.0421059E2,3.1323362E1,4.72626E2,1.557971E2,1.0608326E2,2.7120756E1,1.0960135E3,2.2693938E3,8.191908E2,2.0637776E2],"tree_param":{"num_deleted":"8","num_feature":"31","num_nodes":"45","size_leaf_vector":"0"}},{"base_weights":[-1.033476E-1,-9.675974E-1,-8.295108E-2,-1.0349338E0,-3.7086415E-1,-1.6441211E-1,9.575574E-2,-5.691218E-1,4.0354464E-2,-4.1115132E-1,-8.305611E-2,1.5468378E-2,3.3341262E-1,-6.5211284E-1,-0E0,6.1730903E-1,-1.6434692E-1,-6.2655646E-1,-2.372432E-1,-1.0518784E-1,6.3786054E-1,-2.6706785E-1,5.877719E-2,-5.9162155E-2,4.5254725E-1,-6.8523645E-1,-0E0,-4.3738154E-1,1.0534143E-1,-7.7466136E-1,-4.6332055E-1,-1.7580503E-1,-8.55772E-1,-1.9091305E-1,-2.3061695E-2,7.125305E-1,-0E0,1.0402243E-1,-4.803219E-1,-3.3911115E-1,9.908907E-2,-2.661666E-1,2.807493E-1,5.347803E-1,8.274252E-2],"categories":[],"categories_nodes":[],"categories_segments":[],"categories_sizes":[],"default_left":[1,1,1,0,1,1,1,1,1,1,1,1,1,1,1,1,1,1,1,1,1,1,1,1,1,1,1,1,1,0,0,0,0,0,0,0,0,0,0,0,0,0,0,0,0],"id":23,"left_children":[1,3,5,-1,7,9,11,-1,-1,17,19,21,23,-1,-1,-1,-1,29,31,33,35,37,39,41,43,-1,-1,-1,-1,-1,-1,-1,-1,-1,-1,-1,-1,-1,-1,-1,-1,-1,-1,-1,-1],"loss_changes":[1.2943405E2,4.2563934E0,1.05649185E2,0E0,2.5034187E0,9.945979E1,4.290889E1,1.2779336E0,1.7924403E0,4.484784E1,5.9584778E1,2.0658789E1,2.7103981E1,2.005086E-1,0E0,0E0,1.0268759E0,1.0885742E1,2.4705463E1,2.5451256E1,4.632122E0,1.822282E1,2.3613407E1,9.586488E0,1.2603836E1,0E0,0E0,0E0,0E0,0E0,0E0,0E0,0E0,0E0,0E0,0E0,0E0,0E0,0E0,0E0,0E0,0E0,0E0,0E0,0E0],"parents":[2147483647,0,0,1,1,2,2,4,4,5,5,6,6,7,7,8,8,9,9,10,10,11,11,12,12,13,13,16,16,17,17,18,18,19,19,20,20,21,21,22,22,23,23,24,24],"right_children":[2,4,6,-1,8,10,12,-1,-1,18,20,22,24,-1,-1,-1,-1,30,32,34,36,38,40,42,44,-1,-1,-1,-1,-1,-1,-1,-1,-1,-1,-1,-1,-1,-1,-1,-1,-1,-1,-1,-1],"split_conditions":[-1.2599473E0,6.460118E-1,5.10479E-1,-1.03493385E-1,5.2088E-1,-3.2531863E-1,5.8639514E-1,-5.691218E-2,4.0354463E-3,-2.972997E-1,2.1093192E0,-9.9093354E-1,-9.9093354E-1,-6.521129E-2,-0E0,6.1730903E-2,-1.6434692E-2,-6.468874E-1,1.3698341E0,-2.972997E-1,1.0405918E0,-1.6152328E-1,-1.1884172E0,4.2729574E-1,9.2976093E-1,-6.8523645E-2,-0E0,-4.3738153E-2,1.0534143E-2,-7.746614E-2,-4.6332058E-2,-1.7580504E-2,-8.5577205E-2,-1.9091306E-2,-2.3061696E-3,7.1253054E-2,-0E0,1.0402243E-2,-4.803219E-2,-3.3911116E-2,9.908907E-3,-2.661666E-2,2.807493E-2,5.3478032E-2,8.2742525E-3],"split_indices":[8,0,6,0,24,0,0,2,26,8,8,7,7,2147483647,2147483647,2147483647,2147483647,0,4,8,4,0,5,19,5,2147483647,2147483647,2147483647,2147483647,0,0,0,0,0,0,0,0,0,0,0,0,0,0,0,0],"split_type":[0,0,0,0,0,0,0,0,0,0,0,0,0,0,0,0,0,0,0,0,0,0,0,0,0,0,0,0,0,0,0,0,0,0,0,0,0,0,0,0,0,0,0,0,0],"sum_hessian":[7.41291E3,1.6657053E2,7.24634E3,1.4619487E2,2.0375654E1,4.98145E3,2.2648896E3,1.46111355E1,5.764519E0,1.2291599E3,3.75229E3,1.6984927E3,5.663969E2,1.3418936E1,1.192199E0,1.2053668E0,4.5591526E0,5.43015E2,6.861449E2,3.6443596E3,1.0793039E2,2.2062152E2,1.4778711E3,1.3026419E2,4.3613272E2,1.2296978E1,1.1219578E0,3.1811273E0,1.3780252E0,2.7559918E2,2.6741583E2,6.291238E2,5.7021126E1,1.7752068E3,1.869153E3,9.502237E1,1.2908018E1,7.936439E1,1.4125713E2,1.3162788E2,1.3462433E3,8.319291E1,4.707128E1,3.5348596E2,8.2646774E1],"tree_param":{"num_deleted":"8","num_feature":"31","num_nodes":"45","size_leaf_vector":"0"}},{"base_weights":[-9.435658E-2,-9.496057E-1,-7.552951E-2,-1.0214788E0,-3.4686133E-1,-1.7060219E-1,6.1134953E-2,-5.438179E-1,3.7622467E-2,-2.6285663E-1,1.3179183E-1,-2.0380573E-1,1.13016725E-1,-6.30489E-1,-0E0,6.15636E-1,-1.6648288E-1,-5.772268E-1,-2.0535596E-1,4.9690586E-1,-4.4859126E-2,-3.0978692E-1,5.681909E-1,1.9967489E-1,-2.0843627E-1,-6.6524315E-1,-0E0,-4.3880206E-1,1.0396458E-1,7.319553E-2,-8.3431333E-1,-1.3228571E-1,-4.94208E-1,2.3715767E-1,8.0444336E-1,-1.000059E-1,8.570924E-1,-5.0567067E-1,9.101081E-3,7.7685016E-1,-3.215893E-1,-7.975724E-2,3.2967612E-1,-2.6727527E-1,3.6035842E-1],"categories":[],"categories_nodes":[],"categories_segments":[],"categories_sizes":[],"default_left":[1,1,1,0,1,1,1,1,1,1,1,1,1,1,1,1,1,1,1,1,1,1,1,1,1,1,1,1,1,0,0,0,0,0,0,0,0,0,0,0,0,0,0,0,0],"id":24,"left_children":[1,3,5,-1,7,9,11,-1,-1,17,19,21,23,-1,-1,-1,-1,29,31,33,35,37,39,41,43,-1,-1,-1,-1,-1,-1,-1,-1,-1,-1,-1,-1,-1,-1,-1,-1,-1,-1,-1,-1],"loss_changes":[1.1694508E2,4.356842E0,9.351116E1,0E0,2.287985E0,1.18604935E2,4.0474213E1,1.2714272E0,1.792662E0,5.7696014E1,6.445819E1,3.9571106E1,6.88867E1,2.3802376E-1,0E0,0E0,1.0294223E0,8.437099E1,5.740631E1,2.4374695E1,3.277616E1,2.7086327E1,1.1955198E1,7.111154E1,1.7706947E1,0E0,0E0,0E0,0E0,0E0,0E0,0E0,0E0,0E0,0E0,0E0,0E0,0E0,0E0,0E0,0E0,0E0,0E0,0E0,0E0],"parents":[2147483647,0,0,1,1,2,2,4,4,5,5,6,6,7,7,8,8,9,9,10,10,11,11,12,12,13,13,16,16,17,17,18,18,19,19,20,20,21,21,22,22,23,23,24,24],"right_children":[2,4,6,-1,8,10,12,-1,-1,18,20,22,24,-1,-1,-1,-1,30,32,34,36,38,40,42,44,-1,-1,-1,-1,-1,-1,-1,-1,-1,-1,-1,-1,-1,-1,-1,-1,-1,-1,-1,-1],"split_conditions":[-1.2599473E0,6.460118E-1,2.612132E-1,-1.0214788E-1,5.2088E-1,6.653478E-1,-9.9093354E-1,-5.4381788E-2,3.7622468E-3,-6.9747126E-1,-9.3486154E-1,1.0274112E0,8.6298597E-1,-6.30489E-2,-0E0,6.15636E-2,-1.6648289E-2,-1.1689851E0,1.0274112E0,-2.4462533E-1,1.3562615E0,7.538036E-1,1.2498337E0,-2.7637705E-1,1.0789856E0,-6.652432E-2,-0E0,-4.3880206E-2,1.0396458E-2,7.3195533E-3,-8.343133E-2,-1.3228572E-2,-4.94208E-2,2.3715768E-2,8.0444336E-2,-1.000059E-2,8.570924E-2,-5.056707E-2,9.101081E-4,7.768502E-2,-3.215893E-2,-7.9757245E-3,3.2967612E-2,-2.6727527E-2,3.6035843E-2],"split_indices":[8,0,0,0,24,8,7,2,26,0,4,2,2,2147483647,2147483647,2147483647,2147483647,0,2,0,2,0,22,4,0,2147483647,2147483647,2147483647,2147483647,0,0,0,0,0,0,0,0,0,0,0,0,0,0,0,0],"split_type":[0,0,0,0,0,0,0,0,0,0,0,0,0,0,0,0,0,0,0,0,0,0,0,0,0,0,0,0,0,0,0,0,0,0,0,0,0,0,0,0,0,0,0,0,0],"sum_hessian":[7.33687E3,1.5369305E2,7.1831772E3,1.3397435E2,1.9718704E1,4.2400767E3,2.9431006E3,1.39369755E1,5.781729E0,3.2517354E3,9.883412E2,4.773573E2,2.4657434E3,1.2798928E1,1.1380476E0,1.2088827E0,4.5728464E0,4.9591904E2,2.7558164E3,3.2233658E2,6.6600464E2,4.2245355E2,5.4903736E1,1.9455139E3,5.2022943E2,1.1729137E1,1.069791E0,3.1904154E0,1.3824313E0,1.3999397E2,3.5592505E2,2.205685E3,5.501312E2,1.7938875E2,1.4294781E2,6.3118884E2,3.4815834E1,2.6255328E2,1.5990027E2,4.569305E1,9.210688E0,6.1565564E2,1.3298583E3,4.744938E2,4.5735638E1],"tree_param":{"num_deleted":"8","num_feature":"31","num_nodes":"45","size_leaf_vector":"0"}},{"base_weights":[-8.611855E-2,-9.317761E-1,-6.874171E-2,-1.0085096E0,-3.2383034E-1,-1.4022988E-1,8.642389E-2,-0E0,-1.0156966E0,-5.191066E-1,3.5077825E-2,-4.0768957E-1,-8.122591E-2,1.6481483E-2,2.9549527E-1,-6.09452E-1,-0E0,6.1407495E-1,-1.6847336E-1,-5.0308067E-1,7.5192496E-2,-1.00871354E-1,5.597231E-1,3.226338E-2,-7.2297186E-1,-3.874188E-2,3.9904925E-1,-6.4584374E-1,-0E0,-4.4012704E-1,