{"learner":{"attributes":{"best_iteration":"199","best_ntree_limit":"200","scikit_learn":"{\"use_label_encoder\": false, \"n_estimators\": 200, \"objective\": \"binary:logistic\", \"max_depth\": 5, \"max_leaves\": null, \"max_bin\": null, \"grow_policy\": null, \"learning_rate\": 0.1, \"verbosity\": null, \"booster\": null, \"tree_method\": null, \"gamma\": 3.0, \"min_child_weight\": null, \"max_delta_step\": null, \"subsample\": null, \"sampling_method\": null, \"colsample_bytree\": null, \"colsample_bylevel\": null, \"colsample_bynode\": null, \"reg_alpha\": 0.1, \"reg_lambda\": 2.0, \"scale_pos_weight\": null, \"base_score\": null, \"missing\": NaN, \"num_parallel_tree\": null, \"random_state\": null, \"n_jobs\": null, \"monotone_constraints\": null, \"interaction_constraints\": null, \"importance_type\": null, \"gpu_id\": null, \"validate_parameters\": null, \"predictor\": null, \"enable_categorical\": false, \"feature_types\": null, \"max_cat_to_onehot\": null, \"max_cat_threshold\": null, \"eval_metric\": \"auc\", \"early_stopping_rounds\": null, \"callbacks\": null, \"kwargs\": {\"seed\": 42}, \"classes_\": [0, 1], \"n_classes_\": 2, \"_estimator_type\": \"classifier\"}"},"feature_names":["word_count","pub_month","pub_time","abstract_len","len_lead","is_noon","is_saturday","is_lowmonth","feature_section_name","feature_type_of_material","is_party","is_congress","is_president","is_ukrainian_russian_war","is_covid","is_storm","is_spell","is_crossword","sentiment_tb_polar","sentiment_vader_neg","sentiment_snow_abs","sentiment_abstract_tb_polar","sentiment_abstract_tb_polar_abs","sentiment_abstract_tb_subj","sentiment_abstract_vader_neg","sentiment_abstract_vader_pos","sentiment_abstract_vader_compound_abs","sentiment_abstract_snow_abs"],"feature_types":["float","float","float","float","float","float","float","float","float","float","float","float","float","float","float","float","float","float","float","float","float","float","float","float","float","float","float","float"],"gradient_booster":{"model":{"gbtree_model_param":{"num_parallel_tree":"1","num_trees":"200","size_leaf_vector":"0"},"tree_info":[0,0,0,0,0,0,0,0,0,0,0,0,0,0,0,0,0,0,0,0,0,0,0,0,0,0,0,0,0,0,0,0,0,0,0,0,0,0,0,0,0,0,0,0,0,0,0,0,0,0,0,0,0,0,0,0,0,0,0,0,0,0,0,0,0,0,0,0,0,0,0,0,0,0,0,0,0,0,0,0,0,0,0,0,0,0,0,0,0,0,0,0,0,0,0,0,0,0,0,0,0,0,0,0,0,0,0,0,0,0,0,0,0,0,0,0,0,0,0,0,0,0,0,0,0,0,0,0,0,0,0,0,0,0,0,0,0,0,0,0,0,0,0,0,0,0,0,0,0,0,0,0,0,0,0,0,0,0,0,0,0,0,0,0,0,0,0,0,0,0,0,0,0,0,0,0,0,0,0,0,0,0,0,0,0,0,0,0,0,0,0,0,0,0,0,0,0,0,0,0],"trees":[{"base_weights":[2.2433621E-3,-7.28986E-1,1.2130394E0,-1.3641492E0,-3.4696254E-1,9.1650814E-1,1.8159678E0,-1.5168598E0,-6.9777775E-1,-1.737457E0,-2.6876318E-1,6.962343E-1,1.2422082E0,1.1625899E0,1.8631055E0,-1.5500581E0,-5.730769E-1,-1.9237536E-1,-1.2579125E0,-1.8252708E0,-0E0,-5.5058324E-1,6.4995825E-2,-1.2753624E-1,9.305489E-1,1.2627286E0,-1.0352942E0,1.3243698E0,1.2857142E-1,1.871608E0,7.5384617E-1,-1.7232156E0,-1.3563694E0,1.4615385E-1,-1.1266667E0,-4.5441177E-1,7.4805194E-1,-1.3E0,4.3076923E-1,-1.8768061E0,-5.272727E-1,7.25E-1,-8.2857144E-1,-1.1489933E0,-4.3665272E-1,-1.1392969E-2,1.1716129E0,-8.530612E-1,5.496183E-2,1.3455081E0,6.4238805E-1,1.3096184E0,6.6333336E-1,1.425E0,-1.0666667E-1,-6.4E-1,6.4761907E-1,1.0285715E0,-1.2307692E-1],"categories":[],"categories_nodes":[],"categories_segments":[],"categories_sizes":[],"default_left":[1,1,1,1,1,1,1,1,1,1,1,1,1,1,1,1,1,1,1,1,1,1,1,1,1,1,0,1,1,1,1,0,0,0,0,0,0,0,0,1,1,0,0,0,0,0,0,0,0,0,0,0,0,0,0,0,0,1,1],"id":0,"left_children":[1,3,5,7,9,11,13,15,17,19,21,23,25,27,-1,31,33,35,37,-1,41,43,45,47,49,51,-1,53,55,-1,-1,-1,-1,-1,-1,-1,-1,-1,-1,-1,-1,-1,-1,-1,-1,-1,-1,-1,-1,-1,-1,-1,-1,-1,-1,-1,-1,-1,-1],"loss_changes":[3.1196458E3,5.319176E2,2.3360413E2,8.153906E1,1.4832275E2,6.2179077E1,8.770386E0,1.8964355E1,4.39582E1,1.1099655E1,1.2275083E2,1.0411496E2,1.935675E1,5.3272476E0,7.11792E-1,1.6641357E1,1.0779513E1,2.1658314E1,6.484047E0,2.412735E0,4.505357E0,4.705632E1,5.07358E1,1.6161715E1,4.817444E1,8.056763E0,0E0,4.720001E0,3.6221905E0,0E0,1.9096699E0,0E0,0E0,0E0,0E0,0E0,0E0,0E0,0E0,0E0,0E0,0E0,0E0,0E0,0E0,0E0,0E0,0E0,0E0,0E0,0E0,0E0,0E0,0E0,0E0,0E0,0E0,0E0,0E0],"parents":[2147483647,0,0,1,1,2,2,3,3,4,4,5,5,6,6,7,7,8,8,9,9,10,10,11,11,12,12,13,13,14,14,15,15,16,16,17,17,18,18,19,19,20,20,21,21,22,22,23,23,24,24,25,25,27,27,28,28,30,30],"right_children":[2,4,6,8,10,12,14,16,18,20,22,24,26,28,-1,32,34,36,38,-1,42,44,46,48,50,52,-1,54,56,-1,-1,-1,-1,-1,-1,-1,-1,-1,-1,-1,-1,-1,-1,-1,-1,-1,-1,-1,-1,-1,-1,-1,-1,-1,-1,-1,-1,-1,-1],"split_conditions":[1.6197573E-1,-9.094233E-1,1.2333746E0,2.584598E-1,-1.4599229E0,1.4587206E-1,-5.942352E-1,1.9434102E0,-2.406702E-1,3.5675973E-1,4.8715115E-2,5.191087E-1,3.5764844E0,1.42171E0,1.8631056E-1,-2.9190567E-1,-8.685607E-1,9.1997385E-1,3.6938148E0,-1.8252708E-1,-3.5906485E-1,-5.5229026E-1,1.2415814E0,-7.9105866E-1,-5.97788E-1,1.7234776E0,-1.03529416E-1,2.6574504E0,1.7370555E0,1.871608E-1,7.538462E-2,-1.7232156E-1,-1.3563694E-1,1.4615386E-2,-1.1266667E-1,-4.5441177E-2,7.480519E-2,-1.3E-1,4.3076925E-2,-1.8768062E-1,-5.272727E-2,7.2500005E-2,-8.285715E-2,-1.1489933E-1,-4.366527E-2,-1.1392969E-3,1.1716129E-1,-8.530612E-2,5.496183E-3,1.3455081E-1,6.423881E-2,1.3096184E-1,6.633334E-2,1.425E-1,-1.06666675E-2,-6.4E-2,6.476191E-2,1.0285715E-1,-1.2307692E-2],"split_indices":[8,8,8,0,9,0,0,6,2,0,0,8,16,4,0,0,0,20,0,2,4,8,12,20,2,2,0,13,4,2147483647,2147483647,0,0,0,0,0,0,0,0,2147483647,2147483647,0,0,0,0,0,0,0,0,0,0,0,0,0,0,0,0,2147483647,2147483647],"split_type":[0,0,0,0,0,0,0,0,0,0,0,0,0,0,0,0,0,0,0,0,0,0,0,0,0,0,0,0,0,0,0,0,0,0,0,0,0,0,0,0,0,0,0,0,0,0,0,0,0,0,0,0,0,0,0,0,0,0,0],"sum_hessian":[3.5195E3,2.19475E3,1.32475E3,8.2225E2,1.3725E3,8.915E2,4.3325E2,6.6675E2,1.555E2,7.075E1,1.30175E3,5.3575E2,3.5575E2,3.275E1,4.005E2,6.4275E2,2.4E1,8.325E1,7.225E1,6.725E1,3.5E0,7.0525E2,5.965E2,1.1875E2,4.17E2,3.535E2,2.25E0,2.775E1,5E0,3.96E2,4.5E0,3.3075E2,3.12E2,1.1E1,1.3E1,6.6E1,1.725E1,7.1E1,1.25E0,6.375E1,3.5E0,2E0,1.5E0,1.0975E2,5.955E2,5.5975E2,3.675E1,2.25E1,9.625E1,1.6775E2,2.4925E2,3.255E2,2.8E1,2.6E1,1.75E0,1.75E0,3.25E0,3.25E0,1.25E0],"tree_param":{"num_deleted":"6","num_feature":"28","num_nodes":"59","size_leaf_vector":"0"}},{"base_weights":[1.9401594E-3,-6.5854424E-1,1.0978293E0,-1.1277281E0,-2.2849663E-1,8.277687E-1,1.6499628E0,-1.2966584E0,-4.8547554E-1,-1.7353895E0,-1.4701879E-1,4.023671E-1,9.6949404E-1,1.0580205E0,1.6927878E0,-1.4525602E0,-1.0745007E0,-1.8797797E-1,-7.7990294E-1,-3.26842E-1,3.189868E-1,-1.4099185E-1,9.670063E-1,1.1373819E0,7.354541E-1,1.1863399E0,-0E0,1.7013736E0,6.289907E-1,-1.4959608E0,-5.992526E-1,-1.1911457E0,-5.871278E-1,-3.567936E-1,5.92564E-1,-1.1517737E0,-1.9597962E-1,-3.6898607E-1,7.325236E-1,2.2029303E-2,5.984258E-1,9.4617136E-2,-6.0609174E-1,1.0273987E0,3.290277E-1,1.0143297E0,1.696441E0,-5.115156E-1,8.2759154E-1,1.3474777E0,1.9536416E-1,6.850795E-1,-4.9823794E-1,9.184744E-1,-1.9517599E-1],"categories":[],"categories_nodes":[],"categories_segments":[],"categories_sizes":[],"default_left":[1,1,1,1,1,1,1,1,1,0,1,1,1,1,1,1,1,1,1,1,1,1,1,1,1,1,1,1,1,0,0,0,0,0,0,0,0,0,0,0,0,0,0,0,0,0,0,0,0,0,0,1,1,1,1],"id":1,"left_children":[1,3,5,7,9,11,13,15,17,-1,19,21,23,25,-1,29,31,33,35,37,39,41,43,45,47,49,-1,-1,-1,-1,-1,-1,-1,-1,-1,-1,-1,-1,-1,-1,-1,-1,-1,-1,-1,-1,-1,-1,-1,-1,-1,-1,-1,-1,-1],"loss_changes":[2.5419575E3,4.414591E2,1.9394568E2,1.1218738E2,1.3998985E2,5.2802185E1,7.085327E0,2.5298218E1,1.900417E1,0E0,9.14946E1,6.977248E1,2.4338196E1,4.7159653E0,1.2713623E0,1.5793213E1,1.8282959E1,1.528085E1,2.3403458E1,3.5648186E1,2.5152174E1,1.2982344E1,3.4766388E0,2.2727417E1,3.3555603E1,4.250435E0,2.6365607E0,0E0,1.9723828E0,0E0,0E0,0E0,0E0,0E0,0E0,0E0,0E0,0E0,0E0,0E0,0E0,0E0,0E0,0E0,0E0,0E0,0E0,0E0,0E0,0E0,0E0,0E0,0E0,0E0,0E0],"parents":[2147483647,0,0,1,1,2,2,3,3,4,4,5,5,6,6,7,7,8,8,10,10,11,11,12,12,13,13,14,14,15,15,16,16,17,17,18,18,19,19,20,20,21,21,22,22,23,23,24,24,25,25,26,26,28,28],"right_children":[2,4,6,8,10,12,14,16,18,-1,20,22,24,26,-1,30,32,34,36,38,40,42,44,46,48,50,-1,-1,-1,-1,-1,-1,-1,-1,-1,-1,-1,-1,-1,-1,-1,-1,-1,-1,-1,-1,-1,-1,-1,-1,-1,-1,-1,-1,-1],"split_conditions":[1.6197573E-1,-5.5229026E-1,1.2333746E0,2.9675105E-1,-1.7158602E0,5.191087E-1,-5.942352E-1,-1.9817781E-1,-2.406702E-1,-1.7353895E-1,2.43029E-1,1.1386741E-1,-2.406702E-1,1.009242E0,1.6927879E-1,1.9434102E0,-9.094233E-1,9.679977E-1,-9.094233E-1,1.2415814E0,-1.18172504E-1,-1.4258325E-2,1.3471501E0,2.9355123E0,-9.011368E-1,1.42171E0,-0E0,1.7013736E-1,6.2899075E-2,-1.4959608E-1,-5.992526E-2,-1.1911457E-1,-5.871278E-2,-3.5679363E-2,5.92564E-2,-1.1517737E-1,-1.9597962E-2,-3.689861E-2,7.3252365E-2,2.2029304E-3,5.9842583E-2,9.461714E-3,-6.0609173E-2,1.0273987E-1,3.2902773E-2,1.0143297E-1,1.696441E-1,-5.1151562E-2,8.275916E-2,1.3474777E-1,1.9536417E-2,6.8507954E-2,-4.9823795E-2,9.184744E-2,-1.9517599E-2],"split_indices":[8,8,8,0,9,8,0,0,2,0,0,0,2,2,0,6,8,20,8,12,24,18,14,17,0,4,4,2147483647,2147483647,0,0,0,0,0,0,0,0,0,0,0,0,0,0,0,0,0,0,0,0,0,0,2147483647,2147483647,2147483647,2147483647],"split_type":[0,0,0,0,0,0,0,0,0,0,0,0,0,0,0,0,0,0,0,0,0,0,0,0,0,0,0,0,0,0,0,0,0,0,0,0,0,0,0,0,0,0,0,0,0,0,0,0,0,0,0,0,0,0,0],"sum_hessian":[3.5078167E3,2.189143E3,1.3186737E3,1.0452708E3,1.1438723E3,8.89016E2,4.296577E2,8.2585455E2,2.1941624E2,5.653115E1,1.0873411E3,2.2426074E2,6.6475525E2,3.261321E1,3.970445E2,4.785205E2,3.4733405E2,1.1093799E2,1.0847826E2,7.851699E2,3.0217117E2,1.1495841E2,1.0930233E2,3.8233884E2,2.824164E2,2.888118E1,3.7320302E0,3.9258334E2,4.461174E0,4.5381522E2,2.4705301E1,2.777627E2,6.9571335E1,9.220893E1,1.8729055E1,6.497978E1,4.3498478E1,7.564734E2,2.869651E1,1.4771317E2,1.5445802E2,7.721911E1,3.773931E1,9.859189E1,1.0710441E1,3.1812518E2,6.421366E1,1.873067E1,2.6368576E2,2.4136114E1,4.7450657E0,1.2436757E0,2.4883544E0,3.221959E0,1.239215E0],"tree_param":{"num_deleted":"6","num_feature":"28","num_nodes":"55","size_leaf_vector":"0"}},{"base_weights":[1.8879884E-3,-5.975236E-1,1.0016097E0,-1.0285008E0,-2.0626225E-1,7.5141203E-1,1.5207694E0,-1.1849029E0,-4.397578E-1,-1.6049527E0,-1.3223274E-1,5.5834424E-1,1.0382512E0,9.709393E-1,1.5610495E0,-1.3575546E0,-1.004874E0,4.4886383E-1,-5.23331E-1,-2.9436406E-1,2.8770927E-1,-1.0554672E-1,7.490295E-1,1.0575821E0,-1.024357E0,1.0899721E0,-0E0,1.5698397E0,5.2140504E-1,-1.4048325E0,-5.340631E-1,-1.0961827E0,-6.1077493E-1,-5.973808E-1,8.811995E-1,-2.0783015E-1,-8.447316E-1,-3.3251956E-1,6.656642E-1,1.9855792E-2,5.3998E-1,-7.687605E-1,6.0656115E-2,1.1976973E0,5.4777676E-1,9.5660084E-1,1.3731207E0,1.1807865E0,-1.6479222E-1,6.850795E-1,-4.9823794E-1,8.265754E-1,-2.6153278E-1],"categories":[],"categories_nodes":[],"categories_segments":[],"categories_sizes":[],"default_left":[1,1,1,1,1,1,1,1,1,0,1,1,1,1,1,1,1,1,1,1,1,1,1,1,0,1,1,1,1,0,0,0,0,0,0,0,0,0,0,0,0,0,0,0,0,0,0,0,0,1,1,1,1],"id":2,"left_children":[1,3,5,7,9,11,13,15,17,-1,19,21,23,25,-1,29,31,33,35,37,39,41,43,45,-1,47,-1,-1,-1,-1,-1,-1,-1,-1,-1,-1,-1,-1,-1,-1,-1,-1,-1,-1,-1,-1,-1,-1,-1,-1,-1,-1,-1],"loss_changes":[2.0866584E3,3.6651685E2,1.6703174E2,9.411853E1,1.1781546E2,4.7684692E1,6.0702515E0,2.2417603E1,1.6860119E1,0E0,7.4272156E1,6.775055E1,1.626294E1,3.9786415E0,1.7189331E0,1.4301697E1,1.3162964E1,1.0099417E1,2.0094086E1,2.9214424E1,2.0463924E1,1.3464254E1,3.5964462E1,8.330475E0,0E0,3.9731216E0,2.6365607E0,0E0,2.008615E0,0E0,0E0,0E0,0E0,0E0,0E0,0E0,0E0,0E0,0E0,0E0,0E0,0E0,0E0,0E0,0E0,0E0,0E0,0E0,0E0,0E0,0E0,0E0,0E0],"parents":[2147483647,0,0,1,1,2,2,3,3,4,4,5,5,6,6,7,7,8,8,10,10,11,11,12,12,13,13,14,14,15,15,16,16,17,17,18,18,19,19,20,20,21,21,22,22,23,23,25,25,26,26,28,28],"right_children":[2,4,6,8,10,12,14,16,18,-1,20,22,24,26,-1,30,32,34,36,38,40,42,44,46,-1,48,-1,-1,-1,-1,-1,-1,-1,-1,-1,-1,-1,-1,-1,-1,-1,-1,-1,-1,-1,-1,-1,-1,-1,-1,-1,-1,-1],"split_conditions":[1.6197573E-1,-5.5229026E-1,1.2333746E0,2.9675105E-1,-1.7158602E0,1.4587206E-1,-5.942352E-1,-2.9190567E-1,-4.361734E-1,-1.6049527E-1,2.43029E-1,5.191087E-1,3.5764844E0,1.009242E0,1.5610495E-1,1.9434102E0,-9.094233E-1,-9.094233E-1,-2.406702E-1,1.2415814E0,-1.18172504E-1,-7.9105866E-1,-1.6523924E0,1.5829636E0,-1.024357E-1,2.6574504E0,-0E0,1.5698397E-1,5.2140504E-2,-1.4048325E-1,-5.340631E-2,-1.0961827E-1,-6.1077494E-2,-5.973808E-2,8.811995E-2,-2.0783015E-2,-8.447316E-2,-3.3251956E-2,6.656642E-2,1.9855793E-3,5.3998E-2,-7.687605E-2,6.0656117E-3,1.1976973E-1,5.4777678E-2,9.566008E-2,1.3731207E-1,1.1807865E-1,-1.6479222E-2,6.8507954E-2,-4.9823795E-2,8.265754E-2,-2.615328E-2],"split_indices":[8,8,8,0,9,0,0,0,9,0,0,8,16,2,0,6,8,8,2,12,24,20,3,10,0,13,4,2147483647,2147483647,0,0,0,0,0,0,0,0,0,0,0,0,0,0,0,0,0,0,0,0,2147483647,2147483647,2147483647,2147483647],"split_type":[0,0,0,0,0,0,0,0,0,0,0,0,0,0,0,0,0,0,0,0,0,0,0,0,0,0,0,0,0,0,0,0,0,0,0,0,0,0,0,0,0,0,0,0,0,0,0,0,0,0,0,0,0],"sum_hessian":[3.4780818E3,2.1748145E3,1.3032673E3,1.0332118E3,1.1416027E3,8.828732E2,4.2039413E2,8.146115E2,2.1860025E2,5.5238228E1,1.0863645E3,5.3142163E2,3.514516E2,3.229223E1,3.8810193E2,4.0886475E2,4.0574677E2,1.793729E1,2.0066296E2,7.8437067E2,3.0199384E2,1.1866064E2,4.1276102E2,3.4920184E2,2.2497573E0,2.85602E1,3.7320302E0,3.837412E2,4.360696E0,3.8521558E2,2.3649157E1,3.2632404E2,7.942272E1,4.953968E0,1.2983322E1,1.0307978E2,9.758319E1,7.557456E2,2.862503E1,1.4771176E2,1.5428206E2,2.2445436E1,9.62152E1,1.2459432E2,2.881667E2,2.7088968E2,7.831217E1,2.681692E1,1.7432814E0,1.2436757E0,2.4883544E0,3.1493914E0,1.2113044E0],"tree_param":{"num_deleted":"6","num_feature":"28","num_nodes":"53","size_leaf_vector":"0"}},{"base_weights":[1.7685794E-3,-5.43907E-1,9.1874665E-1,-1.0394655E0,-2.54497E-1,6.840947E-1,1.4163544E0,-1.1633145E0,-5.140087E-1,-1.3740667E0,-1.9460893E-1,5.0687605E-1,9.491815E-1,8.92006E-1,1.4555976E0,-1.578429E0,-1.1003687E0,-1.15565404E-1,-9.6616924E-1,-1.4462678E0,-0E0,-4.3723544E-1,3.4498535E-2,9.5709604E-1,2.6241845E-1,9.675227E-1,-9.7209793E-1,1.0368072E0,2.1527601E-2,1.4646903E0,4.2560408E-1,-1.5904074E0,-2.6120976E-1,-1.1305726E0,-3.4779587E-1,-3.3845297E-1,6.776033E-1,-1.006906E0,4.9202228E-1,-1.4949217E0,-3.3739763E-1,6.5641797E-1,-7.658435E-1,-9.084163E-1,-3.4627426E-1,-2.598101E-2,9.68714E-1,6.533071E-1,1.5490756E0,-1.9796494E-1,4.4513288E-1,8.732121E-1,1.2641746E0,1.1288712E0,-1.570442E-1,-6.7476445E-1,5.3240585E-1,1.466954E0,2.4403362E-1,7.475613E-1,-3.2349965E-1],"categories":[],"categories_nodes":[],"categories_segments":[],"categories_sizes":[],"default_left":[1,1,1,1,1,1,1,1,1,1,1,1,1,1,1,1,1,1,1,1,1,1,1,1,1,1,0,1,1,1,1,1,1,0,0,0,0,0,0,1,1,0,0,0,0,0,0,0,0,0,0,0,0,0,0,0,0,1,1,1,1],"id":3,"left_children":[1,3,5,7,9,11,13,15,17,19,21,23,25,27,-1,-1,33,35,37,-1,41,43,45,47,49,51,-1,53,55,-1,-1,-1,-1,-1,-1,-1,-1,-1,-1,-1,-1,-1,-1,-1,-1,-1,-1,-1,-1,-1,-1,-1,-1,-1,-1,-1,-1,-1,-1,-1,-1],"loss_changes":[1.7211257E3,3.086007E2,1.4769519E2,5.0323364E1,9.076869E1,4.004831E1,5.5891113E0,1.3007629E1,2.763499E1,6.7649384E0,7.218068E1,5.7660156E1,1.4161041E1,4.114607E0,2.0985718E0,2.3973083E-1,1.187262E1,1.5435137E1,5.338562E0,2.3352814E0,3.759372E0,2.6263344E1,3.7935184E1,3.1107712E1,2.9315619E1,7.2657776E0,0E0,3.6249332E0,3.182516E0,1.4416504E-1,2.0256906E0,0E0,0E0,0E0,0E0,0E0,0E0,0E0,0E0,0E0,0E0,0E0,0E0,0E0,0E0,0E0,0E0,0E0,0E0,0E0,0E0,0E0,0E0,0E0,0E0,0E0,0E0,0E0,0E0,0E0,0E0],"parents":[2147483647,0,0,1,1,2,2,3,3,4,4,5,5,6,6,7,7,8,8,9,9,10,10,11,11,12,12,13,13,14,14,15,15,16,16,17,17,18,18,19,19,20,20,21,21,22,22,23,23,24,24,25,25,27,27,28,28,29,29,30,30],"right_children":[2,4,6,8,10,12,14,16,18,20,22,24,26,28,-1,-1,34,36,38,-1,42,44,46,48,50,52,-1,54,56,-1,-1,-1,-1,-1,-1,-1,-1,-1,-1,-1,-1,-1,-1,-1,-1,-1,-1,-1,-1,-1,-1,-1,-1,-1,-1,-1,-1,-1,-1,-1,-1],"split_conditions":[1.6197573E-1,-9.094233E-1,1.2333746E0,2.584598E-1,-1.4599229E0,1.4587206E-1,-5.942352E-1,-1.6236892E0,-2.406702E-1,3.5675973E-1,-2.7209106E-3,-5.97788E-1,3.5764844E0,1.42171E0,1.4555977E-1,-1.578429E-1,1.9434102E0,9.1997385E-1,3.6938148E0,-1.4462678E-1,-3.5906485E-1,-5.5229026E-1,1.2415814E0,2.9355123E0,5.191087E-1,1.5829636E0,-9.72098E-2,2.6574504E0,1.7370555E0,1.4646904E-1,4.256041E-2,-1.5904073E-1,-2.6120976E-2,-1.13057256E-1,-3.477959E-2,-3.3845298E-2,6.776033E-2,-1.006906E-1,4.920223E-2,-1.4949217E-1,-3.3739764E-2,6.56418E-2,-7.6584354E-2,-9.084163E-2,-3.4627426E-2,-2.598101E-3,9.68714E-2,6.533071E-2,1.5490757E-1,-1.9796494E-2,4.451329E-2,8.7321214E-2,1.2641746E-1,1.1288712E-1,-1.5704421E-2,-6.7476444E-2,5.3240586E-2,1.466954E-1,2.4403362E-2,7.475613E-2,-3.2349966E-2],"split_indices":[8,8,8,0,9,0,0,8,2,0,0,2,16,4,0,4,6,20,0,2,4,8,12,17,8,10,0,13,4,2147483647,2147483647,2147483647,2147483647,0,0,0,0,0,0,2147483647,2147483647,0,0,0,0,0,0,0,0,0,0,0,0,0,0,0,0,2147483647,2147483647,2147483647,2147483647],"split_type":[0,0,0,0,0,0,0,0,0,0,0,0,0,0,0,0,0,0,0,0,0,0,0,0,0,0,0,0,0,0,0,0,0,0,0,0,0,0,0,0,0,0,0,0,0,0,0,0,0,0,0,0,0,0,0,0,0,0,0,0,0],"sum_hessian":[3.4356165E3,2.1543247E3,1.2812916E3,7.922395E2,1.3620853E3,8.74067E2,4.0722455E2,6.390085E2,1.5323102E2,6.6847916E1,1.2952373E3,5.27571E2,3.4649606E2,3.1837408E1,3.7538715E2,7.758828E1,5.614202E2,8.2906364E1,7.0324646E1,6.33796E1,3.4683175E0,6.283887E2,6.668487E2,1.83457E2,3.4411398E2,3.4425458E2,2.2414827E0,2.6870546E1,4.9668603E0,3.711693E2,4.217833E0,7.640279E1,1.1854937E0,5.3866406E2,2.2756174E1,6.571306E1,1.7193306E1,6.9082275E1,1.2423702E0,5.9962162E1,3.4174383E0,1.9896593E0,1.4786581E0,9.859443E1,5.2979425E2,6.280285E2,3.882018E1,1.2413181E2,5.9325188E1,9.75654E1,2.4654858E2,2.674515E2,7.680307E1,2.5125603E1,1.7449443E0,1.7476313E0,3.2192292E0,3.6999768E2,1.1716202E0,3.0462127E0,1.1716202E0],"tree_param":{"num_deleted":"10","num_feature":"28","num_nodes":"61","size_leaf_vector":"0"}},{"base_weights":[1.7478719E-3,-4.9620834E-1,8.4657127E-1,-8.707785E-1,-1.6638726E-1,6.2477E-1,1.3298599E0,-1.1107205E0,-5.6069505E-1,-1.4206314E0,-1.0447476E-1,4.5342052E-1,8.610313E-1,8.226803E-1,1.368799E0,-1.3464011E0,-1.0101149E0,-3.2430878E-1,-7.4011695E-1,-2.4349761E-1,2.5505006E-1,8.87729E-1,2.1459821E-1,8.775183E-1,-9.249734E-1,9.3962663E-1,-5.5948135E-2,1.3782789E0,3.3808944E-1,-1.3612931E0,-2.6694214E-1,-1.1659188E0,-8.060181E-1,-5.396128E-1,1.2735361E-1,-9.5080566E-1,-2.8242034E-1,-2.6724088E-1,1.149288E0,3.0423683E-1,-9.562298E-1,6.030386E-1,1.450384E0,-1.9815521E-1,3.8228267E-1,7.911441E-1,1.157707E0,1.0881394E0,9.349436E-2,6.4476615E-1,-5.6040215E-1,1.3806391E0,1.9422282E-1,6.7799294E-1,-3.8193178E-1],"categories":[],"categories_nodes":[],"categories_segments":[],"categories_sizes":[],"default_left":[1,1,1,1,1,1,1,1,1,0,1,1,1,1,1,1,1,1,1,1,1,1,1,1,0,1,1,1,1,1,1,0,0,0,0,0,0,0,0,0,0,0,0,0,0,0,0,0,0,1,1,1,1,1,1],"id":4,"left_children":[1,3,5,7,9,11,13,15,17,-1,19,21,23,25,-1,-1,31,33,35,37,39,41,43,45,-1,47,-1,-1,-1,-1,-1,-1,-1,-1,-1,-1,-1,-1,-1,-1,-1,-1,-1,-1,-1,-1,-1,-1,-1,-1,-1,-1,-1,-1,-1],"loss_changes":[1.4256437E3,2.62998E2,1.3286078E2,7.28161E1,8.7791595E1,3.4119415E1,5.298523E0,1.0327759E1,1.8051514E1,0E0,5.4359924E1,5.199666E1,1.2257294E1,3.6098194E0,2.4353027E0,1.7033081E0,1.0672577E1,1.8987799E1,2.325676E1,2.6444279E1,1.8591066E1,2.667865E1,2.296067E1,6.6632385E0,0E0,3.3923302E0,2.7264569E0,3.0706787E-1,2.0274246E0,0E0,0E0,0E0,0E0,0E0,0E0,0E0,0E0,0E0,0E0,0E0,0E0,0E0,0E0,0E0,0E0,0E0,0E0,0E0,0E0,0E0,0E0,0E0,0E0,0E0,0E0],"parents":[2147483647,0,0,1,1,2,2,3,3,4,4,5,5,6,6,7,7,8,8,10,10,11,11,12,12,13,13,14,14,15,15,16,16,17,17,18,18,19,19,20,20,21,21,22,22,23,23,25,25,26,26,27,27,28,28],"right_children":[2,4,6,8,10,12,14,16,18,-1,20,22,24,26,-1,-1,32,34,36,38,40,42,44,46,-1,48,-1,-1,-1,-1,-1,-1,-1,-1,-1,-1,-1,-1,-1,-1,-1,-1,-1,-1,-1,-1,-1,-1,-1,-1,-1,-1,-1,-1,-1],"split_conditions":[1.6197573E-1,-5.5229026E-1,1.2333746E0,-4.1583683E-2,-1.7158602E0,1.1386741E-1,-5.942352E-1,-1.2665563E0,-2.406702E-1,-1.4206314E-1,2.43029E-1,-5.97788E-1,3.5764844E0,1.009242E0,1.368799E-1,-1.3464011E-1,-7.2235763E-1,1.6749177E-2,-9.094233E-1,2.070951E0,3.3794835E0,2.9355123E0,5.191087E-1,1.5829636E0,-9.249734E-2,1.42171E0,-5.5948137E-3,1.3782789E-1,3.3808943E-2,-1.361293E-1,-2.6694214E-2,-1.16591886E-1,-8.060181E-2,-5.3961284E-2,1.2735361E-2,-9.508057E-2,-2.8242035E-2,-2.6724089E-2,1.14928804E-1,3.0423684E-2,-9.562298E-2,6.0303863E-2,1.4503841E-1,-1.9815521E-2,3.822827E-2,7.911441E-2,1.157707E-1,1.0881394E-1,9.3494365E-3,6.447662E-2,-5.6040216E-2,1.3806391E-1,1.9422283E-2,6.779929E-2,-3.8193177E-2],"split_indices":[8,8,8,0,9,0,0,8,2,0,0,2,16,2,0,3,26,24,8,4,0,17,8,10,0,4,4,2147483647,2147483647,2147483647,2147483647,0,0,0,0,0,0,0,0,0,0,0,0,0,0,0,0,0,0,2147483647,2147483647,2147483647,2147483647,2147483647,2147483647],"split_type":[0,0,0,0,0,0,0,0,0,0,0,0,0,0,0,0,0,0,0,0,0,0,0,0,0,0,0,0,0,0,0,0,0,0,0,0,0,0,0,0,0,0,0,0,0,0,0,0,0,0,0,0,0,0,0],"sum_hessian":[3.3847817E3,2.1300144E3,1.2547672E3,9.956708E2,1.1343438E3,8.6333795E2,3.9142932E2,5.582283E2,4.374425E2,5.121929E1,1.0831244E3,5.040414E2,3.592965E2,3.124799E1,3.6018134E2,1.5929672E2,3.9893158E2,1.9142053E2,2.4602196E2,7.8175507E2,3.0136935E2,1.7675395E2,3.2728748E2,3.5707364E2,2.2228918E0,2.7555313E1,3.6926765E0,3.5613437E2,4.0469813E0,1.5652254E2,2.7741783E0,2.2060812E2,1.7832346E2,1.295141E2,6.1906433E1,1.6684567E2,7.9176285E1,7.703114E2,1.14437E1,2.911277E2,1.0241682E1,1.2023773E2,5.651622E1,9.4273796E1,2.3301367E2,2.7905347E2,7.802016E1,2.2853806E1,4.701507E0,1.2298374E0,2.4628391E0,3.550102E2,1.1241615E0,2.9228199E0,1.1241615E0],"tree_param":{"num_deleted":"10","num_feature":"28","num_nodes":"55","size_leaf_vector":"0"}},{"base_weights":[1.6694943E-3,-4.5338953E-1,7.824924E-1,-8.9040846E-1,-2.0811026E-1,5.7161486E-1,1.2565851E0,-1.006777E0,-4.1404992E-1,-1.217409E0,-1.5785143E-1,4.2029676E-1,8.022513E-1,7.62764E-1,1.2956412E0,-1.4181896E0,-9.464967E-1,-7.4551515E-2,-8.1346756E-1,-1.3017544E0,-6.4525075E-2,-3.632227E-1,3.454824E-2,8.12384E-1,2.1396247E-1,8.189371E-1,-8.822218E-1,8.739892E-1,-5.229472E-2,1.3055851E0,2.5654334E-1,-1.4312656E0,-1.6154815E-1,-9.767931E-1,-2.2729166E-1,-2.7765226E-1,6.423942E-1,-8.68324E-1,3.0672458E-1,-1.3563643E0,-2.0848568E-1,7.445242E-1,-8.531365E-1,-4.221888E-1,2.5883165E-1,-1.967614E-2,8.8141394E-1,5.4128313E-1,1.3721756E0,-1.6259336E-1,3.6485806E-1,8.6522955E-1,2.6166806E-1,9.609575E-1,-2.00957E-1,6.4672416E-1,-5.5710924E-1,1.3080611E0,1.4857407E-1,6.1555386E-1,-4.3737733E-1],"categories":[],"categories_nodes":[],"categories_segments":[],"categories_sizes":[],"default_left":[1,1,1,1,1,1,1,1,1,1,1,1,1,1,1,1,1,1,1,1,1,1,1,1,1,1,0,1,1,1,1,1,1,0,0,0,0,0,0,1,1,0,0,0,0,0,0,0,0,0,0,0,0,0,0,1,1,1,1,1,1],"id":5,"left_children":[1,3,5,7,9,11,13,15,17,19,21,23,25,27,-1,-1,33,35,37,-1,41,43,45,47,49,51,-1,53,-1,-1,-1,-1,-1,-1,-1,-1,-1,-1,-1,-1,-1,-1,-1,-1,-1,-1,-1,-1,-1,-1,-1,-1,-1,-1,-1,-1,-1,-1,-1,-1,-1],"loss_changes":[1.1844075E3,2.2524973E2,1.2109094E2,4.094702E1,6.803854E1,2.898468E1,5.0705566E0,1.2113525E1,2.0407297E1,5.8913574E0,5.1024693E1,4.1597267E1,1.0871475E1,3.1301022E0,2.7432861E0,5.8192444E-1,1.1092499E1,1.262793E1,4.860821E0,2.8117447E0,5.446874E0,2.313517E1,3.0774658E1,2.5385475E1,1.9652054E1,8.0355835E0,0E0,3.1656303E0,2.7213159E0,4.4421387E-1,2.0158827E0,0E0,0E0,0E0,0E0,0E0,0E0,0E0,0E0,0E0,0E0,0E0,0E0,0E0,0E0,0E0,0E0,0E0,0E0,0E0,0E0,0E0,0E0,0E0,0E0,0E0,0E0,0E0,0E0,0E0,0E0],"parents":[2147483647,0,0,1,1,2,2,3,3,4,4,5,5,6,6,7,7,8,8,9,9,10,10,11,11,12,12,13,13,14,14,15,15,16,16,17,17,18,18,19,19,20,20,21,21,22,22,23,23,24,24,25,25,27,27,28,28,29,29,30,30],"right_children":[2,4,6,8,10,12,14,16,18,20,22,24,26,28,-1,-1,34,36,38,-1,42,44,46,48,50,52,-1,54,-1,-1,-1,-1,-1,-1,-1,-1,-1,-1,-1,-1,-1,-1,-1,-1,-1,-1,-1,-1,-1,-1,-1,-1,-1,-1,-1,-1,-1,-1,-1,-1,-1],"split_conditions":[1.6197573E-1,-9.094233E-1,1.2333746E0,2.584598E-1,-1.4599229E0,1.4587206E-1,-5.942352E-1,-1.6236892E0,-2.406702E-1,3.4304348E-1,-2.7209106E-3,-5.97788E-1,3.5764844E0,1.009242E0,1.2956412E-1,-1.4181897E-1,1.9434102E0,9.1997385E-1,2.8416913E0,-1.3017544E-1,-3.405151E-1,1.6874299E0,1.2415814E0,2.9355123E0,5.191087E-1,1.7234776E0,-8.822218E-2,2.6574504E0,-5.229472E-3,1.3055852E-1,2.5654335E-2,-1.4312656E-1,-1.6154816E-2,-9.767931E-2,-2.2729166E-2,-2.7765227E-2,6.423942E-2,-8.68324E-2,3.0672459E-2,-1.3563643E-1,-2.0848569E-2,7.445242E-2,-8.531365E-2,-4.221888E-2,2.5883166E-2,-1.967614E-3,8.81414E-2,5.4128315E-2,1.3721757E-1,-1.6259337E-2,3.6485806E-2,8.652296E-2,2.6166806E-2,9.6095756E-2,-2.00957E-2,6.467242E-2,-5.5710923E-2,1.3080612E-1,1.4857407E-2,6.1555386E-2,-4.3737736E-2],"split_indices":[8,8,8,0,9,0,0,8,2,0,0,2,16,2,0,4,6,20,0,2,4,20,12,17,8,2,0,13,4,2147483647,2147483647,2147483647,2147483647,0,0,0,0,0,0,2147483647,2147483647,0,0,0,0,0,0,0,0,0,0,0,0,0,0,2147483647,2147483647,2147483647,2147483647,2147483647,2147483647],"split_type":[0,0,0,0,0,0,0,0,0,0,0,0,0,0,0,0,0,0,0,0,0,0,0,0,0,0,0,0,0,0,0,0,0,0,0,0,0,0,0,0,0,0,0,0,0,0,0,0,0,0,0,0,0,0,0,0,0,0,0,0,0],"sum_hessian":[3.32926E3,2.1038557E3,1.2254042E3,7.5427716E2,1.3495787E3,8.513459E2,3.7405832E2,6.042334E2,1.5004376E2,6.1718143E1,1.2878605E3,5.1774023E2,3.3360565E2,3.0612862E1,3.4344543E2,7.124884E1,5.3298456E2,8.2523674E1,6.752009E1,5.718917E1,4.528973E0,6.223238E2,6.6553674E2,1.7632297E2,3.4141724E2,3.3140985E2,2.1958096E0,2.6917685E1,3.695178E0,3.3958652E2,3.8589375E0,7.016127E1,1.0875642E0,5.1061942E2,2.2365105E1,6.5370155E1,1.7153517E1,6.488175E1,2.6383367E0,5.3922894E1,3.2662768E0,2.2281165E0,2.3008566E0,5.691737E2,5.3150078E1,6.272121E2,3.8324627E1,1.21563576E2,5.4759396E1,9.744018E1,2.4397705E2,3.0480496E2,2.6604898E1,2.518519E1,1.7324929E0,1.2307022E0,2.4644759E0,3.385146E2,1.0719271E0,2.7870104E0,1.0719271E0],"tree_param":{"num_deleted":"12","num_feature":"28","num_nodes":"61","size_leaf_vector":"0"}},{"base_weights":[1.6908264E-3,-4.1448683E-1,7.2460866E-1,-7.4888754E-1,-1.3101639E-1,5.234637E-1,1.1927958E0,-9.747947E-1,-4.6743536E-1,-1.2930654E0,-7.882869E-2,2.2395875E-1,6.25988E-1,7.055747E-1,1.232686E0,-1.0818442E0,-7.74045E-1,-5.850772E-1,-1.8478228E-1,-1.9657089E-1,2.2496685E-1,-1.4768243E-1,5.735926E-1,7.680132E-1,4.3552384E-1,8.747031E-1,4.006136E-2,1.2431664E0,1.7939383E-1,-1.1306925E0,-7.4706995E-1,-8.3192724E-1,2.0183527E-1,-7.163556E-1,-2.8114787E-1,-3.251562E-1,9.88214E-1,-3.4001845E-1,7.761252E-3,4.755501E-2,5.4743785E-1,2.2209777E-1,-3.9976978E-1,3.4016335E-1,7.94385E-1,6.723989E-1,1.2464169E0,-6.290053E-1,5.189882E-1,9.739083E-1,-1.9145025E-1,-3.5539225E-1,4.4650286E-1,1.245776E0,1.0639957E-1,5.586384E-1,-4.9018747E-1],"categories":[],"categories_nodes":[],"categories_segments":[],"categories_sizes":[],"default_left":[1,1,1,1,1,1,1,1,1,0,1,1,1,1,1,1,1,1,1,1,1,1,1,1,1,1,1,1,1,0,0,0,0,0,0,0,0,0,0,0,0,0,0,0,0,0,0,0,0,0,0,1,1,1,1,1,1],"id":6,"left_children":[1,3,5,7,9,11,13,15,17,-1,19,21,23,25,27,29,31,33,35,37,39,41,43,45,47,49,-1,-1,-1,-1,-1,-1,-1,-1,-1,-1,-1,-1,-1,-1,-1,-1,-1,-1,-1,-1,-1,-1,-1,-1,-1,-1,-1,-1,-1,-1,-1],"loss_changes":[9.852251E2,1.967041E2,1.112558E2,5.952643E1,6.802253E1,2.5447418E1,5.0215454E0,9.454712E0,1.3948235E1,0E0,3.8754036E1,2.850447E1,1.611444E1,3.4343815E0,3.0313416E0,3.651001E0,1.1158005E1,1.1517059E1,2.182424E1,2.2912619E1,1.7202974E1,1.0169449E1,5.1565933E0,1.4372452E1,2.4795605E1,3.122652E0,1.7231394E0,5.615845E-1,1.9922458E0,0E0,0E0,0E0,0E0,0E0,0E0,0E0,0E0,0E0,0E0,0E0,0E0,0E0,0E0,0E0,0E0,0E0,0E0,0E0,0E0,0E0,0E0,0E0,0E0,0E0,0E0,0E0,0E0],"parents":[2147483647,0,0,1,1,2,2,3,3,4,4,5,5,6,6,7,7,8,8,10,10,11,11,12,12,13,13,14,14,15,15,16,16,17,17,18,18,19,19,20,20,21,21,22,22,23,23,24,24,25,25,26,26,27,27,28,28],"right_children":[2,4,6,8,10,12,14,16,18,-1,20,22,24,26,28,30,32,34,36,38,40,42,44,46,48,50,-1,-1,-1,-1,-1,-1,-1,-1,-1,-1,-1,-1,-1,-1,-1,-1,-1,-1,-1,-1,-1,-1,-1,-1,-1,-1,-1,-1,-1,-1,-1],"split_conditions":[1.6197573E-1,-5.5229026E-1,1.2333746E0,-4.1583683E-2,-1.7158602E0,5.191087E-1,-5.942352E-1,3.3594233E-1,5.3678584E-1,-1.2930654E-1,2.43029E-1,3.2712795E-2,-2.406702E-1,1.0878148E0,3.217174E0,-1.7874642E-1,1.9434102E0,3.6023702E-2,1.4563645E0,3.004779E-1,4.348579E-1,-5.0746274E-1,8.421002E-2,2.9355123E0,-9.011368E-1,2.6574504E0,4.0061357E-3,1.2431665E-1,1.7939383E-2,-1.1306925E-1,-7.4706994E-2,-8.319273E-2,2.0183528E-2,-7.163557E-2,-2.8114786E-2,-3.2515623E-2,9.88214E-2,-3.4001846E-2,7.7612523E-4,4.755501E-3,5.4743785E-2,2.2209777E-2,-3.997698E-2,3.4016337E-2,7.94385E-2,6.7239895E-2,1.24641694E-1,-6.2900536E-2,5.189882E-2,9.739083E-2,-1.9145025E-2,-3.5539225E-2,4.4650286E-2,1.24577604E-1,1.0639957E-2,5.586384E-2,-4.9018748E-2],"split_indices":[8,8,8,0,9,8,0,3,0,0,0,0,2,4,0,0,6,24,20,1,19,4,24,17,0,13,3,26,2,0,0,0,0,0,0,0,0,0,0,0,0,0,0,0,0,0,0,0,0,0,0,2147483647,2147483647,2147483647,2147483647,2147483647,2147483647],"split_type":[0,0,0,0,0,0,0,0,0,0,0,0,0,0,0,0,0,0,0,0,0,0,0,0,0,0,0,0,0,0,0,0,0,0,0,0,0,0,0,0,0,0,0,0,0,0,0,0,0,0,0,0,0,0,0,0,0],"sum_hessian":[3.270572E3,2.076096E3,1.1944758E3,9.508148E2,1.1252812E3,8.386294E2,3.5584653E2,5.245241E2,4.2629068E2,4.6238163E1,1.0790431E3,2.157376E2,6.228918E2,2.9947659E1,3.2589886E2,3.360497E2,1.8847441E2,2.9924817E2,1.27042534E2,7.783951E2,3.0064795E2,1.04998886E2,1.10738716E2,3.5304425E2,2.698475E2,2.3258104E1,6.6895523E0,3.222371E2,3.6617851E0,2.8884897E2,4.7200737E1,1.7829662E2,1.017779E1,2.0685628E2,9.2391884E1,1.1483137E2,1.22111635E1,4.5684027E2,3.2155484E2,1.9562643E2,1.05021515E2,4.2499195E1,6.249969E1,5.6519054E1,5.421966E1,2.984215E2,5.4622753E1,1.858161E1,2.512659E2,2.15223E1,1.7358052E0,3.3932247E0,3.2963278E0,3.212199E2,1.0171626E0,2.6446226E0,1.0171626E0],"tree_param":{"num_deleted":"6","num_feature":"28","num_nodes":"57","size_leaf_vector":"0"}},{"base_weights":[1.7337437E-3,-3.791077E-1,6.7180103E-1,-7.730363E-1,-1.6793358E-1,4.7953185E-1,1.1367061E0,-8.825825E-1,-3.4438458E-1,-1.0967835E0,-1.2562747E-1,3.3526435E-1,6.833877E-1,6.552216E-1,1.1775951E0,-1.3118455E0,-8.2230294E-1,-3.514576E-2,-7.189247E-1,-1.1845167E0,-5.238366E-3,-4.5012033E-1,-3.0680832E-2,7.009055E-1,1.4510188E-1,6.98778E-1,-8.6596024E-1,7.887454E-1,-3.089326E-2,1.1881293E0,1.6868499E-1,-1.326092E0,-2.2979926E-1,-9.0294206E-1,-5.353409E-1,-8.788509E-1,1.1293447E-1,-4.0234855E-1,-9.9681044E-1,-1.2457848E0,-8.730632E-2,7.3872775E-1,-7.7942E-1,6.015068E-1,-5.177161E-1,-6.965571E-2,7.112638E-1,4.5268163E-1,1.2472165E0,-7.173539E-2,3.2019427E-1,6.123983E-1,9.8767513E-1,9.126981E-1,-1.1562121E-2,-6.9496286E-1,4.4434646E-1,1.1907908E0,1.4513172E-1,5.509031E-1,-4.9751627E-1],"categories":[],"categories_nodes":[],"categories_segments":[],"categories_sizes":[],"default_left":[1,1,1,1,1,1,1,1,1,1,1,1,1,1,1,1,1,1,1,1,1,1,1,1,1,1,0,1,1,1,1,1,1,0,0,0,0,0,0,0,0,0,0,0,0,0,0,0,0,0,0,0,0,1,1,1,1,1,1,1,1],"id":7,"left_children":[1,3,5,7,9,11,13,15,17,19,21,23,25,-1,-1,-1,33,35,37,39,41,43,45,47,49,51,-1,-1,-1,-1,-1,-1,-1,-1,-1,-1,-1,-1,-1,-1,-1,-1,-1,-1,-1,-1,-1,-1,-1,-1,-1,-1,-1,-1,-1,-1,-1,-1,-1,-1,-1],"loss_changes":[8.2063855E2,1.7020203E2,1.0292279E2,3.283423E1,5.2159046E1,2.3793411E1,4.9546204E0,1.2322388E1,1.7126616E1,5.4135437E0,3.9408485E1,3.3721233E1,9.323517E0,2.9886541E0,2.7592163E0,2.5785065E-1,1.0540192E1,1.0749777E1,4.9623528E0,3.2456589E0,4.842558E0,2.1209064E1,2.8774069E1,2.1299248E1,1.2390018E1,7.0842285E0,0E0,2.726923E0,2.8188741E0,3.7145996E-1,1.9879372E0,0E0,0E0,0E0,0E0,0E0,0E0,0E0,0E0,0E0,0E0,0E0,0E0,0E0,0E0,0E0,0E0,0E0,0E0,0E0,0E0,0E0,0E0,0E0,0E0,0E0,0E0,0E0,0E0,0E0,0E0],"parents":[2147483647,0,0,1,1,2,2,3,3,4,4,5,5,6,6,7,7,8,8,9,9,10,10,11,11,12,12,13,13,14,14,15,15,16,16,17,17,18,18,19,19,20,20,21,21,22,22,23,23,24,24,25,25,27,27,28,28,29,29,30,30],"right_children":[2,4,6,8,10,12,14,16,18,20,22,24,26,-1,-1,-1,34,36,38,40,42,44,46,48,50,52,-1,-1,-1,-1,-1,-1,-1,-1,-1,-1,-1,-1,-1,-1,-1,-1,-1,-1,-1,-1,-1,-1,-1,-1,-1,-1,-1,-1,-1,-1,-1,-1,-1,-1,-1],"split_conditions":[1.6197573E-1,-9.094233E-1,1.2333746E0,2.584598E-1,-1.4599229E0,1.1386741E-1,-5.942352E-1,-1.6236892E0,-2.406702E-1,3.4304348E-1,-4.6221608E-1,-5.97788E-1,3.5764844E0,6.552216E-2,1.1775952E-1,-1.3118456E-1,9.730369E-2,-1.8765249E0,1.6032782E-1,1.009242E0,-3.405151E-1,-1.3743482E0,1.2415814E0,2.9355123E0,-8.48177E-1,1.5829636E0,-8.659603E-2,7.887454E-2,-3.0893262E-3,1.1881293E-1,1.68685E-2,-1.326092E-1,-2.2979926E-2,-9.0294205E-2,-5.353409E-2,-8.788509E-2,1.1293448E-2,-4.0234856E-2,-9.968104E-2,-1.24578476E-1,-8.730632E-3,7.3872775E-2,-7.794201E-2,6.0150683E-2,-5.177161E-2,-6.965571E-3,7.112638E-2,4.5268163E-2,1.2472165E-1,-7.173539E-3,3.201943E-2,6.1239835E-2,9.876751E-2,9.126981E-2,-1.1562122E-3,-6.949629E-2,4.4434648E-2,1.19079076E-1,1.4513172E-2,5.509031E-2,-4.975163E-2],"split_indices":[8,8,8,0,9,0,0,8,2,0,0,2,16,4,0,4,19,7,4,2,4,0,12,17,26,10,0,2147483647,2147483647,2147483647,2147483647,2147483647,2147483647,0,0,0,0,0,0,0,0,0,0,0,0,0,0,0,0,0,0,0,0,2147483647,2147483647,2147483647,2147483647,2147483647,2147483647,2147483647,2147483647],"split_type":[0,0,0,0,0,0,0,0,0,0,0,0,0,0,0,0,0,0,0,0,0,0,0,0,0,0,0,0,0,0,0,0,0,0,0,0,0,0,0,0,0,0,0,0,0,0,0,0,0,0,0,0,0,0,0,0,0,0,0,0,0],"sum_hessian":[3.2116907E3,2.0482566E3,1.1634341E3,7.127965E2,1.3354602E3,8.2607513E2,3.3735898E2,5.658394E2,1.4695709E2,5.5901585E1,1.2795586E3,4.8712183E2,3.3895328E2,2.926353E1,3.0809546E2,6.435683E1,5.014826E2,8.184033E1,6.511676E1,5.1500275E1,4.40131E0,2.87716E2,9.918426E2,1.6464594E2,3.224759E2,3.367705E2,2.182765E0,2.436791E1,4.895619E0,3.0446216E2,3.6333058E0,6.2984062E1,1.3727655E0,3.8785104E2,1.1363158E2,1.0846494E1,7.0993835E1,3.289612E1,3.2220642E1,4.843378E1,3.0664942E0,2.2252915E0,2.1760185E0,1.6333265E1,2.7138272E2,9.441906E2,4.765198E1,1.1584875E2,4.879719E1,1.443366E2,1.7813931E2,2.643239E2,7.244662E1,2.096492E1,3.4029915E0,1.7441676E0,3.1514516E0,3.033089E2,1.1532657E0,2.6240542E0,1.0092516E0],"tree_param":{"num_deleted":"14","num_feature":"28","num_nodes":"61","size_leaf_vector":"0"}},{"base_weights":[1.6187377E-3,-4.2004907E-1,5.182817E-1,-7.1998113E-1,-2.204987E-1,3.516161E-1,1.085784E0,-8.257164E-1,-3.165415E-1,-1.048961E0,-1.7417893E-1,1.2832354E-1,5.3453666E-1,6.0592264E-1,1.1283561E0,-1.2642117E0,-7.660327E-1,-3.339725E-2,-6.669054E-1,-1.1362176E0,-4.736806E-3,-2.0744361E-1,7.2666067E-1,-6.476423E-2,3.2234803E-1,6.648682E-1,3.638191E-1,9.688729E-1,2.5910622E-1,1.1395996E0,9.808151E-2,-1.2793844E0,-1.8267904E-1,-8.7708837E-1,-5.494853E-1,-2.089834E-1,5.822178E-1,-3.6913797E-1,-9.3315655E-1,-1.1984351E0,-8.2183085E-2,7.0210993E-1,-7.492373E-1,-2.755833E-1,2.243707E-1,-1.4411096E-1,8.35682E-1,-3.0579093E-1,1.1936967E-1,6.968345E-1,2.1062222E-1,5.775055E-1,1.1344113E0,-5.807407E-1,4.5198306E-1,1.137852E0,-1.5376548E-1,4.611234E-1,-5.216564E-1,1.1424237E0,1.0551493E-1,-4.2553788E-1,5.958535E-1],"categories":[],"categories_nodes":[],"categories_segments":[],"categories_sizes":[],"default_left":[1,1,1,1,1,1,1,1,1,1,1,1,1,1,1,1,1,1,1,1,1,1,1,1,1,1,1,1,1,1,1,1,1,0,0,0,0,0,0,1,1,0,0,0,0,0,0,0,0,0,0,0,0,0,0,0,0,0,0,1,1,1,1],"id":8,"left_children":[1,3,5,7,9,11,13,15,17,19,21,23,25,27,29,-1,33,35,37,-1,41,43,45,47,49,51,53,55,57,-1,-1,-1,-1,-1,-1,-1,-1,-1,-1,-1,-1,-1,-1,-1,-1,-1,-1,-1,-1,-1,-1,-1,-1,-1,-1,-1,-1,-1,-1,-1,-1,-1,-1],"loss_changes":[6.879555E2,1.0364694E2,1.3331854E2,2.894693E1,3.9693638E1,4.472844E1,5.018219E0,1.220343E1,1.4513516E1,4.880211E0,3.0040777E1,1.8733622E1,1.2848251E1,3.2363033E0,3.0397034E0,4.1007233E-1,1.06214905E1,9.265768E0,4.384943E0,2.9931564E0,4.3894725E0,2.8387936E1,3.702961E0,1.1237188E1,1.003853E1,1.2451691E1,2.2676678E1,3.1264496E0,3.4019518E0,4.779663E-1,1.9422628E0,0E0,0E0,0E0,0E0,0E0,0E0,0E0,0E0,0E0,0E0,0E0,0E0,0E0,0E0,0E0,0E0,0E0,0E0,0E0,0E0,0E0,0E0,0E0,0E0,0E0,0E0,0E0,0E0,0E0,0E0,0E0,0E0],"parents":[2147483647,0,0,1,1,2,2,3,3,4,4,5,5,6,6,7,7,8,8,9,9,10,10,11,11,12,12,13,13,14,14,15,15,16,16,17,17,18,18,19,19,20,20,21,21,22,22,23,23,24,24,25,25,26,26,27,27,28,28,29,29,30,30],"right_children":[2,4,6,8,10,12,14,16,18,20,22,24,26,28,30,-1,34,36,38,-1,42,44,46,48,50,52,54,56,58,-1,-1,-1,-1,-1,-1,-1,-1,-1,-1,-1,-1,-1,-1,-1,-1,-1,-1,-1,-1,-1,-1,-1,-1,-1,-1,-1,-1,-1,-1,-1,-1,-1,-1],"split_conditions":[-1.9515727E-1,-9.094233E-1,1.2333746E0,2.584598E-1,-1.4599229E0,5.191087E-1,-5.942352E-1,-1.6236892E0,-2.406702E-1,3.4304348E-1,1.2415814E0,9.557905E-2,-2.406702E-1,-9.936851E-2,3.217174E0,-1.2642117E-1,-1.5672156E-1,9.1997385E-1,1.6032782E-1,-1.13621764E-1,-3.405151E-1,1.39563E0,-1.4431857E0,1.446392E-1,-8.6886966E-1,2.9355123E0,2.9500648E-1,1.9391842E-1,3.8428593E-1,1.1395996E-1,9.808151E-3,-1.2793843E-1,-1.8267905E-2,-8.770884E-2,-5.4948535E-2,-2.089834E-2,5.8221783E-2,-3.6913797E-2,-9.331565E-2,-1.19843505E-1,-8.218309E-3,7.021099E-2,-7.492373E-2,-2.755833E-2,2.2437071E-2,-1.4411096E-2,8.35682E-2,-3.0579094E-2,1.1936967E-2,6.9683455E-2,2.1062223E-2,5.7750553E-2,1.1344113E-1,-5.807407E-2,4.5198306E-2,1.137852E-1,-1.5376548E-2,4.611234E-2,-5.216564E-2,1.14242375E-1,1.0551493E-2,-4.255379E-2,5.958535E-2],"split_indices":[8,8,8,0,9,8,0,8,2,0,12,0,2,4,0,4,24,20,4,2,4,20,1,27,22,17,2,3,2,26,0,2147483647,2147483647,0,0,0,0,0,0,2147483647,2147483647,0,0,0,0,0,0,0,0,0,0,0,0,0,0,0,0,0,0,2147483647,2147483647,2147483647,2147483647],"split_type":[0,0,0,0,0,0,0,0,0,0,0,0,0,0,0,0,0,0,0,0,0,0,0,0,0,0,0,0,0,0,0,0,0,0,0,0,0,0,0,0,0,0,0,0,0,0,0,0,0,0,0,0,0,0,0,0,0,0,0,0,0,0,0],"sum_hessian":[3.1537415E3,1.73661E3,1.4171315E3,6.915164E2,1.0450935E3,1.0980643E3,3.1906708E2,5.460611E2,1.4545532E2,5.2931137E1,9.921624E2,4.9624448E2,6.018199E2,2.8674221E1,2.9039285E2,6.0383686E1,4.856774E2,8.181397E1,6.3641346E1,4.8598255E1,4.332884E0,9.584219E2,3.3740532E1,2.4913213E2,2.4711235E2,3.376623E2,2.6415762E2,1.2117473E1,1.6556747E1,2.8695203E2,3.4408302E0,5.909629E1,1.2873933E0,3.1669757E2,1.6897984E2,6.4811806E1,1.7002169E1,3.247297E1,3.1168375E1,4.5541183E1,3.057071E0,2.2121623E0,2.1207216E0,8.2862177E2,1.2980016E2,3.5806112E0,3.0159922E1,1.07560196E2,1.4157193E2,5.4171005E1,1.9294135E2,2.886325E2,4.902979E1,2.1500458E1,2.4265715E2,1.058604E1,1.5314337E0,1.3905625E1,2.651122E0,2.8586508E2,1.0869395E0,1.7204151E0,1.7204151E0],"tree_param":{"num_deleted":"8","num_feature":"28","num_nodes":"63","size_leaf_vector":"0"}},{"base_weights":[1.6012895E-3,-2.7254647E-1,6.780397E-1,-6.030334E-1,-5.1305074E-2,4.9074617E-1,1.0398535E0,-8.1784976E-1,-3.5136348E-1,-1.1590707E0,-1.6289677E-2,4.381186E-1,8.987925E-1,5.639474E-1,1.0838776E0,-1.2214184E0,-7.580752E-1,9.42856E-2,-4.2075187E-1,-1.180348E0,-2.3508835E-1,-1.3711224E-1,2.6497805E-1,-3.3140752E-1,5.0518066E-1,5.332699E-1,1.2886052E0,7.323705E-1,-1.9724574E-2,1.0953313E0,9.217123E-2,-1.2377675E0,-1.3834569E-1,-8.394746E-1,-4.519854E-1,-1.3204134E-1,8.5149014E-1,-2.1355578E-1,-5.886355E-1,-2.0063968E-1,2.4880025E-1,3.5278417E-2,4.7279647E-1,5.8430386E-1,-1.0250862E0,5.287997E-1,-1.3132266E0,-1.4694159E-1,1.2443027E0,1.3822783E0,-3.8988796E-1,8.3501154E-1,-2.3618057E-1,-4.279521E-1,3.8655314E-1,1.0983363E0,6.8036966E-2,-4.3101248E-1,5.926347E-1],"categories":[],"categories_nodes":[],"categories_segments":[],"categories_sizes":[],"default_left":[1,1,1,1,1,1,1,1,1,1,1,1,1,1,1,1,1,1,1,1,1,1,1,1,1,1,1,1,1,1,1,1,1,0,0,0,0,0,0,0,0,0,0,0,0,0,0,0,0,0,0,1,1,1,1,1,1,1,1],"id":9,"left_children":[1,3,5,7,9,11,13,15,17,-1,21,23,25,27,-1,-1,33,35,37,-1,-1,39,41,43,45,47,49,-1,-1,-1,-1,-1,-1,-1,-1,-1,-1,-1,-1,-1,-1,-1,-1,-1,-1,-1,-1,-1,-1,-1,-1,-1,-1,-1,-1,-1,-1,-1,-1],"loss_changes":[5.751335E2,1.6122066E2,5.9440826E1,4.7127533E1,5.1208344E1,1.1820679E1,4.9635925E0,9.4201355E0,1.2822445E1,9.8869324E-2,4.3753395E1,2.768715E1,7.799835E0,3.05204E0,2.8041077E0,5.443115E-1,9.567123E0,1.0033811E1,1.2059441E1,0E0,0E0,2.2182768E1,1.837893E1,2.8904408E1,2.227546E1,1.8579979E1,5.9305573E0,2.7894335E0,1.7512256E0,5.725403E-1,1.947331E0,0E0,0E0,0E0,0E0,0E0,0E0,0E0,0E0,0E0,0E0,0E0,0E0,0E0,0E0,0E0,0E0,0E0,0E0,0E0,0E0,0E0,0E0,0E0,0E0,0E0,0E0,0E0,0E0],"parents":[2147483647,0,0,1,1,2,2,3,3,4,4,5,5,6,6,7,7,8,8,9,9,10,10,11,11,12,12,13,13,14,14,15,15,16,16,17,17,18,18,21,21,22,22,23,23,24,24,25,25,26,26,27,27,28,28,29,29,30,30],"right_children":[2,4,6,8,10,12,14,16,18,-1,22,24,26,28,-1,-1,34,36,38,-1,-1,40,42,44,46,48,50,-1,-1,-1,-1,-1,-1,-1,-1,-1,-1,-1,-1,-1,-1,-1,-1,-1,-1,-1,-1,-1,-1,-1,-1,-1,-1,-1,-1,-1,-1,-1,-1],"split_conditions":[5.191087E-1,-5.5229026E-1,1.2333746E0,-4.1583683E-2,-1.7158602E0,2.465095E0,-5.942352E-1,-1.6236892E0,-4.361734E-1,-1.1590707E-1,2.43029E-1,-8.125526E-1,3.8292468E-1,1.0878148E0,1.0838776E-1,-1.2214184E-1,3.3226788E-1,9.251138E-1,-2.406702E-1,-1.180348E-1,-2.3508836E-2,1.3964683E0,-1.18172504E-1,-1.4137825E0,3.5764844E0,-7.763468E-1,-1.2263207E0,7.3237054E-2,-1.9724574E-3,1.0953313E-1,9.2171235E-3,-1.2377675E-1,-1.3834569E-2,-8.3947465E-2,-4.519854E-2,-1.3204134E-2,8.514901E-2,-2.1355579E-2,-5.886355E-2,-2.0063968E-2,2.4880026E-2,3.5278418E-3,4.727965E-2,5.8430385E-2,-1.0250862E-1,5.287997E-2,-1.3132267E-1,-1.4694159E-2,1.2443028E-1,1.3822784E-1,-3.8988795E-2,8.350115E-2,-2.3618057E-2,-4.279521E-2,3.8655315E-2,1.09833635E-1,6.8036965E-3,-4.3101247E-2,5.9263468E-2],"split_indices":[8,8,8,0,9,25,0,8,9,18,0,0,4,4,0,4,19,22,2,2147483647,2147483647,20,24,0,16,2,3,13,3,2147483647,2147483647,2147483647,2147483647,0,0,0,0,0,0,0,0,0,0,0,0,0,0,0,0,0,0,2147483647,2147483647,2147483647,2147483647,2147483647,2147483647,2147483647,2147483647],"split_type":[0,0,0,0,0,0,0,0,0,0,0,0,0,0,0,0,0,0,0,0,0,0,0,0,0,0,0,0,0,0,0,0,0,0,0,0,0,0,0,0,0,0,0,0,0,0,0,0,0,0,0,0,0,0,0,0,0,0,0],"sum_hessian":[3.097173E3,2.2046973E3,8.924759E2,8.8251166E2,1.3221854E3,5.9135095E2,3.011249E2,4.734744E2,4.090373E2,3.8457706E1,1.2837278E3,5.276855E2,6.36655E1,2.8028156E1,2.7309674E2,5.585156E1,4.1762283E2,5.481668E1,3.542206E2,3.6943832E1,1.5138769E0,8.989511E2,3.8477667E2,4.1548485E1,4.86137E2,3.5432983E1,2.8232513E1,2.1489107E1,6.5390487E0,2.696723E2,3.4244332E0,5.464864E1,1.2029172E0,3.2688214E2,9.074069E1,4.337204E1,1.1444641E1,1.6084772E2,1.933729E2,7.729331E2,1.2601799E2,1.8410641E2,2.0067027E2,1.7981997E1,2.3566486E1,4.813581E2,4.778912E0,1.8848019E1,1.6584967E1,2.7130926E1,1.1015891E0,1.9772717E1,1.7163911E0,3.3312504E0,3.207798E0,2.6865082E2,1.021486E0,1.7122166E0,1.7122166E0],"tree_param":{"num_deleted":"14","num_feature":"28","num_nodes":"59","size_leaf_vector":"0"}},{"base_weights":[1.5099619E-3,-3.561441E-1,4.4474423E-1,-6.2713975E-1,-1.8415558E-1,2.972012E-1,9.970464E-1,-7.2876716E-1,-2.5747156E-1,-9.652854E-1,-1.4467637E-1,1.15572184E-1,4.503176E-1,5.234345E-1,1.0428522E0,-1.1584699E0,-6.648822E-1,-4.0299925E-1,3.1526276E-1,-1.0538422E0,-0E0,-4.327914E-1,-4.9411356E-2,-4.5272652E-2,2.7782765E-1,5.7188636E-1,2.9453772E-1,8.788234E-1,1.9937506E-1,1.0551609E0,2.6473163E-2,-2.6279214E-1,-1.1869019E0,-6.9876975E-1,1.9039415E-2,-5.276979E-1,2.3172553E-1,6.150119E-1,-3.3234897E-1,-1.123755E0,-0E0,6.649791E-1,-7.089427E-1,-6.4400005E-1,-6.255357E-2,-8.228648E-2,6.521025E-1,-2.6306415E-1,1.2092666E-1,1.3682507E-1,5.564761E-1,4.8396814E-1,1.0679399E0,-1.18021555E-1,4.742252E-1,1.0527905E0,-1.8009056E-1,-1.5204594E-1,6.636978E-1,1.0582411E0,9.5535755E-2,-4.918484E-1,5.5779195E-1],"categories":[],"categories_nodes":[],"categories_segments":[],"categories_sizes":[],"default_left":[1,1,1,1,1,1,1,1,1,1,1,1,1,1,1,1,1,1,1,1,1,1,1,1,1,1,1,1,1,1,1,1,1,0,0,0,0,0,0,0,0,0,0,0,0,0,0,0,0,0,0,0,0,0,0,1,1,0,0,1,1,1,1],"id":10,"left_children":[1,3,5,7,9,11,13,15,17,19,21,23,25,27,29,-1,33,35,37,39,41,43,45,47,49,51,53,-1,57,-1,-1,-1,-1,-1,-1,-1,-1,-1,-1,-1,-1,-1,-1,-1,-1,-1,-1,-1,-1,-1,-1,-1,-1,-1,-1,-1,-1,-1,-1,-1,-1,-1,-1],"loss_changes":[4.828909E2,7.825427E1,1.1013672E2,2.4073608E1,3.1504967E1,2.9780243E1,4.952179E0,1.2310547E1,1.2281902E1,4.155346E0,2.699915E1,1.2978453E1,1.0620468E1,2.9291792E0,3.068634E0,8.4241486E-1,1.0522522E1,9.455639E0,6.299474E0,3.2160645E0,3.8649788E0,1.898645E1,1.7214556E1,9.134752E0,9.492081E0,1.2987938E1,1.9429287E1,2.9155111E0,3.2094767E0,4.3667603E-1,1.9985155E0,0E0,0E0,0E0,0E0,0E0,0E0,0E0,0E0,0E0,0E0,0E0,0E0,0E0,0E0,0E0,0E0,0E0,0E0,0E0,0E0,0E0,0E0,0E0,0E0,0E0,0E0,0E0,0E0,0E0,0E0,0E0,0E0],"parents":[2147483647,0,0,1,1,2,2,3,3,4,4,5,5,6,6,7,7,8,8,9,9,10,10,11,11,12,12,13,13,14,14,15,15,16,16,17,17,18,18,19,19,20,20,21,21,22,22,23,23,24,24,25,25,26,26,27,27,28,28,29,29,30,30],"right_children":[2,4,6,8,10,12,14,16,18,20,22,24,26,28,30,-1,34,36,38,40,42,44,46,48,50,52,54,-1,58,-1,-1,-1,-1,-1,-1,-1,-1,-1,-1,-1,-1,-1,-1,-1,-1,-1,-1,-1,-1,-1,-1,-1,-1,-1,-1,-1,-1,-1,-1,-1,-1,-1,-1],"split_conditions":[-1.9515727E-1,-9.094233E-1,1.2333746E0,2.584598E-1,-1.4599229E0,5.191087E-1,-5.942352E-1,-1.0325844E0,4.311515E-1,3.4304348E-1,-4.8621953E-1,9.443603E-2,-2.406702E-1,-9.936851E-2,3.217174E0,-1.1584699E-1,1.9434102E0,1.237735E0,1.1644759E-1,1.009242E0,-3.405151E-1,5.9108853E-1,1.2415814E0,1.446392E-1,6.3341916E-1,2.9355123E0,-2.4961382E-1,8.788234E-2,-4.843885E-1,1.0551609E-1,2.6473163E-3,-2.6279215E-2,-1.1869019E-1,-6.987698E-2,1.9039415E-3,-5.276979E-2,2.3172554E-2,6.1501186E-2,-3.3234898E-2,-1.123755E-1,-0E0,6.6497914E-2,-7.089427E-2,-6.440001E-2,-6.255357E-3,-8.2286475E-3,6.5210246E-2,-2.6306415E-2,1.2092667E-2,1.3682507E-2,5.564761E-2,4.8396815E-2,1.0679399E-1,-1.18021555E-2,4.742252E-2,1.0527905E-1,-1.8009057E-2,-1.5204594E-2,6.636978E-2,1.0582411E-1,9.553576E-3,-4.918484E-2,5.5779196E-2],"split_indices":[8,8,8,0,9,8,0,0,24,0,0,0,2,4,0,21,6,20,2,2,4,1,12,27,19,17,0,3,24,26,0,2147483647,2147483647,0,0,0,0,0,0,0,0,0,0,0,0,0,0,0,0,0,0,0,0,0,0,2147483647,2147483647,0,0,2147483647,2147483647,2147483647,2147483647],"split_type":[0,0,0,0,0,0,0,0,0,0,0,0,0,0,0,0,0,0,0,0,0,0,0,0,0,0,0,0,0,0,0,0,0,0,0,0,0,0,0,0,0,0,0,0,0,0,0,0,0,0,0,0,0,0,0,0,0,0,0,0,0,0,0],"sum_hessian":[3.0421045E3,1.6836793E3,1.3584252E3,6.514075E2,1.0322719E3,1.0746094E3,2.8381586E2,5.0920572E2,1.4220174E2,4.7283985E1,9.849879E2,4.9344278E2,5.8116656E2,2.7413158E1,2.5640268E2,6.1268616E1,4.479371E2,1.14001976E2,2.8199766E1,4.3090702E1,4.1932845E0,2.4273521E2,7.422527E2,2.4821318E2,2.452296E2,3.230657E2,2.5810086E2,1.1294406E1,1.6118752E1,2.5316211E2,3.2405753E0,2.6235363E0,5.8645077E1,4.268881E2,2.1049034E1,9.569619E1,1.8305782E1,1.9451616E1,8.748151E0,4.020144E1,2.8892632E0,2.1879675E0,2.005317E0,1.5344875E2,8.928646E1,7.108481E2,3.1404604E1,1.071878E2,1.4102538E2,1.6505093E2,8.017866E1,2.7795508E2,4.5110622E1,7.834711E1,1.7975374E2,9.791739E0,1.5026667E0,9.817859E0,6.3008933E0,2.5204333E2,1.1187719E0,1.6202877E0,1.6202877E0],"tree_param":{"num_deleted":"8","num_feature":"28","num_nodes":"63","size_leaf_vector":"0"}},{"base_weights":[1.5844409E-3,-2.2776072E-1,5.8893764E-1,-5.2051646E-1,-3.960174E-2,4.1356638E-1,9.574534E-1,-7.276823E-1,-2.8906947E-1,-1.0906534E0,-1.0283157E-2,3.6345553E-1,8.099588E-1,4.9032298E-1,1.0047811E0,-8.45018E-1,-5.1697075E-1,1.1863012E-1,-3.536808E-1,-1.1150453E0,-1.5161419E-1,-1.1290991E-1,2.2944957E-1,-3.502561E-1,4.2248872E-1,4.564302E-1,1.2012097E0,6.080911E-1,-2.0980293E-1,1.0174121E0,2.4858931E-2,-9.704001E-1,-6.693077E-1,-5.7817453E-1,3.613568E-1,-6.338421E-2,9.05048E-1,-1.8650378E-1,-5.338333E-1,-1.1404743E0,-2.442287E-1,-2.3228073E-1,5.628951E-2,2.2178378E-2,4.1875097E-1,5.1482356E-1,-1.0737821E0,4.4500205E-1,-1.2477615E0,-3.035079E-1,1.0992354E0,1.2983282E0,-3.9739007E-1,7.024538E-1,-3.035225E-1,5.2400994E-1,-6.6038465E-1,1.0206993E0,6.0242705E-2,-4.9334162E-1,5.569572E-1],"categories":[],"categories_nodes":[],"categories_segments":[],"categories_sizes":[],"default_left":[1,1,1,1,1,1,1,1,1,1,1,1,1,1,1,1,1,1,1,1,1,1,1,1,1,1,1,1,1,1,1,0,0,0,0,0,0,0,0,1,1,0,0,0,0,0,0,0,0,0,0,0,0,1,1,1,1,1,1,1,1],"id":11,"left_children":[1,3,5,7,9,11,13,15,17,-1,21,23,25,-1,-1,31,33,35,37,-1,-1,41,43,45,47,49,51,-1,-1,-1,-1,-1,-1,-1,-1,-1,-1,-1,-1,-1,-1,-1,-1,-1,-1,-1,-1,-1,-1,-1,-1,-1,-1,-1,-1,-1,-1,-1,-1,-1,-1],"loss_changes":[4.03171E2,1.1845418E2,5.3391785E1,3.9833893E1,4.031264E1,1.0679916E1,4.819229E0,9.932556E0,1.0672756E1,3.4849167E-1,3.1507248E1,2.1905975E1,7.379734E0,2.675911E0,2.8459167E0,4.723877E0,9.242783E0,8.236666E0,1.017746E1,6.1538696E-2,0E0,1.8165558E1,1.4994932E1,2.6281586E1,1.8876526E1,1.8421381E1,5.5152664E0,2.647297E0,2.531736E0,5.2156067E-1,1.999653E0,0E0,0E0,0E0,0E0,0E0,0E0,0E0,0E0,0E0,0E0,0E0,0E0,0E0,0E0,0E0,0E0,0E0,0E0,0E0,0E0,0E0,0E0,0E0,0E0,0E0,0E0,0E0,0E0,0E0,0E0],"parents":[2147483647,0,0,1,1,2,2,3,3,4,4,5,5,6,6,7,7,8,8,9,9,10,10,11,11,12,12,13,13,14,14,15,15,16,16,17,17,18,18,19,19,21,21,22,22,23,23,24,24,25,25,26,26,27,27,28,28,29,29,30,30],"right_children":[2,4,6,8,10,12,14,16,18,-1,22,24,26,-1,-1,32,34,36,38,-1,-1,42,44,46,48,50,52,-1,-1,-1,-1,-1,-1,-1,-1,-1,-1,-1,-1,-1,-1,-1,-1,-1,-1,-1,-1,-1,-1,-1,-1,-1,-1,-1,-1,-1,-1,-1,-1,-1,-1],"split_conditions":[5.191087E-1,-5.5229026E-1,1.2333746E0,-4.1583683E-2,-1.7158602E0,2.465095E0,-5.942352E-1,3.3594233E-1,-4.361734E-1,-1.0906535E-1,2.43029E-1,-8.5370135E-1,3.8292468E-1,4.9032297E-2,1.0047811E-1,-8.230132E-1,1.9434102E0,5.985091E-1,1.1929914E-2,-1.1150453E-1,-1.5161419E-2,3.004779E-1,-1.18172504E-1,-1.4137825E0,3.5764844E0,-1.1931791E0,-1.2263207E0,6.0809113E-2,-2.0980293E-2,1.0174121E-1,2.4858932E-3,-9.704001E-2,-6.693077E-2,-5.7817455E-2,3.613568E-2,-6.3384213E-3,9.05048E-2,-1.8650379E-2,-5.338333E-2,-1.1404743E-1,-2.4422871E-2,-2.3228073E-2,5.628951E-3,2.2178378E-3,4.1875098E-2,5.1482357E-2,-1.0737821E-1,4.4500206E-2,-1.2477615E-1,-3.035079E-2,1.0992354E-1,1.2983282E-1,-3.973901E-2,7.024538E-2,-3.035225E-2,5.2400995E-2,-6.603847E-2,1.0206993E-1,6.024271E-3,-4.9334165E-2,5.569572E-2],"split_indices":[8,8,8,0,9,25,0,3,9,18,0,0,4,2,0,26,6,0,4,2147483647,2147483647,1,24,0,16,0,3,2147483647,2147483647,2147483647,2147483647,0,0,0,0,0,0,0,0,2147483647,2147483647,0,0,0,0,0,0,0,0,0,0,0,0,2147483647,2147483647,2147483647,2147483647,2147483647,2147483647,2147483647,2147483647],"split_type":[0,0,0,0,0,0,0,0,0,0,0,0,0,0,0,0,0,0,0,0,0,0,0,0,0,0,0,0,0,0,0,0,0,0,0,0,0,0,0,0,0,0,0,0,0,0,0,0,0,0,0,0,0,0,0,0,0,0,0,0,0],"sum_hessian":[2.9886963E3,2.1501692E3,8.385273E2,8.3966846E2,1.3105007E3,5.712118E2,2.673155E2,4.4058505E2,3.9908337E2,3.350643E1,1.2769943E3,5.1073245E2,6.0479317E1,2.6876293E1,2.404392E2,2.7882492E2,1.6176013E2,5.4153458E1,3.4492993E2,3.218896E1,1.3174722E0,8.952314E2,3.8176285E2,3.8133835E1,4.7259863E2,3.418186E1,2.6297457E1,2.3353706E1,3.5225854E0,2.3720317E2,3.236036E0,1.5710469E2,1.21720215E2,1.5196799E2,9.792145E0,4.53654E1,8.788057E0,1.813071E2,1.6362282E2,3.0562338E1,1.6266209E0,5.248167E2,3.704147E2,1.8355077E2,1.982121E2,1.756775E1,2.0566086E1,4.678199E2,4.7787404E0,1.6076265E1,1.8105597E1,2.5204453E1,1.0930037E0,2.1678322E1,1.6753854E0,1.1316803E0,2.3909051E0,2.3615492E2,1.0482463E0,1.618018E0,1.618018E0],"tree_param":{"num_deleted":"16","num_feature":"28","num_nodes":"61","size_leaf_vector":"0"}},{"base_weights":[1.4805039E-3,-3.0176434E-1,3.8150865E-1,-5.447002E-1,-1.5434046E-1,2.51332E-1,9.191087E-1,-7.8228766E-1,-3.9405134E-1,-8.9228535E-1,-1.2077963E-1,1.7866765E-1,5.9968656E-1,4.5320615E-1,9.6871114E-1,-8.5269123E-1,6.555238E-2,-1.4731906E-1,-6.056018E-1,-9.838419E-1,-0E0,-1.7939526E-1,2.3976016E-1,1.3450521E-1,7.315103E-1,2.3941183E-1,7.483645E-1,8.084389E-1,1.4462616E-1,9.8232627E-1,-0E0,-2.8257102E-2,-8.8656306E-1,6.092992E-1,-7.8319275E-1,-3.1372416E-1,1.5221654E-1,-7.066188E-1,-1.2770426E-1,-1.0599393E0,-0E0,6.318287E-1,-6.6579723E-1,-4.4605783E-1,-8.6078905E-2,1.0067046E0,4.83132E-2,8.8298835E-2,6.613792E-1,4.2681837E-1,1.072762E0,6.626212E-1,5.3116698E-2,8.4263915E-1,2.6601788E-1,9.9527705E-1,-2.4251823E-1,3.4953433E-1,-5.7128686E-1,6.1419916E-1,1.0071342E0,-5.502522E-1,5.258151E-1],"categories":[],"categories_nodes":[],"categories_segments":[],"categories_sizes":[],"default_left":[1,1,1,1,1,1,1,1,1,1,1,1,1,1,1,1,1,1,1,1,1,1,1,1,1,1,1,1,1,1,1,0,0,0,0,0,0,0,0,0,0,0,0,0,0,0,0,0,0,0,0,0,0,0,0,0,0,1,1,1,1,1,1],"id":12,"left_children":[1,3,5,7,9,11,13,15,17,19,21,23,25,27,29,31,33,35,37,39,41,43,45,47,49,51,53,55,-1,-1,-1,-1,-1,-1,-1,-1,-1,-1,-1,-1,-1,-1,-1,-1,-1,-1,-1,-1,-1,-1,-1,-1,-1,-1,-1,-1,-1,-1,-1,-1,-1,-1,-1],"loss_changes":[3.390718E2,5.836444E1,9.0813614E1,2.1346512E1,2.4978306E1,2.639412E1,4.8421936E0,1.4342957E1,1.967569E1,3.6366844E0,2.077742E1,2.1088976E1,9.23111E0,2.7797408E0,3.08284E0,5.9786835E0,1.01333065E1,9.039438E0,9.6182785E0,3.038414E0,3.384411E0,2.0867126E1,1.9997347E1,1.9606668E1,5.603031E0,4.271098E0,5.211136E0,3.0316715E0,2.9830506E0,6.486511E-1,2.0455823E0,0E0,0E0,0E0,0E0,0E0,0E0,0E0,0E0,0E0,0E0,0E0,0E0,0E0,0E0,0E0,0E0,0E0,0E0,0E0,0E0,0E0,0E0,0E0,0E0,0E0,0E0,0E0,0E0,0E0,0E0,0E0,0E0],"parents":[2147483647,0,0,1,1,2,2,3,3,4,4,5,5,6,6,7,7,8,8,9,9,10,10,11,11,12,12,13,13,14,14,15,15,16,16,17,17,18,18,19,19,20,20,21,21,22,22,23,23,24,24,25,25,26,26,27,27,28,28,29,29,30,30],"right_children":[2,4,6,8,10,12,14,16,18,20,22,24,26,28,30,32,34,36,38,40,42,44,46,48,50,52,54,56,-1,-1,-1,-1,-1,-1,-1,-1,-1,-1,-1,-1,-1,-1,-1,-1,-1,-1,-1,-1,-1,-1,-1,-1,-1,-1,-1,-1,-1,-1,-1,-1,-1,-1,-1],"split_conditions":[-1.9515727E-1,-9.094233E-1,1.2333746E0,-2.9190567E-1,-1.4599229E0,1.2415814E0,-5.942352E-1,1.9434102E0,-2.406702E-1,3.4304348E-1,1.39563E0,2.465095E0,-2.5009856E-2,-9.936851E-2,3.217174E0,-1.8326783E0,-8.2455426E-1,1.6749177E-2,3.7859887E-1,1.009242E0,-3.405151E-1,-4.6221608E-1,-9.15557E-1,2.9355123E0,3.8292468E-1,-5.353695E-1,6.786609E-1,1.9391842E-1,1.4462615E-2,9.823263E-2,-0E0,-2.8257102E-3,-8.8656306E-2,6.092992E-2,-7.8319274E-2,-3.1372417E-2,1.5221654E-2,-7.066188E-2,-1.2770426E-2,-1.0599393E-1,-0E0,6.3182876E-2,-6.657972E-2,-4.4605784E-2,-8.60789E-3,1.0067046E-1,4.83132E-3,8.829883E-3,6.6137925E-2,4.268184E-2,1.072762E-1,6.626212E-2,5.31167E-3,8.426391E-2,2.660179E-2,9.952771E-2,-2.4251824E-2,3.4953434E-2,-5.7128686E-2,6.1419915E-2,1.00713424E-1,-5.502522E-2,5.2581515E-2],"split_indices":[8,8,8,0,9,12,0,6,2,0,20,25,0,4,0,18,0,24,19,2,4,0,4,17,4,0,25,3,2,8,0,0,0,0,0,0,0,0,0,0,0,0,0,0,0,0,0,0,0,0,0,0,0,0,0,0,0,2147483647,2147483647,2147483647,2147483647,2147483647,2147483647],"split_type":[0,0,0,0,0,0,0,0,0,0,0,0,0,0,0,0,0,0,0,0,0,0,0,0,0,0,0,0,0,0,0,0,0,0,0,0,0,0,0,0,0,0,0,0,0,0,0,0,0,0,0,0,0,0,0,0,0,0,0,0,0,0,0],"sum_hessian":[2.938203E3,1.6342755E3,1.3039274E3,6.1491144E2,1.0193641E3,1.052252E3,2.5167548E2,2.3509502E2,3.7981644E2,4.1987064E1,9.77377E2,8.7338306E2,1.7886882E2,2.63612E1,2.2531427E2,2.1716814E2,1.792687E1,1.7711354E2,2.027029E2,3.7938232E1,4.048835E0,8.4180133E2,1.3557567E2,8.112462E2,6.213686E1,5.3973633E1,1.24895195E2,1.0597598E1,1.5763601E1,2.2225153E2,3.0627549E0,8.831501E0,2.0833664E2,1.1342425E1,6.5844445E0,1.1401329E2,6.3100243E1,1.663696E2,3.6333305E1,3.5113914E1,2.8243158E0,2.1635907E0,1.8852441E0,2.1598027E2,6.2582104E2,2.5276764E1,1.10298904E2,7.481583E2,6.3087856E1,3.535982E1,2.6777039E1,1.4769987E1,3.9203648E1,1.0305237E2,2.1842821E1,9.168707E0,1.4288912E0,1.3160129E1,2.6034734E0,1.7538788E1,2.0471274E2,1.5313774E0,1.5313774E0],"tree_param":{"num_deleted":"6","num_feature":"28","num_nodes":"63","size_leaf_vector":"0"}},{"base_weights":[1.6400134E-3,-1.9049485E-1,5.119462E-1,-4.486753E-1,-3.0996323E-2,3.5028288E-1,8.831056E-1,-6.882188E-1,-2.712343E-1,-1.0329523E0,-6.465827E-3,2.843943E-1,6.448554E-1,4.2297605E-1,9.344543E-1,-8.2201093E-1,-4.248993E-1,-1.00305624E-1,-4.0523553E-1,-1.0610081E0,-7.610063E-2,-3.8870137E-2,5.911899E-1,4.8315614E-1,1.276067E-1,-2.2209519E-1,7.2262365E-1,5.4634595E-1,-2.672041E-1,9.4849557E-1,-0E0,-8.6507654E-1,-3.4424832E-1,-5.0091046E-1,4.2544833E-1,-2.6017907E-1,2.1286352E-1,-5.613919E-1,-1.01039715E-1,-1.0902787E0,-1.65642E-1,-1.0227656E-1,3.4527424E-1,2.5060654E-1,8.478747E-1,-4.1441116E-1,5.357717E-1,-1.7878042E-1,2.622927E-1,6.776057E-1,-9.261208E-1,8.163649E-1,-9.07079E-3,6.448303E-1,-3.406443E-1,4.856886E-1,-6.998675E-1,5.612275E-1,9.750164E-1,-5.502522E-1,5.258151E-1],"categories":[],"categories_nodes":[],"categories_segments":[],"categories_sizes":[],"default_left":[1,1,1,1,1,1,1,1,1,1,1,1,1,1,1,1,1,1,1,1,1,1,1,1,1,1,1,1,1,1,1,0,0,0,0,0,0,0,0,1,1,0,0,0,0,0,0,0,0,0,0,0,0,1,1,1,1,1,1,1,1],"id":13,"left_children":[1,3,5,7,9,11,13,15,17,-1,21,23,25,-1,-1,31,33,35,37,-1,-1,41,43,45,47,49,51,-1,-1,-1,-1,-1,-1,-1,-1,-1,-1,-1,-1,-1,-1,-1,-1,-1,-1,-1,-1,-1,-1,-1,-1,-1,-1,-1,-1,-1,-1,-1,-1,-1,-1],"loss_changes":[2.8396463E2,8.655101E1,4.6794067E1,3.3659027E1,3.190147E1,1.0319305E1,4.717499E0,1.1159653E1,1.051413E1,5.575905E-1,2.465788E1,1.4079212E1,7.090187E0,2.6895432E0,2.8770752E0,3.87471E0,8.124592E0,1.04914665E1,1.2149757E1,2.9636002E-1,0E0,2.952399E1,5.1888657E0,9.940868E0,1.0784593E1,7.3783197E0,6.4079704E0,2.6002774E0,2.473476E0,9.0856934E-1,2.0455823E0,0E0,0E0,0E0,0E0,0E0,0E0,0E0,0E0,0E0,0E0,0E0,0E0,0E0,0E0,0E0,0E0,0E0,0E0,0E0,0E0,0E0,0E0,0E0,0E0,0E0,0E0,0E0,0E0,0E0,0E0],"parents":[2147483647,0,0,1,1,2,2,3,3,4,4,5,5,6,6,7,7,8,8,9,9,10,10,11,11,12,12,13,13,14,14,15,15,16,16,17,17,18,18,19,19,21,21,22,22,23,23,24,24,25,25,26,26,27,27,28,28,29,29,30,30],"right_children":[2,4,6,8,10,12,14,16,18,-1,22,24,26,-1,-1,32,34,36,38,-1,-1,42,44,46,48,50,52,-1,-1,-1,-1,-1,-1,-1,-1,-1,-1,-1,-1,-1,-1,-1,-1,-1,-1,-1,-1,-1,-1,-1,-1,-1,-1,-1,-1,-1,-1,-1,-1,-1,-1],"split_conditions":[5.191087E-1,-5.5229026E-1,1.2333746E0,-1.7417434E-1,-1.7158602E0,4.1105333E-1,-5.942352E-1,3.3594233E-1,-2.406702E-1,-1.0329523E-1,1.2415814E0,-3.2405388E-1,8.762417E-1,4.2297605E-2,9.3445435E-2,1.4629203E0,1.9434102E0,3.6023702E-2,-9.094233E-1,-1.0610081E-1,-7.6100635E-3,1.3964683E0,-1.7356747E-1,-2.0987277E0,-2.9133415E-1,-4.0378764E-2,1.7234776E0,5.4634597E-2,-2.672041E-2,9.484956E-2,-0E0,-8.6507656E-2,-3.4424834E-2,-5.0091047E-2,4.2544834E-2,-2.6017908E-2,2.1286352E-2,-5.613919E-2,-1.0103972E-2,-1.0902788E-1,-1.65642E-2,-1.0227657E-2,3.4527425E-2,2.5060654E-2,8.478747E-2,-4.1441116E-2,5.3577174E-2,-1.7878043E-2,2.6229272E-2,6.776057E-2,-9.261208E-2,8.163649E-2,-9.07079E-4,6.448303E-2,-3.406443E-2,4.856886E-2,-6.998675E-2,5.612275E-2,9.750164E-2,-5.502522E-2,5.2581515E-2],"split_indices":[8,8,8,0,9,0,0,3,2,18,12,27,8,2,0,1,6,24,8,2147483647,2147483647,20,4,27,0,25,2,2147483647,2147483647,2147483647,2147483647,0,0,0,0,0,0,0,0,2147483647,2147483647,0,0,0,0,0,0,0,0,0,0,0,0,2147483647,2147483647,2147483647,2147483647,2147483647,2147483647,2147483647,2147483647],"split_type":[0,0,0,0,0,0,0,0,0,0,0,0,0,0,0,0,0,0,0,0,0,0,0,0,0,0,0,0,0,0,0,0,0,0,0,0,0,0,0,0,0,0,0,0,0,0,0,0,0,0,0,0,0,0,0,0,0,0,0,0,0],"sum_hessian":[2.891874E3,2.1016438E3,7.9023035E2,8.0092786E2,1.3007158E3,5.5336285E2,2.3686748E2,3.381322E2,4.6279565E2,2.902168E1,1.2716942E3,4.5570358E2,9.765926E1,2.5830034E1,2.1103745E2,2.211454E2,1.1698681E2,2.0523993E2,2.5755573E2,2.7881939E1,1.1397418E0,1.2082228E3,6.3471413E1,1.988357E2,2.568679E2,7.627816E0,9.003145E1,2.238958E1,3.4404528E0,2.079747E2,3.0627549E0,2.011803E2,1.9965107E1,1.08249985E2,8.736821E0,1.3631076E2,6.892918E1,1.6885547E2,8.870026E1,2.6469547E1,1.4123919E0,1.0385317E3,1.6969101E2,2.9143902E1,3.4327507E1,1.0143591E1,1.8869211E2,7.801046E1,1.7885742E2,3.3191557E0,4.3086605E0,7.972295E1,1.0308492E1,2.074499E1,1.6445922E0,1.0817773E0,2.3586755E0,1.6412144E1,1.9156255E2,1.5313774E0,1.5313774E0],"tree_param":{"num_deleted":"16","num_feature":"28","num_nodes":"61","size_leaf_vector":"0"}},{"base_weights":[1.5837969E-3,-2.0731294E-1,4.0214142E-1,-4.7121483E-1,-8.788679E-2,2.6804912E-1,8.4764796E-1,-1.1067574E0,-4.1694438E-1,-8.268618E-1,-6.4526536E-2,1.472634E-1,4.6308687E-1,3.9053318E-1,9.013097E-1,-1.1280925E0,-3.384006E-2,-5.364315E-1,-1.510324E-1,-2.635045E-1,-1.0066268E0,-1.6563544E-1,8.0404215E-2,5.933903E-1,5.0873898E-2,5.1334757E-1,-8.973984E-2,5.1678866E-1,-2.959928E-1,9.1645104E-1,-5.405792E-2,-6.209234E-1,-2.1365961E-1,-3.4604666E-1,1.8985626E-1,-7.32777E-1,4.5005202E-1,-1.0367373E0,-4.1007854E-2,-7.0473796E-1,-1.114458E-1,5.3946592E-2,7.389428E-1,2.6866138E-1,1.0987791E0,-7.810659E-2,2.827576E-1,4.092867E-1,9.0874267E-1,-1.0281464E0,1.9937778E-1,6.763539E-1,-1.1074452E-1,4.7351795E-1,-7.265906E-1,5.093798E-1,9.447756E-1,-6.035291E-1,4.9776536E-1],"categories":[],"categories_nodes":[],"categories_segments":[],"categories_sizes":[],"default_left":[1,1,1,1,1,1,1,1,1,1,1,1,1,1,1,1,1,1,1,1,1,1,1,1,1,1,1,1,1,1,1,0,0,0,0,0,0,1,1,0,0,0,0,0,0,0,0,0,0,0,0,1,1,1,1,1,1,1,1],"id":14,"left_children":[1,3,5,7,9,11,13,-1,17,19,21,23,25,-1,29,-1,-1,31,33,35,-1,39,41,43,45,47,49,-1,-1,-1,-1,-1,-1,-1,-1,-1,-1,-1,-1,-1,-1,-1,-1,-1,-1,-1,-1,-1,-1,-1,-1,-1,-1,-1,-1,-1,-1,-1,-1],"loss_changes":[2.3861542E2,5.892166E1,5.7830444E1,1.9036743E1,2.2121784E1,1.7576206E1,4.687393E0,8.265991E-1,1.6945244E1,3.3240643E0,1.8433176E1,2.0050602E1,8.117134E0,2.700313E0,3.0739136E0,0E0,0E0,9.794662E0,1.1491072E1,4.8247533E0,6.4925003E-1,2.1397757E1,8.846901E0,1.2892183E1,1.16747265E1,9.979073E0,7.4056964E0,2.6064577E0,2.5027332E0,1.1610565E0,2.0974362E0,0E0,0E0,0E0,0E0,0E0,0E0,0E0,0E0,0E0,0E0,0E0,0E0,0E0,0E0,0E0,0E0,0E0,0E0,0E0,0E0,0E0,0E0,0E0,0E0,0E0,0E0,0E0,0E0],"parents":[2147483647,0,0,1,1,2,2,3,3,4,4,5,5,6,6,7,7,8,8,9,9,10,10,11,11,12,12,13,13,14,14,17,17,18,18,19,19,20,20,21,21,22,22,23,23,24,24,25,25,26,26,27,27,28,28,29,29,30,30],"right_children":[2,4,6,8,10,12,14,-1,18,20,22,24,26,-1,30,-1,-1,32,34,36,-1,40,42,44,46,48,50,-1,-1,-1,-1,-1,-1,-1,-1,-1,-1,-1,-1,-1,-1,-1,-1,-1,-1,-1,-1,-1,-1,-1,-1,-1,-1,-1,-1,-1,-1,-1,-1],"split_conditions":[1.6197573E-1,-9.094233E-1,1.2333746E0,-1.6236892E0,-1.4599229E0,1.4587206E-1,-5.942352E-1,-1.10675745E-1,2.638644E-2,-5.5229026E-1,3.004779E-1,-1.7944162E0,1.7234776E0,3.9053317E-2,3.217174E0,-1.12809256E-1,-3.384006E-3,9.0403795E-1,1.2758368E-1,1.384424E-1,-1.00662686E-1,-1.3598626E0,1.2415814E0,6.7972046E-1,4.944815E-1,1.5829636E0,-8.042586E-1,5.1678866E-2,-2.959928E-2,9.164511E-2,-5.405792E-3,-6.209234E-2,-2.1365961E-2,-3.4604665E-2,1.8985627E-2,-7.3277704E-2,4.5005202E-2,-1.03673734E-1,-4.1007856E-3,-7.04738E-2,-1.114458E-2,5.3946595E-3,7.3894285E-2,2.6866138E-2,1.0987791E-1,-7.8106592E-3,2.8275762E-2,4.0928673E-2,9.087427E-2,-1.0281464E-1,1.9937778E-2,6.763539E-2,-1.1074453E-2,4.7351796E-2,-7.265906E-2,5.093798E-2,9.447756E-2,-6.035291E-2,4.9776535E-2],"split_indices":[8,8,8,8,9,0,0,4,24,8,1,3,2,2,0,2147483647,2147483647,3,0,0,18,20,12,4,26,10,4,2147483647,2147483647,8,0,0,0,0,0,0,0,2147483647,2147483647,0,0,0,0,0,0,0,0,0,0,0,0,2147483647,2147483647,2147483647,2147483647,2147483647,2147483647,2147483647,2147483647],"split_type":[0,0,0,0,0,0,0,0,0,0,0,0,0,0,0,0,0,0,0,0,0,0,0,0,0,0,0,0,0,0,0,0,0,0,0,0,0,0,0,0,0,0,0,0,0,0,0,0,0,0,0,0,0,0,0,0,0,0,0],"sum_hessian":[2.8474612E3,1.8719347E3,9.755265E2,5.8110645E2,1.2908282E3,7.5246967E2,2.2305682E2,4.2521564E1,5.385849E2,3.7315693E1,1.2535126E3,4.671742E2,2.8529544E2,2.5369251E1,1.9768758E2,4.1500267E1,1.021297E0,3.6994153E2,1.6864336E2,1.0354413E1,2.696128E1,7.386253E2,5.1488727E2,8.098683E1,3.8618735E2,2.6181595E2,2.3479502E1,2.196916E1,3.4000924E0,1.947866E2,2.90097E0,2.914829E2,7.845861E1,1.0744165E2,6.120171E1,6.2984743E0,4.0559387E0,2.5902708E1,1.0585736E0,6.5102394E1,6.7352295E2,4.972263E2,1.7661007E1,5.1291447E1,2.9695385E1,2.4873099E2,1.3745636E2,2.1068945E2,5.1126495E1,4.407473E0,1.907203E1,1.7518438E1,4.450721E0,1.065097E0,2.3349953E0,1.5371418E1,1.7941519E2,1.450485E0,1.450485E0],"tree_param":{"num_deleted":"14","num_feature":"28","num_nodes":"59","size_leaf_vector":"0"}},{"base_weights":[1.5289752E-3,-2.3578577E-1,3.0311728E-1,-7.511723E-1,-1.8772691E-1,1.9713785E-1,8.1330657E-1,-1.061148E0,-5.278394E-1,-2.656229E-1,4.3941412E-2,1.3552809E-1,5.023889E-1,3.603423E-1,8.6926204E-1,-6.1733043E-1,3.4191418E-1,-7.821328E-1,-2.2889733E-1,1.836739E-1,-2.4057277E-1,9.919912E-2,6.191036E-1,3.006721E-1,7.229254E-1,7.2740525E-1,6.297064E-2,8.8488495E-1,-5.0756212E-2,4.8757678E-1,-6.571389E-1,-5.3912014E-1,7.15592E-1,-9.1488785E-1,-0E0,-2.4738094E-1,5.866579E-1,-1.5507561E-1,3.1223488E-1,-3.599664E-1,3.8734952E-1,5.917155E-2,5.7872015E-1,1.060101E0,3.4069055E-1,1.23281084E-1,6.959084E-1,8.064764E-1,8.593175E-2,9.2390716E-1,-2.686086E-1,-2.6708758E-1,5.398876E-1,4.5685104E-1,9.151586E-1,-6.0043955E-1,4.9936488E-1],"categories":[],"categories_nodes":[],"categories_segments":[],"categories_sizes":[],"default_left":[1,1,1,1,1,1,1,0,1,1,1,1,1,1,1,1,1,1,1,1,1,1,1,1,1,1,1,1,1,0,0,0,0,0,0,0,0,0,0,0,0,0,0,0,0,0,0,0,0,1,1,0,0,1,1,1,1],"id":15,"left_children":[1,3,5,7,9,11,13,-1,15,17,19,21,23,25,-1,29,31,33,35,37,39,41,43,45,47,-1,51,-1,-1,-1,-1,-1,-1,-1,-1,-1,-1,-1,-1,-1,-1,-1,-1,-1,-1,-1,-1,-1,-1,-1,-1,-1,-1,-1,-1,-1,-1],"loss_changes":[2.0118582E2,3.858281E1,6.6516495E1,7.9499893E0,2.6060215E1,1.9130627E1,4.627228E0,0E0,6.805235E0,2.0016808E1,1.455931E1,1.4883151E1,7.097E0,2.7695577E0,2.863861E0,3.9501724E0,3.6865973E0,7.3986855E0,1.5493362E1,1.0807256E1,9.314867E0,1.5239592E1,6.430483E0,6.2870893E0,4.0468025E0,2.8547993E0,3.0264127E0,1.4146118E0,2.0946276E0,0E0,0E0,0E0,0E0,0E0,0E0,0E0,0E0,0E0,0E0,0E0,0E0,0E0,0E0,0E0,0E0,0E0,0E0,0E0,0E0,0E0,0E0,0E0,0E0,0E0,0E0,0E0,0E0],"parents":[2147483647,0,0,1,1,2,2,3,3,4,4,5,5,6,6,8,8,9,9,10,10,11,11,12,12,13,13,14,14,15,15,16,16,17,17,18,18,19,19,20,20,21,21,22,22,23,23,24,24,25,25,26,26,27,27,28,28],"right_children":[2,4,6,8,10,12,14,-1,16,18,20,22,24,26,-1,30,32,34,36,38,40,42,44,46,48,-1,52,-1,-1,-1,-1,-1,-1,-1,-1,-1,-1,-1,-1,-1,-1,-1,-1,-1,-1,-1,-1,-1,-1,-1,-1,-1,-1,-1,-1,-1,-1],"split_conditions":[-1.9515727E-1,-1.2665563E0,1.2333746E0,-6.0509396E-1,3.0246615E-1,1.2415814E0,-5.942352E-1,-1.06114805E-1,1.448925E0,-1.4599229E0,1.6032782E-1,2.465095E0,2.2816968E-1,-9.936851E-2,8.692621E-2,-1.8326783E0,-3.679167E-1,1.1741414E0,2.1636996E0,-5.425497E-1,1.115705E0,2.9355123E0,9.867303E-3,7.0622504E-1,1.0091512E0,7.2740525E-2,-4.843885E-1,8.84885E-2,-5.0756214E-3,4.875768E-2,-6.571389E-2,-5.3912014E-2,7.1559206E-2,-9.1488786E-2,-0E0,-2.4738094E-2,5.866579E-2,-1.5507561E-2,3.1223489E-2,-3.5996642E-2,3.8734954E-2,5.917155E-3,5.7872016E-2,1.060101E-1,3.4069058E-2,1.2328109E-2,6.9590844E-2,8.064764E-2,8.593175E-3,9.2390716E-2,-2.6860861E-2,-2.6708758E-2,5.3988762E-2,4.5685105E-2,9.151586E-2,-6.0043957E-2,4.993649E-2],"split_indices":[8,8,8,0,0,12,0,0,21,9,4,25,0,4,0,18,0,20,4,20,27,17,1,19,25,3,24,2147483647,2147483647,0,0,0,0,0,0,0,0,0,0,0,0,0,0,0,0,0,0,0,0,2147483647,2147483647,0,0,2147483647,2147483647,2147483647,2147483647],"split_type":[0,0,0,0,0,0,0,0,0,0,0,0,0,0,0,0,0,0,0,0,0,0,0,0,0,0,0,0,0,0,0,0,0,0,0,0,0,0,0,0,0,0,0,0,0,0,0,0,0,0,0,0,0,0,0,0,0],"sum_hessian":[2.8068914E3,1.5708895E3,1.2360017E3,1.3131519E2,1.4395743E3,1.0258708E3,2.101309E2,5.1661213E1,7.965398E1,1.0774363E3,3.6213803E2,8.5626404E2,1.6960681E2,2.493628E1,1.8519463E2,7.285335E1,6.800631E0,6.86483E1,1.008788E3,2.4357312E2,1.1856491E2,7.988657E2,5.7398308E1,9.1288605E1,7.831821E1,9.715442E0,1.5220838E1,1.822843E2,2.9103193E0,1.6638576E0,7.118948E1,1.681948E0,5.118683E0,5.8472275E1,1.0176022E1,9.8791406E2,2.0873966E1,6.66815E1,1.7689162E2,1.00473526E2,1.8091389E1,7.395849E2,5.928083E1,1.9901106E1,3.74972E1,6.499446E1,2.6294144E1,6.862759E1,9.690627E0,8.319326E0,1.3961154E0,9.391534E0,5.829304E0,1.4384809E1,1.6789949E2,1.4551597E0,1.4551597E0],"tree_param":{"num_deleted":"8","num_feature":"28","num_nodes":"57","size_leaf_vector":"0"}},{"base_weights":[1.8028588E-3,-1.4517505E-1,4.1295585E-1,-3.6422628E-1,-1.6483713E-2,2.7320325E-1,7.8040063E-1,-6.3181365E-1,-2.2919928E-1,-9.672972E-1,2.9215303E-3,2.3887643E-1,7.5723344E-1,3.3778057E-1,8.377565E-1,-6.9032615E-1,3.1510606E-2,-5.7070732E-2,-3.624894E-1,-9.991522E-1,-1.03363365E-1,-1.023881E-1,1.486353E-1,4.0850672E-1,1.2995185E-1,9.2415595E-1,-1.3800685E-2,4.6865606E-1,-3.4026492E-1,8.545808E-1,-1.04126744E-1,-1.0526384E0,-6.144877E-1,6.3878256E-1,-6.8893564E-1,5.5517876E-1,-1.1855813E-1,-5.0626725E-1,-1.0243459E-1,-1.0346813E0,-9.75559E-2,-1.6784865E-1,2.0446385E-1,2.6299892E-2,3.49269E-1,-6.2290514E-1,4.7049198E-1,-2.4609415E-1,2.5991252E-1,1.0770178E0,4.7449985E-1,-4.7745138E-1,5.2381384E-1,5.7516253E-1,-4.0671754E-1,4.4884053E-1,-7.604738E-1,4.052344E-1,8.868829E-1,-6.502061E-1,4.739781E-1],"categories":[],"categories_nodes":[],"categories_segments":[],"categories_sizes":[],"default_left":[1,1,1,1,1,1,1,1,1,1,1,1,1,1,1,1,1,1,1,1,1,1,1,1,1,1,1,1,1,1,1,0,0,0,0,0,0,0,0,1,1,0,0,0,0,0,0,0,0,1,1,1,1,1,1,1,1,1,1,1,1],"id":16,"left_children":[1,3,5,7,9,11,13,15,17,-1,21,23,25,-1,29,31,33,35,37,-1,-1,41,43,45,47,-1,-1,-1,-1,-1,-1,-1,-1,-1,-1,-1,-1,-1,-1,-1,-1,-1,-1,-1,-1,-1,-1,-1,-1,-1,-1,-1,-1,-1,-1,-1,-1,-1,-1,-1,-1],"loss_changes":[1.67724E2,5.757329E1,3.7003838E1,2.694307E1,2.3903826E1,8.391598E0,4.3972244E0,9.897514E0,1.1523666E1,3.9626884E-1,1.946349E1,9.090513E0,4.5143585E0,2.6842463E0,3.036026E0,4.9135513E0,1.0595094E1,8.501291E0,1.046983E1,4.7440338E-1,0E0,1.4843395E1,1.3010913E1,1.3004513E1,1.519008E1,7.628231E-1,2.4759772E0,2.6463747E0,2.4792507E0,1.6610641E0,2.136824E0,0E0,0E0,0E0,0E0,0E0,0E0,0E0,0E0,0E0,0E0,0E0,0E0,0E0,0E0,0E0,0E0,0E0,0E0,0E0,0E0,0E0,0E0,0E0,0E0,0E0,0E0,0E0,0E0,0E0,0E0],"parents":[2147483647,0,0,1,1,2,2,3,3,4,4,5,5,6,6,7,7,8,8,9,9,10,10,11,11,12,12,13,13,14,14,15,15,16,16,17,17,18,18,19,19,21,21,22,22,23,23,24,24,25,25,26,26,27,27,28,28,29,29,30,30],"right_children":[2,4,6,8,10,12,14,16,18,-1,22,24,26,-1,30,32,34,36,38,-1,-1,42,44,46,48,-1,-1,-1,-1,-1,-1,-1,-1,-1,-1,-1,-1,-1,-1,-1,-1,-1,-1,-1,-1,-1,-1,-1,-1,-1,-1,-1,-1,-1,-1,-1,-1,-1,-1,-1,-1],"split_conditions":[5.191087E-1,-5.5229026E-1,1.2333746E0,-2.9190567E-1,-1.7158602E0,3.1915476E0,-5.942352E-1,1.9434102E0,-2.406702E-1,-9.672972E-2,9.443603E-2,-4.5470983E-1,1.5449188E0,3.3778057E-2,3.217174E0,-1.6236892E0,-8.2455426E-1,-9.1217184E-1,6.1999017E-1,-9.991522E-2,-1.0336337E-2,1.215313E0,4.348579E-1,-1.4536463E0,-2.9133415E-1,9.241559E-2,-1.3800686E-3,4.686561E-2,-3.4026492E-2,8.5458085E-2,-1.0412674E-2,-1.05263844E-1,-6.144877E-2,6.387826E-2,-6.889357E-2,5.551788E-2,-1.1855814E-2,-5.0626725E-2,-1.024346E-2,-1.03468135E-1,-9.75559E-3,-1.6784865E-2,2.0446386E-2,2.6299893E-3,3.4926903E-2,-6.2290516E-2,4.70492E-2,-2.4609415E-2,2.5991252E-2,1.0770178E-1,4.7449987E-2,-4.774514E-2,5.2381385E-2,5.7516254E-2,-4.0671755E-2,4.4884052E-2,-7.604738E-2,4.052344E-2,8.868829E-2,-6.502061E-2,4.739781E-2],"split_indices":[8,8,8,0,9,15,0,6,2,24,0,27,2,2,0,8,0,18,3,2147483647,2147483647,20,19,18,0,4,0,2147483647,2147483647,8,0,0,0,0,0,0,0,0,0,2147483647,2147483647,0,0,0,0,0,0,0,0,2147483647,2147483647,2147483647,2147483647,2147483647,2147483647,2147483647,2147483647,2147483647,2147483647,2147483647,2147483647],"split_type":[0,0,0,0,0,0,0,0,0,0,0,0,0,0,0,0,0,0,0,0,0,0,0,0,0,0,0,0,0,0,0,0,0,0,0,0,0,0,0,0,0,0,0,0,0,0,0,0,0,0,0,0,0,0,0,0,0,0,0,0,0],"sum_hessian":[2.7710632E3,2.0421067E3,7.289564E2,7.540933E2,1.2880134E3,5.308239E2,1.9813246E2,2.5018831E2,5.0390506E2,2.3910515E1,1.2641029E3,4.986537E2,3.217027E1,2.4509855E1,1.736226E2,2.2997162E2,2.0216682E1,2.2148709E2,2.8241797E2,2.2646706E1,1.2638086E0,7.3373175E2,5.303711E2,1.9248085E2,3.0617282E2,2.6225233E1,5.945036E0,2.1185722E1,3.324133E0,1.7086215E2,2.760458E0,3.5118256E1,1.9485336E2,1.11683035E1,9.048378E0,1.8599667E1,2.0288742E2,1.8040079E2,1.02017166E2,2.1397366E1,1.2493409E0,6.057413E2,1.27990524E2,3.3119012E2,1.9918094E2,9.794366E0,1.8268648E2,7.797952E1,2.281933E2,1.7323326E1,8.901908E0,3.4121468E0,2.5328891E0,1.9601015E1,1.5847089E0,1.0250162E0,2.2991166E0,1.3483439E1,1.5737871E2,1.380229E0,1.380229E0],"tree_param":{"num_deleted":"18","num_feature":"28","num_nodes":"61","size_leaf_vector":"0"}},{"base_weights":[1.6186041E-3,-1.9827332E-1,2.5817293E-1,-6.8294996E-1,-1.5609966E-1,1.6622329E-1,7.47433E-1,-1.0140282E0,-4.644441E-1,-6.655951E-1,-1.2725216E-1,1.1139246E-1,4.4438604E-1,3.1125072E-1,8.068953E-1,-5.5204684E-1,3.3391398E-1,8.8619506E-1,-7.1786946E-1,-1.9180484E-1,5.5843808E-2,7.7341326E-2,5.3416294E-1,5.298834E-1,-1.5523072E-2,3.454639E-2,7.021752E-1,8.242247E-1,-9.770188E-2,4.7982723E-1,-5.923825E-1,-2.8594655E-1,8.899355E-1,-9.371688E-1,-3.796972E-1,-4.332451E-1,-1.2929222E-1,-1.5772263E-2,5.357451E-1,-8.685501E-1,9.9327505E-2,-5.028331E-1,1.0032204E0,3.3078337E-1,8.2046646E-1,-4.1889971E-1,4.5656472E-1,4.2919454E-1,-3.2941374E-1,9.589851E-1,-0E0,3.5256127E-1,8.587063E-1,-6.442362E-1,4.7698203E-1],"categories":[],"categories_nodes":[],"categories_segments":[],"categories_sizes":[],"default_left":[1,1,1,1,1,1,1,0,1,1,1,1,1,1,1,1,1,0,1,1,1,1,1,1,1,1,1,1,1,0,0,0,0,0,0,0,0,0,0,0,0,0,0,0,0,0,0,1,1,1,1,1,1,1,1],"id":17,"left_children":[1,3,5,7,9,11,13,-1,15,17,19,21,23,-1,-1,29,31,-1,33,35,37,39,41,43,45,-1,-1,-1,-1,-1,-1,-1,-1,-1,-1,-1,-1,-1,-1,-1,-1,-1,-1,-1,-1,-1,-1,-1,-1,-1,-1,-1,-1,-1,-1],"loss_changes":[1.40419E2,3.1155476E1,5.36119E1,7.7643166E0,2.0597637E1,1.5284637E1,4.287483E0,0E0,5.817877E0,7.3673515E0,1.59319935E1,1.2072061E1,6.5839043E0,2.7043214E0,2.8179855E0,3.5263557E0,3.604586E0,0E0,4.648716E0,1.48532715E1,1.2157566E1,1.6480682E1,3.1554062E1,7.4404373E0,5.6606345E0,2.814068E0,1.8831882E0,1.9093552E0,2.1321068E0,0E0,0E0,0E0,0E0,0E0,0E0,0E0,0E0,0E0,0E0,0E0,0E0,0E0,0E0,0E0,0E0,0E0,0E0,0E0,0E0,0E0,0E0,0E0,0E0,0E0,0E0],"parents":[2147483647,0,0,1,1,2,2,3,3,4,4,5,5,6,6,8,8,9,9,10,10,11,11,12,12,13,13,14,14,15,15,16,16,18,18,19,19,20,20,21,21,22,22,23,23,24,24,25,25,26,26,27,27,28,28],"right_children":[2,4,6,8,10,12,14,-1,16,18,20,22,24,-1,-1,30,32,-1,34,36,38,40,42,44,46,-1,-1,-1,-1,-1,-1,-1,-1,-1,-1,-1,-1,-1,-1,-1,-1,-1,-1,-1,-1,-1,-1,-1,-1,-1,-1,-1,-1,-1,-1],"split_conditions":[-1.9515727E-1,-1.2665563E0,1.2333746E0,-6.0509396E-1,-1.4599229E0,1.2415814E0,-5.942352E-1,-1.0140282E-1,1.448925E0,-1.3978503E0,3.0246615E-1,2.9355123E0,6.786609E-1,3.1125072E-2,8.0689535E-2,-1.8326783E0,5.357462E-1,8.861951E-2,-9.8163314E-2,-5.97788E-1,1.4582267E0,-1.6016423E0,1.2318656E0,1.4694402E-1,3.9635003E-1,3.454639E-3,7.021752E-2,8.242247E-2,-9.770188E-3,4.7982723E-2,-5.923825E-2,-2.8594656E-2,8.899355E-2,-9.371688E-2,-3.796972E-2,-4.332451E-2,-1.2929223E-2,-1.5772263E-3,5.357451E-2,-8.685502E-2,9.932751E-3,-5.0283313E-2,1.00322045E-1,3.307834E-2,8.204665E-2,-4.1889973E-2,4.5656472E-2,4.2919453E-2,-3.2941375E-2,9.589851E-2,-0E0,3.525613E-2,8.587063E-2,-6.442362E-2,4.7698203E-2],"split_indices":[8,8,8,0,9,12,0,0,21,4,0,17,25,23,0,18,25,0,0,2,20,20,5,19,21,2147483647,2147483647,2147483647,2147483647,0,0,0,0,0,0,0,0,0,0,0,0,0,0,0,0,0,0,2147483647,2147483647,2147483647,2147483647,2147483647,2147483647,2147483647,2147483647],"split_type":[0,0,0,0,0,0,0,0,0,0,0,0,0,0,0,0,0,0,0,0,0,0,0,0,0,0,0,0,0,0,0,0,0,0,0,0,0,0,0,0,0,0,0,0,0,0,0,0,0,0,0,0,0,0,0],"sum_hessian":[2.7339995E3,1.5367329E3,1.1972666E3,1.2039111E2,1.4163418E3,1.010282E3,1.869846E2,4.478863E1,7.560248E1,7.334435E1,1.3429974E3,8.4656866E2,1.6371333E2,2.4130123E1,1.6285448E2,6.87959E1,6.80658E0,1.2880923E0,7.205626E1,9.93262E2,3.497354E2,7.858745E2,6.0694153E1,1.3797656E2,2.5736776E1,1.5553549E1,8.576574E0,1.6007614E2,2.7783415E0,1.6749939E0,6.712091E1,3.592839E0,3.213741E0,4.138226E1,3.0674002E1,2.0151137E2,7.917506E2,3.0582306E2,4.391234E1,1.5999181E1,7.698753E2,1.8791826E1,4.1902325E1,8.461878E1,5.3357777E1,1.4114102E1,1.1622675E1,7.422016E0,8.131533E0,5.718099E0,2.8584754E0,1.2632271E1,1.4744386E2,1.3891708E0,1.3891708E0],"tree_param":{"num_deleted":"12","num_feature":"28","num_nodes":"55","size_leaf_vector":"0"}},{"base_weights":[1.629403E-3,-1.2112609E-1,3.559559E-1,-3.1660828E-1,-9.550261E-3,2.377641E-1,7.424154E-1,-5.69285E-1,-1.955404E-1,-9.30142E-1,7.3331925E-3,2.0444642E-1,7.105655E-1,2.4296713E-1,8.177331E-1,-6.275016E-1,4.909198E-2,-3.6582112E-2,-3.2043663E-1,-9.658012E-1,-5.1374175E-2,-1.8337056E-2,4.9698278E-1,1.5889066E-1,5.737695E-1,8.691132E-1,-0E0,-5.946365E-2,7.216295E-1,8.392065E-1,-1.4771411E-1,-7.628696E-1,-4.1604826E-1,5.9399056E-1,-6.310001E-1,5.1095814E-1,-9.2936695E-2,-4.0311706E-1,1.121261E-1,-1.0056193E0,-4.244939E-2,-7.06164E-2,2.9724675E-1,5.689948E-1,-4.4142345E-1,-3.6396962E-1,1.9448455E-1,-6.2943184E-1,7.1496886E-1,1.0270232E0,3.984016E-1,-4.1388753E-1,5.030881E-1,4.2875835E-1,-4.7198534E-1,8.4397763E-1,-1.4835427E-2,1.231153E-1,8.6014295E-1,-6.9053304E-1,4.539646E-1],"categories":[],"categories_nodes":[],"categories_segments":[],"categories_sizes":[],"default_left":[1,1,1,1,1,1,1,1,1,1,1,1,1,1,1,1,1,1,1,1,1,1,1,1,1,1,1,1,1,1,1,0,0,0,0,0,0,0,0,1,1,0,0,0,0,0,0,0,0,1,1,1,1,0,0,1,1,1,1,1,1],"id":18,"left_children":[1,3,5,7,9,11,13,15,17,-1,21,23,25,27,29,31,33,35,37,-1,-1,41,43,45,47,-1,-1,53,-1,-1,-1,-1,-1,-1,-1,-1,-1,-1,-1,-1,-1,-1,-1,-1,-1,-1,-1,-1,-1,-1,-1,-1,-1,-1,-1,-1,-1,-1,-1,-1,-1],"loss_changes":[1.17754616E2,4.3803665E1,3.137004E1,2.2032982E1,2.0032885E1,8.071497E0,5.591385E0,8.585289E0,9.805115E0,5.264168E-1,1.5914391E1,8.229506E0,3.9521294E0,3.6626482E0,3.2147293E0,5.4078445E0,8.876995E0,6.8794675E0,1.0048784E1,6.2179184E-1,0E0,1.9814024E1,4.777417E0,8.535725E0,1.0145594E1,1.1332722E0,2.1042397E0,3.74849E0,9.792681E-1,1.7457962E0,2.1662009E0,0E0,0E0,0E0,0E0,0E0,0E0,0E0,0E0,0E0,0E0,0E0,0E0,0E0,0E0,0E0,0E0,0E0,0E0,0E0,0E0,0E0,0E0,0E0,0E0,0E0,0E0,0E0,0E0,0E0,0E0],"parents":[2147483647,0,0,1,1,2,2,3,3,4,4,5,5,6,6,7,7,8,8,9,9,10,10,11,11,12,12,13,13,14,14,15,15,16,16,17,17,18,18,19,19,21,21,22,22,23,23,24,24,25,25,26,26,27,27,28,28,29,29,30,30],"right_children":[2,4,6,8,10,12,14,16,18,-1,22,24,26,28,30,32,34,36,38,-1,-1,42,44,46,48,-1,-1,54,-1,-1,-1,-1,-1,-1,-1,-1,-1,-1,-1,-1,-1,-1,-1,-1,-1,-1,-1,-1,-1,-1,-1,-1,-1,-1,-1,-1,-1,-1,-1,-1,-1],"split_conditions":[5.191087E-1,-5.5229026E-1,1.5905077E0,-2.9190567E-1,-1.7158602E0,3.1915476E0,-4.776469E-1,1.9434102E0,-2.406702E-1,-9.30142E-2,1.2415814E0,1.9434102E0,1.5449188E0,3.671474E-1,3.217174E0,3.392532E-1,-8.2455426E-1,-9.1217184E-1,1.1723096E0,-9.658012E-2,-5.1374175E-3,1.3964683E0,2.0627575E0,-1.8477001E0,-1.3634005E0,8.691132E-2,-0E0,-7.2966886E-1,7.216295E-2,8.392065E-2,-1.4771411E-2,-7.6286964E-2,-4.1604828E-2,5.9399057E-2,-6.310001E-2,5.1095814E-2,-9.29367E-3,-4.0311705E-2,1.121261E-2,-1.0056193E-1,-4.244939E-3,-7.0616403E-3,2.9724676E-2,5.6899484E-2,-4.4142347E-2,-3.639696E-2,1.9448455E-2,-6.294318E-2,7.149689E-2,1.0270232E-1,3.9840158E-2,-4.1388754E-2,5.0308812E-2,4.2875838E-2,-4.7198534E-2,8.439776E-2,-1.4835427E-3,1.231153E-2,8.601429E-2,-6.905331E-2,4.539646E-2],"split_indices":[8,8,8,0,9,15,0,6,2,24,12,6,2,23,0,23,0,18,1,2147483647,2147483647,20,20,2,18,4,0,27,4,7,0,0,0,0,0,0,0,0,0,2147483647,2147483647,0,0,0,0,0,0,0,0,2147483647,2147483647,2147483647,2147483647,0,0,2147483647,2147483647,2147483647,2147483647,2147483647,2147483647],"split_type":[0,0,0,0,0,0,0,0,0,0,0,0,0,0,0,0,0,0,0,0,0,0,0,0,0,0,0,0,0,0,0,0,0,0,0,0,0,0,0,0,0,0,0,0,0,0,0,0,0,0,0,0,0,0,0,0,0,0,0,0,0],"sum_hessian":[2.7027585E3,2.0080939E3,6.946648E2,7.28021E2,1.2800729E3,5.3464294E2,1.6002185E2,2.331633E2,4.9485767E2,2.1211798E1,1.2588611E3,5.0232138E2,3.2321587E1,2.225087E1,1.3777098E2,2.1322188E2,1.9941423E1,2.1922786E2,2.7562982E2,2.0084904E1,1.1268929E0,1.1977871E3,6.1074013E1,4.4995135E2,5.2370007E1,2.6173681E1,6.1479034E0,1.4580914E1,7.6699557E0,1.3513051E2,2.640468E0,1.2653101E2,8.669087E1,1.1293317E1,8.648108E0,1.8786858E1,2.00441E2,2.3170822E2,4.392158E1,1.897993E1,1.1049733E0,1.0291656E3,1.6862137E2,5.7551468E1,3.5225434E0,2.7323223E1,4.2262814E2,4.699602E0,4.7670406E1,1.7669825E1,8.503858E0,3.6748235E0,2.47308E0,6.5306807E0,8.050233E0,6.4433446E0,1.2266114E0,4.365171E0,1.3076534E2,1.320234E0,1.320234E0],"tree_param":{"num_deleted":"14","num_feature":"28","num_nodes":"61","size_leaf_vector":"0"}},{"base_weights":[1.5445183E-3,-1.1029941E-1,3.2872838E-1,-3.398701E-1,-2.8460296E-2,2.1689495E-1,7.116447E-1,-9.516835E-1,-2.8895754E-1,-1.2888207E-1,7.7090934E-2,1.6057803E-1,4.8924667E-1,1.837858E-1,7.817054E-1,5.2520163E-2,-9.9773145E-1,-4.0237504E-1,-5.6262072E-2,-1.656947E-1,5.3149617E-1,4.3423973E-2,5.9855413E-1,1.0778357E-1,5.529262E-1,-2.7673486E-1,5.662175E-1,-1.4818841E-1,6.234097E-1,8.0319786E-1,-1.3851982E-1,-1.0207762E0,-3.602432E-2,-4.3683952E-1,2.4528334E-1,-1.05690084E-1,1.1068633E0,-2.7299187E-1,-1.2257499E-2,1.7924608E-1,9.15196E-1,1.1307822E-2,6.297494E-1,6.939674E-1,-5.4645836E-1,1.2699689E-1,-1.1375787E0,2.1012342E-1,9.9389845E-1,6.075298E-1,-9.1620666E-1,6.6047233E-1,-8.8633634E-2,2.633566E-1,-6.170793E-1,-3.2296568E-1,8.6855537E-1,8.565732E-2,8.245541E-1,-6.8205297E-1,4.581339E-1],"categories":[],"categories_nodes":[],"categories_segments":[],"categories_sizes":[],"default_left":[1,1,1,1,1,1,1,1,1,1,1,1,1,1,1,1,1,1,1,1,1,1,1,1,1,1,1,1,1,1,1,1,1,0,0,0,0,0,0,0,0,0,0,0,0,0,0,0,0,0,0,0,0,1,1,1,1,1,1,1,1],"id":19,"left_children":[1,3,5,7,9,11,13,-1,17,19,21,23,25,27,-1,-1,-1,33,35,37,39,41,43,45,47,49,51,-1,-1,-1,-1,-1,-1,-1,-1,-1,-1,-1,-1,-1,-1,-1,-1,-1,-1,-1,-1,-1,-1,-1,-1,-1,-1,-1,-1,-1,-1,-1,-1,-1,-1],"loss_changes":[9.793687E1,3.740463E1,2.8798561E1,1.5632214E1,1.5631866E1,7.919737E0,5.27639E0,2.0116844E0,1.2743141E1,1.851236E1,1.2500101E1,8.994114E0,5.629427E0,3.2556503E0,2.9459076E0,0E0,6.55632E-1,7.51754E0,9.445614E0,1.1777691E1,5.000861E0,1.2677097E1,5.497798E0,9.598656E0,7.2998276E0,6.466878E0,5.2517204E0,2.9248407E0,2.802554E0,1.7854614E0,2.1603856E0,0E0,0E0,0E0,0E0,0E0,0E0,0E0,0E0,0E0,0E0,0E0,0E0,0E0,0E0,0E0,0E0,0E0,0E0,0E0,0E0,0E0,0E0,0E0,0E0,0E0,0E0,0E0,0E0,0E0,0E0],"parents":[2147483647,0,0,1,1,2,2,3,3,4,4,5,5,6,6,7,7,8,8,9,9,10,10,11,11,12,12,13,13,14,14,16,16,17,17,18,18,19,19,20,20,21,21,22,22,23,23,24,24,25,25,26,26,27,27,28,28,29,29,30,30],"right_children":[2,4,6,8,10,12,14,-1,18,20,22,24,26,28,-1,-1,-1,34,36,38,40,42,44,46,48,50,52,-1,-1,-1,-1,-1,-1,-1,-1,-1,-1,-1,-1,-1,-1,-1,-1,-1,-1,-1,-1,-1,-1,-1,-1,-1,-1,-1,-1,-1,-1,-1,-1,-1,-1],"split_conditions":[5.191087E-1,-9.094233E-1,1.5905077E0,-1.0325844E0,3.2712795E-2,4.1105333E-1,-5.942352E-1,-9.516835E-2,2.638644E-2,7.570132E-2,1.2415814E0,2.465095E0,8.762417E-1,-4.843885E-1,7.817054E-2,5.2520162E-3,-9.9773146E-2,1.9434102E0,1.8982053E0,3.004779E-1,3.8338012E-1,1.9434102E0,2.0627575E0,3.5764844E0,3.8292468E-1,-4.0378764E-2,1.7234776E0,-1.4818842E-2,6.234097E-2,8.0319785E-2,-1.3851983E-2,-1.0207762E-1,-3.602432E-3,-4.3683954E-2,2.4528334E-2,-1.0569009E-2,1.10686325E-1,-2.7299186E-2,-1.2257498E-3,1.7924609E-2,9.15196E-2,1.1307822E-3,6.2974945E-2,6.939674E-2,-5.4645836E-2,1.2699689E-2,-1.1375787E-1,2.1012342E-2,9.938984E-2,6.0752984E-2,-9.162067E-2,6.604724E-2,-8.863363E-3,2.633566E-2,-6.1707933E-2,-3.229657E-2,8.685554E-2,8.565732E-3,8.245541E-2,-6.82053E-2,4.5813393E-2],"split_indices":[8,8,8,0,0,0,0,21,24,9,12,25,8,24,0,2147483647,2147483647,6,3,1,23,6,20,16,4,25,2,4,0,2147483647,2147483647,2147483647,2147483647,0,0,0,0,0,0,0,0,0,0,0,0,0,0,0,0,0,0,0,0,2147483647,2147483647,2147483647,2147483647,2147483647,2147483647,2147483647,2147483647],"split_type":[0,0,0,0,0,0,0,0,0,0,0,0,0,0,0,0,0,0,0,0,0,0,0,0,0,0,0,0,0,0,0,0,0,0,0,0,0,0,0,0,0,0,0,0,0,0,0,0,0,0,0,0,0,0,0,0,0,0,0,0,0],"sum_hessian":[2.6717656E3,1.9918838E3,6.798818E2,5.2149274E2,1.4703911E3,5.288279E2,1.510539E2,3.719332E1,4.8429938E2,7.537635E2,7.1662756E2,4.4115262E2,8.767525E1,1.8715952E1,1.3233794E2,1.5231886E0,3.567013E1,3.243303E2,1.599691E2,7.1552625E2,3.8237232E1,6.753816E2,4.1246E1,3.9130307E2,4.984953E1,7.41312E0,8.026212E1,1.1289362E1,7.4265895E0,1.2967236E2,2.665574E0,3.4613876E1,1.0562534E0,3.0870813E2,1.5622167E1,1.5527481E2,4.6942964E0,4.1977292E2,2.9575333E2,2.1601349E1,1.6635885E1,6.424029E2,3.2978687E1,3.8881226E1,2.3647738E0,3.8720566E2,4.097421E0,2.9835665E1,2.0013863E1,3.0873876E0,4.325732E0,7.028178E1,9.980347E0,6.365651E0,4.9237103E0,1.3134106E0,6.1131787E0,4.172894E0,1.2549947E2,1.332787E0,1.332787E0],"tree_param":{"num_deleted":"14","num_feature":"28","num_nodes":"61","size_leaf_vector":"0"}},{"base_weights":[1.7271027E-3,-1.5254056E-1,2.0212002E-1,-5.998732E-1,-1.16691105E-1,1.2823132E-1,6.546113E-1,-9.623031E-1,-3.843282E-1,-5.895983E-1,-9.1834E-2,9.230771E-2,4.8139116E-1,5.404253E-1,9.3692935E-1,-1.8719657E-1,-9.807372E-1,-9.038199E-1,-2.284664E-1,8.6422026E-1,-6.449404E-1,-1.7301667E-1,2.5547357E-2,4.4715088E-2,3.763269E-1,6.2156945E-1,-2.445351E-1,1.6403893E-1,6.202236E-1,9.5608073E-1,5.8210164E-2,-2.3258659E-1,-1.0014741E0,-1.0011681E0,5.788728E-2,-3.6332163E-1,6.4982456E-1,2.9152638E-1,-7.1011794E-1,-2.2364488E-1,1.7286068E-1,7.228679E-2,-3.011844E-1,7.3267934E-3,4.5739806E-1,5.7636184E-1,5.9527803E-2,2.9528305E-1,8.750825E-1,-8.6893296E-1,3.1190985E-1,5.9479564E-1,-3.0508712E-1,6.499733E-1,-3.8467476E-1,9.9038357E-1,2.749836E-1],"categories":[],"categories_nodes":[],"categories_segments":[],"categories_sizes":[],"default_left":[1,1,1,1,1,1,1,1,1,1,1,1,1,1,1,1,1,1,1,0,1,1,1,1,1,1,1,1,1,1,1,1,1,1,1,0,0,0,0,0,0,0,0,0,0,0,0,0,0,0,0,0,0,0,0,1,1],"id":20,"left_children":[1,3,5,7,9,11,13,-1,17,19,21,23,25,27,-1,-1,-1,-1,35,-1,37,39,41,43,45,47,49,51,53,-1,-1,-1,-1,-1,-1,-1,-1,-1,-1,-1,-1,-1,-1,-1,-1,-1,-1,-1,-1,-1,-1,-1,-1,-1,-1,-1,-1],"loss_changes":[8.184677E1,2.3772392E1,3.8263676E1,7.740238E0,1.613148E1,1.2449341E1,4.029869E0,8.215332E-2,5.356353E0,6.620928E0,1.2607985E1,1.2142162E1,9.595026E0,3.3107796E0,5.17437E-1,0E0,1.8882751E-3,1.702774E0,7.397248E0,0E0,4.5697975E0,1.376619E1,8.284896E0,1.1931326E1,8.052305E0,5.726866E0,6.1698427E0,5.2139883E0,3.4489937E0,3.1523895E-1,0E0,0E0,0E0,0E0,0E0,0E0,0E0,0E0,0E0,0E0,0E0,0E0,0E0,0E0,0E0,0E0,0E0,0E0,0E0,0E0,0E0,0E0,0E0,0E0,0E0,0E0,0E0],"parents":[2147483647,0,0,1,1,2,2,3,3,4,4,5,5,6,6,7,7,8,8,9,9,10,10,11,11,12,12,13,13,14,14,16,16,17,17,18,18,20,20,21,21,22,22,23,23,24,24,25,25,26,26,27,27,28,28,29,29],"right_children":[2,4,6,8,10,12,14,-1,18,20,22,24,26,28,-1,-1,-1,-1,36,-1,38,40,42,44,46,48,50,52,54,-1,-1,-1,-1,-1,-1,-1,-1,-1,-1,-1,-1,-1,-1,-1,-1,-1,-1,-1,-1,-1,-1,-1,-1,-1,-1,-1,-1],"split_conditions":[-1.9515727E-1,-1.2665563E0,1.2333746E0,-6.0509396E-1,-1.4599229E0,1.5829636E0,1.5829636E0,-9.623031E-2,-8.3116746E-1,-1.3978503E0,-7.962345E-2,1.2357218E0,1.7234776E0,-4.776469E-1,9.3692936E-2,-1.8719656E-2,-9.807372E-2,-9.0381995E-2,1.2779248E0,8.6422026E-2,-1.7333564E0,1.4545313E0,1.609885E0,2.0452828E0,2.0465138E0,-8.926071E-2,-2.848659E-1,4.5712364E-1,3.217174E0,9.560808E-2,5.8210166E-3,-2.325866E-2,-1.0014742E-1,-1.0011681E-1,5.788728E-3,-3.6332164E-2,6.498246E-2,2.9152637E-2,-7.10118E-2,-2.2364488E-2,1.7286068E-2,7.2286795E-3,-3.011844E-2,7.326793E-4,4.5739807E-2,5.7636183E-2,5.9527806E-3,2.9528305E-2,8.7508254E-2,-8.68933E-2,3.1190986E-2,5.9479564E-2,-3.0508712E-2,6.499733E-2,-3.8467478E-2,9.9038355E-2,2.7498363E-2],"split_indices":[8,8,8,0,9,10,10,2,20,4,24,19,2,0,25,2147483647,2147483647,27,21,0,27,20,26,25,19,24,4,4,0,2147483647,2147483647,2147483647,2147483647,2147483647,2147483647,0,0,0,0,0,0,0,0,0,0,0,0,0,0,0,0,0,0,0,0,2147483647,2147483647],"split_type":[0,0,0,0,0,0,0,0,0,0,0,0,0,0,0,0,0,0,0,0,0,0,0,0,0,0,0,0,0,0,0,0,0,0,0,0,0,0,0,0,0,0,0,0,0,0,0,0,0,0,0,0,0,0,0,0,0],"sum_hessian":[2.6433958E3,1.4935787E3,1.1498171E3,1.0827377E2,1.3853049E3,9.9081213E2,1.5900499E2,3.7621616E1,7.065216E1,6.670865E1,1.3185962E3,9.018785E2,8.8933655E1,1.1761661E2,4.1388382E1,1.5182368E0,3.6103382E1,1.39424095E1,5.670975E1,1.3080382E0,6.540061E1,7.79433E2,5.3916327E2,7.747259E2,1.27152565E2,7.4896255E1,1.4037399E1,2.1862371E1,9.5754234E1,4.0221878E1,1.1665024E0,1.7627044E0,3.4340675E1,1.2680728E1,1.2616813E0,5.0276653E1,6.4330964E0,3.703861E0,6.169675E1,6.8077905E2,9.865393E1,4.7331802E2,6.584523E1,7.1245654E2,6.2269386E1,7.674164E1,5.0410927E1,3.4813362E1,4.008289E1,6.170223E0,7.8671756E0,1.12290945E1,1.0633277E1,9.37837E1,1.9705353E0,3.7288837E1,2.9330406E0],"tree_param":{"num_deleted":"10","num_feature":"28","num_nodes":"57","size_leaf_vector":"0"}},{"base_weights":[1.7671003E-3,-4.6212755E-2,5.4841405E-1,-2.5430906E-1,3.728592E-2,-6.9530016E-1,5.7825667E-1,-5.4361635E-1,-1.5538941E-1,-1.5047429E-3,3.6636665E-1,6.4311063E-1,1.2993164E-1,1.6950658E-2,-6.320162E-1,-8.6132735E-2,-4.194325E-1,-4.022498E-2,2.5475413E-1,2.3442927E-1,6.880762E-1,-1.9302459E-1,6.64804E-1,-3.720859E-1,4.5801806E-1,-4.417481E-1,1.0501673E0,-7.3619026E-1,-3.0371228E-1,-1.23127915E-1,4.5472088E-1,-5.239807E-1,4.3571703E-2,-3.4334326E-1,7.969926E-3,7.671177E-1,1.472206E-1,1.3310188E-1,6.9027185E-1,-7.748555E-2,7.3591125E-1,-6.160076E-1,4.7125864E-1,4.9329478E-1,7.762077E-1,-1.1565027E0,2.369647E-2,7.2561705E-1,-1.5653446E-1],"categories":[],"categories_nodes":[],"categories_segments":[],"categories_sizes":[],"default_left":[1,1,1,1,1,0,1,1,1,1,1,1,1,1,1,1,1,1,1,1,1,1,1,1,1,0,0,0,0,0,0,0,0,0,0,0,0,0,0,1,1,1,1,1,1,0,0,0,0],"id":21,"left_children":[1,3,5,7,9,-1,11,13,15,17,19,21,23,25,27,29,31,33,35,37,-1,-1,-1,45,47,-1,-1,-1,-1,-1,-1,-1,-1,-1,-1,-1,-1,-1,-1,-1,-1,-1,-1,-1,-1,-1,-1,-1,-1],"loss_changes":[6.88515E1,4.1941147E1,8.654659E0,1.9539639E1,2.2023403E1,0E0,5.804405E0,8.756729E0,9.351166E0,1.5303601E1,7.3056316E0,3.5877075E0,5.124631E0,1.3138742E1,4.62685E0,8.3474E0,5.265194E0,1.9644331E1,1.0834125E1,5.8422146E0,2.0712337E0,2.2842643E0,2.4897919E0,4.0307713E0,3.3347752E0,0E0,0E0,0E0,0E0,0E0,0E0,0E0,0E0,0E0,0E0,0E0,0E0,0E0,0E0,0E0,0E0,0E0,0E0,0E0,0E0,0E0,0E0,0E0,0E0],"parents":[2147483647,0,0,1,1,2,2,3,3,4,4,6,6,7,7,8,8,9,9,10,10,11,11,12,12,13,13,14,14,15,15,16,16,17,17,18,18,19,19,20,20,21,21,22,22,23,23,24,24],"right_children":[2,4,6,8,10,-1,12,14,16,18,20,22,24,26,28,30,32,34,36,38,-1,-1,-1,46,48,-1,-1,-1,-1,-1,-1,-1,-1,-1,-1,-1,-1,-1,-1,-1,-1,-1,-1,-1,-1,-1,-1,-1,-1],"split_conditions":[7.570132E-2,-5.5229026E-1,-1.4451227E0,-4.039219E-1,1.2415814E0,-6.953002E-2,1.3471501E0,-7.2715724E-1,7.1681994E-1,1.397619E0,3.92765E-1,-1.4300319E0,2.1232004E0,7.238928E-1,3.8292468E-1,1.273464E0,3.3226788E-1,-7.273973E-1,-9.5265645E-1,1.1430598E0,6.8807624E-2,-1.930246E-2,6.64804E-2,-1.0166156E0,8.617704E-1,-4.4174813E-2,1.0501673E-1,-7.361903E-2,-3.0371228E-2,-1.2312791E-2,4.547209E-2,-5.2398067E-2,4.3571703E-3,-3.4334328E-2,7.969926E-4,7.671177E-2,1.47220595E-2,1.3310188E-2,6.9027185E-2,-7.748555E-3,7.359113E-2,-6.1600763E-2,4.7125865E-2,4.932948E-2,7.762077E-2,-1.15650274E-1,2.369647E-3,7.25617E-2,-1.5653446E-2],"split_indices":[9,8,8,0,12,0,14,21,4,20,0,20,9,20,4,0,19,0,4,19,18,21,22,27,25,0,0,0,0,0,0,0,0,0,0,0,0,0,0,2147483647,2147483647,2147483647,2147483647,2147483647,2147483647,0,0,0,0],"split_type":[0,0,0,0,0,0,0,0,0,0,0,0,0,0,0,0,0,0,0,0,0,0,0,0,0,0,0,0,0,0,0,0,0,0,0,0,0,0,0,0,0,0,0,0,0,0,0,0,0],"sum_hessian":[2.619263E3,2.4094321E3,2.0983073E2,6.89116E2,1.7203162E3,3.7932973E0,2.0603745E2,1.7303725E2,5.160788E2,1.5404243E3,1.7989182E2,1.7904506E2,2.6992378E1,2.363659E1,1.4940067E2,4.1124356E2,1.048352E2,1.3400253E3,2.0039903E2,1.3024489E2,4.964693E1,4.011775E0,1.750333E2,1.0441866E1,1.6550512E1,1.7095242E1,6.541347E0,1.1129596E2,3.81047E1,3.865337E2,2.4709885E1,8.548495E1,1.935025E1,1.8243579E2,1.1575895E3,3.2473854E1,1.6792519E2,1.08851974E2,2.1392906E1,2.7238393E0,4.692309E1,2.6318355E0,1.3799392E0,7.355181E1,1.01481476E2,2.297295E0,8.14457E0,1.1391502E1,5.159011E0],"tree_param":{"num_deleted":"6","num_feature":"28","num_nodes":"49","size_leaf_vector":"0"}},{"base_weights":[1.6716814E-3,-8.547822E-2,2.6547417E-1,-2.7231655E-1,-2.1798171E-2,1.7350967E-1,6.225564E-1,-8.9524585E-1,-2.2628075E-1,-1.0195375E-1,9.07022E-2,1.3237356E-1,5.27597E-1,1.3705887E-1,7.0939904E-1,1.2993436E-1,-9.4882065E-1,-2.818898E-1,1.9953336E-1,-5.5598074E-1,-6.0146764E-2,-2.0959178E-1,1.3842435E-1,7.345476E-2,4.476624E-1,9.7203076E-1,9.305453E-2,-1.5386832E-1,6.3426507E-1,7.351013E-1,-2.0566761E-1,-9.755017E-1,-1.9400511E-2,-4.326823E-1,-1.310614E-1,6.624779E-2,1.0470542E0,-7.3278326E-1,-6.460107E-2,-8.882038E-3,-2.8606656E-1,5.050458E-1,-3.1743485E-1,3.9744937E-1,8.9162335E-2,3.927136E-1,1.8280938E-2,5.5917096E-1,-1.8030053E-1,1.0314375E0,7.7474095E-2,-6.872377E-1,9.842904E-1,3.3197448E-1,-5.2536625E-1,7.725221E-1,-7.442019E-2,-2.6522754E-2,7.6161015E-1,-7.408983E-1,4.2708418E-1],"categories":[],"categories_nodes":[],"categories_segments":[],"categories_sizes":[],"default_left":[1,1,1,1,1,1,1,1,1,1,1,1,1,1,1,1,1,1,1,1,1,1,1,1,1,1,1,1,1,1,1,1,1,0,0,0,0,0,0,0,0,0,0,0,0,0,0,0,0,1,1,0,0,0,0,1,1,1,1,1,1],"id":22,"left_children":[1,3,5,7,9,11,13,-1,17,19,21,23,25,27,-1,-1,-1,33,35,37,39,41,43,45,47,-1,51,53,-1,-1,-1,-1,-1,-1,-1,-1,-1,-1,-1,-1,-1,-1,-1,-1,-1,-1,-1,-1,-1,-1,-1,-1,-1,-1,-1,-1,-1,-1,-1,-1,-1],"loss_changes":[5.983406E1,2.3224373E1,2.0930374E1,1.3720493E1,1.3193861E1,7.3246546E0,5.2601433E0,2.1596508E0,1.1135002E1,1.6092701E1,8.769393E0,8.540622E0,9.926382E0,3.5106506E0,2.9610672E0,0E0,6.566467E-1,9.211002E0,5.928116E0,6.046932E0,9.056705E0,6.77048E0,6.597968E0,6.9089413E0,5.3321476E0,1.1014519E0,2.1596146E1,3.2077756E0,1.0524597E0,2.3006325E0,2.182604E0,0E0,0E0,0E0,0E0,0E0,0E0,0E0,0E0,0E0,0E0,0E0,0E0,0E0,0E0,0E0,0E0,0E0,0E0,0E0,0E0,0E0,0E0,0E0,0E0,0E0,0E0,0E0,0E0,0E0,0E0],"parents":[2147483647,0,0,1,1,2,2,3,3,4,4,5,5,6,6,7,7,8,8,9,9,10,10,11,11,12,12,13,13,14,14,16,16,17,17,18,18,19,19,20,20,21,21,22,22,23,23,24,24,25,25,26,26,27,27,28,28,29,29,30,30],"right_children":[2,4,6,8,10,12,14,-1,18,20,22,24,26,28,-1,-1,-1,34,36,38,40,42,44,46,48,-1,52,54,-1,-1,-1,-1,-1,-1,-1,-1,-1,-1,-1,-1,-1,-1,-1,-1,-1,-1,-1,-1,-1,-1,-1,-1,-1,-1,-1,-1,-1,-1,-1,-1,-1],"split_conditions":[5.191087E-1,-9.094233E-1,1.5905077E0,-1.0325844E0,3.004779E-1,1.9434102E0,-4.776469E-1,-8.952459E-2,8.262793E-1,-1.3788621E0,-1.1262827E0,4.8089415E-1,1.1644759E-1,3.671474E-1,7.0939906E-2,1.2993435E-2,-9.488206E-2,3.3594233E-1,1.6342685E0,5.1894516E-2,1.009242E0,-7.763468E-1,-9.15557E-1,-1.7944162E0,1.5449188E0,9.7203076E-2,1.009242E0,-7.2966886E-1,6.342651E-2,7.351013E-2,-2.0566761E-2,-9.7550176E-2,-1.9400511E-3,-4.326823E-2,-1.310614E-2,6.624779E-3,1.04705416E-1,-7.327833E-2,-6.4601074E-3,-8.8820385E-4,-2.8606657E-2,5.0504576E-2,-3.1743485E-2,3.974494E-2,8.916234E-3,3.9271362E-2,1.8280939E-3,5.5917095E-2,-1.8030053E-2,1.0314375E-1,7.7474094E-3,-6.872377E-2,9.842905E-2,3.3197448E-2,-5.2536625E-2,7.725221E-2,-7.4420194E-3,-2.6522754E-3,7.616102E-2,-7.408983E-2,4.270842E-2],"split_indices":[8,8,8,0,1,6,0,21,24,20,27,18,2,23,0,2147483647,2147483647,3,26,3,2,2,4,3,2,20,2,27,4,2147483647,2147483647,2147483647,2147483647,0,0,0,0,0,0,0,0,0,0,0,0,0,0,0,0,2147483647,2147483647,0,0,0,0,2147483647,2147483647,2147483647,2147483647,2147483647,2147483647],"split_type":[0,0,0,0,0,0,0,0,0,0,0,0,0,0,0,0,0,0,0,0,0,0,0,0,0,0,0,0,0,0,0,0,0,0,0,0,0,0,0,0,0,0,0,0,0,0,0,0,0,0,0,0,0,0,0,0,0,0,0,0,0],"sum_hessian":[2.5978147E3,1.9534464E3,6.4436847E2,4.9448782E2,1.4589585E3,5.1498804E2,1.293804E2,3.1340528E1,4.631473E2,8.525793E2,6.063793E2,4.6410117E2,5.0886868E1,2.058836E1,1.08792046E2,1.3222141E0,3.0018314E1,4.1045493E2,5.2692375E1,6.961085E1,7.8296844E2,8.193293E1,5.2444635E2,3.933736E2,7.072757E1,2.382036E1,2.7066507E1,1.3732874E1,6.855487E0,1.06308685E2,2.4833574E0,2.8979635E1,1.0386801E0,2.0305139E2,2.0740353E2,4.7497063E1,5.195312E0,5.031943E1,1.9291418E1,6.4021497E2,1.4275348E2,9.6555395E0,7.22774E1,8.121946E1,4.4322687E2,5.5894817E1,3.374788E2,6.0383495E1,1.034407E1,2.194518E1,1.8751783E0,1.4615751E1,1.2450756E1,5.9262094E0,7.806664E0,5.703705E0,1.1517819E0,3.4487739E0,1.0285991E2,1.2457857E0,1.2375718E0],"tree_param":{"num_deleted":"14","num_feature":"28","num_nodes":"61","size_leaf_vector":"0"}},{"base_weights":[1.7582523E-3,-3.884529E-2,4.9131653E-1,-2.154011E-1,3.047884E-2,-6.5177053E-1,5.180043E-1,-4.6330822E-1,-1.1549327E-1,-4.646945E-3,3.335525E-1,5.8251524E-1,8.261169E-2,-5.56789E-1,-6.677477E-2,3.264359E-2,-2.364897E-1,-8.807339E-1,6.62191E-3,2.1023448E-1,6.4386505E-1,4.8825878E-1,8.8330066E-1,-3.561261E-1,3.9693078E-1,-8.765297E-1,-4.2303017E-1,-2.7964628E-1,7.3592E-1,1.9288878E-1,-1.7090756E-1,-3.7288645E-1,-2.4324193E-4,-9.222775E-1,-1.6818088E-2,-6.811121E-2,1.2710506E-1,1.153111E-1,6.461931E-1,-1.19270235E-1,6.9380414E-1,2.4758051E-1,6.4162993E-1,9.3806654E-1,1.4182572E-1,-8.4462893E-1,1.9365445E-1,6.7902386E-1,-2.003708E-1],"categories":[],"categories_nodes":[],"categories_segments":[],"categories_sizes":[],"default_left":[1,1,1,1,1,0,1,1,1,1,1,1,1,1,1,1,1,1,1,1,1,1,1,1,1,0,0,0,0,0,0,0,0,1,1,0,0,0,0,1,1,0,0,1,1,0,0,0,0],"id":23,"left_children":[1,3,5,7,9,-1,11,13,15,17,19,21,23,25,27,29,31,-1,35,37,-1,41,-1,45,47,-1,-1,-1,-1,-1,-1,-1,-1,-1,-1,-1,-1,-1,-1,-1,-1,-1,-1,-1,-1,-1,-1,-1,-1],"loss_changes":[5.1348087E1,2.9200232E1,6.697632E0,1.649307E1,1.8267548E1,0E0,5.3013687E0,6.9892273E0,8.681041E0,1.5266996E1,6.462805E0,3.7888603E0,4.09778E0,5.7612877E0,7.0556045E0,7.186338E0,8.537005E0,5.799055E-1,1.3698097E1,5.1842785E0,2.108469E0,4.514923E0,1.1517601E0,3.7375407E0,3.2145615E0,0E0,0E0,0E0,0E0,0E0,0E0,0E0,0E0,0E0,0E0,0E0,0E0,0E0,0E0,0E0,0E0,0E0,0E0,0E0,0E0,0E0,0E0,0E0,0E0],"parents":[2147483647,0,0,1,1,2,2,3,3,4,4,6,6,7,7,8,8,9,9,10,10,11,11,12,12,13,13,14,14,15,15,16,16,17,17,18,18,19,19,20,20,21,21,22,22,23,23,24,24],"right_children":[2,4,6,8,10,-1,12,14,16,18,20,22,24,26,28,30,32,-1,36,38,-1,42,-1,46,48,-1,-1,-1,-1,-1,-1,-1,-1,-1,-1,-1,-1,-1,-1,-1,-1,-1,-1,-1,-1,-1,-1,-1,-1],"split_conditions":[7.570132E-2,-5.5229026E-1,-1.4451227E0,-3.124801E-1,1.2415814E0,-6.517705E-2,1.3471501E0,4.5573473E-1,-2.406702E-1,-1.7158602E0,3.92765E-1,1.5829636E0,2.1232004E0,-5.1620114E-1,4.4147658E-1,6.2590533E-1,6.1999017E-1,-8.8073395E-2,1.2186857E-1,1.1430598E0,6.438651E-2,-6.5014255E-1,8.833007E-2,5.1894516E-2,8.617704E-1,-8.7652974E-2,-4.230302E-2,-2.7964627E-2,7.3592E-2,1.9288879E-2,-1.7090756E-2,-3.7288647E-2,-2.4324194E-5,-9.222775E-2,-1.6818087E-3,-6.811121E-3,1.2710506E-2,1.153111E-2,6.461931E-2,-1.19270235E-2,6.938042E-2,2.4758052E-2,6.416299E-2,9.3806654E-2,1.4182572E-2,-8.4462896E-2,1.9365445E-2,6.7902386E-2,-2.0037081E-2],"split_indices":[9,8,8,0,12,0,14,18,2,9,0,10,9,3,19,27,3,18,0,19,18,22,1,3,25,0,0,0,0,0,0,0,0,2147483647,2147483647,0,0,0,0,2147483647,2147483647,0,0,2147483647,2147483647,0,0,0,0],"split_type":[0,0,0,0,0,0,0,0,0,0,0,0,0,0,0,0,0,0,0,0,0,0,0,0,0,0,0,0,0,0,0,0,0,0,0,0,0,0,0,0,0,0,0,0,0,0,0,0,0],"sum_hessian":[2.576991E3,2.3811384E3,1.9585254E2,6.705639E2,1.7105746E3,3.3140543E0,1.9253848E2,1.9023846E2,4.803254E2,1.5343815E3,1.7619315E2,1.6690335E2,2.5635122E1,1.5308821E2,3.7150253E1,2.1622879E2,2.6409662E2,1.7638687E1,1.5167428E3,1.2871794E2,4.74752E1,1.3132831E2,3.5575043E1,1.0456041E1,1.5179081E1,4.165684E1,1.1143136E2,3.0491766E1,6.658486E0,1.21317726E2,9.491107E1,1.6642892E2,9.7667694E1,1.659005E1,1.048637E0,9.3612427E2,5.806185E2,1.0796795E2,2.0750002E1,2.6223996E0,4.4852802E1,5.3404156E1,7.7924164E1,3.250878E1,3.066259E0,5.064929E0,5.391113E0,1.0237775E1,4.941306E0],"tree_param":{"num_deleted":"6","num_feature":"28","num_nodes":"49","size_leaf_vector":"0"}},{"base_weights":[1.6074539E-3,-7.241333E-2,2.2993973E-1,-5.066673E-1,-4.908374E-2,1.5001139E-1,5.651381E-1,-9.015523E-1,-3.0180925E-1,-1.0291599E-1,9.309833E-2,1.11201175E-1,4.9266607E-1,8.321312E-2,6.5798855E-1,-1.0243946E-1,-9.245133E-1,-8.384302E-1,-1.4873834E-1,-2.0245439E-1,2.5800904E-4,-1.3050307E-2,3.630503E-1,5.06106E-2,3.778727E-1,9.316047E-1,8.120829E-2,-1.8604974E-1,5.7381123E-1,6.8667656E-1,-2.765391E-1,-9.7151506E-1,-2.8425714E-1,-9.469449E-1,1.2308565E-1,-2.8237936E-1,6.52201E-1,-5.705955E-1,-1.6348E-1,-1.4533684E-1,6.0167912E-2,4.7553364E-2,-4.9941456E-1,-2.053418E-1,4.692606E-1,7.7552766E-2,-6.888023E-1,4.4210303E-1,-2.561772E-1,9.9524736E-1,2.3093417E-2,-6.33153E-1,9.377841E-1,2.7898157E-1,-5.199649E-1,7.266683E-1,-1.2525468E-1,-1.0219332E-1,7.15992E-1,-8.0562437E-1,3.975323E-1],"categories":[],"categories_nodes":[],"categories_segments":[],"categories_sizes":[],"default_left":[1,1,1,1,1,1,1,1,1,1,1,1,1,1,1,1,1,1,1,1,1,1,1,1,1,1,1,1,1,1,1,1,1,1,1,0,0,0,0,0,0,0,0,0,0,0,0,0,0,1,1,0,0,1,1,1,1,1,1,1,1],"id":24,"left_children":[1,3,5,7,9,11,13,-1,17,19,21,23,25,27,29,-1,-1,-1,35,37,39,41,43,45,47,-1,51,-1,-1,-1,-1,-1,-1,-1,-1,-1,-1,-1,-1,-1,-1,-1,-1,-1,-1,-1,-1,-1,-1,-1,-1,-1,-1,-1,-1,-1,-1,-1,-1,-1,-1],"loss_changes":[4.3292576E1,1.9481838E1,1.6562561E1,7.274517E0,1.4082457E1,6.604248E0,5.1768684E0,3.014469E-1,5.220272E0,1.3721658E1,1.4518507E1,7.358195E0,8.954779E0,3.1341271E0,3.1012383E0,0E0,2.5723648E-1,1.8251944E0,6.2528753E0,9.489983E0,5.736311E0,1.0828157E1,8.845591E0,7.571756E0,3.6916113E0,1.2605839E0,1.8732346E1,2.7154481E0,1.1346312E0,2.4666748E0,2.2147987E0,0E0,0E0,0E0,0E0,0E0,0E0,0E0,0E0,0E0,0E0,0E0,0E0,0E0,0E0,0E0,0E0,0E0,0E0,0E0,0E0,0E0,0E0,0E0,0E0,0E0,0E0,0E0,0E0,0E0,0E0],"parents":[2147483647,0,0,1,1,2,2,3,3,4,4,5,5,6,6,7,7,8,8,9,9,10,10,11,11,12,12,13,13,14,14,16,16,17,17,18,18,19,19,20,20,21,21,22,22,23,23,24,24,25,25,26,26,27,27,28,28,29,29,30,30],"right_children":[2,4,6,8,10,12,14,-1,18,20,22,24,26,28,30,-1,-1,-1,36,38,40,42,44,46,48,-1,52,-1,-1,-1,-1,-1,-1,-1,-1,-1,-1,-1,-1,-1,-1,-1,-1,-1,-1,-1,-1,-1,-1,-1,-1,-1,-1,-1,-1,-1,-1,-1,-1,-1,-1],"split_conditions":[5.191087E-1,-1.2665563E0,1.5905077E0,-6.0509396E-1,3.0246615E-1,1.9434102E0,-4.776469E-1,-9.015524E-2,-8.3116746E-1,9.867303E-3,4.0838307E-1,3.5455012E-1,1.1644759E-1,3.671474E-1,3.217174E0,-1.0243947E-2,-9.245133E-2,-8.384302E-2,1.2779248E0,-1.2702818E0,-5.5229026E-1,1.1878009E0,-9.0920985E-1,1.3846107E0,1.823736E0,9.316047E-2,1.009242E0,-1.8604975E-2,5.7381123E-2,6.866766E-2,-2.7653908E-2,-9.715151E-2,-2.8425714E-2,-9.469449E-2,1.2308565E-2,-2.8237937E-2,6.52201E-2,-5.7059553E-2,-1.6348E-2,-1.4533684E-2,6.0167913E-3,4.7553363E-3,-4.9941458E-2,-2.053418E-2,4.6926063E-2,7.7552767E-3,-6.888023E-2,4.4210304E-2,-2.5617719E-2,9.952474E-2,2.3093417E-3,-6.33153E-2,9.377841E-2,2.7898157E-2,-5.1996488E-2,