{"learner":{"attributes":{"best_iteration":"99","best_ntree_limit":"100","scikit_learn":"{\"use_label_encoder\": false, \"n_estimators\": 100, \"objective\": \"binary:logistic\", \"max_depth\": 5, \"max_leaves\": null, \"max_bin\": null, \"grow_policy\": null, \"learning_rate\": null, \"verbosity\": null, \"booster\": null, \"tree_method\": null, \"gamma\": null, \"min_child_weight\": null, \"max_delta_step\": null, \"subsample\": null, \"sampling_method\": null, \"colsample_bytree\": null, \"colsample_bylevel\": null, \"colsample_bynode\": null, \"reg_alpha\": null, \"reg_lambda\": null, \"scale_pos_weight\": null, \"base_score\": null, \"missing\": NaN, \"num_parallel_tree\": null, \"random_state\": null, \"n_jobs\": null, \"monotone_constraints\": null, \"interaction_constraints\": null, \"importance_type\": null, \"gpu_id\": null, \"validate_parameters\": null, \"predictor\": null, \"enable_categorical\": false, \"feature_types\": null, \"max_cat_to_onehot\": null, \"max_cat_threshold\": null, \"eval_metric\": \"auc\", \"early_stopping_rounds\": null, \"callbacks\": null, \"kwargs\": {\"seed\": 42}, \"classes_\": [0, 1], \"n_classes_\": 2, \"_estimator_type\": \"classifier\"}"},"feature_names":["word_count","pub_time","abstract_len","headline_len","len_lead","is_noon","is_weekday","group_by_news_desk","feature_news_desk","group_by_section_name","feature_section_name","group_by_type_of_material","feature_type_of_material","is_party","is_congress","is_president","is_ukrainian_russian_war","is_storm","is_spell","is_crossword","is_game","sentiment_tb_polar_abs","sentiment_tb_subj","sentiment_vader_pos","sentiment_vader_compound","sentiment_snow_pos","sentiment_abstract_tb_polar","sentiment_abstract_tb_polar_abs","sentiment_abstract_tb_subj","sentiment_abstract_tb_pos","sentiment_abstract_vader_neu","sentiment_abstract_vader_pos","sentiment_abstract_vader_compound","sentiment_abstract_snow","sentiment_abstract_snow_abs","sentiment_abstract_snow_pos"],"feature_types":["float","float","float","float","float","float","float","float","float","float","float","float","float","float","float","float","float","float","float","float","float","float","float","float","float","float","float","float","float","float","float","float","float","float","float","float"],"gradient_booster":{"model":{"gbtree_model_param":{"num_parallel_tree":"1","num_trees":"100","size_leaf_vector":"0"},"tree_info":[0,0,0,0,0,0,0,0,0,0,0,0,0,0,0,0,0,0,0,0,0,0,0,0,0,0,0,0,0,0,0,0,0,0,0,0,0,0,0,0,0,0,0,0,0,0,0,0,0,0,0,0,0,0,0,0,0,0,0,0,0,0,0,0,0,0,0,0,0,0,0,0,0,0,0,0,0,0,0,0,0,0,0,0,0,0,0,0,0,0,0,0,0,0,0,0,0,0,0,0],"trees":[{"base_weights":[-7.195626E-1,-1.0405843E0,7.702892E-1,-1.5401284E0,-4.662772E-1,1.8469387E-1,1.3531655E0,-1.7136265E0,-1.1532605E0,-1.5309353E0,-2.57286E-1,5.949821E-1,-3.56974E-1,-4.511278E-2,1.4530101E0,-1.8479458E0,-1.3945459E0,-1.1964948E0,1.1785715E0,-1.9471365E0,-1.1279887E0,-5.143666E-1,3.3512002E-1,4.4853738E-1,1.2820513E0,-5.990271E-1,1.003891E0,6.0465115E-1,-1.1836735E0,1.3255236E0,1.8648019E0,-1.4408603E0,-1.8818934E0,-1.4758209E0,-9.677419E-1,-1.6147789E0,-1.0342897E0,-1.1111112E0,1.3271028E0,-1.9528371E0,-2.2222222E-1,-1.2627046E0,-5.207547E-1,-6.4657015E-1,2.4897401E-1,-9.179331E-1,7.0858526E-1,1.0032573E0,1.7152104E-1,6.086956E-1,1.4092308E0,-7.7723575E-1,4.4131455E-1,1.6645161E0,-0E0,1.2592592E0,2.1052632E-2,-1.4942529E0,9.3333334E-1,1.0131387E0,1.616816E0,1.9396434E0,1.3984963E0],"categories":[],"categories_nodes":[],"categories_segments":[],"categories_sizes":[],"default_left":[1,1,1,1,1,1,1,1,1,1,1,1,1,1,1,1,1,1,1,1,1,1,1,1,1,1,1,1,1,1,1,0,0,0,0,0,0,0,0,0,0,0,0,0,0,0,0,0,0,0,0,0,0,0,0,0,0,0,0,0,0,0,0],"id":0,"left_children":[1,3,5,7,9,11,13,15,17,19,21,23,25,27,29,31,33,35,37,39,41,43,45,47,49,51,53,55,57,59,61,-1,-1,-1,-1,-1,-1,-1,-1,-1,-1,-1,-1,-1,-1,-1,-1,-1,-1,-1,-1,-1,-1,-1,-1,-1,-1,-1,-1,-1,-1,-1,-1],"loss_changes":[5.2932695E3,2.611289E3,6.695242E2,3.2481738E2,9.423008E2,2.1800754E2,1.3733765E2,1.4139551E2,1.5369128E2,1.1435986E2,5.397195E2,5.556958E1,1.3993825E2,4.9912125E1,4.570813E1,2.9916992E1,3.3234253E1,9.898193E1,1.099707E1,2.9141846E0,2.8423767E1,2.4952515E2,5.0266718E2,7.074502E1,7.4918213E0,6.70399E1,4.2610313E1,1.6400705E1,1.7503353E1,6.2445312E1,4.7732544E0,0E0,0E0,0E0,0E0,0E0,0E0,0E0,0E0,0E0,0E0,0E0,0E0,0E0,0E0,0E0,0E0,0E0,0E0,0E0,0E0,0E0,0E0,0E0,0E0,0E0,0E0,0E0,0E0,0E0,0E0,0E0,0E0],"parents":[2147483647,0,0,1,1,2,2,3,3,4,4,5,5,6,6,7,7,8,8,9,9,10,10,11,11,12,12,13,13,14,14,15,15,16,16,17,17,18,18,19,19,20,20,21,21,22,22,23,23,24,24,25,25,26,26,27,27,28,28,29,29,30,30],"right_children":[2,4,6,8,10,12,14,16,18,20,22,24,26,28,30,32,34,36,38,40,42,44,46,48,50,52,54,56,58,60,62,-1,-1,-1,-1,-1,-1,-1,-1,-1,-1,-1,-1,-1,-1,-1,-1,-1,-1,-1,-1,-1,-1,-1,-1,-1,-1,-1,-1,-1,-1,-1,-1],"split_conditions":[8.3137023E-1,-6.3645914E-3,1.5416498E0,-3.9978278E-1,-7.258163E-1,-2.844479E-1,-1.0888548E0,-3.669936E-1,2.4687E0,-1.1811249E0,5.1503253E-1,2.0490372E0,1.5257305E0,2.208469E0,2.7954311E0,-1.174489E0,5.1503253E-1,-6.950575E-1,-1.2650459E0,1.567277E0,5.231208E-1,1.6347085E-1,-9.861595E-1,1.1575975E0,-4.5081875E-1,1.452031E0,7.08269E-2,-4.4900957E-1,-1.5215524E-2,-1.6616587E-2,-6.0558856E-1,-4.322581E-1,-5.6456804E-1,-4.4274628E-1,-2.9032257E-1,-4.8443368E-1,-3.1028694E-1,-3.3333337E-1,3.9813086E-1,-5.8585113E-1,-6.666667E-2,-3.788114E-1,-1.5622641E-1,-1.9397105E-1,7.4692205E-2,-2.7537996E-1,2.1257558E-1,3.009772E-1,5.1456314E-2,1.826087E-1,4.2276928E-1,-2.3317073E-1,1.3239437E-1,4.9935484E-1,-0E0,3.7777779E-1,6.31579E-3,-4.482759E-1,2.8E-1,3.039416E-1,4.8504484E-1,5.81893E-1,4.195489E-1],"split_indices":[7,0,9,9,7,1,0,0,9,7,5,13,1,7,7,0,5,0,7,9,0,9,6,11,0,15,0,1,2,0,3,0,0,0,0,0,0,0,0,0,0,0,0,0,0,0,0,0,0,0,0,0,0,0,0,0,0,0,0,0,0,0,0],"split_type":[0,0,0,0,0,0,0,0,0,0,0,0,0,0,0,0,0,0,0,0,0,0,0,0,0,0,0,0,0,0,0,0,0,0,0,0,0,0,0,0,0,0,0,0,0,0,0,0,0,0,0,0,0,0,0,0,0,0,0,0,0,0,0],"sum_hessian":[1.106475E4,9.1035E3,1.96125E3,4.86775E3,4.23575E3,9.79E2,9.8225E2,3.35825E3,1.5095E3,6.94E2,3.54175E3,5.57E2,4.22E2,6.55E1,9.1675E2,2.36E3,9.9825E2,1.4825E3,2.7E1,3.395E2,3.545E2,2.47E3,1.07175E3,4.605E2,9.65E1,3.5875E2,6.325E1,4.2E1,2.35E1,7.0325E2,2.135E2,1.85E2,2.175E3,8.365E2,1.6175E2,4.1175E2,1.07075E3,1.25E0,2.575E1,3.3825E2,1.25E0,2.8925E2,6.525E1,2.1055E3,3.645E2,2.4575E2,8.26E2,1.525E2,3.08E2,1.625E1,8.025E1,3.065E2,5.225E1,3.775E1,2.55E1,1.925E1,2.275E1,2.075E1,2.75E0,3.415E2,3.6175E2,1.8125E2,3.225E1],"tree_param":{"num_deleted":"0","num_feature":"36","num_nodes":"63","size_leaf_vector":"0"}},{"base_weights":[-5.2672744E-1,-8.006453E-1,4.216238E-1,-1.0897362E0,-2.0739922E-1,4.6714045E-2,1.0026617E0,-1.3299729E0,-8.343495E-1,-1.130348E0,-1.7131008E-2,4.427761E-1,-2.7614388E-1,-3.005556E-2,1.0780343E0,-1.4091115E0,-8.9685416E-1,-6.2510544E-1,-1.1238397E0,-1.3536887E0,-2.2675358E-1,-5.495425E-1,1.119696E-1,3.5552648E-1,1.0855654E0,-9.621065E-1,-3.0077314E-2,-1.2285639E0,3.5763583E-1,6.5409565E-1,1.197703E0,-1.4242716E0,-5.3794545E-1,1.2757955E-1,-1.2566452E0,-1.2681899E0,-4.9831495E-1,-1.1602032E0,4.0132442E-1,-1.4641281E0,-6.251072E-1,1.8512706E-1,-9.1470534E-1,-9.151977E-1,2.4567959E-1,5.3507686E-1,-1.8668197E-1,-7.723098E-1,5.3041184E-1,1.4154099E0,-1.0873865E0,-4.372745E-1,-1.5017467E0,1.2206203E0,-2.3738481E-1,-9.681235E-2,-1.3803278E0,-1.2196033E-1,7.3381233E-1,-1.4645175E0,1.1149359E0,1.3362372E0,8.693076E-1],"categories":[],"categories_nodes":[],"categories_segments":[],"categories_sizes":[],"default_left":[1,1,1,1,1,1,1,1,1,1,1,1,1,1,1,1,1,1,1,1,1,1,1,1,1,1,1,1,1,1,1,0,0,0,0,0,0,0,0,0,0,0,0,0,0,0,0,0,0,0,0,0,0,0,0,0,0,0,0,0,0,0,0],"id":1,"left_children":[1,3,5,7,9,11,13,15,17,19,21,23,25,27,29,31,33,35,37,39,41,43,45,47,49,51,53,55,57,59,61,-1,-1,-1,-1,-1,-1,-1,-1,-1,-1,-1,-1,-1,-1,-1,-1,-1,-1,-1,-1,-1,-1,-1,-1,-1,-1,-1,-1,-1,-1,-1,-1],"loss_changes":[2.7716848E3,1.419457E3,5.2091394E2,3.4035107E2,4.7648132E2,1.8613051E2,7.303516E1,9.697656E1,1.6286975E2,9.328381E1,1.547611E2,3.627266E1,1.3534244E2,3.0533577E1,4.356183E1,3.1215332E1,1.6437796E2,1.27355225E2,6.3229492E1,2.8989075E1,2.6552639E1,1.27995575E2,2.291009E2,1.1422122E2,5.7181328E1,5.930246E1,1.535999E2,2.6240578E0,9.058123E0,1.9165555E2,2.9796082E1,0E0,0E0,0E0,0E0,0E0,0E0,0E0,0E0,0E0,0E0,0E0,0E0,0E0,0E0,0E0,0E0,0E0,0E0,0E0,0E0,0E0,0E0,0E0,0E0,0E0,0E0,0E0,0E0,0E0,0E0,0E0,0E0],"parents":[2147483647,0,0,1,1,2,2,3,3,4,4,5,5,6,6,7,7,8,8,9,9,10,10,11,11,12,12,13,13,14,14,15,15,16,16,17,17,18,18,19,19,20,20,21,21,22,22,23,23,24,24,25,25,26,26,27,27,28,28,29,29,30,30],"right_children":[2,4,6,8,10,12,14,16,18,20,22,24,26,28,30,32,34,36,38,40,42,44,46,48,50,52,54,56,58,60,62,-1,-1,-1,-1,-1,-1,-1,-1,-1,-1,-1,-1,-1,-1,-1,-1,-1,-1,-1,-1,-1,-1,-1,-1,-1,-1,-1,-1,-1,-1,-1,-1],"split_conditions":[4.592558E-1,2.553628E-1,1.5416498E0,-3.657875E-1,-6.4043504E-1,-2.844479E-1,-1.0888548E0,-2.5190237E-1,5.383605E-1,-3.8728184E-1,-9.861595E-1,8.70798E-1,-3.6216915E-1,-1.3906984E0,2.181302E0,7.8410244E-1,-4.4900957E-1,-9.861595E-1,7.8410244E-1,5.0902978E-2,4.4675447E-2,7.5107694E-1,-4.4900957E-1,-4.6348298E-1,-6.624923E-1,7.6377183E-1,4.874087E-1,2.0953512E0,-1.9693634E-1,-4.1161996E-1,-1.5215524E-2,-4.272815E-1,-1.6138364E-1,3.8273867E-2,-3.7699357E-1,-3.8045698E-1,-1.4949448E-1,-3.4806097E-1,1.2039733E-1,-4.3923846E-1,-1.8753217E-1,5.553812E-2,-2.7441162E-1,-2.7455932E-1,7.370388E-2,1.6052306E-1,-5.6004595E-2,-2.3169294E-1,1.5912355E-1,4.2462298E-1,-3.2621595E-1,-1.3118236E-1,-4.50524E-1,3.6618608E-1,-7.121544E-2,-2.9043706E-2,-4.1409835E-1,-3.65881E-2,2.201437E-1,-4.3935525E-1,3.3448076E-1,4.008712E-1,2.607923E-1],"split_indices":[7,0,9,0,2,1,0,7,1,9,6,9,0,2,7,9,1,6,9,3,1,0,1,0,0,4,7,7,28,0,2,0,0,0,0,0,0,0,0,0,0,0,0,0,0,0,0,0,0,0,0,0,0,0,0,0,0,0,0,0,0,0,0],"split_type":[0,0,0,0,0,0,0,0,0,0,0,0,0,0,0,0,0,0,0,0,0,0,0,0,0,0,0,0,0,0,0,0,0,0,0,0,0,0,0,0,0,0,0,0,0,0,0,0,0,0,0,0,0,0,0,0,0,0,0,0,0,0,0],"sum_hessian":[1.0667452E4,8.276933E3,2.3905193E3,5.564496E3,2.7124365E3,1.4536465E3,9.368726E2,2.8651272E3,2.699369E3,4.6275827E2,2.2496782E3,6.526476E2,8.0099896E2,6.3767273E1,8.7310535E2,2.4205886E3,4.445387E2,1.5686819E3,1.1306871E3,3.7064752E2,9.211075E1,4.3841132E2,1.8112668E3,5.760147E2,7.663283E1,2.107048E2,5.902942E2,1.5055575E1,4.8711697E1,1.9362715E2,6.794782E2,2.3785618E3,4.202691E1,1.1571334E2,3.2882535E2,2.5686322E2,1.3118186E3,1.1045903E3,2.6096754E1,3.2098288E2,4.9664635E1,5.807301E1,3.4037743E1,3.002164E2,1.3819495E2,7.49144E2,1.0621229E3,7.6869156E1,4.9914557E2,6.6836044E1,9.796791E0,1.0773572E2,1.0296908E2,8.32364E1,5.0705777E2,1.9738522E0,1.3081723E1,2.1709518E1,2.7002178E1,3.4203957E1,1.594232E2,4.7572418E2,2.0375403E2],"tree_param":{"num_deleted":"0","num_feature":"36","num_nodes":"63","size_leaf_vector":"0"}},{"base_weights":[-4.042091E-1,-7.1392226E-1,1.3991721E-1,-1.1116194E0,-4.211524E-1,-6.1453152E-2,7.907059E-1,-1.1269954E0,9.7546947E-1,-1.1746148E0,-2.9538324E-1,3.6143434E-1,-3.423605E-1,-2.9953685E-2,8.545784E-1,-1.1910181E0,-9.8059464E-1,-1.3109145E-1,1.188176E0,-1.2024996E0,7.886391E-1,-4.810514E-1,-1.6254074E-3,1.6941643E0,2.6825428E-1,-9.111498E-1,-1.4075208E-1,4.2012557E-1,-6.7141354E-1,1.301673E0,7.5569326E-1,-8.2734543E-1,-1.2453423E0,-9.9000454E-1,5.1101357E-1,5.143283E-1,-9.4802374E-1,1.4144189E0,8.260193E-2,-9.990625E-1,-1.4132013E0,1.343922E0,-1.065891E-1,-3.159044E-1,-8.4590083E-1,-4.26902E-1,1.799912E-1,1.8740683E0,4.5979616E-1,8.0594234E-2,5.366311E-1,-1.1626073E0,-7.3699665E-1,-1.0959891E-1,-1.4172015E0,-1.1820005E0,5.199089E-1,-9.005639E-1,4.0736893E-1,-1.4954786E-1,1.368544E0,-1.677618E-1,8.484383E-1],"categories":[],"categories_nodes":[],"categories_segments":[],"categories_sizes":[],"default_left":[1,1,1,1,1,1,1,1,1,1,1,1,1,1,1,1,1,1,1,1,1,1,1,1,1,1,1,1,1,1,1,0,0,0,0,0,0,0,0,0,0,0,0,0,0,0,0,0,0,0,0,0,0,0,0,0,0,0,0,0,0,0,0],"id":2,"left_children":[1,3,5,7,9,11,13,15,17,19,21,23,25,27,29,31,33,35,37,39,41,43,45,47,49,51,53,55,57,59,61,-1,-1,-1,-1,-1,-1,-1,-1,-1,-1,-1,-1,-1,-1,-1,-1,-1,-1,-1,-1,-1,-1,-1,-1,-1,-1,-1,-1,-1,-1,-1,-1],"loss_changes":[1.6786505E3,7.3860645E2,4.7362994E2,8.745361E1,3.4626733E2,3.2807724E2,4.4791443E1,2.3873535E1,4.913929E0,2.9573364E1,1.7103256E2,1.3644382E2,1.9015369E2,1.8365467E1,3.4048706E1,3.560034E1,1.1994751E1,2.6810095E0,4.149227E0,2.0704285E1,4.083587E0,1.1550528E2,9.3953026E1,1.5093948E1,5.1908524E1,1.815152E1,4.860861E1,6.5973196E0,6.846485E0,1.3997543E1,5.5920044E1,0E0,0E0,0E0,0E0,0E0,0E0,0E0,0E0,0E0,0E0,0E0,0E0,0E0,0E0,0E0,0E0,0E0,0E0,0E0,0E0,0E0,0E0,0E0,0E0,0E0,0E0,0E0,0E0,0E0,0E0,0E0,0E0],"parents":[2147483647,0,0,1,1,2,2,3,3,4,4,5,5,6,6,7,7,8,8,9,9,10,10,11,11,12,12,13,13,14,14,15,15,16,16,17,17,18,18,19,19,20,20,21,21,22,22,23,23,24,24,25,25,26,26,27,27,28,28,29,29,30,30],"right_children":[2,4,6,8,10,12,14,16,18,20,22,24,26,28,30,32,34,36,38,40,42,44,46,48,50,52,54,56,58,60,62,-1,-1,-1,-1,-1,-1,-1,-1,-1,-1,-1,-1,-1,-1,-1,-1,-1,-1,-1,-1,-1,-1,-1,-1,-1,-1,-1,-1,-1,-1,-1,-1],"split_conditions":[3.0130662E-2,-1.8728217E-1,1.5416498E0,2.4687E0,-1.2354717E0,-2.844479E-1,-1.0888548E0,-4.6227688E-1,-4.5202488E-1,1.0966295E0,4.3869263E-1,-1.0213921E0,-3.7302423E-1,2.041675E0,-1.9185716E0,-1.174489E0,7.8410244E-1,4.4675447E-2,7.350479E-1,-1.741166E0,5.643924E-1,7.029221E-1,-2.7734277E-1,6.3773656E-1,2.5174448E-1,-7.276226E-1,1.0483825E0,-2.0534775E0,-1.5215524E-2,2.1597643E0,-8.33761E-1,-2.4820364E-1,-3.736027E-1,-2.9700136E-1,1.5330407E-1,1.542985E-1,-2.8440714E-1,4.243257E-1,2.4780579E-2,-2.9971877E-1,-4.2396042E-1,4.0317664E-1,-3.1976733E-2,-9.4771326E-2,-2.5377026E-1,-1.2807061E-1,5.3997364E-2,5.622205E-1,1.3793886E-1,2.4178272E-2,1.6098934E-1,-3.487822E-1,-2.21099E-1,-3.2879677E-2,-4.2516047E-1,-3.5460016E-1,1.5597267E-1,-2.7016917E-1,1.2221068E-1,-4.486436E-2,4.105632E-1,-5.032854E-2,2.545315E-1],"split_indices":[7,0,9,9,11,1,0,0,0,0,0,11,0,7,3,0,9,1,2,11,28,1,3,9,0,0,9,32,2,9,0,0,0,0,0,0,0,0,0,0,0,0,0,0,0,0,0,0,0,0,0,0,0,0,0,0,0,0,0,0,0,0,0],"split_type":[0,0,0,0,0,0,0,0,0,0,0,0,0,0,0,0,0,0,0,0,0,0,0,0,0,0,0,0,0,0,0,0,0,0,0,0,0,0,0,0,0,0,0,0,0,0,0,0,0,0,0,0,0,0,0,0,0,0,0,0,0,0,0],"sum_hessian":[9.959361E3,6.346604E3,3.6127573E3,2.6898833E3,3.6567207E3,2.7597324E3,8.530249E2,2.6706677E3,1.9215471E1,5.2188055E2,3.13484E3,1.1013843E3,1.6583481E3,6.163561E1,7.9138934E2,1.853136E3,8.175318E2,3.15999E0,1.6055481E1,5.14954E2,6.9265766E0,1.9204143E3,1.2144258E3,7.085023E1,1.030534E3,4.330587E2,1.2252894E3,3.6423893E1,2.5211718E1,1.4112943E2,6.502599E2,2.4294856E2,1.6101874E3,8.1274084E2,4.790949E0,1.9722351E0,1.187755E0,1.3096153E1,2.959328E0,2.6491467E2,2.5003932E2,3.965618E0,2.9609585E0,1.3232974E3,5.9711694E2,3.630204E2,8.514054E2,6.138533E1,9.464897E0,6.0723254E2,4.2330157E2,1.7487827E2,2.581804E2,1.1971573E3,2.813209E1,1.4996564E0,3.4924236E1,2.0930874E1,4.280843E0,6.162194E0,1.3496722E2,5.9273136E1,5.9098676E2],"tree_param":{"num_deleted":"0","num_feature":"36","num_nodes":"63","size_leaf_vector":"0"}},{"base_weights":[-3.1349814E-1,-5.627588E-1,1.0440613E-1,-9.465178E-1,-3.1292555E-1,-8.011435E-2,5.666237E-1,-9.6035063E-1,7.5190717E-1,-8.4639806E-1,-1.835851E-1,-5.187173E-1,9.138241E-2,4.7681835E-1,1.0748729E0,-1.0361172E0,-7.9433817E-1,-1.8327963E-1,9.7584695E-1,-1.2330163E0,-6.042436E-1,-1.402904E0,-1.5614307E-1,1.23076245E-1,-6.2380826E-1,8.9936E-1,2.098315E-2,-1.14487946E-1,5.5422086E-1,1.2197474E0,6.587696E-1,-6.5834653E-1,-1.0974396E0,3.0308515E-1,-8.068177E-1,6.3109213E-1,-8.664347E-1,-3.255237E-1,1.1236345E0,-1.2869331E0,-9.2508197E-1,-6.875382E-1,-2.62873E-1,-2.3960489E-1,-1.4188067E0,-5.671907E-1,-6.621109E-2,-8.8716483E-1,1.13883E0,-1.1230134E0,-5.395916E-1,4.4469282E-1,1.5036148E0,-4.250801E-2,6.218008E-1,-4.0700763E-1,1.2241982E0,4.131858E-1,7.815442E-1,-5.3602915E-2,1.234012E0,1.002345E0,-5.279511E-1],"categories":[],"categories_nodes":[],"categories_segments":[],"categories_sizes":[],"default_left":[1,1,1,1,1,1,1,1,1,1,1,1,1,1,1,1,1,1,1,1,1,1,1,1,1,1,1,1,1,1,1,0,0,0,0,0,0,0,0,0,0,0,0,0,0,0,0,0,0,0,0,0,0,0,0,0,0,0,0,0,0,0,0],"id":3,"left_children":[1,3,5,7,9,11,13,15,17,19,21,23,25,27,29,31,33,35,37,39,41,43,45,47,49,51,53,55,57,59,61,-1,-1,-1,-1,-1,-1,-1,-1,-1,-1,-1,-1,-1,-1,-1,-1,-1,-1,-1,-1,-1,-1,-1,-1,-1,-1,-1,-1,-1,-1,-1,-1],"loss_changes":[9.641981E2,5.555741E2,2.9504858E2,5.4421265E1,2.4225122E2,1.8605688E2,4.45365E1,2.7699707E1,4.1633787E0,6.3411438E1,9.443709E1,4.6970764E1,1.0115151E2,3.8534958E1,8.082703E0,3.527112E1,1.0035278E1,3.0601556E0,3.3484306E0,3.1752625E0,1.1856155E1,8.0960846E-1,1.02275795E2,1.0225535E2,2.4518356E1,3.8488792E1,6.2476383E1,3.8922684E1,2.3512268E1,2.0308533E0,1.6937534E1,0E0,0E0,0E0,0E0,0E0,0E0,0E0,0E0,0E0,0E0,0E0,0E0,0E0,0E0,0E0,0E0,0E0,0E0,0E0,0E0,0E0,0E0,0E0,0E0,0E0,0E0,0E0,0E0,0E0,0E0,0E0,0E0],"parents":[2147483647,0,0,1,1,2,2,3,3,4,4,5,5,6,6,7,7,8,8,9,9,10,10,11,11,12,12,13,13,14,14,15,15,16,16,17,17,18,18,19,19,20,20,21,21,22,22,23,23,24,24,25,25,26,26,27,27,28,28,29,29,30,30],"right_children":[2,4,6,8,10,12,14,16,18,20,22,24,26,28,30,32,34,36,38,40,42,44,46,48,50,52,54,56,58,60,62,-1,-1,-1,-1,-1,-1,-1,-1,-1,-1,-1,-1,-1,-1,-1,-1,-1,-1,-1,-1,-1,-1,-1,-1,-1,-1,-1,-1,-1,-1,-1,-1],"split_conditions":[3.0130662E-2,-1.8728217E-1,1.1752435E0,2.4687E0,-7.258163E-1,-2.2105345E-1,2.7954311E0,-4.5865852E-1,-6.985529E-1,-1.1811249E0,-1.2354717E0,-7.781329E-1,-3.0986476E-1,-1.3906984E0,-2.844479E-1,-1.174489E0,-1.7658302E0,-5.1140857E-1,-7.292733E-1,6.262438E-1,8.6487585E-1,-1.741166E0,-9.861595E-1,-1.4363797E0,-1.26208E0,2.7874136E-1,2.0490372E0,2.4842963E0,1.4801839E-1,-1.0182968E0,-2.7734277E-1,-1.9750397E-1,-3.2923192E-1,9.0925545E-2,-2.4204533E-1,1.8932764E-1,-2.5993043E-1,-9.7657114E-2,3.3709034E-1,-3.8607994E-1,-2.775246E-1,-2.0626147E-1,-7.88619E-2,-7.188147E-2,-4.25642E-1,-1.7015722E-1,-1.9863328E-2,-2.6614946E-1,3.41649E-1,-3.3690402E-1,-1.6187748E-1,1.3340785E-1,4.5108446E-1,-1.27524035E-2,1.8654025E-1,-1.221023E-1,3.6725947E-1,1.2395575E-1,2.3446327E-1,-1.6080875E-2,3.702036E-1,3.007035E-1,-1.5838534E-1],"split_indices":[7,0,7,9,7,0,7,0,32,7,11,1,11,2,1,0,2,26,7,0,22,11,6,1,3,7,13,9,0,0,3,0,0,0,0,0,0,0,0,0,0,0,0,0,0,0,0,0,0,0,0,0,0,0,0,0,0,0,0,0,0,0,0],"split_type":[0,0,0,0,0,0,0,0,0,0,0,0,0,0,0,0,0,0,0,0,0,0,0,0,0,0,0,0,0,0,0,0,0,0,0,0,0,0,0,0,0,0,0,0,0,0,0,0,0,0,0,0,0,0,0,0,0,0,0,0,0,0,0],"sum_hessian":[9.2547E3,5.7968184E3,3.4578818E3,2.2846575E3,3.512161E3,2.4719062E3,9.8597565E2,2.2666313E3,1.802598E1,6.842767E2,2.8278843E3,6.9427454E2,1.7776316E3,8.395663E2,1.4640938E2,1.5527354E3,7.1389606E2,3.5176432E0,1.4508336E1,2.6195444E2,4.2232224E2,6.1140366E1,2.766744E3,9.766435E1,5.9661017E2,1.4152808E2,1.6361035E3,9.712361E1,7.424426E2,1.07166016E2,3.9243362E1,2.1848912E2,1.3342462E3,7.7651014E0,7.06131E2,1.6394756E0,1.8781676E0,1.3569357E0,1.3151401E1,2.2021692E2,4.1737514E1,3.38672E2,8.365023E1,1.0412116E0,6.0099155E1,4.9571182E2,2.271032E3,4.9028515E1,4.8635838E1,8.433985E1,5.122703E2,8.175103E1,5.9777042E1,1.4805737E3,1.5552979E2,8.027786E1,1.6845753E1,4.5991913E2,2.825235E2,1.1566623E0,1.0600935E2,3.0553099E1,8.690263E0],"tree_param":{"num_deleted":"0","num_feature":"36","num_nodes":"63","size_leaf_vector":"0"}},{"base_weights":[-2.4240023E-1,-4.0000477E-1,1.9567342E-1,-6.549227E-1,-9.252163E-2,7.553295E-2,6.1434317E-1,-9.0073955E-1,-5.163923E-1,-1.1157064E0,-3.1730004E-2,-5.470555E-1,1.3489987E-1,9.7732604E-1,4.2549446E-1,-4.7829378E-1,-9.8641926E-1,-5.6375426E-1,6.563802E-1,-1.1957674E0,-8.0838627E-1,-4.1744068E-1,3.7892E-2,1.7918007E-1,-9.39166E-1,-1.2939188E0,1.6289136E-1,4.1661787E-1,1.0815771E0,1.5083605E-1,7.423382E-1,1.3468789E-1,-8.662704E-1,-1.0978456E0,-8.173154E-1,-6.5128934E-1,-2.0068173E-1,1.5368874E0,2.3482166E-2,-1.2076291E0,-1.2320526E-2,-8.990539E-1,6.701254E-2,-6.1777294E-1,6.82443E-3,-1.0479202E-1,2.9574E-1,9.016253E-1,-3.4344918E-1,5.065627E-1,-1.0900601E0,-2.9720008E-1,-1.3217716E0,1.10073484E-1,6.9983566E-1,-8.583579E-1,1.1237795E0,1.1061673E0,-8.447575E-1,2.4230853E-1,-1.0151188E0,-3.711348E-2,8.350137E-1],"categories":[],"categories_nodes":[],"categories_segments":[],"categories_sizes":[],"default_left":[1,1,1,1,1,1,1,1,1,1,1,1,1,1,1,1,1,1,1,1,1,1,1,1,1,1,1,1,1,1,1,0,0,0,0,0,0,0,0,0,0,0,0,0,0,0,0,0,0,0,0,0,0,0,0,0,0,0,0,0,0,0,0],"id":4,"left_children":[1,3,5,7,9,11,13,15,17,19,21,23,25,27,29,31,33,35,37,39,41,43,45,47,49,51,53,55,57,59,61,-1,-1,-1,-1,-1,-1,-1,-1,-1,-1,-1,-1,-1,-1,-1,-1,-1,-1,-1,-1,-1,-1,-1,-1,-1,-1,-1,-1,-1,-1,-1,-1],"loss_changes":[5.9676276E2,4.9814484E2,1.1500034E2,1.17865845E2,1.792374E2,6.580527E1,3.4534225E1,4.4812195E1,1.2394495E2,3.009613E0,7.309998E1,4.4310783E1,6.5177414E1,9.703659E0,2.9227516E1,5.0749817E1,1.8684143E1,6.784888E1,4.834694E1,1.7555847E0,2.9562035E0,3.5380142E1,8.488252E1,2.1147894E1,2.2547073E1,4.7673798E-1,4.5130806E1,2.6985973E1,7.8433075E0,1.9640675E1,1.1321068E1,0E0,0E0,0E0,0E0,0E0,0E0,0E0,0E0,0E0,0E0,0E0,0E0,0E0,0E0,0E0,0E0,0E0,0E0,0E0,0E0,0E0,0E0,0E0,0E0,0E0,0E0,0E0,0E0,0E0,0E0,0E0,0E0],"parents":[2147483647,0,0,1,1,2,2,3,3,4,4,5,5,6,6,7,7,8,8,9,9,10,10,11,11,12,12,13,13,14,14,15,15,16,16,17,17,18,18,19,19,20,20,21,21,22,22,23,23,24,24,25,25,26,26,27,27,28,28,29,29,30,30],"right_children":[2,4,6,8,10,12,14,16,18,20,22,24,26,28,30,32,34,36,38,40,42,44,46,48,50,52,54,56,58,60,62,-1,-1,-1,-1,-1,-1,-1,-1,-1,-1,-1,-1,-1,-1,-1,-1,-1,-1,-1,-1,-1,-1,-1,-1,-1,-1,-1,-1,-1,-1,-1,-1],"split_conditions":[4.4688568E-1,1.407817E-1,2.181302E0,-5.539417E-1,-1.0547688E0,-8.663261E-1,-1.26208E0,-1.174489E0,7.8410244E-1,6.545876E-1,-3.9034724E-1,-5.5878663E-1,-2.1838508E0,-1.1470922E0,-1.6616587E-2,-2.844479E-1,-7.2159207E-1,5.1503253E-1,-3.0986476E-1,2.3452945E0,1.878894E0,5.1503253E-1,5.8222055E-1,-4.4900957E-1,-9.861595E-1,-8.384081E-1,2.0490372E0,-2.6826182E-1,1.4853113E0,2.8139462E0,-1.0324404E0,4.040637E-2,-2.5988114E-1,-3.293537E-1,-2.4519463E-1,-1.9538681E-1,-6.020452E-2,4.6106625E-1,7.04465E-3,-3.6228874E-1,-3.6961578E-3,-2.6971617E-1,2.0103764E-2,-1.8533188E-1,2.0473292E-3,-3.143761E-2,8.8722005E-2,2.704876E-1,-1.0303476E-1,1.5196882E-1,-3.2701805E-1,-8.9160025E-2,-3.965315E-1,3.3022046E-2,2.099507E-1,-2.5750738E-1,3.3713388E-1,3.318502E-1,-2.5342727E-1,7.269256E-2,-3.0453566E-1,-1.1134044E-2,2.505041E-1],"split_indices":[7,0,7,0,9,0,3,0,9,0,2,11,11,4,0,1,0,5,11,26,26,5,0,1,6,33,13,31,2,33,4,0,0,0,0,0,0,0,0,0,0,0,0,0,0,0,0,0,0,0,0,0,0,0,0,0,0,0,0,0,0,0,0],"split_type":[0,0,0,0,0,0,0,0,0,0,0,0,0,0,0,0,0,0,0,0,0,0,0,0,0,0,0,0,0,0,0,0,0,0,0,0,0,0,0,0,0,0,0,0,0,0,0,0,0,0,0,0,0,0,0,0,0,0,0,0,0,0,0],"sum_hessian":[8.641291E3,6.3550425E3,2.286249E3,3.4738923E3,2.88115E3,1.7773931E3,5.0885605E2,1.2501134E3,2.223779E3,1.6060762E2,2.7205422E3,1.5401399E2,1.6233792E3,1.7271272E2,3.361433E2,2.11903E2,1.0382104E3,2.1379578E3,8.5821335E1,1.2512099E2,3.5486637E1,4.1521683E2,2.3053254E3,5.4190235E1,9.982375E1,3.0323004E1,1.5930562E3,2.7860876E1,1.4485185E2,1.8084901E2,1.552943E2,8.238775E1,1.2951526E2,6.225237E2,4.1568674E2,1.7219983E3,4.1595932E2,3.5292706E1,5.052863E1,1.23859116E2,1.261867E0,3.2131645E1,3.3549905E0,2.817311E2,1.3348573E2,1.4844672E3,8.2085834E2,2.2442358E1,3.1747877E1,9.211406E0,9.061235E1,1.1415827E0,2.9181421E1,1.4514824E3,1.415737E2,9.863567E0,1.7997309E1,1.4344647E2,1.4053727E0,1.6842758E2,1.2421442E1,1.6565863E1,1.3872844E2],"tree_param":{"num_deleted":"0","num_feature":"36","num_nodes":"63","size_leaf_vector":"0"}},{"base_weights":[-1.8651049E-1,-3.893795E-1,3.2732952E-2,-7.9486984E-1,-2.2550952E-1,2.3821168E-1,-1.3361864E-1,-8.2059985E-1,4.033898E-2,-1.0746969E0,-1.6851822E-1,6.726272E-1,1.7028242E-1,-1.864944E-1,4.698446E-1,-9.356893E-1,-6.976663E-1,6.939306E-1,-7.067191E-1,-1.1431788E0,-6.908686E-1,-2.7724257E-1,8.751373E-2,7.941916E-1,1.5688421E-2,1.2964218E0,1.394272E-1,-5.69699E-1,-7.690318E-2,-6.634509E-1,5.5342895E-1,-6.2824345E-1,-1.0057282E0,-1.1563278E0,-6.7206514E-1,-4.8086986E-1,1.0919669E0,8.704213E-1,-9.131436E-1,-1.1528367E0,-4.4653082E-1,-7.865287E-1,2.8540877E-1,-6.241522E-1,-2.2269945E-1,-4.8511645E-1,2.4857903E-1,-2.845555E-1,8.340402E-1,-3.140023E-1,1.0469564E0,1.317668E0,2.7711535E-1,-3.336435E-1,2.041903E-1,-8.181788E-1,-3.7462848E-1,-6.155005E-2,-1.3291599E0,6.1005753E-1,-8.457301E-1,6.643001E-1,-3.97407E-1],"categories":[],"categories_nodes":[],"categories_segments":[],"categories_sizes":[],"default_left":[1,1,1,1,1,1,1,1,1,1,1,1,1,1,1,1,1,1,1,1,1,1,1,1,1,1,1,1,1,1,1,0,0,0,0,0,0,0,0,0,0,0,0,0,0,0,0,0,0,0,0,0,0,0,0,0,0,0,0,0,0,0,0],"id":5,"left_children":[1,3,5,7,9,11,13,15,17,19,21,23,25,27,29,31,33,35,37,39,41,43,45,47,49,51,53,55,57,59,61,-1,-1,-1,-1,-1,-1,-1,-1,-1,-1,-1,-1,-1,-1,-1,-1,-1,-1,-1,-1,-1,-1,-1,-1,-1,-1,-1,-1,-1,-1,-1,-1],"loss_changes":[3.6176614E2,2.805299E2,1.3367726E2,2.6153687E1,1.4549344E2,5.1514465E1,6.9050995E1,1.6030945E1,1.8692635E1,4.18132E0,7.857761E1,1.8854202E1,5.243795E1,8.343891E1,1.688739E1,1.2419434E1,5.9641113E0,1.0058726E1,6.619443E0,5.54718E-1,3.1346521E0,3.7344833E1,7.776965E1,8.806091E0,1.3218214E1,5.068207E-1,4.526036E1,2.1113922E1,2.9660091E1,3.4022794E0,1.744397E1,0E0,0E0,0E0,0E0,0E0,0E0,0E0,0E0,0E0,0E0,0E0,0E0,0E0,0E0,0E0,0E0,0E0,0E0,0E0,0E0,0E0,0E0,0E0,0E0,0E0,0E0,0E0,0E0,0E0,0E0,0E0,0E0],"parents":[2147483647,0,0,1,1,2,2,3,3,4,4,5,5,6,6,7,7,8,8,9,9,10,10,11,11,12,12,13,13,14,14,15,15,16,16,17,17,18,18,19,19,20,20,21,21,22,22,23,23,24,24,25,25,26,26,27,27,28,28,29,29,30,30],"right_children":[2,4,6,8,10,12,14,16,18,20,22,24,26,28,30,32,34,36,38,40,42,44,46,48,50,52,54,56,58,60,62,-1,-1,-1,-1,-1,-1,-1,-1,-1,-1,-1,-1,-1,-1,-1,-1,-1,-1,-1,-1,-1,-1,-1,-1,-1,-1,-1,-1,-1,-1,-1,-1],"split_conditions":[-2.775183E-1,-3.151306E-1,-2.844479E-1,7.8410244E-1,-1.0466375E0,-1.26208E0,2.2349782E0,-6.624923E-1,7.073945E-1,6.262438E-1,5.1503253E-1,1.2605965E0,-1.4843936E0,-3.887037E-1,-1.1865501E0,-1.1925808E0,-1.0466375E0,-1.1470922E0,1.3137133E0,-1.1811249E0,1.878894E0,-5.153911E-1,-9.861595E-1,-8.936723E-2,2.1597643E0,6.682286E-1,-9.861595E-1,1.1820087E-1,6.866091E0,-8.98593E-1,6.1000395E-1,-1.8847305E-1,-3.0171847E-1,-3.4689838E-1,-2.0161955E-1,-1.4426096E-1,3.2759008E-1,2.611264E-1,-2.739431E-1,-3.45851E-1,-1.3395925E-1,-2.3595862E-1,8.562263E-2,-1.8724567E-1,-6.680984E-2,-1.4553495E-1,7.457371E-2,-8.536665E-2,2.5021207E-1,-9.420069E-2,3.1408694E-1,3.9530042E-1,8.313461E-2,-1.0009305E-1,6.125709E-2,-2.4545364E-1,-1.1238855E-1,-1.8465016E-2,-3.9874798E-1,1.8301727E-1,-2.5371906E-1,1.9929004E-1,-1.19222105E-1],"split_indices":[7,0,1,9,7,3,7,0,3,0,5,4,11,0,0,0,7,4,9,7,26,2,6,7,9,4,6,9,0,32,2,0,0,0,0,0,0,0,0,0,0,0,0,0,0,0,0,0,0,0,0,0,0,0,0,0,0,0,0,0,0,0,0],"split_type":[0,0,0,0,0,0,0,0,0,0,0,0,0,0,0,0,0,0,0,0,0,0,0,0,0,0,0,0,0,0,0,0,0,0,0,0,0,0,0,0,0,0,0,0,0,0,0,0,0,0,0,0,0,0,0,0,0,0,0,0,0,0,0],"sum_hessian":[8.1323647E3,4.223513E3,3.9088516E3,1.2144788E3,3.0090347E3,1.7485713E3,2.1602803E3,1.1781998E3,3.6278934E1,1.8812085E2,2.8209138E3,2.3524567E2,1.5133257E3,1.9868799E3,1.7340047E2,6.050993E2,5.7310046E2,1.9387857E1,1.6891075E1,1.5795964E2,3.016122E1,1.9800146E3,8.4089905E2,1.9833542E2,3.691025E1,3.926417E1,1.4740615E3,4.409219E2,1.5459579E3,1.1433912E1,1.6196655E2,1.14120636E2,4.909787E2,2.796276E1,5.451377E2,4.8538017E0,1.4534056E1,1.5826359E0,1.5308439E1,1.5515385E2,2.8057868E0,2.7646637E1,2.514583E0,2.675945E2,1.7124202E3,1.8415761E2,6.5674146E2,6.8466997E0,1.9148871E2,2.8495813E1,8.414437E0,3.8175735E1,1.0884373E0,1.7699872E2,1.2970627E3,1.9250975E2,2.4841214E2,1.5282699E3,1.7687998E1,1.1377938E0,1.0296118E1,1.4532272E2,1.6643837E1],"tree_param":{"num_deleted":"0","num_feature":"36","num_nodes":"63","size_leaf_vector":"0"}},{"base_weights":[-1.4251901E-1,-2.9514918E-1,4.8425958E-2,-6.8354446E-1,-1.4997967E-1,2.3502263E-1,-1.335579E-1,-2.6467043E-1,-7.2568977E-1,-9.925284E-1,-1.13408655E-1,2.0615734E-1,9.51858E-1,-1.1502801E0,-8.900892E-2,-4.8114577E-1,1.5148665E0,-9.4343644E-1,-5.776807E-1,-1.0879778E0,-5.983044E-1,-2.2304319E-1,7.557272E-2,8.838372E-2,3.875299E-1,1.0308784E0,6.1621156E-2,-6.6668063E-1,-1.9743541E-2,-8.084968E-1,1.19152926E-1,1.9723876E0,2.0597209E-1,-9.642472E-1,-3.0332935E-1,-5.3079826E-1,-8.739641E-1,-1.1011894E0,-3.9423604E-2,4.626778E-1,-6.816442E-1,-1.3305451E-1,-5.645689E-1,-3.4108382E-1,1.6785766E-1,2.9865414E-1,-1.20495975E-1,-3.0466872E-1,4.6828562E-1,-9.70205E-2,1.0544679E0,5.8090264E-1,-1.3026143E0,-7.4997634E-1,8.557372E-2,-1.9458093E-1,1.2965935E-1],"categories":[],"categories_nodes":[],"categories_segments":[],"categories_sizes":[],"default_left":[1,1,1,1,1,1,1,1,1,1,1,1,1,0,1,1,1,1,1,1,1,1,1,1,1,1,1,1,1,0,0,0,0,0,0,0,0,0,0,0,0,0,0,0,0,0,0,0,0,0,0,0,0,0,0,0,0],"id":6,"left_children":[1,3,5,7,9,11,13,15,17,19,21,23,25,-1,27,29,31,33,35,37,39,41,43,45,47,49,51,53,55,-1,-1,-1,-1,-1,-1,-1,-1,-1,-1,-1,-1,-1,-1,-1,-1,-1,-1,-1,-1,-1,-1,-1,-1,-1,-1,-1,-1],"loss_changes":[2.2481897E2,2.4161429E2,1.1642284E2,2.0394104E1,9.608289E1,3.4828377E1,7.8521675E1,4.240167E1,3.3582886E1,4.2310486E0,6.2032288E1,3.475081E1,4.5263214E0,0E0,6.65711E1,1.9197783E1,6.7639313E0,5.3948364E0,8.328781E0,1.3866425E0,2.748024E0,5.8149773E1,4.2340855E1,4.3457523E1,3.596399E1,1.6950569E0,5.2784543E0,1.12261505E1,3.8865993E1,0E0,0E0,0E0,0E0,0E0,0E0,0E0,0E0,0E0,0E0,0E0,0E0,0E0,0E0,0E0,0E0,0E0,0E0,0E0,0E0,0E0,0E0,0E0,0E0,0E0,0E0,0E0,0E0],"parents":[2147483647,0,0,1,1,2,2,3,3,4,4,5,5,6,6,7,7,8,8,9,9,10,10,11,11,12,12,14,14,15,15,16,16,17,17,18,18,19,19,20,20,21,21,22,22,23,23,24,24,25,25,26,26,27,27,28,28],"right_children":[2,4,6,8,10,12,14,16,18,20,22,24,26,-1,28,30,32,34,36,38,40,42,44,46,48,50,52,54,56,-1,-1,-1,-1,-1,-1,-1,-1,-1,-1,-1,-1,-1,-1,-1,-1,-1,-1,-1,-1,-1,-1,-1,-1,-1,-1,-1,-1],"split_conditions":[-1.8372029E-1,-2.6326755E-1,4.4675447E-2,-1.174489E0,-1.0547688E0,2.7954311E0,-2.689545E0,3.7914872E-1,-6.624923E-1,6.545876E-1,4.6040273E-1,2.3606494E-1,-2.844479E-1,-3.4508404E-1,-7.095309E-1,-4.16408E-1,7.113179E-1,-3.8728184E-1,1.3638861E0,2.3452945E0,-9.2607784E-1,1.0320455E0,-2.653033E-1,-2.2987747E-1,-9.861595E-1,-1.0158846E0,1.9952738E-1,2.38419E0,4.4688568E-1,-2.4254905E-1,3.5745878E-2,5.917163E-1,6.179163E-2,-2.892742E-1,-9.0998806E-2,-1.5923949E-1,-2.6218924E-1,-3.3035684E-1,-1.1827081E-2,1.3880335E-1,-2.0449327E-1,-3.9916355E-2,-1.6937067E-1,-1.0232515E-1,5.03573E-2,8.959624E-2,-3.6148794E-2,-9.140062E-2,1.4048569E-1,-2.9106151E-2,3.163404E-1,1.742708E-1,-3.9078432E-1,-2.2499292E-1,2.5672117E-2,-5.8374282E-2,3.889781E-2],"split_indices":[9,0,1,0,9,7,11,3,0,0,0,0,1,0,0,7,32,9,3,26,33,1,2,4,6,0,23,7,7,0,0,0,0,0,0,0,0,0,0,0,0,0,0,0,0,0,0,0,0,0,0,0,0,0,0,0,0],"split_type":[0,0,0,0,0,0,0,0,0,0,0,0,0,0,0,0,0,0,0,0,0,0,0,0,0,0,0,0,0,0,0,0,0,0,0,0,0,0,0,0,0,0,0,0,0,0,0,0,0,0,0,0,0,0,0,0,0],"sum_hessian":[7.7125938E3,4.28604E3,3.426554E3,1.1651144E3,3.1209258E3,1.6916912E3,1.7348627E3,1.0717757E2,1.0579368E3,1.287418E2,2.9921838E3,1.6274453E3,6.424586E1,7.178243E1,1.6630803E3,9.620423E1,1.0973333E1,4.2593674E2,6.3200006E2,1.0223008E2,2.6511724E1,1.8935125E3,1.0986714E3,9.8762317E2,6.398222E2,5.8862995E1,5.3828626E0,1.7713695E2,1.4859434E3,6.2031036E1,3.417319E1,7.755503E0,3.2178302E0,4.1203452E2,1.3902206E1,5.48068E2,8.393206E1,1.00908455E2,1.3216269E0,1.5993259E0,2.49124E1,1.4997363E3,3.937762E2,1.9873018E2,8.9994116E2,4.9195892E2,4.956642E2,6.6556816E1,5.732654E2,1.1420999E0,5.7720894E1,4.3147078E0,1.0681548E0,1.5948096E2,1.7656002E1,6.8455115E2,8.0139215E2],"tree_param":{"num_deleted":"0","num_feature":"36","num_nodes":"57","size_leaf_vector":"0"}},{"base_weights":[-1.08768314E-1,-9.599891E-1,-8.245377E-2,-1.0115342E0,-4.842862E-1,-1.3060804E-1,2.788205E-1,-1.0665581E0,-6.552945E-1,-6.459332E-1,2.0282355E-1,-4.770405E-1,-4.9490016E-2,3.073956E-1,-1.2904218E0,-4.5081234E-1,-1.0720422E0,-8.1797373E-1,4.5472482E-1,-2.4611926E-1,-9.90721E-1,1.1381816E0,-3.765495E-1,1.6378586E-1,-5.421786E-1,-3.133976E-1,4.3343368E-4,3.4576133E-1,-4.3541676E-1,-5.6969266E-2,-6.0314375E-1,-1.0760148E0,-3.8976702E-1,-9.250814E-1,8.4639287E-1,1.1023004E0,-6.463428E-1,-8.008112E-1,5.301949E-1,2.771609E-1,-7.5908536E-1,6.640499E-1,-3.0718568E-1,-8.3516014E-1,-3.8457364E-1,-4.1340637E-1,4.6802488E-1,8.865642E-2,-2.7226046E-1,9.7237366E-1,3.0246708E-1,-9.8857534E-1,8.359225E-2],"categories":[],"categories_nodes":[],"categories_segments":[],"categories_sizes":[],"default_left":[1,1,1,1,1,1,1,1,1,1,1,1,1,1,0,1,1,1,1,1,0,0,1,1,1,1,1,1,1,0,0,0,0,0,0,0,0,0,0,0,0,0,0,0,0,0,0,0,0,0,0,0,0],"id":7,"left_children":[1,3,5,7,9,11,13,15,17,19,21,23,25,27,-1,29,31,33,35,37,-1,-1,39,41,43,45,47,49,51,-1,-1,-1,-1,-1,-1,-1,-1,-1,-1,-1,-1,-1,-1,-1,-1,-1,-1,-1,-1,-1,-1,-1,-1],"loss_changes":[1.6498209E2,4.926117E0,1.2440854E2,3.189392E0,2.7424893E0,1.7726996E2,3.8114807E1,9.156799E-2,5.6327543E0,2.4129963E0,3.267688E0,5.0048523E1,6.736592E1,2.3716362E1,0E0,1.5932977E-1,3.5964966E-2,5.376314E0,3.8259485E0,4.8405437E0,0E0,0E0,1.2072859E0,2.6403957E1,4.9855896E1,6.3758255E1,1.0348998E2,2.1052338E1,1.1869152E1,0E0,0E0,0E0,0E0,0E0,0E0,0E0,0E0,0E0,0E0,0E0,0E0,0E0,0E0,0E0,0E0,0E0,0E0,0E0,0E0,0E0,0E0,0E0,0E0],"parents":[2147483647,0,0,1,1,2,2,3,3,4,4,5,5,6,6,7,7,8,8,9,9,10,10,11,11,12,12,13,13,15,15,16,16,17,17,18,18,19,19,22,22,23,23,24,24,25,25,26,26,27,27,28,28],"right_children":[2,4,6,8,10,12,14,16,18,20,22,24,26,28,-1,30,32,34,36,38,-1,-1,40,42,44,46,48,50,52,-1,-1,-1,-1,-1,-1,-1,-1,-1,-1,-1,-1,-1,-1,-1,-1,-1,-1,-1,-1,-1,-1,-1,-1],"split_conditions":[-1.0466375E0,6.262438E-1,7.8410244E-1,-1.2243861E0,8.961215E-1,-3.657875E-1,1.2217208E0,-2.0946264E0,-3.8274658E-1,6.6323704E-1,-1.2192284E0,-1.174489E0,-9.861595E-1,1.3638861E0,-3.8712656E-1,3.009354E-1,2.3464959E0,2.3791249E0,-3.620844E-1,8.01979E-1,-2.972163E-1,3.4145448E-1,-1.0155667E0,-1.1988623E-1,-7.2159207E-1,1.0369267E0,8.6748385E-1,-1.6009413E0,-2.0959532E-1,-1.709078E-2,-1.8094313E-1,-3.2280445E-1,-1.1693011E-1,-2.775244E-1,2.5391787E-1,3.3069015E-1,-1.9390285E-1,-2.4024336E-1,1.5905847E-1,8.314828E-2,-2.2772561E-1,1.9921498E-1,-9.215571E-2,-2.5054806E-1,-1.153721E-1,-1.2402192E-1,1.4040747E-1,2.6596926E-2,-8.167814E-2,2.917121E-1,9.074013E-2,-2.9657263E-1,2.5077676E-2],"split_indices":[7,0,9,7,26,0,11,1,4,33,34,0,6,3,0,33,9,23,33,30,0,0,2,1,0,0,1,1,0,0,0,0,0,0,0,0,0,0,0,0,0,0,0,0,0,0,0,0,0,0,0,0,0],"split_type":[0,0,0,0,0,0,0,0,0,0,0,0,0,0,0,0,0,0,0,0,0,0,0,0,0,0,0,0,0,0,0,0,0,0,0,0,0,0,0,0,0,0,0,0,0,0,0,0,0,0,0,0,0],"sum_hessian":[7.367976E3,2.1987857E2,7.148097E3,1.973664E2,2.251218E1,6.3079487E3,8.401484E2,1.6923312E2,2.8133266E1,1.8273216E1,4.238965E0,1.1958645E3,5.1120845E3,8.25913E2,1.4235335E1,2.22846E0,1.6700465E2,2.4766678E1,3.3665886E0,9.254999E0,9.018216E0,1.2524557E0,2.986509E0,1.1020051E2,1.085664E3,8.12378E2,4.2997065E3,7.858585E2,4.0054504E1,1.0047432E0,1.2237169E0,1.6546416E2,1.5405071E0,2.3686552E1,1.0801264E0,2.119134E0,1.2474548E0,5.379607E0,3.8753922E0,1.2041748E0,1.7823343E0,5.3239628E1,5.696088E1,3.7823694E2,7.0742706E2,7.2062164E2,9.175636E1,3.2491907E3,1.0505157E3,4.9401024E1,7.364575E2,1.8951406E1,2.11031E1],"tree_param":{"num_deleted":"0","num_feature":"36","num_nodes":"53","size_leaf_vector":"0"}},{"base_weights":[-8.190046E-2,-8.933496E-1,-6.1379697E-2,-9.5361656E-1,-4.0997434E-1,-1.623702E-1,8.000825E-2,-1.0291753E0,-5.7905436E-1,-5.9498805E-1,1.082377E-1,-3.482853E-1,-2.0560543E-3,-1.08835526E-1,1.58018E-1,-4.0527877E-1,-1.0360693E0,4.4377622E-1,-7.9653347E-1,-2.4285221E-1,-9.354941E-1,5.711958E-1,-7.4108714E-1,-5.911383E-1,-2.4520253E-1,2.4238153E-1,-6.283698E-2,-1.6526791E-1,6.4864284E-1,-1.4731215E-1,2.2105213E-1,-5.976985E-1,-1.0499964E0,-8.3203095E-1,1.6613033E0,-9.074268E-1,6.358405E-1,3.4376505E-1,-6.174258E-1,-2.509082E-1,1.6261508E0,-1.2307242E-2,-6.828285E-1,-5.731253E-1,-1.9191398E-1,2.7696952E-1,-1.0958326E0,-1.22261256E-1,5.6659234E-1,-5.23729E-1,-7.746868E-2,8.133173E-1,-1.500519E-1,-3.040906E-1,6.3148624E-1,3.128613E-1,-2.10347E-1],"categories":[],"categories_nodes":[],"categories_segments":[],"categories_sizes":[],"default_left":[1,1,1,1,1,1,1,1,1,1,1,1,1,1,1,0,1,1,1,1,0,1,0,1,1,1,1,1,1,1,1,0,0,0,0,0,0,0,0,0,0,0,0,0,0,0,0,0,0,0,0,0,0,0,0,0,0],"id":8,"left_children":[1,3,5,7,9,11,13,15,17,19,21,23,25,27,29,-1,31,33,35,37,-1,39,-1,41,43,45,47,49,51,53,55,-1,-1,-1,-1,-1,-1,-1,-1,-1,-1,-1,-1,-1,-1,-1,-1,-1,-1,-1,-1,-1,-1,-1,-1,-1,-1],"loss_changes":[1.1858688E2,4.7264404E0,9.925517E1,3.8031464E0,2.0996628E0,1.2084844E2,4.268909E1,1.3090515E-1,6.666149E0,1.6669402E0,2.9519947E0,4.685457E1,3.2377872E1,3.632888E1,3.94921E1,0E0,1.4178467E-1,1.0109154E1,4.351103E0,2.2154274E0,0E0,4.5076275E0,0E0,2.9645279E1,2.295111E1,2.0390833E1,6.534837E1,2.4804186E1,7.8760643E0,4.310201E1,6.738923E1,0E0,0E0,0E0,0E0,0E0,0E0,0E0,0E0,0E0,0E0,0E0,0E0,0E0,0E0,0E0,0E0,0E0,0E0,0E0,0E0,0E0,0E0,0E0,0E0,0E0,0E0],"parents":[2147483647,0,0,1,1,2,2,3,3,4,4,5,5,6,6,7,7,8,8,9,9,10,10,11,11,12,12,13,13,14,14,16,16,17,17,18,18,19,19,21,21,23,23,24,24,25,25,26,26,27,27,28,28,29,29,30,30],"right_children":[2,4,6,8,10,12,14,16,18,20,22,24,26,28,30,-1,32,34,36,38,-1,40,-1,42,44,46,48,50,52,54,56,-1,-1,-1,-1,-1,-1,-1,-1,-1,-1,-1,-1,-1,-1,-1,-1,-1,-1,-1,-1,-1,-1,-1,-1,-1,-1],"split_conditions":[-1.0466375E0,6.262438E-1,2.5777507E-1,-1.260928E0,5.3799254E-1,-3.9978278E-1,-2.7734277E-1,-2.0946264E0,-6.135713E-1,6.6323704E-1,8.3731437E-1,-4.3212396E-1,-7.649194E-1,1.8315754E0,-9.861595E-1,-1.2158363E-1,-1.6424532E0,-9.338343E-1,2.3791249E0,-3.8274658E-1,-2.8064826E-1,7.800238E-1,-2.2232614E-1,-1.174489E0,-9.861595E-1,1.2352235E0,2.3464959E0,-8.9052284E-1,2.5145674E0,8.6748385E-1,1.0320455E0,-1.7930956E-1,-3.1499892E-1,-2.4960929E-1,4.98391E-1,-2.7222803E-1,1.9075215E-1,1.0312952E-1,-1.8522775E-1,-7.527246E-2,4.8784527E-1,-3.6921727E-3,-2.0484856E-1,-1.719376E-1,-5.7574194E-2,8.309086E-2,-3.2874978E-1,-3.6678378E-2,1.6997771E-1,-1.5711871E-1,-2.3240604E-2,2.439952E-1,-4.5015574E-2,-9.122718E-2,1.8944588E-1,9.385839E-2,-6.31041E-2],"split_indices":[7,0,0,7,26,9,3,1,1,33,0,0,4,7,6,0,32,3,23,4,0,0,0,0,6,2,9,2,7,1,1,0,0,0,0,0,0,0,0,0,0,0,0,0,0,0,0,0,0,0,0,0,0,0,0,0,0],"split_type":[0,0,0,0,0,0,0,0,0,0,0,0,0,0,0,0,0,0,0,0,0,0,0,0,0,0,0,0,0,0,0,0,0,0,0,0,0,0,0,0,0,0,0,0,0,0,0,0,0,0,0,0,0,0,0,0,0],"sum_hessian":[7.123963E3,1.7466536E2,6.9492974E3,1.5443736E2,2.0227999E1,4.0536853E3,2.8956123E3,1.2705874E2,2.737863E1,1.4796979E1,5.43102E0,1.8764305E3,2.1772546E3,8.463637E2,2.0492485E3,2.0420668E0,1.2501667E2,4.6181874E0,2.276044E1,8.1164875E0,6.680492E0,3.7269623E0,1.7040576E0,5.577324E2,1.3186981E3,4.3298148E2,1.7442732E3,7.884088E2,5.7954903E1,3.5043652E2,1.698812E3,5.201769E0,1.198149E2,2.4097307E0,2.2084568E0,2.1465117E1,1.2953254E0,3.1950266E0,4.9214606E0,2.5230024E0,1.20396E0,7.6422005E1,4.813104E2,1.8297379E2,1.1357244E3,4.228455E2,1.0135992E1,1.594539E3,1.4973428E2,1.541382E2,6.342706E2,4.8033146E1,9.921756E0,2.9221985E2,5.821669E1,1.4009421E3,2.9786987E2],"tree_param":{"num_deleted":"0","num_feature":"36","num_nodes":"57","size_leaf_vector":"0"}},{"base_weights":[-6.1535474E-2,-8.9901483E-1,-4.6382345E-2,-9.934561E-1,-3.868037E-1,-1.0087932E-1,1.2145873E-1,-1.0104207E0,7.090483E-2,1.965506E-2,-7.144411E-1,-2.0745662E-1,-4.2726034E-3,3.9070985E-1,4.9181115E-2,-1.056133E0,-5.863225E-1,-8.6905533E-1,3.3776334E-1,-9.112691E-1,2.4833594E-2,-4.930897E-1,-1.4451739E-1,-1.0463386E0,1.146472E-2,2.8028986E-1,7.7134025E-1,-4.800369E-2,2.0651098E-1,-1.0645982E0,-2.2396448E-1,-8.955128E-1,4.076006E-1,7.5442725E-1,-7.982822E-1,-4.0865377E-2,-1.0149947E0,-6.684987E-1,6.7527735E-1,-2.8008623E-2,-5.974592E-1,-4.5715E-1,-9.4616346E-2,-1.6508237E-2,4.0801167E-1,9.0682164E-2,4.185337E-1,8.9426744E-1,2.2037749E-1,-5.2013296E-1,4.7687896E-2,-1.5278114E-1,3.0078334E-1],"categories":[],"categories_nodes":[],"categories_segments":[],"categories_sizes":[],"default_left":[1,1,1,1,1,1,1,1,0,1,1,1,1,1,1,1,1,0,1,1,1,1,1,0,1,1,1,1,1,0,0,0,0,0,0,0,0,0,0,0,0,0,0,0,0,0,0,0,0,0,0,0,0],"id":9,"left_children":[1,3,5,7,9,11,13,15,-1,17,19,21,23,25,27,29,31,-1,33,35,37,39,41,-1,43,45,47,49,51,-1,-1,-1,-1,-1,-1,-1,-1,-1,-1,-1,-1,-1,-1,-1,-1,-1,-1,-1,-1,-1,-1,-1,-1],"loss_changes":[8.7529434E1,5.545555E0,6.2018436E1,1.9289703E0,2.7734723E0,5.2693848E1,3.2325462E1,1.3449173E0,0E0,3.1831508E0,1.6959462E0,4.3674805E1,4.405344E1,1.4560974E1,2.0062035E1,3.970337E-1,4.0852804E0,0E0,4.506024E0,7.808428E-1,1.980867E0,2.1290642E1,3.1086582E1,0E0,2.9364374E1,7.14686E0,5.118927E0,3.668698E1,1.7014006E1,0E0,0E0,0E0,0E0,0E0,0E0,0E0,0E0,0E0,0E0,0E0,0E0,0E0,0E0,0E0,0E0,0E0,0E0,0E0,0E0,0E0,0E0,0E0,0E0],"parents":[2147483647,0,0,1,1,2,2,3,3,4,4,5,5,6,6,7,7,9,9,10,10,11,11,12,12,13,13,14,14,15,15,16,16,18,18,19,19,20,20,21,21,22,22,24,24,25,25,26,26,27,27,28,28],"right_children":[2,4,6,8,10,12,14,16,-1,18,20,22,24,26,28,30,32,-1,34,36,38,40,42,-1,44,46,48,50,52,-1,-1,-1,-1,-1,-1,-1,-1,-1,-1,-1,-1,-1,-1,-1,-1,-1,-1,-1,-1,-1,-1,-1,-1],"split_conditions":[-1.0547688E0,6.545876E-1,5.050291E-1,1.097392E0,-3.8274658E-1,-3.3430257E-1,-8.6560106E-1,1.0429127E0,2.1271449E-2,-2.505821E-1,8.069941E-1,-4.6227688E-1,-2.689545E0,1.1038662E0,5.1503253E-1,2.477415E0,-1.1427526E-1,-2.6071662E-1,1.1801398E-1,-9.625959E-1,5.1503253E-1,-1.1401147E0,-9.861595E-1,-3.1390157E-1,1.452031E0,1.9209862E-1,9.1664094E-1,-6.4043504E-1,-9.861595E-1,-3.1937948E-1,-6.718935E-2,-2.6865387E-1,1.2228019E-1,2.2632818E-1,-2.3948467E-1,-1.2259614E-2,-3.0449843E-1,-2.0054962E-1,2.0258321E-1,-8.402587E-3,-1.7923777E-1,-1.3714501E-1,-2.8384905E-2,-4.9524712E-3,1.2240351E-1,2.720465E-2,1.2556012E-1,2.6828024E-1,6.611325E-2,-1.560399E-1,1.4306369E-2,-4.5834344E-2,9.0235E-2],"split_indices":[9,0,0,7,4,9,24,32,0,24,32,0,11,0,5,27,30,0,23,24,5,0,6,0,15,34,4,2,6,0,0,0,0,0,0,0,0,0,0,0,0,0,0,0,0,0,0,0,0,0,0,0,0],"split_type":[0,0,0,0,0,0,0,0,0,0,0,0,0,0,0,0,0,0,0,0,0,0,0,0,0,0,0,0,0,0,0,0,0,0,0,0,0,0,0,0,0,0,0,0,0,0,0,0,0,0,0,0,0],"sum_hessian":[6.8995635E3,1.21583565E2,6.77798E3,1.0186263E2,1.9720938E1,5.1169395E3,1.6610402E3,1.0031443E2,1.5482029E0,9.221271E0,1.0499666E1,2.4323757E3,2.684564E3,3.5059302E2,1.3104471E3,8.9208565E1,1.1105862E1,1.9741288E0,7.247142E0,8.108237E0,2.3914287E0,4.379628E2,1.994413E3,3.8964947E1,2.6455989E3,2.731029E2,7.749012E1,8.104908E2,4.9995636E2,8.803375E1,1.1748177E0,8.5462885E0,2.5595737E0,5.5481734E0,1.6989682E0,1.0117992E0,7.0964384E0,1.1441154E0,1.2473134E0,8.050275E1,3.5746005E2,2.733982E2,1.7210148E3,2.4721672E3,1.7343164E2,1.15856476E2,1.5724641E2,6.284537E1,1.4644748E1,1.3583986E2,6.746509E2,1.0378583E2,3.9617053E2],"tree_param":{"num_deleted":"0","num_feature":"36","num_nodes":"53","size_leaf_vector":"0"}},{"base_weights":[-4.596365E-2,-7.899506E-1,-3.285648E-2,-8.7275136E-1,-2.8452104E-1,-6.0541417E-2,2.079671E-1,2.5230718E-1,-8.9799416E-1,-3.8183946E-2,-7.5701094E-1,-1.061779E-1,8.289484E-2,5.206697E-1,1.4879729E-1,-9.993971E-1,-6.337041E-1,-4.4918454E-1,3.0160344E-1,-8.760116E-1,-7.98585E-2,-1.2758167E-1,1.8950567E-1,-3.300646E-2,2.0002632E-1,3.93853E-1,1.1469729E0,2.351827E-1,-1.4474583E-1,-1.0108474E0,-1.8286403E-1,8.684426E-1,-7.174946E-1,-8.613032E-1,6.2110376E-1,5.4812884E-1,-5.756185E-1,-2.7503073E-1,-7.569529E-2,9.549731E-1,8.292975E-2,-1.3291016E-1,1.1508921E-1,4.0583956E-1,6.950333E-2,6.5807056E-1,1.6570596E-1,1.313277E0,-1.6179423E-1,2.986951E-1,-1.4808418E-1,-3.0273125E-1,6.9909954E-1],"categories":[],"categories_nodes":[],"categories_segments":[],"categories_sizes":[],"default_left":[1,1,1,1,1,1,1,0,1,1,1,1,1,1,1,1,1,1,1,0,0,1,1,1,1,1,1,1,1,0,0,0,0,0,0,0,0,0,0,0,0,0,0,0,0,0,0,0,0,0,0,0,0],"id":10,"left_children":[1,3,5,7,9,11,13,-1,15,17,19,21,23,25,27,29,31,33,35,-1,-1,37,39,41,43,45,47,49,51,-1,-1,-1,-1,-1,-1,-1,-1,-1,-1,-1,-1,-1,-1,-1,-1,-1,-1,-1,-1,-1,-1,-1,-1],"loss_changes":[6.577158E1,4.6385193E0,4.422679E1,3.062271E0,2.0569036E0,3.8948082E1,1.2578032E1,0E0,1.9897995E0,1.9275627E0,4.2063546E-1,2.858733E1,1.9506477E1,8.160488E0,1.4654257E1,4.603119E-1,4.3831415E0,3.2738156E0,1.9640646E0,0E0,0E0,3.218203E1,2.4807037E1,1.0709943E1,1.916677E1,5.4184084E0,4.072695E0,1.0897045E1,1.7770876E1,0E0,0E0,0E0,0E0,0E0,0E0,0E0,0E0,0E0,0E0,0E0,0E0,0E0,0E0,0E0,0E0,0E0,0E0,0E0,0E0,0E0,0E0,0E0,0E0],"parents":[2147483647,0,0,1,1,2,2,3,3,4,4,5,5,6,6,8,8,9,9,10,10,11,11,12,12,13,13,14,14,15,15,16,16,17,17,18,18,21,21,22,22,23,23,24,24,25,25,26,26,27,27,28,28],"right_children":[2,4,6,8,10,12,14,-1,16,18,20,22,24,26,28,30,32,34,36,-1,-1,38,40,42,44,46,48,50,52,-1,-1,-1,-1,-1,-1,-1,-1,-1,-1,-1,-1,-1,-1,-1,-1,-1,-1,-1,-1,-1,-1,-1,-1],"split_conditions":[-1.1358078E0,6.262438E-1,1.452031E0,-2.0946264E0,8.3188677E-1,6.66009E-1,-1.089882E0,7.5692154E-2,-1.3566501E0,3.4105998E-2,1.0034237E0,2.2930324E0,-3.2153794E-1,3.410547E0,1.1966071E0,2.3333316E0,-9.861595E-1,8.961215E-1,1.5229534E-1,-2.628035E-1,-2.395755E-2,-2.114045E-1,-1.9185716E0,4.8496008E-1,4.642227E-1,-7.700835E-2,2.193584E0,6.1090267E-1,1.1575975E0,-3.0325425E-1,-5.485921E-2,2.605328E-1,-2.1524839E-1,-2.5839096E-1,1.8633114E-1,1.6443866E-1,-1.7268556E-1,-8.250922E-2,-2.2708587E-2,2.8649193E-1,2.4878927E-2,-3.987305E-2,3.4526765E-2,1.21751875E-1,2.0851E-2,1.9742118E-1,4.971179E-2,3.9398313E-1,-4.853827E-2,8.960853E-2,-4.4425257E-2,-9.0819374E-2,2.0972987E-1],"split_indices":[7,0,15,1,0,28,30,0,7,30,32,9,9,17,1,9,6,26,4,0,0,0,3,2,9,4,31,4,11,0,0,0,0,0,0,0,0,0,0,0,0,0,0,0,0,0,0,0,0,0,0,0,0],"split_type":[0,0,0,0,0,0,0,0,0,0,0,0,0,0,0,0,0,0,0,0,0,0,0,0,0,0,0,0,0,0,0,0,0,0,0,0,0,0,0,0,0,0,0,0,0,0,0,0,0,0,0,0,0],"sum_hessian":[6.7463843E3,1.1577046E2,6.6306143E3,9.884988E1,1.6920588E1,5.947627E3,6.8298706E2,1.9718184E0,9.687806E1,1.1832445E1,5.0881433E0,4.512245E3,1.4353817E3,1.0743126E2,5.7555585E2,6.800459E1,2.8873468E1,5.2093515E0,6.6230936E0,4.0778456E0,1.0102975E0,4.208194E3,3.0405164E2,7.218406E2,7.1354114E2,9.069565E1,1.673561E1,4.448437E2,1.3071214E2,6.682946E1,1.175131E0,1.030727E0,2.7842743E1,3.902095E0,1.3072563E0,5.462986E0,1.1601076E0,1.09426E3,3.1139336E3,3.618649E1,2.6786514E2,4.311166E2,2.9072397E2,2.7608743E2,4.3745367E2,4.1152477E1,4.9543175E1,1.4845727E1,1.8898818E0,3.8179575E2,6.304794E1,1.1063939E2,2.0072748E1],"tree_param":{"num_deleted":"0","num_feature":"36","num_nodes":"53","size_leaf_vector":"0"}},{"base_weights":[-3.335382E-2,-7.9571694E-1,-2.330084E-2,-9.159231E-1,-3.101931E-1,-1.0115539E0,-1.775796E-2,-9.789047E-1,-2.601086E-1,-6.8879384E-1,1.0969389E-2,-3.5961393E-2,2.5035822E-1,-1.0064949E0,-1.1800438E-1,-7.76618E-1,7.2398883E-1,-9.667264E-1,-2.4448845E-1,8.648984E-1,-1.6640039E-1,1.7011985E-2,-1.4546326E-1,2.816938E-1,-8.862002E-1,-1.0281277E0,-4.0408403E-2,3.8581872E-1,-5.643599E-1,-2.484554E-2,-9.4500315E-1,-9.85232E-2,1.1942627E0,2.549628E-1,-6.773508E-1,-4.9986416E-1,3.685294E-1,-2.7706796E-1,6.712454E-2,-2.3906384E-1,2.0537531E-1,2.5100753E-1,1.2755278E0,-1.1985375E0,6.372936E-1],"categories":[],"categories_nodes":[],"categories_segments":[],"categories_sizes":[],"default_left":[1,1,1,1,1,0,1,1,1,1,1,1,1,1,1,1,1,0,1,0,1,1,1,1,1,0,0,0,0,0,0,0,0,0,0,0,0,0,0,0,0,0,0,0,0],"id":11,"left_children":[1,3,5,7,9,-1,11,13,15,17,19,21,23,25,27,29,31,-1,33,-1,35,37,39,41,43,-1,-1,-1,-1,-1,-1,-1,-1,-1,-1,-1,-1,-1,-1,-1,-1,-1,-1,-1,-1],"loss_changes":[5.097657E1,4.7683334E0,3.596144E1,2.590313E0,2.2803168E0,0E0,3.189245E1,1.3652992E0,4.322122E0,8.249397E-1,1.8247263E0,3.5492165E1,1.50459E1,1.2209244E0,9.088142E-1,6.5166306E-1,1.3026752E0,0E0,1.1770946E0,0E0,1.9728887E0,6.0799007E1,6.555826E1,1.2033138E1,6.182809E0,0E0,0E0,0E0,0E0,0E0,0E0,0E0,0E0,0E0,0E0,0E0,0E0,0E0,0E0,0E0,0E0,0E0,0E0,0E0,0E0],"parents":[2147483647,0,0,1,1,2,2,3,3,4,4,6,6,7,7,8,8,9,9,10,10,11,11,12,12,13,13,14,14,15,15,16,16,18,18,20,20,21,21,22,22,23,23,24,24],"right_children":[2,4,6,8,10,-1,12,14,16,18,20,22,24,26,28,30,32,-1,34,-1,36,38,40,42,44,-1,-1,-1,-1,-1,-1,-1,-1,-1,-1,-1,-1,-1,-1,-1,-1,-1,-1,-1,-1],"split_conditions":[-1.0547688E0,6.545876E-1,-2.6234806E0,4.8496008E-1,5.1503253E-1,-3.0346617E-1,1.059843E0,1.7128878E0,5.507475E-1,9.281031E-1,6.835344E-1,5.383605E-1,1.0822758E1,2.3647277E0,3.7914872E-1,-5.780641E-1,-1.916602E-1,-2.9001793E-1,-5.73833E-1,2.5946954E-1,5.941068E-1,-9.861595E-1,4.592558E-1,2.4507995E0,-4.3927094E-1,-3.084383E-1,-1.2122521E-2,1.1574562E-1,-1.6930798E-1,-7.4536623E-3,-2.8350097E-1,-2.9556962E-2,3.5827884E-1,7.6488845E-2,-2.0320526E-1,-1.4995925E-1,1.1055883E-1,-8.312039E-2,2.0137362E-2,-7.1719155E-2,6.1612595E-2,7.530226E-2,3.8265836E-1,-3.5956126E-1,1.9118808E-1],"split_indices":[9,0,11,2,5,0,0,21,31,30,0,1,0,26,3,0,4,0,4,0,31,6,7,16,28,0,0,0,0,0,0,0,0,0,0,0,0,0,0,0,0,0,0,0,0],"split_type":[0,0,0,0,0,0,0,0,0,0,0,0,0,0,0,0,0,0,0,0,0,0,0,0,0,0,0,0,0,0,0,0,0,0,0,0,0,0,0,0,0,0,0,0,0],"sum_hessian":[6.65283E3,8.556933E1,6.5672607E3,6.787768E1,1.7691648E1,3.5616486E1,6.531644E3,6.1480686E1,6.3969936E0,7.5943727E0,1.0097276E1,6.1171904E3,4.1445358E2,5.9407665E1,2.0730193E0,4.33341E0,2.0635839E0,3.9485593E0,3.6458132E0,1.0699353E0,9.027341E0,4.123313E3,1.9938776E3,4.040654E2,1.0388166E1,5.804372E1,1.3639469E0,1.0375317E0,1.0354877E0,1.0029937E0,3.330416E0,1.0382231E0,1.0253607E0,1.8835237E0,1.7622895E0,5.6012154E0,3.4261255E0,5.9967255E2,3.5236404E3,1.5742109E3,4.1966672E2,3.9317795E2,1.0887455E1,8.797794E0,1.5903727E0],"tree_param":{"num_deleted":"0","num_feature":"36","num_nodes":"45","size_leaf_vector":"0"}},{"base_weights":[-2.4787571E-2,-4.323314E-1,-1.0989061E-2,-5.9280527E-1,-1.560758E-1,5.6797215E-3,-2.938688E-1,-8.510156E-1,-4.298267E-1,1.0848897E0,-2.2568917E-1,-2.1407671E-1,2.589437E-2,-7.0878816E-1,-2.8273197E-2,-9.549088E-1,-3.2760274E-1,4.7287315E-1,-5.0648016E-1,1.6968973E0,-3.3267316E-1,-2.7807838E-1,1.0517336E0,-9.381492E-1,-1.8742454E-1,2.0026396E-1,2.4596433E-4,1.9584061E-1,-7.4512655E-1,-1.6107985E-1,3.6132118E-1,-1.0123445E0,-1.1004092E-1,7.346011E-2,-8.300194E-1,-7.01898E-1,1.0377976E0,-5.809608E-1,1.6803184E-1,5.19514E-1,2.0945292E0,-4.4380876E-1,1.1891703E-1,1.8290101E0,-3.0828166E-1,-9.839933E-1,-2.934742E-1,-2.123725E-1,5.9240735E-1,-1.15653954E-1,3.1256223E-1,3.7141606E-1,-1.827436E-2,-7.3272914E-1,8.498307E-1,-7.763176E-1,4.1462836E-1,4.2585698E-1,-2.5996256E-1,-4.7828892E-1,5.42787E-1],"categories":[],"categories_nodes":[],"categories_segments":[],"categories_sizes":[],"default_left":[1,1,1,1,1,1,1,1,1,1,1,1,1,1,1,1,1,1,1,1,0,1,1,1,1,1,1,1,1,1,1,0,0,0,0,0,0,0,0,0,0,0,0,0,0,0,0,0,0,0,0,0,0,0,0,0,0,0,0,0,0],"id":12,"left_children":[1,3,5,7,9,11,13,15,17,19,21,23,25,27,29,31,33,35,37,39,-1,41,43,45,47,49,51,53,55,57,59,-1,-1,-1,-1,-1,-1,-1,-1,-1,-1,-1,-1,-1,-1,-1,-1,-1,-1,-1,-1,-1,-1,-1,-1,-1,-1,-1,-1,-1,-1],"loss_changes":[3.688281E1,9.4295845E0,2.992353E1,5.3368607E0,7.180186E0,2.663096E1,3.8895897E1,2.4830704E0,6.127676E0,4.4134192E0,5.435175E0,9.569654E0,2.455117E1,4.6752243E0,1.1252507E1,1.9449959E0,2.0835357E0,5.4918404E0,4.0622997E0,4.3929386E-1,0E0,4.961583E0,3.985171E0,2.3370934E-1,9.626152E0,2.5009668E1,3.291134E1,4.334843E0,5.121086E0,9.515358E0,8.686762E0,0E0,0E0,0E0,0E0,0E0,0E0,0E0,0E0,0E0,0E0,0E0,0E0,0E0,0E0,0E0,0E0,0E0,0E0,0E0,0E0,0E0,0E0,0E0,0E0,0E0,0E0,0E0,0E0,0E0,0E0],"parents":[2147483647,0,0,1,1,2,2,3,3,4,4,5,5,6,6,7,7,8,8,9,9,10,10,11,11,12,12,13,13,14,14,15,15,16,16,17,17,18,18,19,19,21,21,22,22,23,23,24,24,25,25,26,26,27,27,28,28,29,29,30,30],"right_children":[2,4,6,8,10,12,14,16,18,20,22,24,26,28,30,32,34,36,38,40,-1,42,44,46,48,50,52,54,56,58,60,-1,-1,-1,-1,-1,-1,-1,-1,-1,-1,-1,-1,-1,-1,-1,-1,-1,-1,-1,-1,-1,-1,-1,-1,-1,-1,-1,-1,-1,-1],"split_conditions":[-8.762722E-1,1.6209595E-1,1.3638861E0,-1.0547688E0,2.2511554E-1,-7.613393E-1,-2.3914519E-1,6.69061E-1,-1.5074009E0,3.1395653E-1,2.3688974E0,-2.6234806E0,-9.177885E-1,-1.1470922E0,6.3589275E-1,6.1000395E-1,6.6323704E-1,-3.5975692E-1,7.7700853E-1,1.1841619E0,-9.980195E-2,9.7579145E-1,1.3541934E0,2.1778111E0,2.3614044E0,-7.6547897E-1,-3.0986476E-1,-3.8728184E-1,1.8333395E0,-7.622755E-1,-5.407543E-1,-3.0370337E-1,-3.301228E-2,2.2038033E-2,-2.4900584E-1,-2.105694E-1,3.113393E-1,-1.7428824E-1,5.0409555E-2,1.5585421E-1,6.283588E-1,-1.3314264E-1,3.5675112E-2,5.487031E-1,-9.2484504E-2,-2.95198E-1,-8.804226E-2,-6.3711755E-2,1.7772222E-1,-3.4696188E-2,9.376867E-2,1.11424826E-1,-5.482308E-3,-2.1981876E-1,2.549492E-1,-2.3289528E-1,1.2438851E-1,1.277571E-1,-7.798877E-2,-1.4348668E-1,1.628361E-1],"split_indices":[9,26,3,9,26,7,0,0,32,28,4,11,4,4,0,2,33,0,0,4,0,28,26,4,23,2,11,9,23,26,7,0,0,0,0,0,0,0,0,0,0,0,0,0,0,0,0,0,0,0,0,0,0,0,0,0,0,0,0,0,0],"split_type":[0,0,0,0,0,0,0,0,0,0,0,0,0,0,0,0,0,0,0,0,0,0,0,0,0,0,0,0,0,0,0,0,0,0,0,0,0,0,0,0,0,0,0,0,0,0,0,0,0,0,0,0,0,0,0,0,0,0,0,0,0],"sum_hessian":[6.5585405E3,2.1379185E2,6.344749E3,1.3451039E2,7.928146E1,5.9926123E3,3.5213672E2,5.0415073E1,8.4095314E1,3.436477E0,7.5844986E1,5.0399695E2,5.488615E3,1.3678285E2,2.1535387E2,4.1377575E1,9.0374975E0,6.1775217E0,7.791779E1,2.262591E0,1.1738862E0,7.360849E1,2.236492E0,1.667871E1,4.8731824E2,7.029348E2,4.78568E3,5.11279E0,1.3167006E2,1.6104327E2,5.4310596E1,3.8558094E1,2.8194833E0,5.500452E0,3.5370452E0,1.927268E0,4.2502537E0,7.0294464E1,7.623331E0,1.153528E0,1.1090628E0,5.1846603E1,2.176189E1,1.203705E0,1.0327871E0,1.5080004E1,1.5987074E0,4.729166E2,1.4401627E1,1.8433446E2,5.1860034E2,2.2653741E2,4.559143E3,2.0630972E0,3.0496926E0,1.2854356E2,3.1264977E0,2.2742748E1,1.3830052E2,9.361396E0,4.4949203E1],"tree_param":{"num_deleted":"0","num_feature":"36","num_nodes":"61","size_leaf_vector":"0"}},{"base_weights":[-1.8425897E-2,-9.704565E-1,-1.3624255E-2,-3.1262037E-1,-9.9594015E-1,-8.704633E-3,-7.886139E-1,-1.022675E0,-4.2112687E-1,-2.8595578E-2,1.6204555E-1,-9.8090976E-1,-2.4056973E-1,-5.669858E-1,-6.832415E-2,-1.0238457E-1,2.6998991E-2,-2.582384E-2,2.3567218E-1,2.3031455E-1,-1.0645455E0,-5.6445676E-1,3.9567843E-1,-1.2501545E-1,3.1233346E-1,-4.352053E-2,1.0206677E-1,-2.138241E-1,5.092219E-1,7.0320314E-1,1.7283878E-1,4.3169194E-1,-1.1362748E0,-1.3123387E0,-1.2572697E-1,1.0088217E0,-5.995988E-1],"categories":[],"categories_nodes":[],"categories_segments":[],"categories_sizes":[],"default_left":[1,1,1,0,1,1,1,0,1,1,1,1,1,0,0,1,1,1,1,0,1,1,1,0,0,0,0,0,0,0,0,0,0,0,0,0,0],"id":13,"left_children":[1,3,5,-1,7,9,11,-1,13,15,17,19,21,-1,-1,23,25,27,29,-1,31,33,35,-1,-1,-1,-1,-1,-1,-1,-1,-1,-1,-1,-1,-1,-1],"loss_changes":[2.9712183E1,2.3545456E-1,2.4664766E1,0E0,4.4851303E-2,2.1847364E1,4.064577E0,0E0,1.19515E-1,2.3635986E1,9.289703E0,3.2723942E0,2.680606E0,0E0,0E0,2.3274076E1,1.7401627E1,1.920793E1,1.4046406E1,0E0,3.5096378E0,2.562944E0,3.4183502E0,0E0,0E0,0E0,0E0,0E0,0E0,0E0,0E0,0E0,0E0,0E0,0E0,0E0,0E0],"parents":[2147483647,0,0,1,1,2,2,4,4,5,5,6,6,8,8,9,9,10,10,11,11,12,12,15,15,16,16,17,17,18,18,20,20,21,21,22,22],"right_children":[2,4,6,-1,8,10,12,-1,14,16,18,20,22,-1,-1,24,26,28,30,-1,32,34,36,-1,-1,-1,-1,-1,-1,-1,-1,-1,-1,-1,-1,-1,-1],"split_conditions":[-2.6234806E0,-1.2433982E0,2.3606186E0,-9.378611E-2,2.1778111E0,1.452031E0,-3.9714655E-1,-3.068025E-1,1.4319393E-1,-1.213761E-1,-2.775183E-1,-1.9300647E0,-8.869977E-1,-1.7009574E-1,-2.0497246E-2,2.38419E0,-1.8372029E-1,5.1503253E-1,-9.338343E-1,6.909437E-2,-1.8272048E0,-4.212315E-2,2.1749097E-1,-3.7504636E-2,9.3700044E-2,-1.3056159E-2,3.0620033E-2,-6.4147234E-2,1.5276659E-1,2.1096095E-1,5.1851634E-2,1.2950759E-1,-3.4088245E-1,-3.9370164E-1,-3.771809E-2,3.0264652E-1,-1.7987965E-1],"split_indices":[11,26,2,0,4,15,0,0,0,28,7,1,33,0,0,7,9,5,3,0,34,28,28,0,0,0,0,0,0,0,0,0,0,0,0,0,0],"split_type":[0,0,0,0,0,0,0,0,0,0,0,0,0,0,0,0,0,0,0,0,0,0,0,0,0,0,0,0,0,0,0,0,0,0,0,0,0],"sum_hessian":[6.5016E3,3.1617569E1,6.4699824E3,1.6739392E0,2.9943628E1,6.4301753E3,3.9807415E1,2.7868317E1,2.075312E0,5.760015E3,6.701603E2,2.8883154E1,1.0924259E1,1.038766E0,1.036546E0,2.474648E3,3.285367E3,1.8887262E2,4.8128766E2,1.7523025E0,2.7130852E1,7.3138986E0,3.6103613E0,2.3472583E3,1.27389755E2,1.6942189E3,1.5911481E3,1.4020784E2,4.8664787E1,5.5811756E1,4.254759E2,1.0115734E0,2.6119278E1,1.9679701E0,5.345928E0,2.2256405E0,1.3847207E0],"tree_param":{"num_deleted":"0","num_feature":"36","num_nodes":"37","size_leaf_vector":"0"}},{"base_weights":[-1.3437074E-2,-2.4748546E-1,3.0412348E-3,4.512523E-1,-3.1130105E-1,-8.901654E-3,3.6857906E-1,8.287515E-1,-3.7722847E-1,-2.1358559E-1,-9.9947226E-1,-4.656544E-3,-7.342293E-1,7.540243E-1,6.259006E-2,-3.492182E-1,9.294404E-1,-7.7826685E-1,5.301992E-1,2.5466805E-2,-5.350468E-1,-6.4086235E-1,-2.100881E0,-9.143139E-1,-1.3934162E-3,-9.9627364E-1,7.1113163E-1,-1.0924091E0,7.9242635E-1,6.831958E-1,-4.3601826E-1,4.355357E-1,1.0203563E0,-1.013298E0,2.0126244E-1,-6.320487E-1,1.1356441E0,-6.3383676E-2,1.1389956E0,1.5978259E-1,-6.1595327E-1,-9.011304E-1,3.3277914E-2,-2.5835068E0,3.824081E-1,-1.8881412E-1,-9.5526636E-1,-1.5720993E-2,1.9771971E-1,-5.3643286E-1,-1.6111267E0,1.0081311E0,-2.6966932E-1,8.197249E-1,-6.1578393E-1,8.021337E-1,-5.745054E-1,5.3727202E-2,-1.1540368E0],"categories":[],"categories_nodes":[],"categories_segments":[],"categories_sizes":[],"default_left":[1,1,1,1,1,1,1,1,1,1,1,1,1,1,1,0,1,1,1,1,1,1,1,1,1,1,1,0,1,1,1,0,0,0,0,0,0,0,0,0,0,0,0,0,0,0,0,0,0,0,0,0,0,0,0,0,0,0,0],"id":14,"left_children":[1,3,5,7,9,11,13,15,17,19,21,23,25,27,29,-1,31,33,35,37,39,41,43,45,47,49,51,-1,53,55,57,-1,-1,-1,-1,-1,-1,-1,-1,-1,-1,-1,-1,-1,-1,-1,-1,-1,-1,-1,-1,-1,-1,-1,-1,-1,-1,-1,-1],"loss_changes":[2.4853113E1,1.9040462E1,2.6288645E1,1.1533981E1,2.5943375E1,1.7952423E1,2.2423124E1,3.2851887E0,4.7498684E0,2.6286186E1,1.7649197E1,1.7210892E1,1.3557568E1,6.837612E0,3.3499897E1,0E0,6.004505E-1,2.200087E0,3.7067895E0,1.9565865E1,8.297855E0,6.6481123E0,1.4619278E1,4.3538857E-1,1.648915E1,7.37319E0,1.9585211E0,0E0,3.69878E0,7.669548E0,2.1198397E1,0E0,0E0,0E0,0E0,0E0,0E0,0E0,0E0,0E0,0E0,0E0,0E0,0E0,0E0,0E0,0E0,0E0,0E0,0E0,0E0,0E0,0E0,0E0,0E0,0E0,0E0,0E0,0E0],"parents":[2147483647,0,0,1,1,2,2,3,3,4,4,5,5,6,6,7,7,8,8,9,9,10,10,11,11,12,12,13,13,14,14,16,16,17,17,18,18,19,19,20,20,21,21,22,22,23,23,24,24,25,25,26,26,28,28,29,29,30,30],"right_children":[2,4,6,8,10,12,14,16,18,20,22,24,26,28,30,-1,32,34,36,38,40,42,44,46,48,50,52,-1,54,56,58,-1,-1,-1,-1,-1,-1,-1,-1,-1,-1,-1,-1,-1,-1,-1,-1,-1,-1,-1,-1,-1,-1,-1,-1,-1,-1,-1,-1],"split_conditions":[-8.313487E-1,-1.9185716E0,2.3464959E0,-4.4900957E-1,2.3464959E0,4.738369E0,2.3925223E0,-8.010782E-1,8.6748385E-1,-4.9739844E-1,7.4166226E-1,-2.6234806E0,1.3937098E0,-6.2269044E-1,-6.0558856E-1,-1.0476546E-1,-8.7957126E-1,-1.0020143E0,-5.1865375E-1,2.3570232E0,-9.861595E-1,7.305594E-1,-8.663261E-1,-8.3991313E-1,1.059843E0,-4.5978642E-1,4.8496008E-1,-3.2772276E-1,1.452031E0,4.1698253E-1,-1.2226832E-1,1.3066071E-1,3.061069E-1,-3.039894E-1,6.0378734E-2,-1.8961462E-1,3.4069324E-1,-1.9015104E-2,3.416987E-1,4.7934778E-2,-1.8478599E-1,-2.7033913E-1,9.983375E-3,-7.750521E-1,1.1472244E-1,-5.664424E-2,-2.865799E-1,-4.716298E-3,5.9315916E-2,-1.6092986E-1,-4.8333803E-1,3.0243936E-1,-8.09008E-2,2.4591748E-1,-1.8473518E-1,2.4064012E-1,-1.7235163E-1,1.6118161E-2,-3.4621105E-1],"split_indices":[0,3,9,1,9,4,7,33,1,4,34,11,9,0,3,0,4,0,33,7,6,26,0,33,0,7,2,0,15,0,21,0,0,0,0,0,0,0,0,0,0,0,0,0,0,0,0,0,0,0,0,0,0,0,0,0,0,0,0],"split_type":[0,0,0,0,0,0,0,0,0,0,0,0,0,0,0,0,0,0,0,0,0,0,0,0,0,0,0,0,0,0,0,0,0,0,0,0,0,0,0,0,0,0,0,0,0,0,0,0,0,0,0,0,0,0,0,0,0,0,0],"sum_hessian":[6.4429087E3,4.2285806E2,6.020051E3,3.4879528E1,3.8797852E2,5.830531E3,1.8952005E2,2.3961216E1,1.0918311E1,3.4088556E2,4.7092976E1,5.7976055E3,3.2925102E1,8.322268E1,1.0629736E2,1.6924762E0,2.226874E1,7.6706142E0,3.2476966E0,1.9603E2,1.4485556E2,3.671932E1,1.0373659E1,1.9724913E1,5.7778804E3,2.8134941E1,4.7901626E0,1.1363924E0,8.208629E1,4.71904E1,5.9106964E1,4.362079E0,1.7906662E1,6.1584606E0,1.5121536E0,1.0973046E0,2.150392E0,1.8241763E2,1.3612354E1,1.5006229E1,1.2984933E2,2.6248676E1,1.0470641E1,8.651825E0,1.7218333E0,1.353704E0,1.837121E1,5.3908896E3,3.8699103E2,1.716781E1,1.0967131E1,3.6553955E0,1.1347672E0,8.0935234E1,1.1510564E0,4.3444206E1,3.7461941E0,3.5689247E1,2.3417717E1],"tree_param":{"num_deleted":"0","num_feature":"36","num_nodes":"59","size_leaf_vector":"0"}},{"base_weights":[-9.290162E-3,-6.147455E-1,-3.8795858E-3,-8.0491024E-1,-1.7714362E-1,2.0151574E-3,-4.5945874E-1,-8.8369775E-1,-3.1300104E-1,1.20187744E-1,-6.918706E-1,-7.0747426E-3,2.7340052E-1,-5.206454E-1,4.0488875E-1,-9.5103115E-1,-2.4222243E-1,-6.6107774E-1,2.1132028E-1,-2.4835421E-1,6.045557E-1,-9.435607E-1,-9.8697044E-2,-4.050981E-2,6.382871E-2,4.6252856E-1,4.640082E-2,-8.144593E-1,-3.61316E-1,-3.289524E-1,1.1507512E0,-1.8026274E-1,-9.824163E-1,3.456328E-1,-7.282264E-1,-8.537459E-2,-8.133058E-1,-6.1144954E-1,8.544273E-1,6.1023104E-1,-5.806325E-1,9.127524E-1,-2.2093835E-1,-6.2253225E-1,4.98467E-1,-2.9905516E-1,-1.6642211E-2,9.7250676E-1,5.1078048E-2,6.1919224E-1,-1.3167147E-1,3.3179215E-1,-4.6575233E-1,1.19387224E-1,-1.0405308E0,-5.646011E-1,1.2088262E-1,-9.270365E-1,3.1455293E-1],"categories":[],"categories_nodes":[],"categories_segments":[],"categories_sizes":[],"default_left":[1,1,1,1,1,1,1,1,1,1,1,1,1,1,1,1,1,1,1,1,1,0,1,1,1,1,1,1,1,1,0,0,0,0,0,0,0,0,0,0,0,0,0,0,0,0,0,0,0,0,0,0,0,0,0,0,0,0,0],"id":15,"left_children":[1,3,5,7,9,11,13,15,17,19,21,23,25,27,29,31,33,35,37,39,41,-1,43,45,47,49,51,53,55,57,-1,-1,-1,-1,-1,-1,-1,-1,-1,-1,-1,-1,-1,-1,-1,-1,-1,-1,-1,-1,-1,-1,-1,-1,-1,-1,-1,-1,-1],"loss_changes":[2.0946602E1,4.5703964E0,1.7025309E1,1.2425289E0,2.9050293E0,1.5442881E1,4.493614E0,1.2052383E0,1.4098876E0,2.3885114E0,9.368789E-1,1.4362761E1,8.68874E0,3.2665672E0,3.6167216E0,5.4229355E-1,1.5370917E0,3.1837523E-1,2.3927214E0,2.5880835E0,1.6542051E0,0E0,1.3025942E0,2.5400242E1,2.244487E1,1.0373745E1,1.379473E1,5.6022205E0,5.0789514E0,1.7386388E0,0E0,0E0,0E0,0E0,0E0,0E0,0E0,0E0,0E0,0E0,0E0,0E0,0E0,0E0,0E0,0E0,0E0,0E0,0E0,0E0,0E0,0E0,0E0,0E0,0E0,0E0,0E0,0E0,0E0],"parents":[2147483647,0,0,1,1,2,2,3,3,4,4,5,5,6,6,7,7,8,8,9,9,10,10,11,11,12,12,13,13,14,14,15,15,16,16,17,17,18,18,19,19,20,20,22,22,23,23,24,24,25,25,26,26,27,27,28,28,29,29],"right_children":[2,4,6,8,10,12,14,16,18,20,22,24,26,28,30,32,34,36,38,40,42,-1,44,46,48,50,52,54,56,58,-1,-1,-1,-1,-1,-1,-1,-1,-1,-1,-1,-1,-1,-1,-1,-1,-1,-1,-1,-1,-1,-1,-1,-1,-1,-1,-1,-1,-1],"split_conditions":[-1.0547688E0,5.1503253E-1,2.0203776E0,3.5991615E-1,-6.0558856E-1,2.92223E0,1.3179224E0,7.41428E-1,-3.4452933E-1,5.3799254E-1,6.616745E-1,5.1503253E-1,1.1164891E-2,-6.135713E-1,2.774967E-1,-1.9300647E0,8.2826847E-1,-8.160179E-1,-1.2169432E-1,-7.749257E-1,1.6023007E-1,-2.8306824E-1,3.7914872E-1,-7.0591253E-1,-1.4843936E0,6.2348926E-1,-4.0230834E-1,-1.2435216E0,-9.742644E-2,2.3378987E-2,3.452254E-1,-5.4078825E-2,-2.9472488E-1,1.0368984E-1,-2.1846794E-1,-2.5612377E-2,-2.4399175E-1,-1.8343487E-1,2.563282E-1,1.8306932E-1,-1.7418976E-1,2.7382573E-1,-6.628151E-2,-1.8675968E-1,1.4954011E-1,-8.971655E-2,-4.9926634E-3,2.9175204E-1,1.53234145E-2,1.8575768E-1,-3.9501444E-2,9.953765E-2,-1.397257E-1,3.581617E-2,-3.1215924E-1,-1.6938034E-1,3.626479E-2,-2.7811098E-1,9.436589E-2],"split_indices":[9,5,3,2,3,14,4,0,4,26,32,5,31,1,23,1,0,33,30,33,30,0,3,0,11,28,21,24,0,21,0,0,0,0,0,0,0,0,0,0,0,0,0,0,0,0,0,0,0,0,0,0,0,0,0,0,0,0,0],"split_type":[0,0,0,0,0,0,0,0,0,0,0,0,0,0,0,0,0,0,0,0,0,0,0,0,0,0,0,0,0,0,0,0,0,0,0,0,0,0,0,0,0,0,0,0,0,0,0,0,0,0,0,0,0,0,0,0,0,0,0],"sum_hessian":[6.3939546E3,5.563519E1,6.3383193E3,3.8196922E1,1.7438265E1,6.2583384E3,7.9981125E1,3.223714E1,5.9597816E0,1.1539177E1,5.8990884E0,6.0564546E3,2.0188362E2,7.5064964E1,4.9161615E0,2.873804E1,3.4990997E0,3.4251385E0,2.5346432E0,6.8298206E0,4.709357E0,3.7269876E0,2.1721008E0,4.1159673E3,1.9404873E3,1.09562485E2,9.232113E1,2.4947792E1,5.0117172E1,2.759803E0,2.1563587E0,1.3882571E0,2.7349783E1,1.7143286E0,1.7847711E0,1.0426877E0,2.382451E0,1.1335906E0,1.4010526E0,1.6722726E0,5.157548E0,3.352138E0,1.3572186E0,1.134463E0,1.0376377E0,3.4687878E2,3.7690886E3,2.5810719E1,1.9146766E3,8.666958E1,2.2892908E1,5.951131E1,3.280982E1,4.9543743E0,1.9993418E1,3.5134354E1,1.4982818E1,1.2020212E0,1.5577819E0],"tree_param":{"num_deleted":"0","num_feature":"36","num_nodes":"59","size_leaf_vector":"0"}},{"base_weights":[-7.0170793E-3,-5.538577E-1,-2.2672953E-3,-7.6664793E-1,-1.7092027E-1,1.749036E-3,-5.3292584E-1,-8.038606E-1,7.302281E-2,5.656437E-1,-5.661772E-1,-4.6575963E-2,5.0082803E-2,-7.343138E-1,3.7446022E-1,-8.6685234E-1,-1.3263729E-1,1.0662338E-1,1.7648103E0,-8.591059E-1,-5.4563716E-2,-1.5789928E-1,1.1955614E-2,-4.374297E-1,6.680102E-2,6.7413706E-1,-7.9143643E-1,-1.1331794E-1,1.1947078E0,-9.2201924E-1,1.733647E-2,3.4637704E-1,-6.0920775E-1,-4.6838668E-1,5.370614E-1,-1.05732016E-1,-9.476967E-1,-3.9667463E-1,7.5834006E-1,-7.4938595E-1,-1.21691495E-1,-1.0582888E-2,5.492842E-1,-2.8714314E-1,-1.0249708E0,1.1920972E-1,-9.86668E-2,3.1221536E-1,-8.670152E-1,-6.607461E-1,7.6866037E-1],"categories":[],"categories_nodes":[],"categories_segments":[],"categories_sizes":[],"default_left":[1,1,1,1,1,1,1,1,0,1,1,1,1,1,1,1,1,1,0,1,1,1,1,1,1,0,1,1,0,0,0,0,0,0,0,0,0,0,0,0,0,0,0,0,0,0,0,0,0,0,0],"id":16,"left_children":[1,3,5,7,9,11,13,15,-1,17,19,21,23,25,27,29,31,33,-1,35,37,39,41,43,45,-1,47,49,-1,-1,-1,-1,-1,-1,-1,-1,-1,-1,-1,-1,-1,-1,-1,-1,-1,-1,-1,-1,-1,-1,-1],"loss_changes":[1.6509512E1,4.328985E0,1.3434478E1,1.1490879E0,6.3867354E0,1.4616127E1,8.927464E0,1.301405E0,0E0,4.092712E0,2.0603018E0,2.0390991E1,2.5527668E1,3.6782665E0,3.8412669E0,1.5009861E0,1.136632E0,1.9070206E0,0E0,4.9201727E-1,2.0214717E0,2.3003342E1,2.4853828E1,8.876572E0,2.6250076E1,0E0,3.4423466E0,3.7532709E0,0E0,0E0,0E0,0E0,0E0,0E0,0E0,0E0,0E0,0E0,0E0,0E0,0E0,0E0,0E0,0E0,0E0,0E0,0E0,0E0,0E0,0E0,0E0],"parents":[2147483647,0,0,1,1,2,2,3,3,4,4,5,5,6,6,7,7,9,9,10,10,11,11,12,12,13,13,14,14,15,15,16,16,17,17,19,19,20,20,21,21,22,22,23,23,24,24,26,26,27,27],"right_children":[2,4,6,8,10,12,14,16,-1,18,20,22,24,26,28,30,32,34,-1,36,38,40,42,44,46,-1,48,50,-1,-1,-1,-1,-1,-1,-1,-1,-1,-1,-1,-1,-1,-1,-1,-1,-1,-1,-1,-1,-1,-1,-1],"split_conditions":[-1.1913848E0,5.1503253E-1,2.1105309E0,2.3464959E0,-1.6954198E-1,1.0982838E-1,6.1538875E-1,7.41428E-1,2.1906845E-2,1.0490636E-1,6.87907E-1,-3.3430257E-1,-2.0946264E0,-2.0867898E0,5.3489274E-1,2.4996228E0,-5.73833E-1,-7.6547897E-1,5.2944314E-1,-1.1406107E0,-1.286475E0,-1.4843936E0,1.5257305E0,5.5846825E-2,8.6748385E-1,2.0224112E-1,-1.9300647E0,-1.5556492E-1,3.5841233E-1,-2.7660578E-1,5.200941E-3,1.0391312E-1,-1.8276232E-1,-1.4051601E-1,1.6111842E-1,-3.1719606E-2,-2.8430903E-1,-1.19002394E-1,2.2750203E-1,-2.248158E-1,-3.650745E-2,-3.1748663E-3,1.6478527E-1,-8.614294E-2,-3.0749124E-1,3.5762917E-2,-2.9600041E-2,9.366461E-2,-2.6010457E-1,-1.9822384E-1,2.3059812E-1],"split_indices":[7,5,2,9,28,2,0,0,0,26,26,9,1,34,30,23,4,2,0,2,7,11,1,33,1,0,1,7,0,0,0,0,0,0,0,0,0,0,0,0,0,0,0,0,0,0,0,0,0,0,0],"split_type":[0,0,0,0,0,0,0,0,0,0,0,0,0,0,0,0,0,0,0,0,0,0,0,0,0,0,0,0,0,0,0,0,0,0,0,0,0,0,0,0,0,0,0,0,0,0,0,0,0,0,0],"sum_hessian":[6.355714E3,5.373401E1,6.30198E3,3.3896446E1,1.9837563E1,6.2556304E3,4.634953E1,3.2498806E1,1.3976399E0,6.777174E0,1.3060388E1,3.1281172E3,3.1275132E3,3.8087105E1,8.262426E0,2.9444136E1,3.0546696E0,5.688593E0,1.0885808E0,7.8732705E0,5.187117E0,1.0773564E3,2.0507607E3,1.0286113E2,3.024652E3,1.0634898E0,3.7023617E1,5.7217255E0,2.5407007E0,2.7674656E1,1.7694811E0,1.6596735E0,1.3949962E0,2.3975756E0,3.2910173E0,1.0592159E0,6.814055E0,4.01108E0,1.1760372E0,6.1009785E1,1.0163467E3,1.9691443E3,8.161638E1,8.3095055E1,1.976608E1,2.2973052E3,7.27347E2,2.1722326E0,3.4851383E1,3.685215E0,2.0365105E0],"tree_param":{"num_deleted":"0","num_feature":"36","num_nodes":"51","size_leaf_vector":"0"}},{"base_weights":[-5.574009E-3,-8.7822354E-1,-3.0879178E-3,-1.1401476E-1,-9.2464685E-1,2.4129362E-4,-5.194236E-1,-9.7736204E-1,-1.7155047E-1,-3.2280805E-3,4.7108662E-1,-7.344936E-1,7.3961675E-1,-3.974275E-2,4.352995E-2,8.5271215E-1,-3.4883585E-2,-9.4589674E-1,9.3373574E-2,1.0101465E0,-2.1489647E-1,-2.2445199E-1,-1.20277405E-2,-7.407508E-2,1.3520776E-1,-2.0571373E-1,9.0436345E-1,8.178855E-1,-7.261641E-1,-5.6901073E-1,-1.411263E0,-1.4149054E0,7.550587E-1],"categories":[],"categories_nodes":[],"categories_segments":[],"categories_sizes":[],"default_left":[1,1,1,0,1,1,1,0,0,1,1,1,1,1,1,1,1,1,1,0,0,0,0,0,0,0,0,0,0,0,0,0,0],"id":17,"left_children":[1,3,5,-1,7,9,11,-1,-1,13,15,17,19,21,23,25,27,29,31,-1,-1,-1,-1,-1,-1,-1,-1,-1,-1,-1,-1,-1,-1],"loss_changes":[1.3702848E1,5.311432E-1,1.0830589E1,0E0,4.9828815E-1,1.0229294E1,1.147314E1,0E0,0E0,1.0615172E1,8.874039E0,6.2097588E0,1.8664393E0,1.7868551E1,2.9404345E1,1.6156101E0,1.2769627E1,4.0994644E0,9.077311E0,0E0,0E0,0E0,0E0,0E0,0E0,0E0,0E0,0E0,0E0,0E0,0E0,0E0,0E0],"parents":[2147483647,0,0,1,1,2,2,4,4,5,5,6,6,9,9,10,10,11,11,12,12,13,13,14,14,15,15,16,16,17,17,18,18],"right_children":[2,4,6,-1,8,10,12,-1,-1,14,16,18,20,22,24,26,28,30,32,-1,-1,-1,-1,-1,-1,-1,-1,-1,-1,-1,-1,-1,-1],"split_conditions":[-2.6234806E0,-8.3991313E-1,4.3944135E0,-3.420443E-2,2.1778111E0,2.7954311E0,1.3937098E0,-2.9320863E-1,-5.1465143E-2,2.5777507E-1,-2.844479E-1,4.8496008E-1,1.3796997E0,-5.8278394E-1,5.0902978E-2,-1.0062357E0,-9.861595E-1,1.0310452E0,-6.135713E-1,3.0304396E-1,-6.446894E-2,-6.73356E-2,-3.6083222E-3,-2.2222525E-2,4.0562328E-2,-6.1714124E-2,2.7130905E-1,2.4536566E-1,-2.1784924E-1,-1.7070323E-1,-4.233789E-1,-4.2447165E-1,2.2651762E-1],"split_indices":[11,33,4,0,4,7,9,0,0,0,1,2,23,9,3,0,6,33,1,0,0,0,0,0,0,0,0,0,0,0,0,0,0],"split_type":[0,0,0,0,0,0,0,0,0,0,0,0,0,0,0,0,0,0,0,0,0,0,0,0,0,0,0,0,0,0,0,0,0],"sum_hessian":[6.316422E3,1.6943045E1,6.299479E3,1.1682122E0,1.5774833E1,6.2601147E3,3.9364216E1,1.4464553E1,1.3102802E0,6.215311E3,4.480372E1,3.397689E1,5.3873277E0,3.490012E3,2.7252988E3,2.5149517E1,1.9654202E1,2.6951912E1,7.024977E0,4.1522155E0,1.2351122E0,4.54416E2,3.035596E3,1.1939203E3,1.5313787E3,1.0314071E0,2.411811E1,8.717312E0,1.0936891E1,1.611974E1,1.0832172E1,1.7950078E0,5.2299695E0],"tree_param":{"num_deleted":"0","num_feature":"36","num_nodes":"33","size_leaf_vector":"0"}},{"base_weights":[-4.103739E-3,5.463829E-3,-1.8220402E-1,-1.3221464E-2,9.951186E-2,-5.0889564E-1,-1.6805355E-2,4.2771444E-2,-5.545264E-2,3.3891055E-1,5.188862E-2,-6.059156E-1,1.8938296E-2,1.4096455E-1,-2.526535E-1,1.8821707E-2,2.7394047E-1,-5.111773E-2,-8.378559E-1,4.1417813E-1,-5.372893E-1,4.553962E-2,1.6794617E0,-1.732739E-1,-7.1818364E-1,-5.1892877E-1,6.0942584E-1,7.0563686E-1,3.5797436E-2,-3.613514E-1,4.819232E-1,-9.667755E-3,2.1726057E-1,3.2281503E-1,-5.001134E-1,-2.6082808E-1,-3.5824183E-2,-1.0936759E0,2.8486103E-1,6.547169E-2,6.557197E-1,-1.0178237E0,7.7254206E-1,1.1738546E0,3.6311004E-2,2.1049461E0,4.5227966E-1,-5.0574094E-1,5.496674E-1,-2.9985026E-1,-8.481726E-1,1.5106016E-1,-9.830869E-1,9.8874146E-1,-4.2035967E-1,9.5215917E-1,-7.484493E-1,-2.1699624E-1,3.3062196E-1,2.2261898E-1,-5.012765E-1,1.0285708E0,-4.2891523E-1],"categories":[],"categories_nodes":[],"categories_segments":[],"categories_sizes":[],"default_left":[1,1,1,1,1,1,1,1,1,1,1,1,1,1,1,1,1,1,1,1,1,1,1,1,1,1,1,1,1,1,1,0,0,0,0,0,0,0,0,0,0,0,0,0,0,0,0,0,0,0,0,0,0,0,0,0,0,0,0,0,0,0,0],"id":18,"left_children":[1,3,5,7,9,11,13,15,17,19,21,23,25,27,29,31,33,35,37,39,41,43,45,47,49,51,53,55,57,59,61,-1,-1,-1,-1,-1,-1,-1,-1,-1,-1,-1,-1,-1,-1,-1,-1,-1,-1,-1,-1,-1,-1,-1,-1,-1,-1,-1,-1,-1,-1,-1,-1],"loss_changes":[1.0706427E1,1.0480636E1,1.7299938E1,1.1768244E1,1.1252398E1,5.5233173E0,7.9870563E0,1.1842108E1,9.578846E0,1.102738E1,8.455631E0,4.2931595E0,5.931933E0,7.6165257E0,7.0418034E0,1.0970073E1,7.7584143E0,9.042393E0,4.7823486E0,1.2712379E1,9.21788E0,8.532282E0,7.0866394E-1,5.098636E0,3.6551514E0,3.1939688E0,3.887528E0,7.9357433E0,8.235144E0,6.2804546E0,6.1746826E0,0E0,0E0,0E0,0E0,0E0,0E0,0E0,0E0,0E0,0E0,0E0,0E0,0E0,0E0,0E0,0E0,0E0,0E0,0E0,0E0,0E0,0E0,0E0,0E0,0E0,0E0,0E0,0E0,0E0,0E0,0E0,0E0],"parents":[2147483647,0,0,1,1,2,2,3,3,4,4,5,5,6,6,7,7,8,8,9,9,10,10,11,11,12,12,13,13,14,14,15,15,16,16,17,17,18,18,19,19,20,20,21,21,22,22,23,23,24,24,25,25,26,26,27,27,28,28,29,29,30,30],"right_children":[2,4,6,8,10,12,14,16,18,20,22,24,26,28,30,32,34,36,38,40,42,44,46,48,50,52,54,56,58,60,62,-1,-1,-1,-1,-1,-1,-1,-1,-1,-1,-1,-1,-1,-1,-1,-1,-1,-1,-1,-1,-1,-1,-1,-1,-1,-1,-1,-1,-1,-1,-1,-1],"split_conditions":[1.3638861E0,1.0281472E0,-2.3914519E-1,-1.5508011E-1,-3.452835E-1,9.9282193E-1,7.497975E-2,7.8410244E-1,6.942076E0,1.1575975E0,2.5428686E0,-7.9757744E-1,2.4332169E-1,-8.41354E-1,8.9753234E-1,1.452031E0,2.1622643E0,-8.6994445E-1,1.8025537E0,-3.2153794E-1,2.4119947E0,-2.8927143E0,3.3040002E-2,-5.9492715E-2,-2.886232E-1,-2.6809475E-1,5.383605E-1,1.2760367E0,3.7597454E-1,-8.0053854E-1,7.0169187E-1,-2.9003266E-3,6.517817E-2,9.684452E-2,-1.5003404E-1,-7.824843E-2,-1.0747256E-2,-3.2810277E-1,8.545831E-2,1.9641507E-2,1.9671592E-1,-3.053471E-1,2.3176263E-1,3.521564E-1,1.0893302E-2,6.3148385E-1,1.3568391E-1,-1.5172228E-1,1.6490023E-1,-8.995508E-2,-2.5445178E-1,4.5318052E-2,-2.9492608E-1,2.9662246E-1,-1.261079E-1,2.8564775E-1,-2.2453481E-1,-6.5098874E-2,9.918659E-2,6.67857E-2,-1.5038295E-1,3.0857125E-1,-1.2867458E-1],"split_indices":[3,22,0,30,0,27,21,9,0,11,24,0,22,4,4,15,25,0,7,9,21,30,7,27,30,4,1,28,0,30,28,0,0,0,0,0,0,0,0,0,0,0,0,0,0,0,0,0,0,0,0,0,0,0,0,0,0,0,0,0,0,0,0],"split_type":[0,0,0,0,0,0,0,0,0,0,0,0,0,0,0,0,0,0,0,0,0,0,0,0,0,0,0,0,0,0,0,0,0,0,0,0,0,0,0,0,0,0,0,0,0,0,0,0,0,0,0,0,0,0,0,0,0,0,0,0,0,0,0],"sum_hessian":[6.2815796E3,5.962256E3,3.1932376E2,4.9747427E3,9.875135E2,1.06631294E2,2.1269246E2,2.1388716E3,2.8358708E3,1.628353E2,8.2467816E2,8.994988E1,1.6681414E1,1.2768217E2,8.501029E1,1.9390609E3,1.9981053E2,2.821305E3,1.4566137E1,1.504395E2,1.2395795E1,8.224977E2,2.180501E0,1.9056435E1,7.089345E1,8.793092E0,7.8883214E0,1.9150105E1,1.0853206E2,7.449507E1,1.0515216E1,1.6964556E3,2.426054E2,1.8849191E2,1.1318617E1,1.9067322E2,2.6306316E3,1.1884114E1,2.6820228E0,6.208307E1,8.835644E1,9.231861E0,3.1639338E0,5.6489177E0,8.1684875E2,1.0880041E0,1.092497E0,1.3259213E1,5.797221E0,1.7590393E1,5.3303055E1,3.874703E0,4.918389E0,5.793994E0,2.0943277E0,1.6669228E1,2.4808767E0,5.8573185E1,4.9958878E1,1.4285262E1,6.0209812E1,6.490581E0,4.024635E0],"tree_param":{"num_deleted":"0","num_feature":"36","num_nodes":"63","size_leaf_vector":"0"}},{"base_weights":[-3.1312539E-3,-8.311694E-1,-1.2247912E-3,-5.6113932E-2,-8.869937E-1,1.4964539E-2,-8.439333E-2,-9.54024E-1,-1.7765746E-1,-1.6300064E-1,4.4574477E-2,-1.8308757E-1,2.648489E-1,1.186973E0,-1.9710311E-1,8.602174E-2,-8.332043E-2,-3.9699197E-1,2.0381933E-2,1.2286656E0,8.427727E-2,-5.9882927E-1,1.7432898E0,-2.4875145E-1,3.4039232E-1,6.037363E-2,8.331252E-1,7.426076E-1,-1.2903443E-1,-3.0141333E-1,-7.71959E-1,5.7117534E-1,-6.678544E-2,-6.9835865E-1,1.7444181E0,5.0682265E-1,-3.347992E-1],"categories":[],"categories_nodes":[],"categories_segments":[],"categories_sizes":[],"default_left":[1,1,1,0,1,1,1,0,0,1,1,1,1,1,1,1,1,1,1,1,1,0,0,0,0,0,0,0,0,0,0,0,0,0,0,0,0],"id":19,"left_children":[1,3,5,-1,7,9,11,-1,-1,13,15,17,19,21,23,25,27,29,31,33,35,-1,-1,-1,-1,-1,-1,-1,-1,-1,-1,-1,-1,-1,-1,-1,-1],"loss_changes":[9.87216E0,5.717659E-1,8.404317E0,0E0,4.6443462E-1,2.7539993E1,3.51042E1,0E0,0E0,3.4556168E1,2.3757063E1,3.4545784E1,3.8967133E1,1.9434687E1,2.0294949E1,6.479822E1,4.151828E1,1.3633503E1,1.9609722E1,3.635062E1,3.384052E1,0E0,0E0,0E0,0E0,0E0,0E0,0E0,0E0,0E0,0E0,0E0,0E0,0E0,0E0,0E0,0E0],"parents":[2147483647,0,0,1,1,2,2,4,4,5,5,6,6,9,9,10,10,11,11,12,12,13,13,14,14,15,15,16,16,17,17,18,18,19,19,20,20],"right_children":[2,4,6,-1,8,10,12,-1,-1,14,16,18,20,22,24,26,28,30,32,34,36,-1,-1,-1,-1,-1,-1,-1,-1,-1,-1,-1,-1,-1,-1,-1,-1],"split_conditions":[-2.6234806E0,-1.133276E0,1.0320455E0,-1.683418E-2,1.7695463E0,-9.861595E-1,4.592558E-1,-2.8620723E-1,-5.329724E-2,-1.529265E0,4.6643457E-1,1.612857E-1,4.9365273E-1,-1.5674824E0,7.8410244E-1,4.592558E-1,-1.6009413E0,4.642227E-1,-9.861595E-1,-8.34364E-1,5.0322913E-2,-1.7964879E-1,5.2298695E-1,-7.462544E-2,1.021177E-1,1.811209E-2,2.4993756E-1,2.2278228E-1,-3.871033E-2,-9.0424E-2,-2.3158771E-1,1.7135261E-1,-2.0035632E-2,-2.095076E-1,5.2332544E-1,1.520468E-1,-1.00439765E-1],"split_indices":[11,26,1,0,23,6,7,0,0,4,7,0,7,4,9,7,1,9,6,0,0,0,0,0,0,0,0,0,0,0,0,0,0,0,0,0,0],"split_type":[0,0,0,0,0,0,0,0,0,0,0,0,0,0,0,0,0,0,0,0,0,0,0,0,0,0,0,0,0,0,0,0,0,0,0,0,0],"sum_hessian":[6.2532944E3,1.336524E1,6.239929E3,1.0326918E0,1.2332548E1,5.2238843E3,1.01604504E3,1.0952603E1,1.3799446E0,7.445281E2,4.479356E3,7.925498E2,2.234952E2,1.7511599E1,7.270165E2,3.3832605E3,1.0960955E3,3.8590384E2,4.0664597E2,3.4349174E1,1.8914603E2,4.141329E0,1.3370269E1,6.637714E2,6.324507E1,3.272013E3,1.1124764E2,5.6686134E1,1.0394093E3,3.0895535E2,7.69485E1,5.4803143E1,3.5184283E2,7.177516E0,2.717166E1,9.407895E1,9.506707E1],"tree_param":{"num_deleted":"0","num_feature":"36","num_nodes":"37","size_leaf_vector":"0"}},{"base_weights":[-2.493099E-3,-4.9228585E-1,4.144976E-4,-7.226928E-1,-1.9937983E-2,-2.0955949E-1,7.132363E-3,4.5120955E-1,-7.9224074E-1,3.6637446E-1,-3.6677003E-1,-4.3527472E-1,6.3901824E-1,1.3429557E-3,2.9442635E-1,-9.222211E-1,-4.0088636E-1,7.8014493E-1,-4.0200022E-1,-7.0515084E-1,2.8451127E-1,-1.7073174E-1,-7.081231E-1,7.3740375E-1,-1.2115067E0,3.294616E-3,-8.418888E-1,7.300385E-1,8.337072E-2,-9.7037214E-1,-3.5045663E-1,5.6292987E-1,-7.224509E-1,-1.9357285E-1,1.20751E0,-1.0532765E-1,-8.347324E-1,6.6050357E-1,-2.1414812E-1,-4.9895844E-1,7.7119164E-2,-7.778867E-1,2.2450422E-1,-5.0982016E-1,8.840911E-1,3.439103E-2,-4.7279052E-2,-1.003272E0,-2.2644615E-1,1.3083074E0,1.9890335E-1,9.975641E-1,-8.91968E-3],"categories":[],"categories_nodes":[],"categories_segments":[],"categories_sizes":[],"default_left":[1,1,1,1,1,1,1,0,1,1,1,1,1,1,1,1,1,1,0,1,1,1,1,1,0,1,1,1,1,0,0,0,0,0,0,0,0,0,0,0,0,0,0,0,0,0,0,0,0,0,0,0,0],"id":20,"left_children":[1,3,5,7,9,11,13,-1,15,17,19,21,23,25,27,29,31,33,-1,35,37,39,41,43,-1,45,47,49,51,-1,-1,-1,-1,-1,-1,-1,-1,-1,-1,-1,-1,-1,-1,-1,-1,-1,-1,-1,-1,-1,-1,-1,-1],"loss_changes":[8.853225E0,3.9782648E0,8.719989E0,2.3683214E0,1.8837571E0,3.698613E1,9.962793E0,0E0,8.315649E-1,2.4364321E0,1.8269325E0,1.0848875E1,8.298292E0,9.6677E0,1.0817428E1,1.2681103E-1,2.779747E0,2.1812341E0,0E0,3.1188965E-1,7.481123E-1,6.42301E0,5.02166E0,7.629816E0,0E0,9.217829E0,1.1201353E0,1.1560987E1,6.8289127E0,0E0,0E0,0E0,0E0,0E0,0E0,0E0,0E0,0E0,0E0,0E0,0E0,0E0,0E0,0E0,0E0,0E0,0E0,0E0,0E0,0E0,0E0,0E0,0E0],"parents":[2147483647,0,0,1,1,2,2,3,3,4,4,5,5,6,6,8,8,9,9,10,10,11,11,12,12,13,13,14,14,15,15,16,16,17,17,19,19,20,20,21,21,22,22,23,23,25,25,26,26,27,27,28,28],"right_children":[2,4,6,8,10,12,14,-1,16,18,20,22,24,26,28,30,32,34,-1,36,38,40,42,44,-1,46,48,50,52,-1,-1,-1,-1,-1,-1,-1,-1,-1,-1,-1,-1,-1,-1,-1,-1,-1,-1,-1,-1,-1,-1,-1,-1],"split_conditions":[-1.2243861E0,6.262438E-1,-2.0946264E0,-1.5788195E0,-1.6954198E-1,5.2241635E-1,3.410547E0,1.3536286E-1,5.195141E-1,6.6323704E-1,1.878894E0,-4.4925135E-1,9.5370466E-1,3.110882E0,-6.299001E-1,-1.286475E0,6.090977E-1,-1.924688E-1,-1.2060007E-1,-8.6400807E-1,-1.0116549E0,8.40942E-2,8.204287E-1,-3.4769574E-1,-3.6345202E-1,3.737988E-1,5.8311665E-1,-3.879107E-2,-9.560058E-1,-2.9111165E-1,-1.0513699E-1,1.6887897E-1,-2.1673529E-1,-5.8071855E-2,3.62253E-1,-3.1598296E-2,-2.5041974E-1,1.9815108E-1,-6.424444E-2,-1.4968754E-1,2.313575E-2,-2.3336601E-1,6.735127E-2,-1.5294605E-1,2.6522735E-1,1.031731E-2,-1.4183716E-2,-3.0098164E-1,-6.793385E-2,3.9249223E-1,5.9671007E-2,2.9926923E-1,-2.675904E-3],"split_indices":[7,0,1,32,28,9,17,0,32,33,26,33,0,2,30,7,32,33,0,33,34,0,0,0,0,1,30,4,4,0,0,0,0,0,0,0,0,0,0,0,0,0,0,0,0,0,0,0,0,0,0,0,0],"split_type":[0,0,0,0,0,0,0,0,0,0,0,0,0,0,0,0,0,0,0,0,0,0,0,0,0,0,0,0,0,0,0,0,0,0,0,0,0,0,0,0,0,0,0,0,0,0,0,0,0,0,0,0,0],"sum_hessian":[6.215487E3,3.56865E1,6.1798003E3,2.3630001E1,1.2056499E1,1.9064966E2,5.989151E3,1.0147225E0,2.2615278E1,5.676968E0,6.3795304E0,1.5097777E2,3.9671886E1,5.871829E3,1.1732154E2,1.5958502E1,6.6567764E0,3.679978E0,1.9969901E0,4.143838E0,2.2356925E0,7.7481E1,7.3496765E1,3.8240307E1,1.431578E0,5.859264E3,1.2565177E1,3.7488163E1,7.9833374E1,1.4075946E1,1.8825564E0,1.4775527E0,5.1792235E0,1.2893499E0,2.3906279E0,1.0582248E0,3.0856133E0,1.0895822E0,1.1461104E0,3.2899437E1,4.4581562E1,6.8535965E1,4.960797E0,3.7636795E0,3.4476627E1,3.6285093E3,2.2307546E3,9.455549E0,3.1096275E0,1.7247196E1,2.0240967E1,6.4209485E0,7.341243E1],"tree_param":{"num_deleted":"0","num_feature":"36","num_nodes":"53","size_leaf_vector":"0"}},{"base_weights":[-2.0867004E-3,-7.7465274E-3,2.344352E-1,-5.3817607E-3,-5.8482534E-1,6.1612953E-2,8.743193E-1,-2.8494585E-1,-9.4726536E-4,3.932705E-4,-1.069565E0,2.3833193E-1,-4.939427E-1,1.0036303E0,-6.6898507E-1,-5.7157135E-1,-5.5452205E-2,6.586948E-2,-2.142285E-2,-4.107734E-1,1.0317582E0,9.4278425E-2,-1.3218269E0,1.3232788E0,1.5681261E-1,5.90319E-1,-7.0785725E-1,1.1348636E0,3.7757388E-1,-6.425811E-1,7.918932E-1,-4.450817E-1,2.2556859E-1,9.193238E-1,4.9610905E-2,1.18808344E-1,-4.070287E-2,1.7021167E-1,-1.1755861E0,1.7399253E0,-9.695287E-2,-8.175905E-1,9.095927E-1,-1.2543367E-1,-1.4472643E0,2.1493912E-1,1.5159214E0,4.1127473E-1,-1.3355587E-1,-3.187002E-1,1.1135603E0,-9.2291266E-1,5.746797E-1,1.2642667E0,4.512044E-2,-4.4840726E-1,1.0878407E0],"categories":[],"categories_nodes":[],"categories_segments":[],"categories_sizes":[],"default_left":[1,1,1,1,1,1,1,1,1,1,1,1,1,1,0,1,1,1,1,1,1,1,1,1,1,1,1,1,1,0,0,0,0,0,0,0,0,0,0,0,0,0,0,0,0,0,0,0,0,0,0,0,0,0,0,0,0],"id":21,"left_children":[1,3,5,7,9,11,13,15,17,19,21,23,25,27,-1,29,31,33,35,37,39,41,43,45,47,49,51,53,55,-1,-1,-1,-1,-1,-1,-1,-1,-1,-1,-1,-1,-1,-1,-1,-1,-1,-1,-1,-1,-1,-1,-1,-1,-1,-1,-1,-1],"loss_changes":[8.287759E0,8.247545E0,1.5946361E1,7.4657526E0,6.997347E0,1.1407511E1,6.796425E0,6.153621E0,8.113338E0,5.5863533E0,4.0854836E0,7.568249E0,6.9299827E0,1.9310207E0,0E0,4.5466223E0,5.9394894E0,1.9256384E1,1.2277417E1,4.385496E0,3.1699026E0,3.2243602E0,1.4924164E0,9.57324E-1,6.180773E0,2.814785E0,7.123781E0,3.2206573E0,4.2866755E0,0E0,0E0,0E0,0E0,0E0,0E0,0E0,0E0,0E0,0E0,0E0,0E0,0E0,0E0,0E0,0E0,0E0,0E0,0E0,0E0,0E0,0E0,0E0,0E0,0E0,0E0,0E0,0E0],"parents":[2147483647,0,0,1,1,2,2,3,3,4,4,5,5,6,6,7,7,8,8,9,9,10,10,11,11,12,12,13,13,15,15,16,16,17,17,18,18,19,19,20,20,21,21,22,22,23,23,24,24,25,25,26,26,27,27,28,28],"right_children":[2,4,6,8,10,12,14,16,18,20,22,24,26,28,-1,30,32,34,36,38,40,42,44,46,48,50,52,54,56,-1,-1,-1,-1,-1,-1,-1,-1,-1,-1,-1,-1,-1,-1,-1,-1,-1,-1,-1,-1,-1,-1,-1,-1,-1,-1,-1,-1],"split_conditions":[1.8824148E0,4.738369E0,5.383605E-1,-2.2039857E0,3.737988E-1,8.947173E-1,9.751123E0,-7.7457184E-1,-5.856812E-1,6.698489E-1,-3.8992244E-1,-1.8392074E0,3.7528444E-2,1.1575975E0,-2.0069553E-1,1.279705E0,7.504831E-2,-1.1497636E0,-1.1443274E0,3.566566E-1,5.1503253E-1,8.296721E-1,-3.760395E-1,-1.5876735E0,3.4338176E-1,-5.165071E-1,1.167056E0,1.452031E0,3.7643492E-2,-1.9277434E-1,2.3756796E-1,-1.3352452E-1,6.767058E-2,2.7579716E-1,1.4883272E-2,3.5642505E-2,-1.2210861E-2,5.1063504E-2,-3.5267586E-1,5.219776E-1,-2.9085862E-2,-2.4527715E-1,2.728778E-1,-3.7630104E-2,-4.341793E-1,6.4481735E-2,4.5477644E-1,1.2338243E-1,-4.0066764E-2,-9.561006E-2,3.3406812E-1,-2.768738E-1,1.724039E-1,3.7928003E-1,1.3536133E-2,-1.3452218E-1,3.263522E-1],"split_indices":[0,4,1,24,1,30,0,30,24,28,33,30,24,11,0,4,0,0,32,26,5,32,0,24,4,4,23,15,4,0,0,0,0,0,0,0,0,0,0,0,0,0,0,0,0,0,0,0,0,0,0,0,0,0,0,0,0],"split_type":[0,0,0,0,0,0,0,0,0,0,0,0,0,0,0,0,0,0,0,0,0,0,0,0,0,0,0,0,0,0,0,0,0,0,0,0,0,0,0,0,0,0,0,0,0,0,0,0,0,0,0,0,0,0,0,0,0],"sum_hessian":[6.188669E3,6.0449834E3,1.4368558E2,6.0213184E3,2.3664968E1,1.1399396E2,2.9691618E1,9.303215E1,5.928286E3,1.1173984E1,1.2490986E1,8.691714E1,2.7076826E1,2.7718792E1,1.9728265E0,4.070418E1,5.232797E1,1.3900388E3,4.5382476E3,8.419258E0,2.7547252E0,2.336678E0,1.0154307E1,5.0097184E0,8.190742E1,4.171793E0,2.2905033E1,2.2243433E1,5.47536E0,3.9191776E1,1.5124066E0,2.1682219E1,3.064575E1,2.4947302E1,1.3650916E3,5.479111E2,3.9903362E3,5.226459E0,3.1927993E0,1.3599566E0,1.3947687E0,1.1017076E0,1.2349706E0,1.1534009E0,9.000907E0,1.0551003E0,3.954618E0,4.3430794E1,3.8476624E1,1.6668727E0,2.5049202E0,1.9855988E1,3.0490453E0,1.9739307E1,2.504125E0,2.7019246E0,2.7734356E0],"tree_param":{"num_deleted":"0","num_feature":"36","num_nodes":"57","size_leaf_vector":"0"}},{"base_weights":[-1.3971785E-3,-1.3838057E-2,9.5922895E-2,1.3621838E-2,-1.1753283E-1,1.4711908E-1,-1.759504E-1,-2.0590527E-2,2.671567E-1,4.629748E-1,-1.4906175E-1,5.681103E-1,1.05343014E-1,-9.7597027E-1,-9.755969E-2,-7.0914757E-3,-4.5126545E-1,3.456473E-1,-9.212187E-1,-1.4015144E-1,9.935554E-1,1.810668E-1,-2.1054144E-1,-1.0022423E0,7.0399994E-1,-8.402406E-2,2.1092477E-1,8.153012E-1,-1.3889915E0,-8.2296515E-1,-2.7015028E-3,-3.2019418E-1,3.6239137E-3,-7.405139E-1,1.8593486E-1,1.2272738E-1,9.8638815E-1,-1.141862E0,1.3931486E-1,-4.729369E-1,2.6454216E-1,1.0698795E0,-5.037542E-1,-1.4158586E0,3.5479477E-1,1.0667858E0,-2.2931385E-1,-1.1188518E0,-3.048918E-1,-1.4266771E-1,8.9923865E-1,6.7070556E-1,-1.6769923E-1,-3.3948925E-1,2.988801E-1,4.17513E-1,-1.8588816E0,-1.7502148E-1,-1.3299111E0,-4.956743E-1,1.5720539E-1],"categories":[],"categories_nodes":[],"categories_segments":[],"categories_sizes":[],"default_left":[1,1,1,1,1,1,1,1,1,1,1,1,1,1,1,1,1,1,1,1,1,1,1,1,1,1,1,0,1,1,1,0,0,0,0,0,0,0,0,0,0,0,0,0,0,0,0,0,0,0,0,0,0,0,0,0,0,0,0,0,0],"id":22,"left_children":[1,3,5,7,9,11,13,15,17,19,21,23,25,27,29,31,33,35,37,39,41,43,45,47,49,51,53,-1,55,57,59,-1,-1,-1,-1,-1,-1,-1,-1,-1,-1,-1,-1,-1,-1,-1,-1,-1,-1,-1,-1,-1,-1,-1,-1,-1,-1,-1,-1,-1,-1],"loss_changes":[7.486666E0,1.5612844E1,9.78125E0,3.761222E1,2.1080324E1,1.0322877E1,6.8987474E0,2.2210945E1,4.8407692E1,1.9141823E1,2.2152931E1,1.2029585E1,1.0780048E1,8.413344E0,7.06326E0,1.2434481E1,2.1537706E1,6.905945E1,7.6973667E0,3.9859173E0,4.1633034E0,4.8108753E1,2.2281017E1,3.609705E-2,8.298708E0,1.2326304E1,1.6846272E1,0E0,7.8786507E0,3.6665297E0,7.315209E0,0E0,0E0,0E0,0E0,0E0,0E0,0E0,0E0,0E0,0E0,0E0,0E0,0E0,0E0,0E0,0E0,0E0,0E0,0E0,0E0,0E0,0E0,0E0,0E0,0E0,0E0,0E0,0E0,0E0,0E0],"parents":[2147483647,0,0,1,1,2,2,3,3,4,4,5,5,6,6,7,7,8,8,9,9,10,10,11,11,12,12,13,13,14,14,15,15,16,16,17,17,18,18,19,19,20,20,21,21,22,22,23,23,24,24,25,25,26,26,28,28,29,29,30,30],"right_children":[2,4,6,8,10,12,14,16,18,20,22,24,26,28,30,32,34,36,38,40,42,44,46,48,50,52,54,-1,56,58,60,-1,-1,-1,-1,-1,-1,-1,-1,-1,-1,-1,-1,-1,-1,-1,-1,-1,-1,-1,-1,-1,-1,-1,-1,-1,-1,-1,-1,-1,-1],"split_conditions":[7.8410244E-1,4.9163055E-1,6.1000395E-1,-8.9635514E-4,-5.5878663E-1,-2.775183E-1,-1.1088749E0,2.7874136E-1,1.9485075E0,2.6113707E-1,-9.338343E-1,-1.5270865E0,-6.135713E-1,7.350479E-1,-8.476313E-1,-2.0946264E0,9.1390276E-1,4.592558E-1,1.2751442E-1,2.445341E-1,2.1153271E0,7.3627764E-1,-1.4910477E0,-1.8830301E-1,-8.9052284E-1,-1.9185716E0,-1.3906984E0,2.4459036E-1,-1.0458306E0,-3.4452933E-1,-9.3365264E-1,-9.605826E-2,1.0871742E-3,-2.2215419E-1,5.578046E-2,3.6818214E-2,2.9591647E-1,-3.4255862E-1,4.179446E-2,-1.4188108E-1,7.936265E-2,3.2096386E-1,-1.5112627E-1,-4.247576E-1,1.06438436E-1,3.2003576E-1,-6.879416E-2,-3.3565554E-1,-9.1467544E-2,-4.2800315E-2,2.697716E-1,2.0121168E-1,-5.0309774E-2,-1.0184678E-1,8.9664035E-2,1.2525392E-1,-5.576645E-1,-5.2506447E-2,-3.9897335E-1,-1.487023E-1,4.716162E-2],"split_indices":[9,9,2,9,11,7,4,7,4,7,3,11,1,2,0,1,0,7,0,28,22,7,4,27,2,3,2,0,32,4,33,0,0,0,0,0,0,0,0,0,0,0,0,0,0,0,0,0,0,0,0,0,0,0,0,0,0,0,0,0,0],"split_type":[0,0,0,0,0,0,0,0,0,0,0,0,0,0,0,0,0,0,0,0,0,0,0,0,0,0,0,0,0,0,0,0,0,0,0,0,0,0,0,0,0,0,0,0,0,0,0,0,0,0,0,0,0,0,0,0,0,0,0,0,0],"sum_hessian":[6.1814126E3,5.4815396E3,6.99873E2,4.3345547E3,1.146985E3,5.893516E2,1.1052135E2,3.8199973E3,5.1455725E2,5.8381725E1,1.0886033E3,5.2066036E1,5.372856E2,8.841272E0,1.0168008E2,3.7048882E3,1.15109344E2,4.8334232E2,3.1214972E1,2.766733E1,3.0714396E1,1.7059755E2,9.180057E2,3.6389205E0,4.8427113E1,1.9240326E2,3.4488235E2,1.474102E0,7.36717E0,1.0870994E1,9.080908E1,1.2164187E2,3.583246E3,7.90593E1,3.6050037E1,3.5947055E2,1.23871735E2,2.5775675E1,5.439297E0,1.5089985E1,1.2577344E1,2.9496311E1,1.2180843E0,1.60367E1,1.5456085E2,1.2487595E1,9.0551807E2,2.5997615E0,1.0391592E0,9.125022E0,3.9302094E1,1.8502216E1,1.7390105E2,4.71243E1,2.9775806E2,1.5437297E0,5.82344E0,5.362395E0,5.5085993E0,2.1727173E1,6.908191E1],"tree_param":{"num_deleted":"0","num_feature":"36","num_nodes":"61","size_leaf_vector":"0"}},{"base_weights":[-9.465952E-4,-1.3152018E-2,1.0324747E-1,-6.841155E-2,1.384382E-2,8.559761E-2,8.1281054E-1,-8.364618E-2,3.5390618E-1,4.7674254E-2,-8.6466074E-2,9.475773E-2,-9.2638963E-1,-5.495743E-1,1.0581852E0,-1.0687204E-1,1.9764824E-1,8.3451915E-1,6.873612E-2,-1.3814285E-1,7.801869E-2,-1.3260777E-1,2.7326295E-1,-4.981055E-2,1.5272802E-1,-1.8520243E0,2.2676592E-1,-1.0077758E0,1.8517809E-1,1.1944844E0,-1.9604921E-1,-2.6897824E-1,-5.609811E-2,-6.675543E-1,3.514026E-1,1.197453E0,2.666879E-1,-2.5530568E-1,5.269209E-1,-2.1621113E-1,6.169784E-1,1.7267716E-1,-1.668969E-2,-7.241259E-2,-4.9012652E-1,1.1012105E0,-5.1244654E-2,1.4144808E0,-7.753628E-2,-4.2092705E-1,1.769731E-1,-4.9864542E-1,9.2689335E-1,1.2855421E0,1.6286215E-1],"categories":[],"categories_nodes":[],"categories_segments":[],"categories_sizes":[],"default_left":[1,1,1,1,1,1,1,1,1,1,1,1,1,1,1,1,1,1,1,1,1,1,1,1,1,0,1,0,0,1,0,0,0,0,0,0,0,0,0,0,0,0,0,0,0,0,0,0,0,0,0,0,0,0,0],"id":23,"left_children":[1,3,5,7,9,11,13,15,17,19,21,23,25,27,29,31,33,35,37,39,41,43,45,47,49,-1,51,-1,-1,53,-1,-1,-1,-1,-1,-1,-1,-1,-1,-1,-1,-1,-1,-1,-1,-1,-1,-1,-1,-1,-1,-1,-1,-1,-1],"loss_changes":[7.829081E0,8.221585E0,8.014858E0,1.1666721E1,1.2570013E1,5.9369354E0,5.7797318E0,1.1431967E1,8.600124E0,1.5627584E1,1.5543119E1,5.255821E0,6.560695E0,1.2071676E0,2.5451555E0,1.32694E1,1.8002161E1,4.5098743E0,6.182372E0,2.3074924E1,2.1352943E1,1.7798836E1,2.8679943E1,7.4171E0,6.294797E0,0E0,2.2156837E0,0E0,0E0,9.492798E-1,0E0,0E0,0E0,0E0,0E0,0E0,0E0,0E0,0E0,0E0,0E0,0E0,0E0,0E0,0E0,0E0,0E0,0E0,0E0,0E0,0E0,0E0,0E0,0E0,0E0],"parents":[2147483647,0,0,1,1,2,2,3,3,4,4,5,5,6,6,7,7,8,8,9,9,10,10,11,11,12,12,13,13,14,14,15,15,16,16,17,17,18,18,19,19,20,20,21,21,22,22,23,23,24,24,26,26,29,29],"right_children":[2,4,6,8,10,12,14,16,18,20,22,24,26,28,30,32,34,36,38,40,42,44,46,48,50,-1,52,-1,-1,54,-1,-1,-1,-1,-1,-1,-1,-1,-1,-1,-1,-1,-1,-1,-1,-1,-1,-1,-1,-1,-1,-1,-1,-1,-1],"split_conditions":[1.452031E0,-2.653033E-1,7.8410244E-1,2.0490372E0,7.029221E-1,2.4835496E0,-1.4177748E0,2.181302E0,-7.7525504E-2,-9.861595E-1,4.592558E-1,-2.775183E-1,5.0902978E-2,-2.4781835E-1,2.1597643E0,-9.338343E-1,-1.2235267E0,-2.7734277E-1,5.1503253E-1,1.1752435E0,-3.8551074E-1,2.7874136E-1,4.9365273E-1,-1.050858E0,-6.232935E-1,-5.556073E-1,6.2064135E-1,-3.0233276E-1,5.555343E-2,1.4293165E0,-5.8814768E-2,-8.0693476E-2,-1.6829435E-2,-2.002663E-1,1.0542079E-1,3.592359E-1,8.0006376E-2,-7.659171E-2,1.5807629E-1,-6.486334E-2,1.8509352E-1,5.180315E-2,-5.006907E-3,-2.1723777E-2,-1.4703797E-1,3.3036315E-1,-1.5373397E-2,4.2434427E-1,-2.3260884E-2,-1.2627812E-1,5.3091932E-2,-1.4959364E-1,2.78068E-1,3.8566265E-1,4.8858646E-2],"split_indices":[15,2,9,13,1,4,34,7,0,6,7,7,3,30,9,3,4,3,5,7,7,7,7,33,0,0,1,0,0,23,0,0,0,0,0,0,0,0,0,0,0,0,0,0,0,0,0,0,0,0,0,0,0,0,0],"split_type":[0,0,0,0,0,0,0,0,0,0,0,0,0,0,0,0,0,0,0,0,0,0,0,0,0,0,0,0,0,0,0,0,0,0,0,0,0,0,0,0,0,0,0,0,0,0,0,0,0,0,0,0,0,0,0],"sum_hessian":[6.154164E3,5.509633E3,6.445315E2,1.8077328E3,3.7019E3,6.299818E2,1.4549696E1,1.7455654E3,6.216731E1,2.7686665E3,9.3323346E2,6.252288E2,4.752965E0,2.0313528E0,1.2518343E1,1.6130034E3,1.3256204E2,2.2433126E1,3.9734184E1,3.8816257E2,2.380504E3,8.2769775E2,1.0553572E2,1.7899236E2,4.4623648E2,2.3003953E0,2.4525697E0,1.0222673E0,1.0090854E0,1.1334272E1,1.1840711E0,3.8369156E2,1.2293119E3,1.949856E1,1.13063484E2,1.3009307E1,9.4238205E0,2.3533434E1,1.620075E1,3.5243927E2,3.5723293E1,1.1901539E3,1.19035E3,7.094506E2,1.18247154E2,2.9042727E1,7.649299E1,2.3967135E0,1.7659564E2,1.7431599E1,4.2880487E2,1.3458724E0,1.1066972E0,1.0188805E1,1.1454673E0],"tree_param":{"num_deleted":"0","num_feature":"36","num_nodes":"55","size_leaf_vector":"0"}},{"base_weights":[-5.842394E-4,-8.4650445E-1,8.3146186E-4,-9.2793524E-1,-5.270695E-2,1.8873012E-1,-5.0545717E-3,8.3095366E-1,1.2052826E-1,-6.7926013E-1,-3.3984645E-3,4.957298E-1,1.8360697E0,5.0097853E-2,7.8888494E-1,7.2488666E-2,-1.0692412E0,1.0469002E-1,-1.4190621E-2,-4.5578593E-1,9.3476325E-1,2.2120037E0,7.159264E-1,1.3250299E-1,-4.9351305E-1,-1.1649146E-1,1.095663E0,-8.6790746E-1,7.6830935E-1,6.092572E-2,-1.2152259E0,1.366311E0,9.081652E-2,-5.1043812E-2,2.0595854E-2],"categories":[],"categories_nodes":[],"categories_segments":[],"categories_sizes":[],"default_left":[1,1,1,0,0,1,1,1,1,1,1,1,1,1,1,1,1,1,1,0,0,0,0,0,0,0,0,0,0,0,0,0,0,0,0],"id":24,"left_children":[1,3,5,-1,-1,7,9,11,13,15,17,19,21,23,25,27,29,31,33,-1,-1,-1,-1,-1,-1,-1,-1,-1,-1,-1,-1,-1,-1,-1,-1],"loss_changes":[7.321931E0,6.113877E-1,6.7520475E0,0E0,0E0,8.022062E0,6.6074276E0,5.030841E0,7.9064684E0,4.328591E0,6.891173E0,6.5219507E0,1.1764145E-1,6.954091E0,4.578457E0,4.520569E0,1.6597414E0,9.262783E0,6.886573E0,0E0,0E0,0E0,0E0,0E0,0E0,0E0,0E0,0E0,0E0,0E0,0E0,0E0,0E0,0E0,0E0],"parents":[2147483647,0,0,1,1,2,2,5,5,6,6,7,7,8,8,9,9,10,10,11,11,12,12,13,13,14,14,15,15,16,16,17,17,18,18],"right_children":[2,4,6,-1,-1,8,10,12,14,16,18,20,22,24,26,28,30,32,34,-1,-1,-1,-1,-1,-1,-1,-1,-1,-1,-1,-1,-1,-1,-1,-1],"split_conditions":[-3.5291667E0,9.1531324E-1,-1.8112841E0,-2.7838057E-1,-1.5812086E-2,1.4022486E-1,-2.1336966E0,9.482393E-1,9.2171055E-1,-2.1668675E0,-1.3569683E0,-6.9473267E-1,-6.146686E-1,8.784237E-1,-6.263823E-1,2.4933225E-1,-7.8402805E-1,-1.529265E0,1.612857E-1,-1.3673578E-1,2.8042898E-1,6.6360116E-1,2.1477793E-1,3.9750896E-2,-1.4805391E-1,-3.494744E-2,3.286989E-1,-2.6037225E-1,2.3049282E-1,1.8277716E-2,-3.645678E-1,4.098933E-1,2.7244957E-2,-1.5313144E-2,6.1787567E-3],"split_indices":[11,34,26,0,0,28,32,21,31,32,30,33,33,4,33,0,4,4,0,0,0,0,0,0,0,0,0,0,0,0,0,0,0,0,0],"split_type":[0,0,0,0,0,0,0,0,0,0,0,0,0,0,0,0,0,0,0,0,0,0,0,0,0,0,0,0,0,0,0,0,0,0,0],"sum_hessian":[6.1124004E3,9.215052E0,6.1031855E3,8.204428E0,1.0106242E0,1.8443517E2,5.9187505E3,1.6632383E1,1.6780278E2,1.3500515E1,5.90525E3,1.3592315E1,3.0400696E0,1.527782E2,1.5024577E1,4.889455E0,8.61106E0,5.3529724E2,5.3699526E3,4.2794085E0,9.312906E0,1.5463457E0,1.4937238E0,1.3332407E2,1.9454134E1,3.959477E0,1.1065101E1,1.9741254E0,2.9153297E0,1.0517112E0,7.5593486E0,4.762083E0,5.3053516E2,2.607291E3,2.7626616E3],"tree_param":{"num_deleted":"0","num_feature":"36","num_nodes":"35","size_leaf_vector":"0"}},{"base_weights":[-3.9520665E-4,-4.1162714E-1,2.1696975E-3,-6.473523E-1,-3.0315936E-2,-2.2247173E-2,4.5193803E-2,2.9950237E-1,-7.159993E-1,2.516646E-1,-5.8760375E-1,-3.4611434E-2,2.6419896E-1,-6.328696E-2,1.348955E-1,-8.1476516E-1,1.5991989E-1,-4.3127638E-1,4.5066768E-1,-7.733655E-1,8.29999E-2,-2.4581132E-2,-2.223431E-1,5.1929485E-2,8.580956E-1,-8.520652E-2,5.746456E-1,2.2840233E-1,4.960153E-2,-8.7582177E-1,1.634022E-2,-5.60664E-1,8.2457554E-1,1.8249582E-1,9.557418E-1,8.491801E-2,-5.3497262E-2,-7.212486E-1,-1.2826793E-1,-1.4998747E-1,3.9254668E-1,1.1755781E0,-3.9203712E-1,4.5567784E-1,-1.1054935E-1,8.948221E-1,-7.340731E-1,1.1969521E-1,5.5173874E-1,7.269961E-1,3.265257E-2],"categories":[],"categories_nodes":[],"categories_segments":[],"categories_sizes":[],"default_left":[1,1,1,1,1,1,1,0,1,1,1,1,1,1,1,1,1,0,1,0,0,1,1,1,1,1,1,1,1,0,0,0,0,0,0,0,0,0,0,0,0,0,0,0,0,0,0,0,0,0,0],"id":25,"left_children":[1,3,5,7,9,11,13,-1,15,17,19,21,23,25,27,29,31,-1,33,-1,-1,35,37,39,41,43,45,47,49,-1,-1,-1,-1,-1,-1,-1,-1,-1,-1,-1,-1,-1,-1,-1,-1,-1,-1,-1,-1,-1,-1],"loss_changes":[6.436073E0,3.3800097E0,6.3715334E0,1.7304707E0,2.5833442E0,1.3713162E1,2.1376268E1,0E0,2.0371857E0,1.6881529E0,7.5021374E-1,6.980705E0,2.0154062E1,1.3956314E1,9.577587E0,1.0278168E0,1.9324089E0,0E0,1.0446239E0,0E0,0E0,1.1159601E1,8.733512E0,8.250083E0,1.7179422E1,1.3242617E1,1.4554882E1,2.0083231E1,7.2097507E0,0E0,0E0,0E0,0E0,0E0,0E0,0E0,0E0,0E0,0E0,0E0,0E0,0E0,0E0,0E0,0E0,0E0,0E0,0E0,0E0,0E0,0E0],"parents":[2147483647,0,0,1,1,2,2,3,3,4,4,5,5,6,6,8,8,9,9,10,10,11,11,12,12,13,13,14,14,15,15,16,16,18,18,21,21,22,22,23,23,24,24,25,25,26,26,27,27,28,28],"right_children":[2,4,6,8,10,12,14,-1,16,18,20,22,24,26,28,30,32,-1,34,-1,-1,36,38,40,42,44,46,48,50,-1,-1,-1,-1,-1,-1,-1,-1,-1,-1,-1,-1,-1,-1,-1,-1,-1,-1,-1,-1,-1,-1],"split_conditions":[-1.0547688E0,5.1503253E-1,3.7914872E-1,-1.1877563E0,-6.0558856E-1,1.5257305E0,1.6369793E-1,8.985072E-2,1.6774008E0,-1.0045629E0,6.7600775E-1,2.024942E0,2.2265778E0,1.8338556E0,-3.8551074E-1,2.0564241E0,3.4358633E-1,-1.2938292E-1,1.1736779E0,-2.3200966E-1,2.489997E-2,-3.3442846E-1,-7.131492E-1,5.0902978E-2,5.0864744E-1,-1.1594126E0,1.2217208E0,-4.6480602E-1,-3.0986476E-1,-2.6274654E-1,4.902066E-3,-1.6819921E-1,2.4737267E-1,5.4748747E-2,2.8672257E-1,2.5475403E-2,-1.604918E-2,-2.1637459E-1,-3.848038E-2,-4.4996243E-2,1.1776401E-1,3.5267344E-1,-1.1761114E-1,1.3670336E-1,-3.3164807E-2,2.6844665E-1,-2.2022194E-1,3.5908565E-2,1.6552162E-1,2.1809885E-1,9.795772E-3],"split_indices":[9,5,3,0,3,1,0,0,23,30,31,4,11,4,7,28,31,0,32,0,0,0,0,3,0,0,11,9,11,0,0,0,0,0,0,0,0,0,0,0,0,0,0,0,0,0,0,0,0,0,0],"split_type":[0,0,0,0,0,0,0,0,0,0,0,0,0,0,0,0,0,0,0,0,0,0,0,0,0,0,0,0,0,0,0,0,0,0,0,0,0,0,0,0,0,0,0,0,0,0,0,0,0,0,0],"sum_hessian":[6.100023E3,3.6822205E1,6.0632007E3,2.2323935E1,1.4498271E1,3.868339E3,2.1948618E3,1.281747E0,2.1042187E1,9.991241E0,4.5070295E0,3.7091167E3,1.5922244E2,9.935755E2,1.2012863E3,1.8972702E1,2.0694845E0,1.9910723E0,8.000169E0,3.4093726E0,1.0976571E0,3.5220674E3,1.8704938E2,1.18099106E2,4.1123333E1,9.6140765E2,3.216783E1,5.722534E2,6.290328E2,1.7624151E1,1.3485504E0,1.0680364E0,1.0014482E0,6.114805E0,1.8853642E0,7.353853E2,2.7866821E3,2.8617338E1,1.5843204E2,7.449709E1,4.3602013E1,3.2842358E1,8.280975E0,4.227006E1,9.1913763E2,2.6099003E1,6.06883E0,4.292933E2,1.4296011E2,1.4332101E1,6.147007E2],"tree_param":{"num_deleted":"0","num_feature":"36","num_nodes":"51","size_leaf_vector":"0"}},{"base_weights":[-3.6827885E-4,-6.0049575E-3,1.664456E-1,-2.5209684E-2,5.3279374E-2,-6.290669E-1,2.1382311E-1,-5.9578407E-1,-2.1754451E-2,2.4892373E-2,2.5299886E-1,-9.8495156E-1,3.6955705E-1,1.762975E-1,9.435784E-1,-8.2217604E-1,-9.514048E-2,-4.1072797E-2,5.2612197E-2,-9.178254E-5,2.50806E-1,2.1631014E-2,4.2188403E-1,1.4552605E-1,-1.1781112E0,-3.381289E-1,8.7276846E-1,4.1090433E-2,3.8453603E-1,3.7409025E-1,1.2213684E0,-9.265974E-1,6.375894E-2,2.691297E-1,-9.080222E-1,-3.0542257E-1,-3.0873287E-2,4.1039655E-1,1.0125746E-2,3.8981456E-2,-1.6795161E-1,8.29574E-1,1.7489387E-1,-6.1415613E-2,8.454358E-1,-1.8438241E-1,5.350158E-1,-3.3405814E-1,-1.3956629E0,6.43437E-1,-5.88502E-2,8.787039E-1,2.1443386E-1,7.331664E-1,-3.8585353E-1],"categories":[],"categories_nodes":[],"categories_segments":[],"categories_sizes":[],"default_left":[1,1,1,1,1,1,1,1,1,1,1,1,1,1,1,1,1,1,1,1,1,1,1,0,1,0,0,1,1,1,0,0,0,0,0,0,0,0,0,0,0,0,0,0,0,0,0,0,0,0,0,0,0,0,0],"id":26,"left_children":[1,3,5,7,9,11,13,15,17,19,21,23,25,27,29,31,33,35,37,39,41,43,45,-1,47,-1,-1,49,51,53,-1,-1,-1,-1,-1,-1,-1,-1,-1,-1,-1,-1,-1,-1,-1,-1,-1,-1,-1,-1,-1,-1,-1,-1,-1],"loss_changes":[5.7200947E0,6.7010965E0,7.6287193E0,8.750939E0,8.15852E0,4.4262447E0,4.9931974E0,2.9502602E0,6.351609E0,7.1232758E0,6.9895935E0,2.0711737E0,1.6235459E0,5.064157E0,9.6449184E-1,1.7491283E0,3.0429556E0,9.4512825E0,1.38560095E1,7.4663086E0,5.3764E0,5.2944717E0,7.1962833E0,0E0,9.183464E-1,0E0,0E0,6.6908054E0,5.7722197E0,1.4800978E0,0E0,0E0,0E0,0E0,0E0,0E0,0E0,0E0,0E0,0E0,0E0,0E0,0E0,0E0,0E0,0E0,0E0,0E0,0E0,0E0,0E0,0E0,0E0,0E0,0E0],"parents":[2147483647,0,0,1,1,2,2,3,3,4,4,5,5,6,6,7,7,8,8,9,9,10,10,11,11,12,12,13,13,14,14,15,15,16,16,17,17,18,18,19,19,20,20,21,21,22,22,24,24,27,27,28,28,29,29],"right_children":[2,4,6,8,10,12,14,16,18,20,22,24,26,28,30,32,34,36,38,40,42,44,46,-1,48,-1,-1,50,52,54,-1,-1,-1,-1,-1,-1,-1,-1,-1,-1,-1,-1,-1,-1,-1,-1,-1,-1,-1,-1,-1,-1,-1,-1,-1],"split_conditions":[2.92223E0,6.66009E-1,-3.9816213E-1,-2.015918E0,1.3491857E0,1.0097127E0,1.1752435E0,5.1503253E-1,5.834267E-1,1.0288363E0,-2.2987747E-1,-1.5157499E0,-1.5215524E-2,2.3442069E-1,-5.9380317E-1,7.073945E-1,5.0902978E-2,-1.4843936E0,-1.5056231E0,6.4912E-1,-9.4025886E-1,1.8079844E0,-4.3609908E-1,4.3657817E-2,-6.4994985E-1,-1.0143867E-1,2.6183054E-1,-1.2753587E0,4.7554022E-1,6.660549E-2,3.6641055E-1,-2.7797922E-1,1.9127682E-2,8.073891E-2,-2.7240667E-1,-9.162678E-2,-9.261986E-3,1.2311897E-1,3.037724E-3,1.1694437E-2,-5.0385486E-2,2.488722E-1,5.2468162E-2,-1.8424684E-2,2.5363076E-1,-5.5314723E-2,1.6050476E-1,-1.0021745E-1,-4.1869888E-1,1.9303112E-1,-1.765506E-2,2.6361117E-1,6.433016E-2,2.1994993E-1,-1.15756065E-1],"split_indices":[14,28,7,2,24,30,7,5,0,7,4,32,2,30,28,3,3,11,24,4,33,32,27,0,28,0,0,30,30,0,0,0,0,0,0,0,0,0,0,0,0,0,0,0,0,0,0,0,0,0,0,0,0,0,0],"split_type":[0,0,0,0,0,0,0,0,0,0,0,0,0,0,0,0,0,0,0,0,0,0,0,0,0,0,0,0,0,0,0,0,0,0,0,0,0,0,0,0,0,0,0,0,0,0,0,0,0,0,0,0,0,0,0],"sum_hessian":[6.081357E3,5.8835156E3,1.9784132E2,4.444369E3,1.4391464E3,1.0430237E1,1.8741109E2,2.5719933E1,4.4186494E3,1.2610345E3,1.7811171E2,7.6998816E0,2.7303548E0,1.7942618E2,7.9849024E0,1.7268738E1,8.451196E0,3.5078557E3,9.1079376E2,1.136362E3,1.2467254E2,7.5629524E1,1.02482185E2,1.1596377E0,6.540244E0,1.2709814E0,1.4593732E0,1.0951596E2,6.991022E1,3.3873248E0,4.597578E0,1.5406896E1,1.8618422E0,6.297891E0,2.1533043E0,1.292416E2,3.378614E3,9.5756386E1,8.1503735E2,9.224162E2,2.1394583E2,1.3304965E1,1.1136757E2,6.9544304E1,6.085217E0,1.6017199E1,8.646499E1,