{"learner":{"attributes":{"best_iteration":"299","best_ntree_limit":"300","scikit_learn":"{\"use_label_encoder\": false, \"n_estimators\": 300, \"objective\": \"binary:logistic\", \"max_depth\": 5, \"max_leaves\": null, \"max_bin\": null, \"grow_policy\": null, \"learning_rate\": 0.1, \"verbosity\": null, \"booster\": null, \"tree_method\": null, \"gamma\": 2.0, \"min_child_weight\": null, \"max_delta_step\": null, \"subsample\": null, \"sampling_method\": null, \"colsample_bytree\": null, \"colsample_bylevel\": null, \"colsample_bynode\": null, \"reg_alpha\": 1.0, \"reg_lambda\": 3.0, \"scale_pos_weight\": null, \"base_score\": null, \"missing\": NaN, \"num_parallel_tree\": null, \"random_state\": null, \"n_jobs\": null, \"monotone_constraints\": null, \"interaction_constraints\": null, \"importance_type\": null, \"gpu_id\": null, \"validate_parameters\": null, \"predictor\": null, \"enable_categorical\": false, \"feature_types\": null, \"max_cat_to_onehot\": null, \"max_cat_threshold\": null, \"eval_metric\": \"auc\", \"early_stopping_rounds\": null, \"callbacks\": null, \"kwargs\": {\"seed\": 42}, \"classes_\": [0, 1], \"n_classes_\": 2, \"_estimator_type\": \"classifier\"}"},"feature_names":["word_count","pub_month","pub_time","abstract_len","len_lead","is_noon","is_saturday","is_lowmonth","feature_section_name","feature_type_of_material","is_party","is_congress","is_president","is_ukrainian_russian_war","is_covid","is_storm","is_spell","is_crossword","sentiment_tb_polar","sentiment_vader_neg","sentiment_snow_abs","sentiment_abstract_tb_polar","sentiment_abstract_tb_polar_abs","sentiment_abstract_tb_subj","sentiment_abstract_vader_neg","sentiment_abstract_vader_pos","sentiment_abstract_vader_compound_abs","sentiment_abstract_snow_abs"],"feature_types":["float","float","float","float","float","float","float","float","float","float","float","float","float","float","float","float","float","float","float","float","float","float","float","float","float","float","float","float"],"gradient_booster":{"model":{"gbtree_model_param":{"num_parallel_tree":"1","num_trees":"300","size_leaf_vector":"0"},"tree_info":[0,0,0,0,0,0,0,0,0,0,0,0,0,0,0,0,0,0,0,0,0,0,0,0,0,0,0,0,0,0,0,0,0,0,0,0,0,0,0,0,0,0,0,0,0,0,0,0,0,0,0,0,0,0,0,0,0,0,0,0,0,0,0,0,0,0,0,0,0,0,0,0,0,0,0,0,0,0,0,0,0,0,0,0,0,0,0,0,0,0,0,0,0,0,0,0,0,0,0,0,0,0,0,0,0,0,0,0,0,0,0,0,0,0,0,0,0,0,0,0,0,0,0,0,0,0,0,0,0,0,0,0,0,0,0,0,0,0,0,0,0,0,0,0,0,0,0,0,0,0,0,0,0,0,0,0,0,0,0,0,0,0,0,0,0,0,0,0,0,0,0,0,0,0,0,0,0,0,0,0,0,0,0,0,0,0,0,0,0,0,0,0,0,0,0,0,0,0,0,0,0,0,0,0,0,0,0,0,0,0,0,0,0,0,0,0,0,0,0,0,0,0,0,0,0,0,0,0,0,0,0,0,0,0,0,0,0,0,0,0,0,0,0,0,0,0,0,0,0,0,0,0,0,0,0,0,0,0,0,0,0,0,0,0,0,0,0,0,0,0,0,0,0,0,0,0,0,0,0,0,0,0,0,0,0,0,0,0,0,0,0,0,0,0,0,0,0,0,0,0],"trees":[{"base_weights":[1.987225E-3,-7.282448E-1,1.211448E0,-1.240266E0,-2.557177E-1,9.1447735E-1,1.8097421E0,-1.4263426E0,-5.2300787E-1,-1.85E0,-1.6639927E-1,4.5005488E-1,1.066816E0,1.1048951E0,1.8562578E0,-1.5913312E0,-1.1840796E0,-1.9298245E-1,-8.3668905E-1,-3.5637286E-1,3.226863E-1,-1.440678E-1,1.0687362E0,1.2449903E0,8.111888E-1,1.2520325E0,-0E0,-1.6389343E0,-5.945946E-1,-1.3085107E0,-6.3917524E-1,-3.727034E-1,5.7471263E-1,-1.2380953E0,-1.7204301E-1,-4.0078974E-1,7.0866144E-1,2.3217248E-2,5.968254E-1,-7.8431374E-1,2.0942409E-2,1.0872483E0,-0E0,1.1186967E0,1.7777778E0,-3.908046E-1,9.0364826E-1,1.3448275E0,-0E0,-3.1578946E-1,4E-1],"categories":[],"categories_nodes":[],"categories_segments":[],"categories_sizes":[],"default_left":[1,1,1,1,1,1,1,1,1,0,1,1,1,1,0,1,1,1,1,1,1,1,1,1,1,1,1,0,0,0,0,0,0,0,0,0,0,0,0,0,0,0,0,0,0,0,0,0,0,1,1],"id":0,"left_children":[1,3,5,7,9,11,13,15,17,-1,19,21,23,25,-1,27,29,31,33,35,37,39,41,43,45,47,-1,-1,-1,-1,-1,-1,-1,-1,-1,-1,-1,-1,-1,-1,-1,-1,-1,-1,-1,-1,-1,-1,-1,-1,-1],"loss_changes":[3.114156E3,5.2928455E2,2.2821997E2,1.3635144E2,1.6049832E2,6.0328125E1,5.188965E0,2.487732E1,2.154562E1,0E0,1.017239E2,8.510123E1,2.541864E1,4.5598946E0,0E0,1.7831299E1,1.9392914E1,1.6169266E1,2.7764969E1,3.784458E1,2.4398247E1,1.3279007E1,3.317978E0,1.7160645E1,3.33571E1,4.2450256E0,1.4736842E0,0E0,0E0,0E0,0E0,0E0,0E0,0E0,0E0,0E0,0E0,0E0,0E0,0E0,0E0,0E0,0E0,0E0,0E0,0E0,0E0,0E0,0E0,0E0,0E0],"parents":[2147483647,0,0,1,1,2,2,3,3,4,4,5,5,6,6,7,7,8,8,10,10,11,11,12,12,13,13,15,15,16,16,17,17,18,18,19,19,20,20,21,21,22,22,23,23,24,24,25,25,26,26],"right_children":[2,4,6,8,10,12,14,16,18,-1,20,22,24,26,-1,28,30,32,34,36,38,40,42,44,46,48,-1,-1,-1,-1,-1,-1,-1,-1,-1,-1,-1,-1,-1,-1,-1,-1,-1,-1,-1,-1,-1,-1,-1,-1,-1],"split_conditions":[1.6197573E-1,-5.5229026E-1,1.2333746E0,2.9675105E-1,-1.7158602E0,5.191087E-1,-5.942352E-1,-1.9817781E-1,-2.406702E-1,-1.85E-1,2.43029E-1,1.1386741E-1,-2.406702E-1,1.42171E0,1.8562578E-1,1.9434102E0,-9.094233E-1,9.679977E-1,-9.094233E-1,1.2415814E0,-1.18172504E-1,-7.9105866E-1,3.192305E0,2.9355123E0,-9.011368E-1,2.6574504E0,-0E0,-1.6389343E-1,-5.945946E-2,-1.3085108E-1,-6.3917525E-2,-3.727034E-2,5.7471264E-2,-1.2380953E-1,-1.7204301E-2,-4.0078975E-2,7.0866145E-2,2.3217248E-3,5.9682544E-2,-7.8431375E-2,2.0942409E-3,1.0872483E-1,-0E0,1.1186967E-1,1.7777778E-1,-3.908046E-2,9.036483E-2,1.3448276E-1,-0E0,-3.1578947E-2,4.0000003E-2],"split_indices":[8,8,8,0,9,8,0,0,2,0,0,0,2,4,0,6,8,20,8,12,24,20,22,17,0,13,4,0,0,0,0,0,0,0,0,0,0,0,0,0,0,0,0,0,0,0,0,0,0,2147483647,2147483647],"split_type":[0,0,0,0,0,0,0,0,0,0,0,0,0,0,0,0,0,0,0,0,0,0,0,0,0,0,0,0,0,0,0,0,0,0,0,0,0,0,0,0,0,0,0,0,0,0,0,0,0,0,0],"sum_hessian":[3.5195E3,2.19475E3,1.32475E3,1.05E3,1.14475E3,8.915E2,4.3325E2,8.3025E2,2.1975E2,5.7E1,1.08775E3,2.2475E2,6.6675E2,3.275E1,4.005E2,4.815E2,3.4875E2,1.11E2,1.0875E2,7.855E2,3.0225E2,1.15E2,1.0975E2,3.8375E2,2.83E2,2.775E1,5E0,4.5675E2,2.475E1,2.79E2,6.975E1,9.225E1,1.875E1,6.525E1,4.35E1,7.5675E2,2.875E1,1.4775E2,1.545E2,2.25E1,9.25E1,1.0875E2,1E0,3.1925E2,6.45E1,1.875E1,2.6425E2,2.6E1,1.75E0,1.75E0,3.25E0],"tree_param":{"num_deleted":"2","num_feature":"28","num_nodes":"51","size_leaf_vector":"0"}},{"base_weights":[1.8192345E-3,-6.582603E-1,1.0972879E0,-1.234444E0,-3.1171638E-1,8.267215E-1,1.6451911E0,-1.3741189E0,-6.1646736E-1,-1.5573447E0,-2.4025145E-1,6.1402225E-1,1.1364268E0,1.0105495E0,1.68688E0,-1.4046851E0,-4.5636216E-1,-1.5058641E-1,-1.1139963E0,-1.6378163E0,-0E0,-4.978039E-1,6.336177E-2,-1.09587215E-1,8.2238835E-1,1.1568325E0,-7.0598495E-1,1.1279091E0,-0E0,1.6953704E0,4.2445788E-1,-1.5636578E0,-1.2199578E0,1.182149E-1,-9.364256E-1,-3.8994607E-1,6.3811576E-1,-1.1678762E0,-0E0,-1.682685E0,-2.6966187E-1,4.0821946E-1,-4.1609138E-1,-1.0100394E0,-3.975399E-1,-6.7979875E-3,1.0772876E0,-7.1611565E-1,3.9288685E-2,1.204618E0,5.5052865E-1,1.2022668E0,5.313106E-1,1.209964E0,-0E0,3.1386304E-1,-2.3718849E-1,6.265413E-1,-0E0],"categories":[],"categories_nodes":[],"categories_segments":[],"categories_sizes":[],"default_left":[1,1,1,1,1,1,1,1,1,1,1,1,1,1,1,1,1,1,1,1,1,1,1,1,1,1,0,1,1,1,1,0,0,0,0,0,0,0,0,1,1,1,1,0,0,0,0,0,0,0,0,0,0,0,0,1,1,1,1],"id":1,"left_children":[1,3,5,7,9,11,13,15,17,19,21,23,25,27,-1,31,33,35,37,-1,-1,43,45,47,49,51,-1,53,-1,-1,-1,-1,-1,-1,-1,-1,-1,-1,-1,-1,-1,-1,-1,-1,-1,-1,-1,-1,-1,-1,-1,-1,-1,-1,-1,-1,-1,-1,-1],"loss_changes":[2.5413594E3,4.350125E2,1.893966E2,6.635034E1,1.1938753E2,5.4921997E1,3.6367188E0,1.4899902E1,3.488972E1,9.457993E0,1.0247436E2,8.199721E1,1.635199E1,4.1921043E0,9.521484E-3,1.0349365E1,8.588463E0,1.6767635E1,5.48098E0,9.681244E-1,1.6114002E0,3.372313E1,4.3719715E1,1.1750821E1,3.9754364E1,6.4544373E0,0E0,3.5572128E0,7.26963E-1,0E0,1.0982455E0,0E0,0E0,0E0,0E0,0E0,0E0,0E0,0E0,0E0,0E0,0E0,0E0,0E0,0E0,0E0,0E0,0E0,0E0,0E0,0E0,0E0,0E0,0E0,0E0,0E0,0E0,0E0,0E0],"parents":[2147483647,0,0,1,1,2,2,3,3,4,4,5,5,6,6,7,7,8,8,9,9,10,10,11,11,12,12,13,13,14,14,15,15,16,16,17,17,18,18,19,19,20,20,21,21,22,22,23,23,24,24,25,25,27,27,28,28,30,30],"right_children":[2,4,6,8,10,12,14,16,18,20,22,24,26,28,-1,32,34,36,38,-1,-1,44,46,48,50,52,-1,54,-1,-1,-1,-1,-1,-1,-1,-1,-1,-1,-1,-1,-1,-1,-1,-1,-1,-1,-1,-1,-1,-1,-1,-1,-1,-1,-1,-1,-1,-1,-1],"split_conditions":[1.6197573E-1,-9.094233E-1,1.2333746E0,2.584598E-1,-1.4599229E0,1.4587206E-1,-5.942352E-1,1.9434102E0,-2.406702E-1,3.5675973E-1,4.8715115E-2,5.191087E-1,3.5764844E0,1.009242E0,1.68688E-1,-2.9190567E-1,-8.685607E-1,9.1997385E-1,2.8416913E0,-1.6378163E-1,-0E0,-5.5229026E-1,1.2415814E0,-7.9105866E-1,-5.97788E-1,1.7234776E0,-7.05985E-2,2.6574504E0,-0E0,1.6953705E-1,4.244579E-2,-1.5636578E-1,-1.21995784E-1,1.182149E-2,-9.364256E-2,-3.8994607E-2,6.381158E-2,-1.1678763E-1,-0E0,-1.682685E-1,-2.6966188E-2,4.0821947E-2,-4.160914E-2,-1.01003945E-1,-3.9753992E-2,-6.797988E-4,1.0772876E-1,-7.161157E-2,3.9288686E-3,1.204618E-1,5.5052865E-2,1.2022668E-1,5.3131063E-2,1.2099641E-1,-0E0,3.1386305E-2,-2.3718849E-2,6.265413E-2,-0E0],"split_indices":[8,8,8,0,9,0,0,6,2,0,0,8,16,2,0,0,0,20,0,2,4,8,12,20,2,2,0,13,4,2147483647,2147483647,0,0,0,0,0,0,0,0,2147483647,2147483647,2147483647,2147483647,0,0,0,0,0,0,0,0,0,0,0,0,2147483647,2147483647,2147483647,2147483647],"split_type":[0,0,0,0,0,0,0,0,0,0,0,0,0,0,0,0,0,0,0,0,0,0,0,0,0,0,0,0,0,0,0,0,0,0,0,0,0,0,0,0,0,0,0,0,0,0,0,0,0,0,0,0,0,0,0,0,0,0,0],"sum_hessian":[3.5079475E3,2.18915E3,1.3187975E3,8.181968E2,1.3709531E3,8.89095E2,4.297025E2,6.630463E2,1.5515045E2,7.024366E1,1.3007095E3,5.3431506E2,3.5477994E2,3.2632797E1,3.970697E2,6.390802E2,2.3966106E1,8.317974E1,7.197071E1,6.674894E1,3.494722E0,7.044801E2,5.9622943E2,1.1870428E2,4.1561078E2,3.5253452E2,2.245413E0,2.8898575E1,3.734223E0,3.9260825E2,4.4614573E0,3.2853882E2,3.1054138E2,1.0990283E1,1.2975822E1,6.594964E1,1.7230097E1,6.923122E1,2.7394884E0,6.3253925E1,3.4950113E0,1.9993228E0,1.495399E0,1.0923216E2,5.952479E2,5.5950726E2,3.672213E1,2.2465433E1,9.623884E1,1.669337E2,2.4867708E2,3.245932E2,2.7941324E1,2.7148575E1,1.75E0,1.2443652E0,2.4898574E0,3.2221637E0,1.2392937E0],"tree_param":{"num_deleted":"10","num_feature":"28","num_nodes":"59","size_leaf_vector":"0"}},{"base_weights":[1.5271875E-3,-5.976853E-1,1.0012786E0,-1.028233E0,-2.0540549E-1,7.504577E-1,1.5164998E0,-1.1838014E0,-4.3589061E-1,-1.5674205E0,-1.3101815E-1,5.565753E-1,1.0336024E0,9.2603517E-1,1.5556767E0,-1.3534772E0,-1.0016955E0,-5.4643166E-1,1.8593562E-1,-2.925958E-1,2.841119E-1,-9.957558E-2,7.468415E-1,1.0531051E0,-6.751659E-1,1.0639346E0,-0E0,1.5643712E0,3.2900956E-1,-1.3999174E0,-4.875054E-1,-1.0912015E0,-5.955853E-1,3.0275303E-1,-6.310478E-1,-3.4081864E-1,6.5600044E-1,-3.3081725E-1,6.201456E-1,1.3888222E-2,5.31266E-1,1.0118597E-1,-5.1168925E-1,1.0995522E0,4.9777183E-1,1.0943389E0,4.8477E-1,1.1464573E0,-0E0,-3.6079818E-1,3.4259284E-1,5.4639417E-1,-0E0],"categories":[],"categories_nodes":[],"categories_segments":[],"categories_sizes":[],"default_left":[1,1,1,1,1,1,1,1,1,0,1,1,1,1,1,1,1,1,1,1,1,1,1,1,0,1,1,1,1,0,0,0,0,0,0,0,0,0,0,0,0,0,0,0,0,0,0,0,0,1,1,1,1],"id":2,"left_children":[1,3,5,7,9,11,13,15,17,-1,19,21,23,25,-1,29,31,33,35,37,39,41,43,45,-1,47,-1,-1,-1,-1,-1,-1,-1,-1,-1,-1,-1,-1,-1,-1,-1,-1,-1,-1,-1,-1,-1,-1,-1,-1,-1,-1,-1],"loss_changes":[2.087967E3,3.6601904E2,1.6315833E2,9.234375E1,1.1366394E2,4.532126E1,2.9940186E0,1.8846802E1,1.5902828E1,0E0,7.333023E1,6.7596466E1,1.4324982E1,4.061455E0,7.347412E-1,1.2632751E1,1.1224518E1,1.4578663E1,9.486857E0,2.7795341E1,1.9803265E1,1.0627519E1,3.3294495E1,5.0841675E0,0E0,3.239769E0,1.349777E0,0E0,1.0392094E0,0E0,0E0,0E0,0E0,0E0,0E0,0E0,0E0,0E0,0E0,0E0,0E0,0E0,0E0,0E0,0E0,0E0,0E0,0E0,0E0,0E0,0E0,0E0,0E0],"parents":[2147483647,0,0,1,1,2,2,3,3,4,4,5,5,6,6,7,7,8,8,10,10,11,11,12,12,13,13,14,14,15,15,16,16,17,17,18,18,19,19,20,20,21,21,22,22,23,23,25,25,26,26,28,28],"right_children":[2,4,6,8,10,12,14,16,18,-1,20,22,24,26,-1,30,32,34,36,38,40,42,44,46,-1,48,-1,-1,-1,-1,-1,-1,-1,-1,-1,-1,-1,-1,-1,-1,-1,-1,-1,-1,-1,-1,-1,-1,-1,-1,-1,-1,-1],"split_conditions":[1.6197573E-1,-5.5229026E-1,1.2333746E0,2.9675105E-1,-1.7158602E0,1.4587206E-1,-5.942352E-1,-2.9190567E-1,1.197996E0,-1.5674205E-1,2.43029E-1,5.191087E-1,3.5764844E0,1.42171E0,1.5556768E-1,1.9434102E0,-9.094233E-1,-4.361734E-1,5.3735733E-1,1.2415814E0,-1.18172504E-1,-1.4258325E-2,-5.97788E-1,1.7234776E0,-6.751659E-2,2.6574504E0,-0E0,1.5643713E-1,3.2900956E-2,-1.3999175E-1,-4.8750542E-2,-1.0912015E-1,-5.955853E-2,3.0275304E-2,-6.310478E-2,-3.4081865E-2,6.5600045E-2,-3.3081725E-2,6.201456E-2,1.3888222E-3,5.31266E-2,1.0118597E-2,-5.1168926E-2,1.09955214E-1,4.9777184E-2,1.0943389E-1,4.8477E-2,1.14645734E-1,-0E0,-3.607982E-2,3.4259286E-2,5.4639418E-2,-0E0],"split_indices":[8,8,8,0,9,0,0,0,20,0,0,8,16,4,0,6,8,9,0,12,24,18,2,2,0,13,4,2147483647,2147483647,0,0,0,0,0,0,0,0,0,0,0,0,0,0,0,0,0,0,0,0,2147483647,2147483647,2147483647,2147483647],"split_type":[0,0,0,0,0,0,0,0,0,0,0,0,0,0,0,0,0,0,0,0,0,0,0,0,0,0,0,0,0,0,0,0,0,0,0,0,0,0,0,0,0,0,0,0,0,0,0,0,0,0,0,0,0],"sum_hessian":[3.478714E3,2.1751934E3,1.3035208E3,1.033481E3,1.1417124E3,8.8297815E2,4.2054254E2,8.1480334E2,2.186776E2,5.5311707E1,1.0864008E3,5.3147864E2,3.5149954E2,3.2353695E1,3.8818887E2,4.0896494E2,4.0583838E2,1.8734541E2,3.1332182E1,7.8439246E2,3.0200827E2,1.1861113E2,4.128675E2,3.4924976E2,2.2497802E0,2.7371038E1,4.982657E0,3.8382718E2,4.3616724E0,3.8529773E2,2.3667189E1,3.2638116E2,7.9457214E1,1.5204562E1,1.7214085E2,1.416094E1,1.7171242E1,7.557532E2,2.863923E1,1.4771742E2,1.5429083E2,7.964761E1,3.8963512E1,1.6497934E2,2.4788815E2,3.2139584E2,2.7853924E1,2.5621038E1,1.75E0,1.7436105E0,3.2390466E0,3.150097E0,1.2115757E0],"tree_param":{"num_deleted":"6","num_feature":"28","num_nodes":"53","size_leaf_vector":"0"}},{"base_weights":[1.5348893E-3,-5.441329E-1,9.189835E-1,-1.0393296E0,-2.5361213E-1,6.8361455E-1,1.412797E0,-1.1619815E0,-5.093844E-1,-1.3447202E0,-1.9340523E-1,5.0571835E-1,9.4495726E-1,8.539435E-1,1.450519E0,-1.1891477E0,-3.6693248E-1,-8.444312E-2,-9.6954477E-1,-1.4177514E0,-0E0,-4.363069E-1,3.493226E-2,-8.983841E-2,6.801846E-1,9.6372443E-1,-6.4636403E-1,9.667816E-1,-0E0,1.4595131E0,2.429426E-1,-1.4123143E0,-1.0719416E0,1.4737235E-1,-8.153716E-1,-2.9179236E-1,5.841724E-1,-1.0100493E0,1.7290397E-1,-1.4633521E0,-1.5209426E-1,3.992779E-1,-4.0657878E-1,-8.937364E-1,-3.447193E-1,-2.33464E-2,9.346393E-1,-6.508949E-1,4.6205595E-2,1.1045523E0,4.850059E-1,8.595239E-1,1.2658565E0,1.1045151E0,-0E0,2.8131536E-1,-2.8500107E-1,4.7587144E-1,-2.9695336E-2],"categories":[],"categories_nodes":[],"categories_segments":[],"categories_sizes":[],"default_left":[1,1,1,1,1,1,1,1,1,1,1,1,1,1,1,1,1,1,1,1,1,1,1,1,1,1,0,1,1,1,1,0,0,0,0,0,0,0,0,1,1,1,1,0,0,0,0,0,0,0,0,0,0,0,0,1,1,1,1],"id":3,"left_children":[1,3,5,7,9,11,13,15,17,19,21,23,25,27,-1,31,33,35,37,-1,-1,43,45,47,49,51,-1,53,-1,-1,-1,-1,-1,-1,-1,-1,-1,-1,-1,-1,-1,-1,-1,-1,-1,-1,-1,-1,-1,-1,-1,-1,-1,-1,-1,-1,-1,-1,-1],"loss_changes":[1.7238953E3,3.0839203E2,1.4431934E2,4.8273987E1,8.737669E1,3.7897034E1,2.6330566E0,1.1007629E1,2.9288029E1,7.1219788E0,7.245841E1,5.590947E1,1.2624725E1,3.7205963E0,1.345398E0,9.152344E0,7.2041283E0,1.2105855E1,4.7707825E0,1.5573883E0,1.5386124E0,2.429213E1,3.610189E1,9.974891E0,3.0933151E1,5.5438232E0,0E0,3.1356983E0,7.787529E-1,0E0,9.470612E-1,0E0,0E0,0E0,0E0,0E0,0E0,0E0,0E0,0E0,0E0,0E0,0E0,0E0,0E0,0E0,0E0,0E0,0E0,0E0,0E0,0E0,0E0,0E0,0E0,0E0,0E0,0E0,0E0],"parents":[2147483647,0,0,1,1,2,2,3,3,4,4,5,5,6,6,7,7,8,8,9,9,10,10,11,11,12,12,13,13,14,14,15,15,16,16,17,17,18,18,19,19,20,20,21,21,22,22,23,23,24,24,25,25,27,27,28,28,30,30],"right_children":[2,4,6,8,10,12,14,16,18,20,22,24,26,28,-1,32,34,36,38,-1,-1,44,46,48,50,52,-1,54,-1,-1,-1,-1,-1,-1,-1,-1,-1,-1,-1,-1,-1,-1,-1,-1,-1,-1,-1,-1,-1,-1,-1,-1,-1,-1,-1,-1,-1,-1,-1],"split_conditions":[1.6197573E-1,-9.094233E-1,1.2333746E0,2.584598E-1,-1.4599229E0,1.4587206E-1,-5.942352E-1,1.9434102E0,-2.406702E-1,3.5675973E-1,-2.7209106E-3,5.191087E-1,3.5764844E0,1.009242E0,1.450519E-1,-6.0509396E-1,-8.685607E-1,9.1997385E-1,3.6938148E0,-1.4177515E-1,-0E0,-5.5229026E-1,1.2415814E0,-7.9105866E-1,-1.6523924E0,1.5829636E0,-6.46364E-2,1.42171E0,-0E0,1.4595132E-1,2.429426E-2,-1.4123143E-1,-1.0719416E-1,1.4737235E-2,-8.153716E-2,-2.9179236E-2,5.8417242E-2,-1.01004936E-1,1.7290397E-2,-1.4633521E-1,-1.5209426E-2,3.992779E-2,-4.0657878E-2,-8.937364E-2,-3.447193E-2,-2.3346401E-3,9.346393E-2,-6.508949E-2,4.6205595E-3,1.1045523E-1,4.850059E-2,8.595239E-2,1.2658565E-1,1.1045151E-1,-0E0,2.8131535E-2,-2.8500108E-2,4.7587145E-2,-2.9695337E-3],"split_indices":[8,8,8,0,9,0,0,6,2,0,0,8,16,2,0,0,0,20,0,2,4,8,12,20,3,10,0,4,4,2147483647,2147483647,0,0,0,0,0,0,0,0,2147483647,2147483647,2147483647,2147483647,0,0,0,0,0,0,0,0,0,0,0,0,2147483647,2147483647,2147483647,2147483647],"split_type":[0,0,0,0,0,0,0,0,0,0,0,0,0,0,0,0,0,0,0,0,0,0,0,0,0,0,0,0,0,0,0,0,0,0,0,0,0,0,0,0,0,0,0,0,0,0,0,0,0,0,0,0,0,0,0,0,0,0,0],"sum_hessian":[3.43676E3,2.155106E3,1.2816542E3,7.927233E2,1.3623826E3,8.741713E2,4.074829E2,6.392978E2,1.5342554E2,6.702885E1,1.2953538E3,5.2763885E2,3.465325E2,3.1925583E1,3.755573E2,6.15521E2,2.3776749E1,8.274096E1,7.068458E1,6.3543247E1,3.485598E0,6.2845776E2,6.66896E2,1.1857965E2,4.0905917E2,3.4428378E2,2.2487178E0,2.8229334E1,3.69625E0,3.7133755E2,4.219745E0,1.9759952E2,4.179215E2,1.097449E1,1.28022585E1,6.5587524E1,1.7153437E1,6.944543E1,1.2391455E0,6.0118523E1,3.4247236E0,1.9999292E0,1.4856689E0,9.8635345E1,5.298224E2,6.280262E2,3.8869812E1,2.2360474E1,9.621918E1,1.2285041E2,2.8620877E2,2.6703284E2,7.7250946E1,2.3496675E1,4.732657E0,1.2308036E0,2.4654465E0,3.0475936E0,1.1721514E0],"tree_param":{"num_deleted":"10","num_feature":"28","num_nodes":"59","size_leaf_vector":"0"}},{"base_weights":[1.4326762E-3,-4.9676365E-1,8.4697956E-1,-8.71115E-1,-1.657169E-1,6.24261E-1,1.3268839E0,-1.1088814E0,-5.6034553E-1,-1.3861116E0,-1.0315577E-1,4.5214042E-1,8.5720104E-1,7.9179436E-1,1.3638595E0,-1.3379898E0,-1.0053079E0,-3.0547553E-1,-7.479156E-1,-2.4189165E-1,2.522617E-1,8.850558E-1,2.0912254E-1,8.743285E-1,-6.19388E-1,8.990023E-1,-0E0,1.3732357E0,1.6366279E-1,-1.3481375E0,-0E0,2.7245986E-1,-1.0188047E0,-5.16207E-1,1.234677E-1,-9.549251E-1,-2.7942684E-1,-3.2249114E-1,1.5605342E-1,3.9460015E-1,-1.21603325E-1,5.787258E-1,1.446421E0,-1.9792297E-1,3.7835085E-1,7.792921E-1,1.1578492E0,9.7703564E-1,-0E0,2.8131536E-1,-2.8500107E-1,1.3755677E0,-0E0,4.125629E-1,-7.045032E-2],"categories":[],"categories_nodes":[],"categories_segments":[],"categories_sizes":[],"default_left":[1,1,1,1,1,1,1,1,1,0,1,1,1,1,1,1,1,1,1,1,1,1,1,1,0,1,1,1,1,1,1,0,0,0,0,0,0,0,0,0,0,0,0,0,0,0,0,0,0,1,1,1,1,1,1],"id":4,"left_children":[1,3,5,7,9,11,13,15,17,-1,19,21,23,25,-1,-1,31,33,35,37,39,41,43,45,-1,47,-1,-1,-1,-1,-1,-1,-1,-1,-1,-1,-1,-1,-1,-1,-1,-1,-1,-1,-1,-1,-1,-1,-1,-1,-1,-1,-1,-1,-1],"loss_changes":[1.4295421E3,2.6300977E2,1.3008917E2,7.031592E1,8.494447E1,3.2279053E1,2.4172974E0,6.9417114E0,1.9348495E1,0E0,5.3734474E1,5.171752E1,1.1046875E1,3.2523956E0,1.8787842E0,1.5018005E0,8.505829E0,1.8150171E1,2.2188004E1,2.5490227E1,1.6616405E1,2.6411362E1,2.3156868E1,5.0625916E0,0E0,2.832716E0,7.787529E-1,1.7510986E-1,8.401147E-1,0E0,0E0,0E0,0E0,0E0,0E0,0E0,0E0,0E0,0E0,0E0,0E0,0E0,0E0,0E0,0E0,0E0,0E0,0E0,0E0,0E0,0E0,0E0,0E0,0E0,0E0],"parents":[2147483647,0,0,1,1,2,2,3,3,4,4,5,5,6,6,7,7,8,8,10,10,11,11,12,12,13,13,14,14,15,15,16,16,17,17,18,18,19,19,20,20,21,21,22,22,23,23,25,25,26,26,27,27,28,28],"right_children":[2,4,6,8,10,12,14,16,18,-1,20,22,24,26,-1,-1,32,34,36,38,40,42,44,46,-1,48,-1,-1,-1,-1,-1,-1,-1,-1,-1,-1,-1,-1,-1,-1,-1,-1,-1,-1,-1,-1,-1,-1,-1,-1,-1,-1,-1,-1,-1],"split_conditions":[1.6197573E-1,-5.5229026E-1,1.2333746E0,-4.1583683E-2,-1.7158602E0,1.1386741E-1,-5.942352E-1,-1.2665563E0,-2.406702E-1,-1.3861117E-1,2.43029E-1,-5.97788E-1,3.5764844E0,1.009242E0,1.3638596E-1,-1.3379899E-1,-1.358346E0,1.6749177E-2,-9.094233E-1,1.215313E0,1.974273E-1,2.9355123E0,5.191087E-1,1.5829636E0,-6.19388E-2,2.6574504E0,-0E0,1.3732357E-1,1.6366279E-2,-1.3481376E-1,-0E0,2.7245987E-2,-1.0188047E-1,-5.16207E-2,1.234677E-2,-9.549251E-2,-2.7942685E-2,-3.2249115E-2,1.5605343E-2,3.9460015E-2,-1.2160333E-2,5.7872582E-2,1.446421E-1,-1.9792298E-2,3.7835088E-2,7.792921E-2,1.1578492E-1,9.770357E-2,-0E0,2.8131535E-2,-2.8500108E-2,1.3755678E-1,-0E0,4.125629E-2,-7.045032E-3],"split_indices":[8,8,8,0,9,0,0,8,2,0,0,2,16,2,0,27,0,24,8,20,4,17,8,10,0,13,4,2147483647,2147483647,2147483647,2147483647,0,0,0,0,0,0,0,0,0,0,0,0,0,0,0,0,0,0,2147483647,2147483647,2147483647,2147483647,2147483647,2147483647],"split_type":[0,0,0,0,0,0,0,0,0,0,0,0,0,0,0,0,0,0,0,0,0,0,0,0,0,0,0,0,0,0,0,0,0,0,0,0,0,0,0,0,0,0,0,0,0,0,0,0,0,0,0,0,0,0,0],"sum_hessian":[3.386757E3,2.1311426E3,1.2556146E3,9.96441E2,1.1347015E3,8.637455E2,3.918691E2,5.583393E2,4.3810168E2,5.1457397E1,1.0832441E3,5.0426068E2,3.594848E2,3.1422884E1,3.6044623E2,1.5968976E2,3.9864954E2,1.913342E2,2.467675E2,7.8183105E2,3.0141302E2,1.7696756E2,3.2729312E2,3.572419E2,2.2429101E0,2.7726633E1,3.69625E0,3.5639627E2,4.0499573E0,1.580761E2,1.613657E0,2.7907531E0,3.958588E2,1.2945598E2,6.1878212E1,1.6750375E2,7.926375E1,6.527128E2,1.2911823E2,2.2011781E2,8.129522E1,1.1958544E2,5.738212E1,9.422808E1,2.3306505E2,2.786209E2,7.8620995E1,2.598196E1,1.7446735E0,1.2308036E0,2.4654465E0,3.5527127E2,1.1249882E0,2.9249692E0,1.1249882E0],"tree_param":{"num_deleted":"10","num_feature":"28","num_nodes":"55","size_leaf_vector":"0"}},{"base_weights":[1.4549922E-3,-4.5404816E-1,7.831503E-1,-8.9075637E-1,-2.0763801E-1,5.715284E-1,1.2534565E0,-1.006042E0,-4.1016892E-1,-1.1889297E0,-1.56892E-1,2.501364E-1,6.7868614E-1,7.309205E-1,1.2907373E0,-1.0333576E0,-2.4703585E-1,-4.679128E-2,-8.1510764E-1,-1.2738324E0,-0E0,-3.464992E-1,5.0184052E-2,-1.3577014E-1,6.1287403E-1,8.2011384E-1,4.8149243E-1,8.5710955E-1,-0E0,1.3005704E0,8.9455724E-2,-1.2548985E0,-9.200215E-1,2.1839544E-1,-6.8356544E-1,-2.3752874E-1,5.5732626E-1,-8.674114E-1,7.007545E-2,-1.3247732E0,-4.228009E-2,5.0790846E-1,-5.5479527E-1,-3.7289506E-1,8.4012717E-1,-4.334742E-3,8.6399585E-1,2.2934107E-1,-3.9898285E-1,6.605019E-1,-0E0,7.1027E-1,1.3101469E0,-0E0,6.755012E-1,9.376708E-1,-0E0,-3.97782E-1,2.971324E-1,1.3030162E0,-0E0,3.548397E-1,-1.0816743E-1],"categories":[],"categories_nodes":[],"categories_segments":[],"categories_sizes":[],"default_left":[1,1,1,1,1,1,1,1,1,1,1,1,1,1,1,1,1,1,1,1,1,1,1,1,1,1,1,1,1,1,1,0,0,0,0,0,0,0,0,0,0,0,0,0,0,0,0,0,0,0,0,0,0,0,0,0,0,1,1,1,1,1,1],"id":5,"left_children":[1,3,5,7,9,11,13,15,17,19,21,23,25,27,29,31,33,35,37,39,41,43,45,47,49,51,53,55,-1,-1,-1,-1,-1,-1,-1,-1,-1,-1,-1,-1,-1,-1,-1,-1,-1,-1,-1,-1,-1,-1,-1,-1,-1,-1,-1,-1,-1,-1,-1,-1,-1,-1,-1],"loss_changes":[1.1889097E3,2.252196E2,1.1842493E2,3.9349243E1,6.547859E1,2.8012665E1,2.505188E0,1.055304E1,2.1598593E1,6.1954117E0,5.1039963E1,3.1650425E1,1.5285278E1,3.1522007E0,2.357544E0,9.034241E0,6.261559E0,9.911252E0,4.2703743E0,2.262947E0,2.9929962E0,2.167337E1,2.8255196E1,1.083826E1,3.718361E0,1.47739105E1,2.5277122E1,2.646124E0,1.296966E0,3.6193848E-1,7.2175735E-1,0E0,0E0,0E0,0E0,0E0,0E0,0E0,0E0,0E0,0E0,0E0,0E0,0E0,0E0,0E0,0E0,0E0,0E0,0E0,0E0,0E0,0E0,0E0,0E0,0E0,0E0,0E0,0E0,0E0,0E0,0E0,0E0],"parents":[2147483647,0,0,1,1,2,2,3,3,4,4,5,5,6,6,7,7,8,8,9,9,10,10,11,11,12,12,13,13,14,14,15,15,16,16,17,17,18,18,19,19,20,20,21,21,22,22,23,23,24,24,25,25,26,26,27,27,28,28,29,29,30,30],"right_children":[2,4,6,8,10,12,14,16,18,20,22,24,26,28,30,32,34,36,38,40,42,44,46,48,50,52,54,56,-1,-1,-1,-1,-1,-1,-1,-1,-1,-1,-1,-1,-1,-1,-1,-1,-1,-1,-1,-1,-1,-1,-1,-1,-1,-1,-1,-1,-1,-1,-1,-1,-1,-1,-1],"split_conditions":[1.6197573E-1,-9.094233E-1,1.2333746E0,2.584598E-1,-1.4599229E0,5.191087E-1,-5.942352E-1,1.9434102E0,-2.406702E-1,3.4304348E-1,3.156977E-2,3.2712795E-2,-2.406702E-1,1.42171E0,3.217174E0,-6.0509396E-1,-8.685607E-1,9.1997385E-1,2.8416913E0,1.009242E0,-3.405151E-1,2.070951E0,1.2415814E0,-5.0746274E-1,1.2011929E0,2.9355123E0,-2.4961382E-1,2.6574504E0,-0E0,1.3005704E-1,8.945572E-3,-1.2548986E-1,-9.2002146E-2,2.1839544E-2,-6.8356544E-2,-2.3752874E-2,5.5732626E-2,-8.674114E-2,7.0075453E-3,-1.3247733E-1,-4.228009E-3,5.0790846E-2,-5.5479527E-2,-3.7289508E-2,8.401272E-2,-4.3347423E-4,8.6399585E-2,2.2934107E-2,-3.9898288E-2,6.6050194E-2,-0E0,7.1027E-2,1.3101469E-1,-0E0,6.755012E-2,9.3767084E-2,-0E0,-3.97782E-2,2.9713241E-2,1.3030162E-1,-0E0,3.548397E-2,-1.0816744E-2],"split_indices":[8,8,8,0,9,8,0,6,2,0,0,0,2,4,0,0,0,20,0,2,4,4,12,4,25,17,0,13,4,26,2,0,0,0,0,0,0,0,0,0,0,0,0,0,0,0,0,0,0,0,0,0,0,0,0,0,0,2147483647,2147483647,2147483647,2147483647,2147483647,2147483647],"split_type":[0,0,0,0,0,0,0,0,0,0,0,0,0,0,0,0,0,0,0,0,0,0,0,0,0,0,0,0,0,0,0,0,0,0,0,0,0,0,0,0,0,0,0,0,0,0,0,0,0,0,0,0,0,0,0,0,0,0,0,0,0,0,0],"sum_hessian":[3.332107E3,2.105301E3,1.2268058E3,7.551174E2,1.3501838E3,8.521423E2,3.7466348E2,6.0469855E2,1.504188E2,6.2111977E1,1.2880718E3,2.1791061E2,6.342317E2,3.0853613E1,3.4380988E2,5.813738E2,2.3324787E1,8.234314E1,6.807565E1,5.75397E1,4.572279E0,6.73864E2,6.142078E2,1.0515715E2,1.1275347E2,3.608683E2,2.733634E2,2.5909962E1,4.943652E0,3.3994684E2,3.8630323E0,1.8354788E2,3.9782587E2,1.0905531E1,1.2419256E1,6.522536E1,1.7117783E1,6.540117E1,2.6744864E0,5.4256424E1,3.283275E0,2.2407105E0,2.3315682E0,6.620373E2,1.1826686E1,5.7728937E2,3.6918476E1,4.2621826E1,6.253532E1,1.0518494E2,7.5685334E0,3.0245923E2,5.8409058E1,8.055484E1,1.9280855E2,2.4165287E1,1.7446735E0,1.7292402E0,3.2144117E0,3.3887378E2,1.0730646E0,2.7899678E0,1.0730646E0],"tree_param":{"num_deleted":"6","num_feature":"28","num_nodes":"63","size_leaf_vector":"0"}},{"base_weights":[1.6893343E-3,-4.1526887E-1,7.2569966E-1,-7.4997836E-1,-1.300641E-1,5.2381796E-1,1.190135E0,-9.727505E-1,-4.6944213E-1,-1.2562634E0,-7.718949E-2,3.7617058E-1,7.456534E-1,6.7738396E-1,1.2279801E0,-1.0776732E0,-7.6641184E-1,-2.4544533E-1,-6.3720286E-1,-1.942847E-1,2.2155531E-1,7.474395E-1,1.7967518E-1,7.636921E-1,-6.2170726E-1,7.84234E-1,-0E0,1.2376505E0,8.458979E-2,-1.9528483E-1,-1.0923026E0,-8.225141E-1,1.0487253E-1,-4.3928322E-1,1.426107E-1,-8.1570554E-1,-2.4762134E-1,-3.3666193E-1,6.1624246E-3,4.2584926E-2,5.3522354E-1,4.6732804E-1,1.2963854E0,-1.543699E-1,3.1818944E-1,8.0575037E-1,2.2341165E-1,9.134595E-1,-0E0,2.552302E-1,-3.2456288E-1,1.2402288E0,-0E0,3.511078E-1,-1.10618606E-1],"categories":[],"categories_nodes":[],"categories_segments":[],"categories_sizes":[],"default_left":[1,1,1,1,1,1,1,1,1,0,1,1,1,1,1,1,1,1,1,1,1,1,1,1,0,1,1,1,1,0,0,0,0,0,0,0,0,0,0,0,0,0,0,0,0,0,0,0,0,1,1,1,1,1,1],"id":6,"left_children":[1,3,5,7,9,11,13,15,17,-1,19,21,23,25,27,29,31,33,35,37,39,41,43,45,-1,47,-1,-1,-1,-1,-1,-1,-1,-1,-1,-1,-1,-1,-1,-1,-1,-1,-1,-1,-1,-1,-1,-1,-1,-1,-1,-1,-1,-1,-1],"loss_changes":[9.9065216E2,1.974654E2,1.08903625E2,5.687683E1,6.55894E1,2.5650879E1,2.5780334E0,7.099701E0,1.4826271E1,0E0,3.7957962E1,3.623687E1,9.734161E0,2.944847E0,2.00589E0,2.4502563E0,1.0334045E1,1.49112835E1,1.5140907E1,2.2638592E1,1.6403988E1,2.340564E1,1.6156013E1,5.9044647E0,0E0,2.572443E0,8.4705114E-1,5.1382446E-1,7.1338755E-1,0E0,0E0,0E0,0E0,0E0,0E0,0E0,0E0,0E0,0E0,0E0,0E0,0E0,0E0,0E0,0E0,0E0,0E0,0E0,0E0,0E0,0E0,0E0,0E0,0E0,0E0],"parents":[2147483647,0,0,1,1,2,2,3,3,4,4,5,5,6,6,7,7,8,8,10,10,11,11,12,12,13,13,14,14,15,15,16,16,17,17,18,18,19,19,20,20,21,21,22,22,23,23,25,25,26,26,27,27,28,28],"right_children":[2,4,6,8,10,12,14,16,18,-1,20,22,24,26,28,30,32,34,36,38,40,42,44,46,-1,48,-1,-1,-1,-1,-1,-1,-1,-1,-1,-1,-1,-1,-1,-1,-1,-1,-1,-1,-1,-1,-1,-1,-1,-1,-1,-1,-1,-1,-1],"split_conditions":[1.6197573E-1,-5.5229026E-1,1.2333746E0,-4.1583683E-2,-1.7158602E0,1.4587206E-1,-5.942352E-1,3.3594233E-1,-2.406702E-1,-1.2562634E-1,2.43029E-1,-5.97788E-1,3.5764844E0,1.009242E0,3.217174E0,-2.2478087E0,1.9434102E0,1.6749177E-2,-9.094233E-1,3.004779E-1,4.348579E-1,2.9355123E0,5.191087E-1,1.7234776E0,-6.2170725E-2,1.42171E0,-0E0,1.2376505E-1,8.4589785E-3,-1.9528484E-2,-1.0923026E-1,-8.2251415E-2,1.0487254E-2,-4.392832E-2,1.426107E-2,-8.157056E-2,-2.4762135E-2,-3.3666193E-2,6.1624247E-4,4.2584925E-3,5.3522356E-2,4.6732806E-2,1.2963854E-1,-1.5436991E-2,3.1818945E-2,8.057504E-2,2.2341166E-2,9.134595E-2,-0E0,2.552302E-2,-3.245629E-2,1.2402288E-1,-0E0,3.5110783E-2,-1.1061861E-2],"split_indices":[8,8,8,0,9,0,0,3,2,0,0,2,16,2,0,18,6,24,8,1,19,17,8,2,0,4,4,26,2,0,0,0,0,0,0,0,0,0,0,0,0,0,0,0,0,0,0,0,0,2147483647,2147483647,2147483647,2147483647,2147483647,2147483647],"split_type":[0,0,0,0,0,0,0,0,0,0,0,0,0,0,0,0,0,0,0,0,0,0,0,0,0,0,0,0,0,0,0,0,0,0,0,0,0,0,0,0,0,0,0,0,0,0,0,0,0,0,0,0,0,0,0],"sum_hessian":[3.274564E3,2.077835E3,1.196729E3,9.520899E2,1.1257451E3,8.400926E2,3.5663638E2,5.2456726E2,4.2752264E2,4.6573135E1,1.079172E3,5.119489E2,3.2814365E2,3.0226591E1,3.264098E2,3.3613068E2,1.8843657E2,1.8879312E2,2.3872954E2,7.784494E2,3.0072263E2,1.7250604E2,3.3944287E2,3.2590005E2,2.2435992E0,2.657749E1,3.6491027E0,3.225598E2,3.8499868E0,7.298778E0,3.288319E2,1.7827315E2,1.016341E1,1.2735762E2,6.1435497E1,1.5970563E2,7.902391E1,4.5687918E2,3.2157022E2,1.9567262E2,1.0505E2,1.19105515E2,5.340052E1,9.727904E1,2.4216383E2,2.9927774E2,2.6622309E1,2.1883837E1,4.693652E0,1.2139653E0,2.4351375E0,3.2154163E2,1.0181812E0,2.780546E0,1.0694407E0],"tree_param":{"num_deleted":"6","num_feature":"28","num_nodes":"55","size_leaf_vector":"0"}},{"base_weights":[1.7275583E-3,-4.575626E-1,5.6125295E-1,-7.719186E-1,-2.4190669E-1,3.8340792E-1,1.134378E0,-8.823778E-1,-3.3027962E-1,-1.071779E0,-1.9069932E-1,1.4223634E-1,5.7606244E-1,6.301362E-1,1.1729722E0,-1.2983106E0,-8.1846803E-1,-1.8123256E-2,-6.9059795E-1,-1.1589838E0,-0E0,-5.1531076E-1,-8.024431E-2,-8.902264E-3,3.948259E-1,7.0555866E-1,3.9918566E-1,7.333758E-1,-0E0,1.1825682E0,7.998823E-2,-8.989119E-1,-5.184905E-1,-7.4508035E-1,1.0498439E-1,-7.428776E-1,1.0565752E-1,-1.211134E0,-3.7084767E-3,5.0037426E-1,-5.008453E-1,-7.1706134E-1,-1.4511491E-1,-1.2191782E-1,7.4210197E-1,-6.604176E-2,5.2688015E-1,1.2713222E-1,6.1684555E-1,6.056152E-1,1.1759043E0,-5.2025515E-1,4.896018E-1,8.1137717E-1,-0E0,2.552302E-1,-3.2456288E-1,1.1851918E0,-0E0,3.4758472E-1,-1.1293369E-1],"categories":[],"categories_nodes":[],"categories_segments":[],"categories_sizes":[],"default_left":[1,1,1,1,1,1,1,1,1,1,1,1,1,1,1,0,1,1,1,1,1,1,1,1,1,1,1,1,1,1,1,0,0,0,0,0,0,0,0,0,0,0,0,0,0,0,0,0,0,0,0,0,0,0,0,1,1,1,1,1,1],"id":7,"left_children":[1,3,5,7,9,11,13,15,17,19,21,23,25,27,-1,-1,31,33,35,37,39,41,43,45,47,49,51,53,-1,-1,-1,-1,-1,-1,-1,-1,-1,-1,-1,-1,-1,-1,-1,-1,-1,-1,-1,-1,-1,-1,-1,-1,-1,-1,-1,-1,-1,-1,-1,-1,-1],"loss_changes":[8.2801276E2,1.18305084E2,1.4531003E2,3.2854095E1,4.295996E1,5.0842056E1,2.621643E0,9.829742E0,1.611472E1,5.561241E0,3.5082653E1,1.9539526E1,1.2172531E1,2.625143E0,1.7231445E0,0E0,9.339722E0,8.471901E0,3.704136E0,2.088501E0,2.6268718E0,1.7546455E1,2.5383755E1,9.261972E0,1.0328615E1,1.2477631E1,2.3243858E1,2.3468523E0,8.4705114E-1,2.9037476E-1,7.054042E-1,0E0,0E0,0E0,0E0,0E0,0E0,0E0,0E0,0E0,0E0,0E0,0E0,0E0,0E0,0E0,0E0,0E0,0E0,0E0,0E0,0E0,0E0,0E0,0E0,0E0,0E0,0E0,0E0,0E0,0E0],"parents":[2147483647,0,0,1,1,2,2,3,3,4,4,5,5,6,6,7,7,8,8,9,9,10,10,11,11,12,12,13,13,14,14,16,16,17,17,18,18,19,19,20,20,21,21,22,22,23,23,24,24,25,25,26,26,27,27,28,28,29,29,30,30],"right_children":[2,4,6,8,10,12,14,16,18,20,22,24,26,28,-1,-1,32,34,36,38,40,42,44,46,48,50,52,54,-1,-1,-1,-1,-1,-1,-1,-1,-1,-1,-1,-1,-1,-1,-1,-1,-1,-1,-1,-1,-1,-1,-1,-1,-1,-1,-1,-1,-1,-1,-1,-1,-1],"split_conditions":[-1.9515727E-1,-9.094233E-1,1.2333746E0,2.584598E-1,-1.4599229E0,5.191087E-1,-5.942352E-1,-1.6236892E0,-2.406702E-1,3.4304348E-1,-4.8621953E-1,2.43029E-1,-2.406702E-1,1.009242E0,1.17297225E-1,-1.2983106E-1,9.730369E-2,-1.8765249E0,2.8416913E0,1.009242E0,-3.405151E-1,5.9108853E-1,1.2415814E0,1.1667573E0,-2.1936376E-1,2.9355123E0,2.9500648E-1,2.6574504E0,-0E0,1.1825682E-1,7.998823E-3,-8.989119E-2,-5.184905E-2,-7.450803E-2,1.0498439E-2,-7.4287765E-2,1.0565752E-2,-1.211134E-1,-3.7084767E-4,5.0037425E-2,-5.008453E-2,-7.170614E-2,-1.4511491E-2,-1.2191783E-2,7.42102E-2,-6.604176E-3,5.2688014E-2,1.2713223E-2,6.1684556E-2,6.056152E-2,1.1759043E-1,-5.2025516E-2,4.896018E-2,8.113772E-2,-0E0,2.552302E-2,-3.245629E-2,1.1851918E-1,-0E0,3.4758475E-2,-1.1293369E-2],"split_indices":[8,8,8,0,9,8,0,8,2,0,0,0,2,2,0,0,19,7,0,2,4,1,12,27,24,17,2,13,4,2147483647,2147483647,0,0,0,0,0,0,0,0,0,0,0,0,0,0,0,0,0,0,0,0,0,0,0,0,2147483647,2147483647,2147483647,2147483647,2147483647,2147483647],"split_type":[0,0,0,0,0,0,0,0,0,0,0,0,0,0,0,0,0,0,0,0,0,0,0,0,0,0,0,0,0,0,0,0,0,0,0,0,0,0,0,0,0,0,0,0,0,0,0,0,0,0,0,0,0,0,0,0,0,0,0,0,0],"sum_hessian":[3.215632E3,1.7653182E3,1.4503138E3,7.132529E2,1.0520653E3,1.1120027E3,3.3831113E2,5.6634503E2,1.4690788E2,5.653493E1,9.9553046E2,4.9844177E2,6.135609E2,2.9590952E1,3.0872018E2,6.562941E1,5.0071564E2,8.188996E1,6.5017914E1,5.205303E1,4.481903E0,2.4765587E2,7.478746E2,3.111803E2,1.8726146E2,3.457833E2,2.6777765E2,2.594185E1,3.6491027E0,3.048826E2,3.837571E0,3.8748248E2,1.1323314E2,1.0840776E1,7.104918E1,6.2379276E1,2.6386425E0,4.8837803E1,3.2152276E0,2.2407012E0,2.2412016E0,1.5672896E2,9.092691E1,7.1539233E2,3.2482212E1,2.8525537E2,2.5924938E1,8.907901E1,9.818245E1,2.9259818E2,5.3185097E1,2.1707928E1,2.4606973E2,2.4209545E1,1.7323042E0,1.2139653E0,2.4351375E0,3.0372775E2,1.1548584E0,2.771579E0,1.0659919E0],"tree_param":{"num_deleted":"8","num_feature":"28","num_nodes":"61","size_leaf_vector":"0"}},{"base_weights":[1.5123901E-3,-3.4865293E-1,6.252311E-1,-6.482226E-1,-1.0350766E-1,4.4086793E-1,1.0835562E0,-8.608005E-1,-3.9144555E-1,-1.1585107E0,-5.878494E-2,3.032673E-1,6.506429E-1,5.702099E-1,1.12231E0,-1.0982887E0,-7.5914806E-1,2.319139E-2,-4.5838836E-1,-1.2658101E-1,3.5616663E-1,8.010497E-1,1.8006705E-1,6.6802835E-1,-5.84453E-1,7.332599E-1,-0E0,1.1325849E0,1.6098822E-2,-0E0,-1.1201503E0,-9.2251205E-1,-5.4064316E-1,-1.5798056E-1,6.679636E-1,-2.3660605E-1,-6.306605E-1,-1.6588992E-1,6.823062E-1,9.117436E-1,1.681537E-1,-1.8026259E-2,9.42836E-1,-3.0845752E-1,2.824948E-1,5.697601E-1,9.649253E-1,8.5433275E-1,-0E0,-2.8287295E-1,2.2498201E-1,1.1353499E0,-0E0,2.9927927E-1,-1.4475004E-1],"categories":[],"categories_nodes":[],"categories_segments":[],"categories_sizes":[],"default_left":[1,1,1,1,1,1,1,1,1,0,1,1,1,1,1,1,1,1,1,1,1,1,1,1,0,1,1,1,1,0,0,0,0,0,0,0,0,0,0,0,0,0,0,0,0,0,0,0,0,1,1,1,1,1,1],"id":8,"left_children":[1,3,5,7,9,11,13,15,17,-1,19,21,23,25,27,29,31,33,35,37,39,41,43,45,-1,47,-1,-1,-1,-1,-1,-1,-1,-1,-1,-1,-1,-1,-1,-1,-1,-1,-1,-1,-1,-1,-1,-1,-1,-1,-1,-1,-1,-1,-1],"loss_changes":[6.913833E2,1.4780069E2,9.3267395E1,4.736499E1,5.1393646E1,2.208664E1,2.8146057E0,7.5373535E0,1.2108826E1,0E0,3.0230015E1,2.9428143E1,8.100586E0,3.0783978E0,2.1550598E0,2.3428955E0,9.810181E0,7.7280583E0,1.2567024E1,2.9420269E1,1.4138647E1,1.2275047E1,2.0681974E1,6.0524445E0,0E0,2.5352945E0,8.0544007E-1,4.2636108E-1,5.8776325E-1,0E0,0E0,0E0,0E0,0E0,0E0,0E0,0E0,0E0,0E0,0E0,0E0,0E0,0E0,0E0,0E0,0E0,0E0,0E0,0E0,0E0,0E0,0E0,0E0,0E0,0E0],"parents":[2147483647,0,0,1,1,2,2,3,3,4,4,5,5,6,6,7,7,8,8,10,10,11,11,12,12,13,13,14,14,15,15,16,16,17,17,18,18,19,19,20,20,21,21,22,22,23,23,25,25,26,26,27,27,28,28],"right_children":[2,4,6,8,10,12,14,16,18,-1,20,22,24,26,28,30,32,34,36,38,40,42,44,46,-1,48,-1,-1,-1,-1,-1,-1,-1,-1,-1,-1,-1,-1,-1,-1,-1,-1,-1,-1,-1,-1,-1,-1,-1,-1,-1,-1,-1,-1,-1],"split_conditions":[1.6197573E-1,-5.5229026E-1,1.2333746E0,-4.1583683E-2,-1.7158602E0,1.4587206E-1,-6.239538E-1,-1.2665563E0,-4.361734E-1,-1.1585107E-1,1.3964683E0,-1.7944162E0,3.5764844E0,1.0878148E0,3.217174E0,-1.4905825E0,-7.2235763E-1,9.251138E-1,-2.406702E-1,1.2415814E0,-7.671591E-1,-4.332638E-1,-8.5427284E-1,1.5829636E0,-5.84453E-2,1.9391842E-1,-0E0,1.13258496E-1,1.6098822E-3,-0E0,-1.1201503E-1,-9.2251204E-2,-5.4064315E-2,-1.5798056E-2,6.679636E-2,-2.3660606E-2,-6.306605E-2,-1.6588992E-2,6.823062E-2,9.117436E-2,1.681537E-2,-1.802626E-3,9.42836E-2,-3.0845752E-2,2.8249482E-2,5.697601E-2,9.649253E-2,8.5433275E-2,-0E0,-2.8287295E-2,2.2498202E-2,1.1353499E-1,-0E0,2.9927928E-2,-1.4475005E-2],"split_indices":[8,8,8,0,9,0,0,8,9,0,20,3,16,4,0,2,26,22,2,12,4,4,0,10,0,3,3,26,2,0,0,0,0,0,0,0,0,0,0,0,0,0,0,0,0,0,0,0,0,2147483647,2147483647,2147483647,2147483647,2147483647,2147483647],"split_type":[0,0,0,0,0,0,0,0,0,0,0,0,0,0,0,0,0,0,0,0,0,0,0,0,0,0,0,0,0,0,0,0,0,0,0,0,0,0,0,0,0,0,0,0,0,0,0,0,0,0,0,0,0,0,0],"sum_hessian":[3.1583462E3,2.0225662E3,1.1357802E3,9.061864E2,1.1163798E3,8.157207E2,3.2005942E2,4.897696E2,4.1641678E2,4.1452316E1,1.0749275E3,4.9991107E2,3.1580963E2,2.7586382E1,2.9247305E2,1.3503656E2,3.5473303E2,5.608077E1,3.6033603E2,9.278304E2,1.4709705E2,9.429512E1,4.0561597E2,3.135826E2,2.227015E0,2.1221607E1,6.3647747E0,2.888149E2,3.6581118E0,3.468205E0,1.3156836E2,1.9482834E2,1.599047E2,4.433677E1,1.17439995E1,1.6318175E2,1.9715428E2,8.882841E2,3.9546288E1,3.292804E1,1.14169E2,1.3260003E1,8.103512E1,6.756594E1,3.3805002E2,2.4471205E2,6.8870575E1,1.8316425E1,2.9051812E0,3.1078997E0,3.256875E0,2.8772607E2,1.0888416E0,2.6419697E0,1.0161421E0],"tree_param":{"num_deleted":"6","num_feature":"28","num_nodes":"55","size_leaf_vector":"0"}},{"base_weights":[1.5283192E-3,-3.878474E-1,4.815811E-1,-6.7217946E-1,-2.0152651E-1,3.237686E-1,1.0376614E0,-7.7828944E-1,-2.672143E-1,-9.813235E-1,-1.5745445E-1,1.1993805E-1,4.9054775E-1,5.3963196E-1,1.0791489E0,-8.0787283E-1,-4.398084E-2,-0E0,-5.9284824E-1,-1.0702885E0,-0E0,-4.5298782E-1,-5.7840444E-2,-5.1494077E-2,2.9576474E-1,6.128265E-1,3.2687137E-1,6.8062073E-1,-0E0,1.089554E0,1.5220314E-2,-1.0455028E0,-6.9447255E-1,3.3290106E-1,-5.397809E-1,-1.7228414E-1,5.4857594E-1,-2.496925E-1,-8.591446E-1,-1.1238288E0,-0E0,4.7800672E-1,-4.6602836E-1,-5.426881E-1,2.2985052E-1,-9.273886E-2,6.376236E-1,-2.7676675E-1,1.1524863E-1,6.486156E-1,1.8343371E-1,5.1321185E-1,1.1008459E0,-5.5288357E-1,4.040034E-1,7.731007E-1,-0E0,-2.3369455E-1,2.5567335E-1,1.0925137E0,-0E0,2.9862297E-1,-1.4518288E-1],"categories":[],"categories_nodes":[],"categories_segments":[],"categories_sizes":[],"default_left":[1,1,1,1,1,1,1,1,1,1,1,1,1,1,1,1,1,1,1,1,1,1,1,1,1,1,1,1,1,1,1,0,0,0,0,0,0,0,0,1,1,0,0,0,0,0,0,0,0,0,0,0,0,0,0,0,0,1,1,1,1,1,1],"id":9,"left_children":[1,3,5,7,9,11,13,15,17,19,21,23,25,27,-1,31,33,35,37,-1,41,43,45,47,49,51,53,55,-1,-1,-1,-1,-1,-1,-1,-1,-1,-1,-1,-1,-1,-1,-1,-1,-1,-1,-1,-1,-1,-1,-1,-1,-1,-1,-1,-1,-1,-1,-1,-1,-1,-1,-1],"loss_changes":[5.8119806E2,8.959592E1,1.1991409E2,2.7364838E1,3.4232864E1,3.6306976E1,2.9417114E0,1.0595459E1,1.2400288E1,4.824589E0,2.8606102E1,1.5292091E1,1.0396988E1,2.3304024E0,1.9113159E0,9.819122E0,5.43225E0,8.051354E0,4.1971188E0,1.8181877E0,2.3160105E0,1.5818211E1,1.7779259E1,9.710937E0,8.681597E0,1.2951324E1,1.8502155E1,2.2962132E0,7.548229E-1,5.4293823E-1,5.8605814E-1,0E0,0E0,0E0,0E0,0E0,0E0,0E0,0E0,0E0,0E0,0E0,0E0,0E0,0E0,0E0,0E0,0E0,0E0,0E0,0E0,0E0,0E0,0E0,0E0,0E0,0E0,0E0,0E0,0E0,0E0,0E0,0E0],"parents":[2147483647,0,0,1,1,2,2,3,3,4,4,5,5,6,6,7,7,8,8,9,9,10,10,11,11,12,12,13,13,14,14,15,15,16,16,17,17,18,18,19,19,20,20,21,21,22,22,23,23,24,24,25,25,26,26,27,27,28,28,29,29,30,30],"right_children":[2,4,6,8,10,12,14,16,18,20,22,24,26,28,-1,32,34,36,38,-1,42,44,46,48,50,52,54,56,-1,-1,-1,-1,-1,-1,-1,-1,-1,-1,-1,-1,-1,-1,-1,-1,-1,-1,-1,-1,-1,-1,-1,-1,-1,-1,-1,-1,-1,-1,-1,-1,-1,-1,-1],"split_conditions":[-1.9515727E-1,-9.094233E-1,1.2333746E0,2.584598E-1,-1.4599229E0,5.191087E-1,-5.942352E-1,1.9434102E0,-2.406702E-1,3.4304348E-1,-4.8621953E-1,9.443603E-2,-2.406702E-1,1.0878148E0,1.0791489E-1,-6.0509396E-1,-8.2455426E-1,9.1997385E-1,1.6032782E-1,-1.0702886E-1,-3.405151E-1,1.5221384E0,1.2415814E0,1.446392E-1,-8.6886966E-1,2.9355123E0,-9.011368E-1,2.6574504E0,-0E0,1.089554E-1,1.5220315E-3,-1.0455028E-1,-6.944726E-2,3.3290107E-2,-5.3978093E-2,-1.7228415E-2,5.4857593E-2,-2.496925E-2,-8.591446E-2,-1.1238288E-1,-0E0,4.780067E-2,-4.6602838E-2,-5.4268807E-2,2.2985052E-2,-9.273886E-3,6.376236E-2,-2.7676675E-2,1.1524863E-2,6.486156E-2,1.8343372E-2,5.1321186E-2,1.1008459E-1,-5.5288356E-2,4.040034E-2,7.731007E-2,-0E0,-2.3369456E-2,2.5567336E-2,1.0925137E-1,-0E0,2.9862298E-2,-1.4518288E-2],"split_indices":[8,8,8,0,9,8,0,6,2,0,0,0,2,4,0,0,0,20,4,2,4,20,12,27,22,17,0,13,4,2147483647,2147483647,0,0,0,0,0,0,0,0,2147483647,2147483647,0,0,0,0,0,0,0,0,0,0,0,0,0,0,0,0,2147483647,2147483647,2147483647,2147483647,2147483647,2147483647],"split_type":[0,0,0,0,0,0,0,0,0,0,0,0,0,0,0,0,0,0,0,0,0,0,0,0,0,0,0,0,0,0,0,0,0,0,0,0,0,0,0,0,0,0,0,0,0,0,0,0,0,0,0,0,0,0,0,0,0,0,0,0,0,0,0],"sum_hessian":[3.102827E3,1.7123861E3,1.3904409E3,6.726735E2,1.0397126E3,1.0881694E3,3.0227145E2,5.288642E2,1.4380931E2,5.0991756E1,9.887209E2,4.947095E2,5.934599E2,2.8328732E1,2.7394272E2,5.0678476E2,2.2079409E1,8.170264E1,6.2106678E1,4.6600662E1,4.391096E0,2.4403633E2,7.446846E2,2.4867944E2,2.4603006E2,3.3147827E2,2.6198163E2,2.1724325E1,6.6044054E0,2.7028717E2,3.655563E0,1.5290202E2,3.5388275E2,1.1958158E1,1.012125E1,6.4617455E1,1.7085182E1,3.1317883E1,3.0788795E1,4.342678E1,3.173881E0,2.239406E0,2.15169E0,2.175397E2,2.6496628E1,7.129467E2,3.173785E1,1.0748408E2,1.4119537E2,5.380251E1,1.9222754E2,2.820999E2,4.9378357E1,1.8581009E1,2.4340063E2,2.0004812E1,1.7195128E0,3.4256682E0,3.1787372E0,2.6926334E2,1.023815E0,2.6401289E0,1.0154341E0],"tree_param":{"num_deleted":"10","num_feature":"28","num_nodes":"63","size_leaf_vector":"0"}},{"base_weights":[1.4918599E-3,-2.5030378E-1,6.3328636E-1,-5.610272E-1,-4.5413584E-2,4.5064917E-1,9.949623E-1,-7.6509947E-1,-3.2583037E-1,-1.082038E0,-1.2534969E-2,5.669744E-1,2.9676268E-1,5.0104654E-1,1.0379065E0,-1.173533E0,-6.9884276E-1,-4.3124327E-1,-7.332523E-2,-1.2509236E-1,2.4745509E-1,4.7102442E-1,1.0533233E0,-5.0999165E-1,3.7969175E-1,6.0886514E-1,-2.2328163E-2,1.0491827E0,-0E0,-1.1893023E0,-0E0,-7.8120625E-1,-3.765628E-1,-5.5954766E-1,-1.2714861E-1,-2.0093843E-1,8.4681284E-1,-2.4408825E-1,4.1482102E-2,2.184157E-2,4.4674292E-1,-1.0354329E0,5.114867E-1,1.1274412E0,-3.726033E-1,-1.3826903E0,-0E0,-0E0,5.425268E-1,7.317612E-1,-0E0,2.0964299E-1,-3.754695E-1,1.0522093E0,-0E0,-1.3541643E-1,2.8650242E-1],"categories":[],"categories_nodes":[],"categories_segments":[],"categories_sizes":[],"default_left":[1,1,1,1,1,1,1,1,1,0,1,1,1,1,1,1,1,1,1,1,1,1,1,1,1,1,1,1,1,1,1,0,0,0,0,0,0,0,0,0,0,0,0,0,0,0,0,0,0,1,1,1,1,1,1,1,1],"id":10,"left_children":[1,3,5,7,9,11,13,15,17,-1,19,21,23,25,27,-1,31,33,35,37,39,41,43,45,47,-1,-1,-1,-1,-1,-1,-1,-1,-1,-1,-1,-1,-1,-1,-1,-1,-1,-1,-1,-1,-1,-1,-1,-1,-1,-1,-1,-1,-1,-1,-1,-1],"loss_changes":[4.8615097E2,1.3824915E2,5.4763123E1,3.9677094E1,4.386415E1,9.126152E0,3.010315E0,8.078339E0,1.0296116E1,0E0,3.7535847E1,1.2241333E1,1.8004772E1,2.3598542E0,2.2953491E0,4.877472E-1,8.687088E0,1.0234226E1,1.4773207E1,1.8082787E1,1.6864674E1,1.814227E1,7.2697563E0,1.0416745E1,1.5376694E1,1.9883308E0,9.388733E-1,3.9157104E-1,4.760216E-1,0E0,0E0,0E0,0E0,0E0,0E0,0E0,0E0,0E0,0E0,0E0,0E0,0E0,0E0,0E0,0E0,0E0,0E0,0E0,0E0,0E0,0E0,0E0,0E0,0E0,0E0,0E0,0E0],"parents":[2147483647,0,0,1,1,2,2,3,3,4,4,5,5,6,6,7,7,8,8,10,10,11,11,12,12,13,13,14,14,15,15,16,16,17,17,18,18,19,19,20,20,21,21,22,22,23,23,24,24,25,25,26,26,27,27,28,28],"right_children":[2,4,6,8,10,12,14,16,18,-1,20,22,24,26,28,-1,32,34,36,38,40,42,44,46,48,-1,-1,-1,-1,-1,-1,-1,-1,-1,-1,-1,-1,-1,-1,-1,-1,-1,-1,-1,-1,-1,-1,-1,-1,-1,-1,-1,-1,-1,-1,-1,-1],"split_conditions":[5.191087E-1,-5.5229026E-1,1.2333746E0,-4.1583683E-2,-1.7158602E0,-2.406702E-1,-5.942352E-1,-1.6236892E0,5.3678584E-1,-1.08203806E-1,2.43029E-1,2.9355123E0,2.9500648E-1,1.009242E0,3.217174E0,-1.173533E-1,3.3226788E-1,3.6023702E-2,1.4563645E0,3.004779E-1,-1.18172504E-1,-1.6097219E0,-4.192291E-1,-8.712609E-1,-2.4961382E-1,6.0886513E-2,-2.2328163E-3,1.04918264E-1,-0E0,-1.18930236E-1,-0E0,-7.812063E-2,-3.765628E-2,-5.5954766E-2,-1.2714862E-2,-2.0093843E-2,8.468129E-2,-2.4408825E-2,4.1482104E-3,2.184157E-3,4.4674292E-2,-1.035433E-1,5.114867E-2,1.12744115E-1,-3.726033E-2,-1.3826904E-1,-0E0,-0E0,5.425268E-2,7.317612E-2,-0E0,2.09643E-2,-3.754695E-2,1.0522093E-1,-0E0,-1.35416435E-2,2.8650243E-2],"split_indices":[8,8,8,0,9,2,0,8,0,0,0,17,2,2,0,4,19,24,20,1,24,20,2,3,0,4,4,26,0,2147483647,2147483647,0,0,0,0,0,0,0,0,0,0,0,0,0,0,0,0,0,0,2147483647,2147483647,2147483647,2147483647,2147483647,2147483647,2147483647,2147483647],"split_type":[0,0,0,0,0,0,0,0,0,0,0,0,0,0,0,0,0,0,0,0,0,0,0,0,0,0,0,0,0,0,0,0,0,0,0,0,0,0,0,0,0,0,0,0,0,0,0,0,0,0,0,0,0,0,0,0,0],"sum_hessian":[3.0475593E3,2.1792634E3,8.682959E2,8.619657E2,1.3172979E3,5.8326483E2,2.8503107E2,4.5562488E2,4.0634085E2,3.6618362E1,1.2806794E3,3.2388425E2,2.5938058E2,2.7702608E1,2.5732846E2,5.4491055E1,4.0113382E2,2.823745E2,1.23966324E2,8.9751953E2,3.831599E2,2.7716504E2,4.6719234E1,2.1613312E1,2.3776726E2,2.4148502E1,3.5541058E0,2.5384796E2,3.4804962E0,5.3321415E1,1.1696397E0,3.1361096E2,8.752286E1,1.9450142E2,8.78731E1,1.1188126E2,1.2085064E1,5.2621466E2,3.713049E2,1.8362497E2,1.9953494E2,4.67369E0,2.7249133E2,4.5674416E1,1.0448182E0,5.797036E0,1.5816277E1,7.059702E1,1.6717023E2,1.9508514E1,4.6399865E0,1.1717348E0,2.382371E0,2.5272615E2,1.1218028E0,1.7402481E0,1.7402481E0],"tree_param":{"num_deleted":"10","num_feature":"28","num_nodes":"57","size_leaf_vector":"0"}},{"base_weights":[1.1038086E-3,-3.29564E-1,4.1357127E-1,-5.869306E-1,-1.6842386E-1,2.737999E-1,9.548692E-1,-6.8692315E-1,-2.2363381E-1,-8.9528364E-1,-1.3094033E-1,1.9816497E-1,6.261452E-1,4.6241388E-1,9.997819E-1,-7.6007086E-1,-3.2507098E-1,-3.62805E-1,2.8598455E-1,-9.901547E-1,-0E0,-3.9268488E-1,-4.356529E-2,1.5285507E-1,7.3460686E-1,2.4714987E-1,7.709962E-1,6.023747E-1,-0E0,1.0112503E0,-0E0,-7.896177E-1,-6.1847694E-2,2.3804872E-1,-3.8834625E-1,-4.8109657E-1,1.8403216E-1,5.4743844E-1,-2.0574199E-1,-1.0526341E0,-0E0,4.7785822E-1,-4.2242584E-1,-5.760823E-1,-6.3306265E-2,-7.486212E-2,5.8349E-1,1.03143685E-1,6.7974114E-1,3.775068E-1,1.0662657E0,5.926682E-1,6.1100837E-2,8.5875344E-1,2.6613572E-1,7.1975166E-1,-0E0,-2.6572374E-1,2.2814743E-1,1.0144783E0,-0E0,-1.3541643E-1,2.8650242E-1],"categories":[],"categories_nodes":[],"categories_segments":[],"categories_sizes":[],"default_left":[1,1,1,1,1,1,1,1,1,1,1,1,1,1,1,1,1,1,1,1,1,1,1,1,1,1,1,1,1,1,1,0,0,0,0,0,0,0,0,0,0,0,0,0,0,0,0,0,0,0,0,0,0,0,0,0,0,1,1,1,1,1,1],"id":11,"left_children":[1,3,5,7,9,11,13,15,17,19,21,23,25,27,29,31,33,35,37,39,41,43,45,47,49,51,53,55,-1,-1,-1,-1,-1,-1,-1,-1,-1,-1,-1,-1,-1,-1,-1,-1,-1,-1,-1,-1,-1,-1,-1,-1,-1,-1,-1,-1,-1,-1,-1,-1,-1,-1,-1],"loss_changes":[4.0931506E2,6.795857E1,9.9098816E1,2.1772934E1,2.6682281E1,2.7260986E1,3.1578522E0,1.1301987E1,1.0609374E1,4.4991302E0,2.2021612E1,2.0307293E1,8.565697E0,2.125732E0,2.0786133E0,7.420227E0,3.6681585E0,8.070495E0,4.671544E0,2.347248E0,2.098202E0,1.3935345E1,1.4226047E1,2.0546335E1,5.2231445E0,2.932369E0,3.97184E0,2.2176695E0,7.7000654E-1,4.9343872E-1,4.760216E-1,0E0,0E0,0E0,0E0,0E0,0E0,0E0,0E0,0E0,0E0,0E0,0E0,0E0,0E0,0E0,0E0,0E0,0E0,0E0,0E0,0E0,0E0,0E0,0E0,0E0,0E0,0E0,0E0,0E0,0E0,0E0,0E0],"parents":[2147483647,0,0,1,1,2,2,3,3,4,4,5,5,6,6,7,7,8,8,9,9,10,10,11,11,12,12,13,13,14,14,15,15,16,16,17,17,18,18,19,19,20,20,21,21,22,22,23,23,24,24,25,25,26,26,27,27,28,28,29,29,30,30],"right_children":[2,4,6,8,10,12,14,16,18,20,22,24,26,28,30,32,34,36,38,40,42,44,46,48,50,52,54,56,-1,-1,-1,-1,-1,-1,-1,-1,-1,-1,-1,-1,-1,-1,-1,-1,-1,-1,-1,-1,-1,-1,-1,-1,-1,-1,-1,-1,-1,-1,-1,-1,-1,-1,-1],"split_conditions":[-1.9515727E-1,-9.094233E-1,1.2333746E0,2.584598E-1,-1.4599229E0,1.2415814E0,-5.942352E-1,9.0403795E-1,4.311515E-1,3.4304348E-1,-4.8621953E-1,2.465095E0,-2.5009856E-2,1.0878148E0,3.217174E0,1.9434102E0,-1.4431857E0,1.237735E0,1.1644759E-1,1.009242E0,-3.405151E-1,5.9108853E-1,1.2415814E0,2.9355123E0,3.8292468E-1,-5.353695E-1,6.786609E-1,1.9391842E-1,-0E0,1.01125024E-1,-0E0,-7.8961775E-2,-6.1847693E-3,2.3804871E-2,-3.8834628E-2,-4.8109658E-2,1.8403215E-2,5.4743845E-2,-2.0574199E-2,-1.0526341E-1,-0E0,4.7785822E-2,-4.2242583E-2,-5.760823E-2,-6.3306266E-3,-7.4862125E-3,5.8349002E-2,1.0314369E-2,6.797411E-2,3.775068E-2,1.0662657E-1,5.9266817E-2,6.110084E-3,8.587535E-2,2.6613573E-2,7.1975164E-2,-0E0,-2.6572375E-2,2.2814743E-2,1.01447836E-1,-0E0,-1.35416435E-2,2.8650243E-2],"split_indices":[8,8,8,0,9,12,0,3,24,0,0,25,0,4,0,6,1,20,2,2,4,1,12,17,4,0,25,3,4,26,0,0,0,0,0,0,0,0,0,0,0,0,0,0,0,0,0,0,0,0,0,0,0,0,0,0,0,2147483647,2147483647,2147483647,2147483647,2147483647,2147483647],"split_type":[0,0,0,0,0,0,0,0,0,0,0,0,0,0,0,0,0,0,0,0,0,0,0,0,0,0,0,0,0,0,0,0,0,0,0,0,0,0,0,0,0,0,0,0,0,0,0,0,0,0,0,0,0,0,0,0,0,0,0,0,0,0,0],"sum_hessian":[2.994456E3,1.6610225E3,1.3334336E3,6.341118E2,1.0269106E3,1.0648405E3,2.6859314E2,4.9299622E2,1.4111559E2,4.5684746E1,9.812259E2,8.828516E2,1.8198882E2,2.714197E1,2.4145117E2,4.0505087E2,8.794536E1,1.13065216E2,2.8050371E1,4.139134E1,4.2934046E0,2.40086E2,7.411399E2,8.19364E2,6.3487602E1,5.4476402E1,1.2751241E2,2.0620678E1,6.521292E0,2.3797067E2,3.4804962E0,3.8685535E2,1.8195536E1,6.450319E0,8.149504E1,9.475683E1,1.830839E1,1.9418955E1,8.631418E0,3.839639E1,2.9949515E0,2.238164E0,2.0552406E0,1.508243E2,8.92617E1,7.099426E2,3.1197212E1,7.5373486E2,6.56292E1,3.5112026E1,2.8375576E1,1.4890729E1,3.958567E1,1.0515091E2,2.2361498E1,1.7825623E1,2.7950544E0,3.372378E0,3.1489139E0,2.3691904E2,1.0516381E0,1.7402481E0,1.7402481E0],"tree_param":{"num_deleted":"6","num_feature":"28","num_nodes":"63","size_leaf_vector":"0"}},{"base_weights":[1.5672739E-3,-2.1004248E-1,5.523679E-1,-4.8423392E-1,-3.6259897E-2,3.831757E-1,9.1721153E-1,-7.223503E-1,-3.007941E-1,-1.0160798E0,-8.520507E-3,3.166071E-1,6.644825E-1,4.2859462E-1,9.638523E-1,-8.536771E-1,-4.469745E-1,-1.1655104E-1,-4.3909925E-1,-1.0387743E0,-0E0,-1.0683993E-1,2.1892828E-1,5.046064E-1,1.625254E-1,-8.380888E-2,7.3859125E-1,5.3643215E-1,-4.693291E-2,9.755318E-1,-0E0,-8.655401E-1,-0E0,-5.248918E-1,3.5182077E-1,-2.7089378E-1,1.7558083E-1,-5.9273654E-1,-1.21006735E-1,-1.6506721E-1,2.3621942E-1,1.3653303E-2,4.0135866E-1,6.6374993E-1,1.7727037E-1,-1.2791073E-1,2.9458776E-1,4.4572675E-1,-6.41742E-1,8.21732E-1,-0E0,6.615454E-1,-0E0,1.9121997E-1,-3.9155105E-1,9.788363E-1,-0E0,-1.3541643E-1,2.8650242E-1],"categories":[],"categories_nodes":[],"categories_segments":[],"categories_sizes":[],"default_left":[1,1,1,1,1,1,1,1,1,1,1,1,1,1,1,1,1,1,1,1,1,1,1,1,1,1,1,1,1,1,1,0,0,0,0,0,0,0,0,0,0,0,0,0,0,0,0,0,0,0,0,1,1,1,1,1,1,1,1],"id":12,"left_children":[1,3,5,7,9,11,13,15,17,-1,21,23,25,27,-1,31,33,35,37,-1,-1,39,41,43,45,47,49,-1,-1,-1,-1,-1,-1,-1,-1,-1,-1,-1,-1,-1,-1,-1,-1,-1,-1,-1,-1,-1,-1,-1,-1,-1,-1,-1,-1,-1,-1,-1,-1],"loss_changes":[3.4440195E2,1.0098278E2,4.830127E1,3.4331406E1,3.455422E1,9.017883E0,3.2015228E0,1.0363663E1,1.1347046E1,2.784195E-1,2.8536058E1,1.2633049E1,6.55352E0,2.0815907E0,1.8836365E0,2.6696014E0,8.390434E0,9.7091875E0,1.2074322E1,0E0,0E0,1.7970346E1,1.3933931E1,9.5522E0,1.04191E1,4.233679E0,5.1147766E0,1.8962092E0,9.5934975E-1,3.8031006E-1,4.760216E-1,0E0,0E0,0E0,0E0,0E0,0E0,0E0,0E0,0E0,0E0,0E0,0E0,0E0,0E0,0E0,0E0,0E0,0E0,0E0,0E0,0E0,0E0,0E0,0E0,0E0,0E0,0E0,0E0],"parents":[2147483647,0,0,1,1,2,2,3,3,4,4,5,5,6,6,7,7,8,8,9,9,10,10,11,11,12,12,13,13,14,14,15,15,16,16,17,17,18,18,21,21,22,22,23,23,24,24,25,25,26,26,27,27,28,28,29,29,30,30],"right_children":[2,4,6,8,10,12,14,16,18,-1,22,24,26,28,-1,32,34,36,38,-1,-1,40,42,44,46,48,50,-1,-1,-1,-1,-1,-1,-1,-1,-1,-1,-1,-1,-1,-1,-1,-1,-1,-1,-1,-1,-1,-1,-1,-1,-1,-1,-1,-1,-1,-1,-1,-1],"split_conditions":[5.191087E-1,-5.5229026E-1,1.2333746E0,-1.7417434E-1,-1.7158602E0,4.1105333E-1,-5.942352E-1,3.3594233E-1,-2.406702E-1,-1.0160798E-1,2.43029E-1,-3.2405388E-1,8.762417E-1,1.009242E0,9.638523E-2,1.9020364E0,1.9434102E0,3.6023702E-2,-9.094233E-1,-1.03877425E-1,-0E0,1.3964683E0,-1.18172504E-1,-2.406702E-1,-2.9133415E-1,-4.0378764E-2,1.7234776E0,5.3643215E-2,-4.693291E-3,9.7553186E-2,-0E0,-8.655401E-2,-0E0,-5.248918E-2,3.5182077E-2,-2.7089378E-2,1.7558083E-2,-5.9273656E-2,-1.2100673E-2,-1.6506722E-2,2.3621943E-2,1.3653303E-3,4.0135868E-2,6.6374995E-2,1.7727038E-2,-1.2791074E-2,2.9458776E-2,4.4572677E-2,-6.41742E-2,8.21732E-2,-0E0,6.615454E-2,-0E0,1.9121997E-2,-3.9155107E-2,9.7883634E-2,-0E0,-1.35416435E-2,2.8650243E-2],"split_indices":[8,8,8,0,9,0,0,3,2,18,0,27,8,2,0,2,6,24,8,2147483647,2147483647,20,24,2,0,25,2,4,4,2147483647,2147483647,0,0,0,0,0,0,0,0,0,0,0,0,0,0,0,0,0,0,0,0,2147483647,2147483647,2147483647,2147483647,2147483647,2147483647,2147483647,2147483647],"split_type":[0,0,0,0,0,0,0,0,0,0,0,0,0,0,0,0,0,0,0,0,0,0,0,0,0,0,0,0,0,0,0,0,0,0,0,0,0,0,0,0,0,0,0,0,0,0,0,0,0,0,0,0,0,0,0,0,0,0,0],"sum_hessian":[2.9459268E3,2.1283035E3,8.1762335E2,8.213216E2,1.3069819E3,5.6466003E2,2.5296332E2,3.5119006E2,4.701315E2,3.20476E1,1.2749343E3,4.646389E2,1.0002114E2,2.6574318E1,2.2638899E2,2.3106401E2,1.20126045E2,2.0705795E2,2.6307355E2,3.0790958E1,1.2566429E0,8.943294E2,3.806049E2,2.0328743E2,2.6135147E2,7.7618475E0,9.225929E1,2.306293E1,3.51139E0,2.229085E2,3.4804962E0,2.2825534E2,2.808665E0,1.1152781E2,8.59824E0,1.3786214E2,6.919582E1,1.7352687E2,8.9546684E1,7.6838354E2,1.25945854E2,1.8318588E2,1.9741902E2,1.3265526E2,7.0632164E1,7.935448E1,1.81997E2,3.3722446E0,4.3896027E0,8.153298E1,1.0726309E1,1.846973E1,4.5931983E0,1.1501656E0,2.3612244E0,2.217827E2,1.1258005E0,1.7402481E0,1.7402481E0],"tree_param":{"num_deleted":"12","num_feature":"28","num_nodes":"59","size_leaf_vector":"0"}},{"base_weights":[1.6499207E-3,-2.795487E-1,3.555832E-1,-5.08331E-1,-1.4253508E-1,2.328718E-1,8.805243E-1,-6.0466444E-1,-1.7418514E-1,-8.2499576E-1,-1.1038774E-1,1.6428848E-1,5.585995E-1,3.9467892E-1,9.292057E-1,-1.0996531E0,-5.3885585E-1,2.858978E-2,-4.6084294E-1,-9.252503E-1,-0E0,-1.6733055E-1,2.3158818E-1,1.2179414E-1,6.317201E-1,2.2139773E-1,6.916423E-1,6.99579E-1,4.8306834E-2,9.419258E-1,-0E0,-1.1177903E0,-0E0,-6.5835214E-1,-3.052462E-1,-5.190966E-1,1.9820236E-1,-1.3243805E-1,-7.277865E-1,-9.9142367E-1,-0E0,4.6570146E-1,-3.8669404E-1,-4.05976E-1,-8.2722224E-2,8.838291E-1,5.313098E-2,-3.534337E-2,2.5076434E-1,-2.9792228E-1,1.0362425E0,1.6037827E-2,5.291466E-1,7.765741E-1,2.1535282E-1,8.519118E-1,-0E0,-1.6066113E-1,4.3060628E-1,9.454515E-1,-0E0,-1.729359E-1,2.563153E-1],"categories":[],"categories_nodes":[],"categories_segments":[],"categories_sizes":[],"default_left":[1,1,1,1,1,1,1,1,1,1,1,1,1,1,1,1,1,1,1,1,1,1,1,1,1,1,1,1,1,1,1,1,1,0,0,0,0,0,0,0,0,1,1,0,0,0,0,0,0,0,0,0,0,0,0,0,0,1,1,1,1,1,1],"id":13,"left_children":[1,3,5,7,9,11,13,15,17,19,21,23,25,27,29,-1,33,35,37,39,-1,43,45,47,49,51,53,55,-1,-1,-1,-1,-1,-1,-1,-1,-1,-1,-1,-1,-1,-1,-1,-1,-1,-1,-1,-1,-1,-1,-1,-1,-1,-1,-1,-1,-1,-1,-1,-1,-1,-1,-1],"loss_changes":[2.8906903E2,4.9804733E1,8.118526E1,1.8270294E1,2.1124613E1,2.2433693E1,3.282013E0,1.1679977E1,8.677202E0,4.1139393E0,1.907765E1,1.6361187E1,6.642292E0,2.21952E0,2.1776276E0,5.8997345E-1,1.0066391E1,7.7407675E0,4.1722136E0,2.1219902E0,1.8776807E0,1.640785E1,1.5009966E1,1.6579596E1,2.8024118E1,3.0369942E0,3.545391E0,2.1816764E0,1.9443859E0,4.6691895E-1,4.4544715E-1,0E0,0E0,0E0,0E0,0E0,0E0,0E0,0E0,0E0,0E0,0E0,0E0,0E0,0E0,0E0,0E0,0E0,0E0,0E0,0E0,0E0,0E0,0E0,0E0,0E0,0E0,0E0,0E0,0E0,0E0,0E0,0E0],"parents":[2147483647,0,0,1,1,2,2,3,3,4,4,5,5,6,6,7,7,8,8,9,9,10,10,11,11,12,12,13,13,14,14,15,15,16,16,17,17,18,18,19,19,20,20,21,21,22,22,23,23,24,24,25,25,26,26,27,27,28,28,29,29,30,30],"right_children":[2,4,6,8,10,12,14,16,18,20,22,24,26,28,30,-1,34,36,38,40,-1,44,46,48,50,52,54,56,-1,-1,-1,-1,-1,-1,-1,-1,-1,-1,-1,-1,-1,-1,-1,-1,-1,-1,-1,-1,-1,-1,-1,-1,-1,-1,-1,-1,-1,-1,-1,-1,-1,-1,-1],"split_conditions":[-1.9515727E-1,-9.094233E-1,1.2333746E0,2.584598E-1,-1.4599229E0,1.2415814E0,-5.942352E-1,-1.6236892E0,-2.406702E-1,3.4304348E-1,1.39563E0,2.9355123E0,-2.5009856E-2,-9.936851E-2,3.217174E0,-1.0996532E-1,-1.5672156E-1,-7.763468E-1,1.6032782E-1,1.009242E0,-0E0,-4.6221608E-1,-9.15557E-1,-3.7837863E-1,1.2318656E0,4.348579E-1,6.786609E-1,1.9391842E-1,4.8306836E-3,9.419259E-2,-0E0,-1.11779034E-1,-0E0,-6.5835215E-2,-3.052462E-2,-5.1909663E-2,1.9820236E-2,-1.3243805E-2,-7.277865E-2,-9.9142365E-2,-0E0,4.657015E-2,-3.8669404E-2,-4.05976E-2,-8.272222E-3,8.8382915E-2,5.313098E-3,-3.5343373E-3,2.5076434E-2,-2.9792229E-2,1.0362425E-1,1.6037828E-3,5.291466E-2,7.765741E-2,2.1535283E-2,8.519118E-2,-0E0,-1.6066113E-2,4.3060627E-2,9.454515E-2,-0E0,-1.7293591E-2,2.563153E-2],"split_indices":[8,8,8,0,9,12,0,8,2,0,20,17,0,4,0,4,24,2,4,2,4,0,4,24,5,19,25,3,24,19,0,2147483647,2147483647,0,0,0,0,0,0,0,0,2147483647,2147483647,0,0,0,0,0,0,0,0,0,0,0,0,0,0,2147483647,2147483647,2147483647,2147483647,2147483647,2147483647],"split_type":[0,0,0,0,0,0,0,0,0,0,0,0,0,0,0,0,0,0,0,0,0,0,0,0,0,0,0,0,0,0,0,0,0,0,0,0,0,0,0,0,0,0,0,0,0,0,0,0,0,0,0,0,0,0,0,0,0,0,0,0,0,0,0],"sum_hessian":[2.8977102E3,1.6135533E3,1.2841569E3,5.9859845E2,1.0149549E3,1.0459006E3,2.3825623E2,4.6043475E2,1.3816368E2,4.093089E1,9.7402405E2,8.7024927E2,1.7565144E2,2.6058071E1,2.1219815E2,4.6717484E1,4.1371725E2,8.04603E1,5.770339E1,3.6732002E1,4.198887E0,8.388092E2,1.3521481E2,8.031552E2,6.709402E1,5.408353E1,1.2156791E2,1.0696247E1,1.5361824E1,2.0887961E2,3.318553E0,4.5589333E1,1.1281497E0,2.6726855E2,1.4644873E2,1.6169865E1,6.4290436E1,2.9565363E1,2.8138025E1,3.3763985E1,2.9680183E0,2.235948E0,1.9629389E0,2.1347356E2,6.2533563E2,2.5296722E1,1.0991808E2,3.595288E2,4.4362643E2,1.9833258E1,4.726076E1,3.6279842E1,1.7803688E1,9.978358E1,2.1784328E1,9.242124E0,1.454123E0,9.365867E0,5.995958E0,2.0782466E2,1.0549475E0,1.6592765E0,1.6592765E0],"tree_param":{"num_deleted":"10","num_feature":"28","num_nodes":"63","size_leaf_vector":"0"}},{"base_weights":[1.6368218E-3,-1.7659566E-1,4.8198617E-1,-4.1842446E-1,-2.8961424E-2,3.2714808E-1,8.462809E-1,-6.858406E-1,-2.7481925E-1,-9.586322E-1,-5.474553E-3,2.2915621E-1,4.9076864E-1,3.7096187E-1,8.961802E-1,-7.410532E-1,-0E0,-9.447275E-2,-4.085817E-1,-9.845478E-1,-0E0,-1.18130066E-1,1.4828856E-1,5.738278E-1,9.571349E-2,5.7049525E-1,-8.1122726E-2,6.6230226E-1,4.4333555E-2,9.092017E-1,-0E0,-7.5649595E-1,-0E0,4.4241202E-1,-5.646891E-1,4.5357734E-1,-1.5511401E-1,-5.4964215E-1,-1.394142E-1,-1.0105461E0,-0E0,-1.8460959E-1,1.8634225E-1,1.8702274E-2,3.5443753E-1,-1.5064353E-1,7.1502185E-1,-3.0482002E-2,3.1704184E-1,6.000028E-1,-5.5952233E-1,4.9900663E-1,-3.3178094E-1,8.1510955E-1,-0E0,-1.6453156E-1,4.2789692E-1,9.128065E-1,-0E0,-1.729359E-1,2.563153E-1],"categories":[],"categories_nodes":[],"categories_segments":[],"categories_sizes":[],"default_left":[1,1,1,1,1,1,1,1,1,1,1,1,1,1,1,1,1,1,1,1,1,1,1,1,1,1,1,1,1,1,1,0,0,0,0,0,0,0,0,1,1,0,0,0,0,0,0,0,0,0,0,0,0,0,0,1,1,1,1,1,1],"id":14,"left_children":[1,3,5,7,9,11,13,15,17,-1,21,23,25,27,29,31,33,35,37,-1,-1,41,43,45,47,49,51,53,-1,-1,-1,-1,-1,-1,-1,-1,-1,-1,-1,-1,-1,-1,-1,-1,-1,-1,-1,-1,-1,-1,-1,-1,-1,-1,-1,-1,-1,-1,-1,-1,-1],"loss_changes":[2.451872E2,7.3945404E1,4.1745148E1,2.8714478E1,2.7411268E1,7.778515E0,3.131775E0,9.9431305E0,1.1919998E1,4.9950027E-1,2.2061172E1,1.54528885E1,9.745804E0,1.9305198E0,2.0026245E0,3.5202942E0,6.7278347E0,7.504384E0,1.0257004E1,1.4974403E-1,0E0,1.5074232E1,1.3914032E1,1.0722038E1,7.60472E0,6.963215E0,4.0460224E0,2.0372658E0,1.943446E0,3.7834167E-1,4.4544715E-1,0E0,0E0,0E0,0E0,0E0,0E0,0E0,0E0,0E0,0E0,0E0,0E0,0E0,0E0,0E0,0E0,0E0,0E0,0E0,0E0,0E0,0E0,0E0,0E0,0E0,0E0,0E0,0E0,0E0,0E0],"parents":[2147483647,0,0,1,1,2,2,3,3,4,4,5,5,6,6,7,7,8,8,9,9,10,10,11,11,12,12,13,13,14,14,15,15,16,16,17,17,18,18,19,19,21,21,22,22,23,23,24,24,25,25,26,26,27,27,28,28,29,29,30,30],"right_children":[2,4,6,8,10,12,14,16,18,-1,22,24,26,28,30,32,34,36,38,-1,-1,42,44,46,48,50,52,54,-1,-1,-1,-1,-1,-1,-1,-1,-1,-1,-1,-1,-1,-1,-1,-1,-1,-1,-1,-1,-1,-1,-1,-1,-1,-1,-1,-1,-1,-1,-1,-1,-1],"split_conditions":[5.191087E-1,-5.5229026E-1,1.2333746E0,-2.9190567E-1,-1.7158602E0,1.4587206E-1,-5.942352E-1,1.9434102E0,-2.406702E-1,-9.5863216E-2,9.443603E-2,-1.6523924E0,1.7234776E0,-9.936851E-2,3.217174E0,3.618164E0,-8.2455426E-1,-9.1217184E-1,6.1999017E-1,-9.845478E-2,-0E0,1.215313E0,4.348579E-1,-4.332638E-1,4.944815E-1,3.5764844E0,-7.3922986E-1,1.9391842E-1,4.4333558E-3,9.092017E-2,-0E0,-7.56496E-2,-0E0,4.42412E-2,-5.646891E-2,4.5357734E-2,-1.5511401E-2,-5.4964215E-2,-1.3941421E-2,-1.0105461E-1,-0E0,-1.846096E-2,1.8634226E-2,1.8702274E-3,3.5443753E-2,-1.5064353E-2,7.150219E-2,-3.0482002E-3,3.1704184E-2,6.000028E-2,-5.5952232E-2,4.9900662E-2,-3.3178095E-2,8.151095E-2,-0E0,-1.6453156E-2,4.2789694E-2,9.1280654E-2,-0E0,-1.7293591E-2,2.563153E-2],"split_indices":[8,8,8,0,9,0,0,6,2,18,0,3,2,4,0,18,0,18,3,2147483647,2147483647,20,19,4,26,16,27,3,24,19,0,0,0,0,0,0,0,0,0,2147483647,2147483647,0,0,0,0,0,0,0,0,0,0,0,0,0,0,2147483647,2147483647,2147483647,2147483647,2147483647,2147483647],"split_type":[0,0,0,0,0,0,0,0,0,0,0,0,0,0,0,0,0,0,0,0,0,0,0,0,0,0,0,0,0,0,0,0,0,0,0,0,0,0,0,0,0,0,0,0,0,0,0,0,0,0,0,0,0,0,0,0,0,0,0,0,0],"sum_hessian":[2.8543232E3,2.081721E3,7.726023E2,7.8446704E2,1.297254E3,5.480857E2,2.2451662E2,2.6769128E2,5.167757E2,2.797334E1,1.2692806E3,3.5111642E2,1.9696928E2,2.563852E1,1.988781E2,2.4696399E2,2.0727304E1,2.25431E2,2.9134473E2,2.687952E1,1.093819E0,7.3671814E2,5.325625E2,9.314253E1,2.5797388E2,1.7441081E2,2.2558477E1,1.0303507E1,1.5335013E1,1.9555954E2,3.318553E0,2.4301414E2,3.9498515E0,1.1574656E1,9.152649E0,1.8879211E1,2.0655179E2,1.8667453E2,1.0467019E2,2.5508509E1,1.3710122E0,6.083536E2,1.283646E2,3.31993E2,2.0056947E2,1.4004051E1,7.913848E1,1.6306644E2,9.490745E1,1.7220613E2,2.2046852E0,4.7056823E0,1.7852795E1,8.849383E0,1.454123E0,9.349727E0,5.985286E0,1.9444841E2,1.1111338E0,1.6592765E0,1.6592765E0],"tree_param":{"num_deleted":"10","num_feature":"28","num_nodes":"61","size_leaf_vector":"0"}},{"base_weights":[1.6843297E-3,-1.6115032E-1,4.48373E-1,-4.4351965E-1,-5.2214008E-2,2.9980558E-1,8.131076E-1,-1.0567346E0,-3.876456E-1,-8.048828E-2,5.2711254E-1,2.400001E-1,5.598556E-1,3.488762E-1,8.6413854E-1,-1.0765413E0,-0E0,-5.091483E-1,-1.10725366E-1,-7.806926E-1,-6.0623586E-2,5.8984935E-1,-1.6876921E-1,4.1433764E-1,1.01016685E-1,-1.17831565E-1,6.334147E-1,4.5669082E-1,-7.161484E-2,8.774585E-1,-0E0,-5.777446E-1,-1.106675E-1,-2.9582316E-1,1.7880732E-1,-0E0,-8.487729E-1,-1.0681954E-1,2.2080098E-1,1.7241578E-1,7.4629486E-1,-7.3142475E-1,3.4075722E-1,-3.687821E-1,4.678197E-1,2.4766812E-2,5.2522427E-1,4.0020093E-1,-6.416885E-1,7.1145105E-1,-0E0,5.463996E-1,-6.926743E-2,1.5771802E-1,-3.9373627E-1,8.8130707E-1,-0E0,-1.729359E-1,2.563153E-1],"categories":[],"categories_nodes":[],"categories_segments":[],"categories_sizes":[],"default_left":[1,1,1,1,1,1,1,1,1,1,1,1,1,1,1,1,1,1,1,1,1,1,1,1,1,1,1,1,1,1,1,0,0,0,0,0,0,0,0,0,0,0,0,0,0,0,0,0,0,0,0,1,1,1,1,1,1,1,1],"id":15,"left_children":[1,3,5,7,9,11,13,-1,17,19,21,23,25,-1,-1,-1,-1,31,33,35,37,39,41,43,45,47,49,-1,-1,-1,-1,-1,-1,-1,-1,-1,-1,-1,-1,-1,-1,-1,-1,-1,-1,-1,-1,-1,-1,-1,-1,-1,-1,-1,-1,-1,-1,-1,-1],"loss_changes":[2.0526805E2,6.2913185E1,3.904059E1,1.6909523E1,2.4170467E1,7.2392883E0,2.968338E0,4.3307114E-1,1.7045403E1,1.890395E1,3.7026234E0,1.0255486E1,5.530979E0,1.7631657E0,1.8397064E0,0E0,0E0,9.098549E0,9.27847E0,2.7299423E0,1.8092384E1,2.9179497E0,3.0491014E0,8.797287E0,7.736267E0,3.891146E0,3.9069862E0,1.7594604E0,8.997052E-1,4.5167542E-1,4.4544715E-1,0E0,0E0,0E0,0E0,0E0,0E0,0E0,0E0,0E0,0E0,0E0,0E0,0E0,0E0,0E0,0E0,0E0,0E0,0E0,0E0,0E0,0E0,0E0,0E0,0E0,0E0,0E0,0E0],"parents":[2147483647,0,0,1,1,2,2,3,3,4,4,5,5,6,6,7,7,8,8,9,9,10,10,11,11,12,12,13,13,14,14,17,17,18,18,19,19,20,20,21,21,22,22,23,23,24,24,25,25,26,26,27,27,28,28,29,29,30,30],"right_children":[2,4,6,8,10,12,14,-1,18,20,22,24,26,-1,-1,-1,-1,32,34,36,38,40,42,44,46,48,50,-1,-1,-1,-1,-1,-1,-1,-1,-1,-1,-1,-1,-1,-1,-1,-1,-1,-1,-1,-1,-1,-1,-1,-1,-1,-1,-1,-1,-1,-1,-1,-1],"split_conditions":[5.191087E-1,-9.094233E-1,1.2333746E0,-1.6236892E0,1.2415814E0,4.1105333E-1,-5.942352E-1,-1.05673455E-1,2.638644E-2,-1.4599229E0,2.0627575E0,-3.2405388E-1,8.762417E-1,3.4887623E-2,8.641385E-2,-1.0765413E-1,-0E0,4.4147658E-1,1.1272439E-1,-1.8451362E0,1.39563E0,3.099826E-2,-6.211129E-2,-2.0987277E0,1.3945708E0,-4.0378764E-2,1.7234776E0,4.5669083E-2,-7.161484E-3,8.774585E-2,-0E0,-5.777446E-2,-1.106675E-2,-2.9582316E-2,1.7880732E-2,-0E0,-8.487729E-2,-1.0681954E-2,2.20801E-2,1.7241579E-2,7.4629486E-2,-7.314248E-2,3.4075722E-2,-3.687821E-2,4.678197E-2,2.4766813E-3,5.252243E-2,4.0020093E-2,-6.4168856E-2,7.114511E-2,-0E0,5.463996E-2,-6.926743E-3,1.5771803E-2,-3.937363E-2,8.8130705E-2,-0E0,-1.7293591E-2,2.563153E-2],"split_indices":[8,8,8,8,12,0,0,4,24,9,20,27,8,2,0,2147483647,2147483647,19,0,27,20,0,2,27,19,25,2,2147483647,2147483647,2147483647,2147483647,0,0,0,0,0,0,0,0,0,0,0,0,0,0,0,0,0,0,0,0,2147483647,2147483647,2147483647,2147483647,2147483647,2147483647,2147483647,2147483647],"split_type":[0,0,0,0,0,0,0,0,0,0,0,0,0,0,0,0,0,0,0,0,0,0,0,0,0,0,0,0,0,0,0,0,0,0,0,0,0,0,0,0,0,0,0,0,0,0,0,0,0,0,0,0,0,0,0,0,0,0,0],"sum_hessian":[2.8121528E3,2.0606487E3,7.5150415E2,5.685472E2,1.4921014E3,5.398248E2,2.1167929E2,4.14959E1,5.270513E2,1.4267764E3,6.532507E1,4.4670673E2,9.3118095E1,2.5233583E1,1.8644571E2,4.024733E1,1.2485697E0,3.620637E2,1.649876E2,3.4802208E1,1.3919741E3,6.1660263E1,3.6648066E0,1.9232281E2,2.5438393E2,7.6098433E0,8.5508255E1,2.1771292E1,3.4622917E0,1.8312715E2,3.318553E0,3.0559756E2,5.646611E1,1.0271239E2,6.2275208E1,2.0316377E0,3.2770573E1,1.2003507E3,1.916234E2,2.0270916E1,4.1389347E1,2.0534024E0,1.6114043E0,9.968808E0,1.82354E2,2.2031546E2,3.406847E1,3.2224505E0,4.3873925E0,7.487566E1,1.063259E1,2.0123648E1,1.6476439E0,1.1034251E0,2.3588665E0,1.8208665E2,1.0404952E0,1.6592765E0,1.6592765E0],"tree_param":{"num_deleted":"14","num_feature":"28","num_nodes":"59","size_leaf_vector":"0"}},{"base_weights":[1.7696297E-3,-2.19533E-1,2.845345E-1,-7.1255183E-1,-1.7347705E-1,1.8464342E-1,7.795936E-1,-8.725265E-1,-3.271566E-1,-2.4659748E-1,3.95514E-2,1.2497104E-1,4.7555372E-1,3.2225958E-1,8.3242875E-1,-9.218502E-1,-0E0,-5.224221E-1,3.6704546E-1,-7.4168026E-1,-2.1016608E-1,1.7665155E-1,-2.3024951E-1,8.816356E-2,5.5169415E-1,5.540111E-1,1.1841047E-2,9.256138E-3,6.0778916E-1,8.4691393E-1,-0E0,-9.4244653E-1,-0E0,-2.613509E-1,2.2173159E-1,-6.920838E-1,4.0438976E-2,-1.279212E-1,7.260099E-1,-8.708331E-1,-0E0,-4.4276395E-1,-1.484187E-1,-1.3843165E-1,2.9861006E-1,-3.4674212E-1,3.2797506E-1,-7.125596E-1,1.1339427E-1,-3.178951E-1,9.692594E-1,3.4836403E-1,8.248178E-1,-2.713937E-1,4.0886945E-1,3.2333416E-1,-3.788359E-1,7.371421E-1,-0E0,3.3023798E-1,8.78006E-1,-2.0630239E-1,2.2987801E-1],"categories":[],"categories_nodes":[],"categories_segments":[],"categories_sizes":[],"default_left":[1,1,1,1,1,1,1,1,1,1,1,1,1,1,1,1,1,1,1,1,1,1,1,1,1,1,1,1,1,1,1,0,0,1,1,0,0,0,0,0,0,0,0,0,0,0,0,0,0,0,0,0,0,0,0,0,0,1,1,1,1,1,1],"id":16,"left_children":[1,3,5,7,9,11,13,15,17,19,21,23,25,27,29,31,-1,35,37,39,41,43,45,47,49,51,53,55,-1,-1,-1,-1,-1,-1,-1,-1,-1,-1,-1,-1,-1,-1,-1,-1,-1,-1,-1,-1,-1,-1,-1,-1,-1,-1,-1,-1,-1,-1,-1,-1,-1,-1,-1],"loss_changes":[1.7413164E2,3.4129883E1,5.909442E1,5.978981E0,2.2528477E1,1.6987614E1,2.9399796E0,3.0634537E0,6.8118424E0,1.7867577E1,1.3561866E1,1.2661799E1,5.6095085E0,1.8554571E0,2.0536728E0,2.2755356E0,7.046655E-1,4.3048286E0,2.73987E0,7.0399284E0,1.3604195E1,9.738518E0,8.277596E0,1.5682558E1,2.5271591E1,5.969116E0,3.79345E0,2.506617E0,1.1753836E0,7.2898865E-1,4.3745464E-1,0E0,0E0,0E0,0E0,0E0,0E0,0E0,0E0,0E0,0E0,0E0,0E0,0E0,0E0,0E0,0E0,0E0,0E0,0E0,0E0,0E0,0E0,0E0,0E0,0E0,0E0,0E0,0E0,0E0,0E0,0E0,0E0],"parents":[2147483647,0,0,1,1,2,2,3,3,4,4,5,5,6,6,7,7,8,8,9,9,10,10,11,11,12,12,13,13,14,14,15,15,16,16,17,17,18,18,19,19,20,20,21,21,22,22,23,23,24,24,25,25,26,26,27,27,28,28,29,29,30,30],"right_children":[2,4,6,8,10,12,14,16,18,20,22,24,26,28,30,32,-1,36,38,40,42,44,46,48,50,52,54,56,-1,-1,-1,-1,-1,-1,-1,-1,-1,-1,-1,-1,-1,-1,-1,-1,-1,-1,-1,-1,-1,-1,-1,-1,-1,-1,-1,-1,-1,-1,-1,-1,-1,-1,-1],"split_conditions":[-1.9515727E-1,-1.2665563E0,1.2333746E0,-1.3474004E-1,3.0246615E-1,1.2415814E0,-5.942352E-1,1.215282E0,9.440422E-1,-1.4599229E0,1.6032782E-1,2.9355123E0,6.786609E-1,-4.843885E-1,3.217174E0,2.2965271E0,-0E0,8.816991E-1,-2.807433E-1,1.1741414E0,-5.97788E-1,-6.0985076E-1,1.115705E0,-1.563693E0,1.2318656E0,1.4694402E-1,3.9635003E-1,9.0231735E-1,6.0778916E-2,8.46914E-2,-0E0,-9.424465E-2,-0E0,-2.613509E-2,2.2173159E-2,-6.9208376E-2,4.0438976E-3,-1.279212E-2,7.260099E-2,-8.708331E-2,-0E0,-4.4276398E-2,-1.48418695E-2,-1.3843166E-2,2.9861007E-2,-3.4674212E-2,3.2797508E-2,-7.125596E-2,1.1339427E-2,-3.178951E-2,9.692594E-2,3.4836404E-2,8.248178E-2,-2.713937E-2,4.0886946E-2,3.2333415E-2,-3.788359E-2,7.371421E-2,-0E0,3.30238E-2,8.78006E-2,-2.0630239E-2,2.2987802E-2],"split_indices":[8,8,8,0,0,12,0,27,22,9,4,17,25,24,0,26,26,1,1,20,2,20,27,20,5,19,21,4,19,8,0,0,0,2147483647,2147483647,0,0,0,0,0,0,0,0,0,0,0,0,0,0,0,0,0,0,0,0,0,0,2147483647,2147483647,2147483647,2147483647,2147483647,2147483647],"split_type":[0,0,0,0,0,0,0,0,0,0,0,0,0,0,0,0,0,0,0,0,0,0,0,0,0,0,0,0,0,0,0,0,0,0,0,0,0,0,0,0,0,0,0,0,0,0,0,0,0,0,0,0,0,0,0,0,0,0,0,0,0,0,0],"sum_hessian":[2.7756619E3,1.5554452E3,1.2202167E3,1.27325584E2,1.4281196E3,1.0204526E3,1.9976407E2,8.54636E1,4.1861984E1,1.0663309E3,3.6178873E2,8.531734E2,1.6727919E2,2.4854214E1,1.7490985E2,7.985522E1,5.6083846E0,3.4375637E1,7.4863443E0,6.722714E1,9.9910376E2,2.4303296E2,1.1875575E2,7.9091534E2,6.2258026E1,1.4072815E2,2.6551044E1,1.50049715E1,9.849243E0,1.7173933E2,3.1705174E0,7.883528E1,1.0199362E0,3.9981518E0,1.6102326E0,2.724972E1,7.125918E0,2.78765E0,4.698694E0,5.722435E1,1.00027895E1,2.0231004E2,7.967937E2,6.541829E1,1.7761469E2,1.00674515E2,1.8081238E1,2.0453163E1,7.704622E2,1.9652496E1,4.260553E1,8.598449E1,5.4743656E1,1.4580273E1,1.1970771E1,9.994136E0,5.0108347E0,7.898469E0,1.9507741E0,1.3552662E1,1.5818668E2,1.5852587E0,1.5852587E0],"tree_param":{"num_deleted":"8","num_feature":"28","num_nodes":"63","size_leaf_vector":"0"}},{"base_weights":[1.716669E-3,-1.6164136E-1,3.2555008E-1,-3.8783064E-1,-6.384485E-2,2.1282688E-1,7.4754584E-1,-9.592742E-1,-3.3141333E-1,-1.6294374E-1,7.628557E-2,9.572537E-2,3.842663E-1,3.0060437E-1,8.0157465E-1,-0E0,-9.9636203E-1,-4.4043565E-1,-9.945057E-2,-6.0960287E-1,-1.1602087E-1,-5.5839705E-1,9.536699E-2,2.1769524E-2,5.493381E-1,2.1704891E-1,5.2343404E-1,5.8668566E-1,-0E0,8.164107E-1,-0E0,-1.0152869E0,-0E0,-4.760719E-1,1.9548996E-1,-2.6750636E-1,1.589273E-1,-7.274133E-1,1.7306209E-1,6.5803623E-1,-1.366843E-1,-7.2592145E-1,8.6738355E-2,7.0310645E-2,6.4508116E-1,-1.2858506E0,7.2486326E-2,-2.300586E-1,9.438716E-1,-8.401614E-2,3.0944696E-1,4.1401982E-1,8.6974686E-1,7.481447E-1,-0E0,-1.9192989E-1,3.7195206E-1,2.7725503E-1,8.4958076E-1,-2.0630239E-1,2.2987801E-1],"categories":[],"categories_nodes":[],"categories_segments":[],"categories_sizes":[],"default_left":[1,1,1,1,1,1,1,1,1,1,1,1,1,1,1,1,1,1,1,1,1,1,1,1,1,1,1,1,1,1,1,1,1,0,0,0,0,0,0,0,0,0,0,0,0,0,0,0,0,0,0,0,0,1,1,1,1,1,1,1,1],"id":17,"left_children":[1,3,5,7,9,11,13,-1,17,19,21,23,25,-1,-1,-1,-1,33,35,37,39,41,43,45,47,49,51,-1,-1,-1,-1,-1,-1,-1,-1,-1,-1,-1,-1,-1,-1,-1,-1,-1,-1,-1,-1,-1,-1,-1,-1,-1,-1,-1,-1,-1,-1,-1,-1,-1,-1],"loss_changes":[1.4556375E2,3.9841927E1,4.249906E1,1.5396217E1,1.7909128E1,1.4165363E1,2.8028336E0,1.5277405E0,1.2079147E1,1.4892866E1,6.0959325E0,1.4293659E1,5.7565117E0,1.824568E0,1.8999176E0,0E0,5.6832886E-1,8.246216E0,7.5314393E0,7.301178E0,1.0772935E1,2.3768377E0,6.2705E0,2.4726324E1,1.989056E1,4.2495117E0,3.5082626E0,1.9084549E0,1.6607591E0,1.099678E0,4.3745464E-1,0E0,0E0,0E0,0E0,0E0,0E0,0E0,0E0,0E0,0E0,0E0,0E0,0E0,0E0,0E0,0E0,0E0,0E0,0E0,0E0,0E0,0E0,0E0,0E0,0E0,0E0,0E0,0E0,0E0,0E0],"parents":[2147483647,0,0,1,1,2,2,3,3,4,4,5,5,6,6,7,7,8,8,9,9,10,10,11,11,12,12,13,13,14,14,16,16,17,17,18,18,19,19,20,20,21,21,22,22,23,23,24,24,25,25,26,26,27,27,28,28,29,29,30,30],"right_children":[2,4,6,8,10,12,14,-1,18,20,22,24,26,-1,-1,-1,-1,34,36,38,40,42,44,46,48,50,52,-1,-1,-1,-1,-1,-1,-1,-1,-1,-1,-1,-1,-1,-1,-1,-1,-1,-1,-1,-1,-1,-1,-1,-1,-1,-1,-1,-1,-1,-1,-1,-1,-1,-1],"split_conditions":[1.6197573E-1,-9.094233E-1,1.2333746E0,-1.0325844E0,3.004779E-1,1.1386741E-1,-5.942352E-1,-9.592742E-2,2.638644E-2,-1.3598626E0,-2.4836724E0,2.9355123E0,-1.2162613E-2,3.0060438E-2,8.0157466E-2,-0E0,-9.9636205E-2,1.9434102E0,1.1272439E-1,-1.9515727E-1,-1.0200112E0,4.5105913E-1,1.2415814E0,-1.6016423E0,1.2318656E0,-6.187612E-1,1.5829636E0,5.8668565E-2,-0E0,8.164107E-2,-0E0,-1.015287E-1,-0E0,-4.760719E-2,1.9548995E-2,-2.6750637E-2,1.5892731E-2,-7.274133E-2,1.7306209E-2,6.5803625E-2,-1.366843E-2,-7.259215E-2,8.673836E-3,7.0310645E-3,6.450812E-2,-1.2858507E-1,7.2486326E-3,-2.300586E-2,9.4387166E-2,-8.401614E-3,3.0944696E-2,4.1401982E-2,8.697469E-2,7.481447E-2,-0E0,-1.919299E-2,3.7195206E-2,2.7725503E-2,8.495808E-2,-2.0630239E-2,2.2987802E-2],"split_indices":[8,8,8,0,1,0,0,21,24,20,9,17,24,4,0,2147483647,2147483647,6,0,8,0,0,12,20,5,4,10,2147483647,2147483647,2147483647,2147483647,2147483647,2147483647,0,0,0,0,0,0,0,0,0,0,0,0,0,0,0,0,0,0,0,0,2147483647,2147483647,2147483647,2147483647,2147483647,2147483647,2147483647,2147483647],"split_type":[0,0,0,0,0,0,0,0,0,0,0,0,0,0,0,0,0,0,0,0,0,0,0,0,0,0,0,0,0,0,0,0,0,0,0,0,0,0,0,0,0,0,0,0,0,0,0,0,0,0,0,0,0,0,0,0,0,0,0,0,0],"sum_hessian":[2.7425542E3,1.8219065E3,9.2064777E2,5.441782E2,1.2777283E3,7.319993E2,1.886484E2,4.299122E1,5.0118698E2,7.5233325E2,5.25395E2,4.4116803E2,2.908313E2,2.4465227E1,1.6418318E2,1.8212479E0,4.116997E1,3.3617688E2,1.6501012E2,6.6075325E1,6.8625793E2,1.1330289E1,5.1406476E2,3.8392276E2,5.724528E1,1.388546E2,1.519767E2,9.511353E0,1.4953876E1,1.6101266E2,3.1705174E0,4.009001E1,1.0799594E0,3.205409E2,1.5635981E1,1.0226111E2,6.2749012E1,5.8725197E1,7.350128E0,1.4178979E1,6.72079E2,9.926925E0,1.4033647E0,4.9663083E2,1.743393E1,1.0870597E1,3.7305215E2,1.8807428E1,3.8437855E1,3.0129988E1,1.0872461E2,1.2268854E2,2.9288168E1,8.103514E0,1.4078388E0,9.1974125E0,5.756463E0,1.2706177E1,1.4830649E2,1.5852587E0,1.5852587E0],"tree_param":{"num_deleted":"16","num_feature":"28","num_nodes":"61","size_leaf_vector":"0"}},{"base_weights":[1.8862834E-3,-1.2314256E-1,3.6232677E-1,-3.1428027E-1,-1.3201937E-2,2.4332066E-1,7.4044275E-1,-5.678786E-1,-1.8902431E-1,-8.8345844E-1,3.8960094E-3,2.0783445E-1,6.944817E-1,1.7567861E-1,8.040292E-1,-6.248861E-1,3.248514E-4,-1.8258877E-2,-3.1886566E-1,-9.116557E-1,-0E0,-2.0531107E-2,4.7782308E-1,1.5883948E-1,5.798638E-1,8.397822E-1,-0E0,-5.8583416E-2,5.30981E-1,8.2214314E-1,-0E0,-7.533132E-1,-4.074578E-1,4.624116E-1,-4.89665E-1,4.6780103E-1,-7.482072E-2,-4.0158737E-1,9.44199E-2,-9.4318634E-1,-0E0,-7.234789E-2,2.8495452E-1,1.2200299E-1,7.1833605E-1,1.8165532E-1,-1.0841126E0,1.7892185E-1,9.88419E-1,-2.1655652E-1,2.5272286E-1,1.24647155E-1,-3.734513E-1,-2.1999227E-2,7.233934E-1,3.4774842E-3,8.4147024E-1,-2.369908E-1,2.0588079E-1],"categories":[],"categories_nodes":[],"categories_segments":[],"categories_sizes":[],"default_left":[1,1,1,1,1,1,1,1,1,1,1,1,1,1,1,1,1,1,1,1,1,1,1,1,1,0,1,1,1,1,1,0,0,0,0,0,0,0,0,1,1,0,0,0,0,0,0,0,0,1,1,1,1,1,1,1,1,1,1],"id":18,"left_children":[1,3,5,7,9,11,13,15,17,-1,21,23,25,27,29,31,33,35,37,-1,-1,41,43,45,47,-1,-1,-1,-1,-1,-1,-1,-1,-1,-1,-1,-1,-1,-1,-1,-1,-1,-1,-1,-1,-1,-1,-1,-1,-1,-1,-1,-1,-1,-1,-1,-1,-1,-1],"loss_changes":[1.2262058E2,4.1986473E1,3.0039536E1,2.2174469E1,2.0012667E1,7.3101864E0,4.5017776E0,8.330963E0,1.0668621E1,2.991104E-1,1.5099542E1,8.225744E0,3.6874065E0,2.4027572E0,2.2326813E0,4.000252E0,5.8800936E0,5.7946463E0,9.956272E0,3.752079E-1,0E0,1.8864378E1,4.373892E0,1.2576866E1,7.3916187E0,0E0,6.635558E-1,1.2138592E0,1.8944345E0,1.3983917E0,4.4505695E-1,0E0,0E0,0E0,0E0,0E0,0E0,0E0,0E0,0E0,0E0,0E0,0E0,0E0,0E0,0E0,0E0,0E0,0E0,0E0,0E0,0E0,0E0,0E0,0E0,0E0,0E0,0E0,0E0],"parents":[2147483647,0,0,1,1,2,2,3,3,4,4,5,5,6,6,7,7,8,8,9,9,10,10,11,11,12,12,13,13,14,14,15,15,16,16,17,17,18,18,19,19,21,21,22,22,23,23,24,24,26,26,27,27,28,28,29,29,30,30],"right_children":[2,4,6,8,10,12,14,16,18,-1,22,24,26,28,30,32,34,36,38,-1,-1,42,44,46,48,-1,-1,-1,-1,-1,-1,-1,-1,-1,-1,-1,-1,-1,-1,-1,-1,-1,-1,-1,-1,-1,-1,-1,-1,-1,-1,-1,-1,-1,-1,-1,-1,-1,-1],"split_conditions":[5.191087E-1,-5.5229026E-1,1.5905077E0,-2.9190567E-1,-1.7158602E0,3.1915476E0,-5.942352E-1,1.9434102E0,-2.406702E-1,-8.834585E-2,1.2415814E0,2.465095E0,1.5449188E0,-4.843885E-1,3.217174E0,3.392532E-1,-8.2455426E-1,-9.1217184E-1,1.1723096E0,-9.116557E-2,-0E0,1.3964683E0,-1.7356747E-1,3.5764844E0,3.8292468E-1,8.397822E-2,-0E0,-5.8583417E-3,5.30981E-2,8.221432E-2,-0E0,-7.533132E-2,-4.074578E-2,4.624116E-2,-4.89665E-2,4.6780106E-2,-7.482072E-3,-4.0158737E-2,9.4419895E-3,-9.4318636E-2,-0E0,-7.234789E-3,2.8495451E-2,1.2200299E-2,7.18336E-2,1.8165532E-2,-1.0841127E-1,1.7892186E-2,9.88419E-2,-2.1655653E-2,2.5272286E-2,1.2464716E-2,-3.734513E-2,-2.1999227E-3,7.233934E-2,3.4774843E-4,8.414703E-2,-2.369908E-2,2.058808E-2],"split_indices":[8,8,8,0,9,15,0,6,2,24,12,25,2,24,0,23,0,18,1,2147483647,2147483647,20,4,16,4,0,0,4,0,7,0,0,0,0,0,0,0,0,0,2147483647,2147483647,0,0,0,0,0,0,0,0,2147483647,2147483647,2147483647,2147483647,2147483647,2147483647,2147483647,2147483647,2147483647,2147483647],"split_type":[0,0,0,0,0,0,0,0,0,0,0,0,0,0,0,0,0,0,0,0,0,0,0,0,0,0,0,0,0,0,0,0,0,0,0,0,0,0,0,0,0,0,0,0,0,0,0,0,0,0,0,0,0,0,0,0,0,0,0],"sum_hessian":[2.7096663E3,2.0112195E3,6.9844696E2,7.290518E2,1.2821676E3,5.3700745E2,1.614395E2,2.3489297E2,4.9415884E2,2.2903307E1,1.2592643E3,5.0396634E2,3.3041115E1,1.907082E1,1.4236868E2,2.1480263E2,2.0090347E1,2.1824707E2,2.7591177E2,2.1685614E1,1.2176946E0,1.1982635E3,6.100081E1,4.5147717E2,5.2489162E1,2.68769E1,6.1642165E0,1.1306762E1,7.764058E0,1.3933672E2,3.0319633E0,1.2749986E2,8.730277E1,1.1476809E1,8.61354E0,1.8633125E1,1.9961394E2,2.3198338E2,4.3928375E1,2.0484497E1,1.201116E0,1.0292449E3,1.6901859E2,2.810348E1,3.2897327E1,4.4664456E2,4.8325934E0,2.9903938E1,2.2585224E1,3.6791105E0,2.485106E0,6.2855005E0,5.0212607E0,1.3484714E0,6.415587E0,4.4885716E0,1.3484814E2,1.5159817E0,1.5159817E0],"tree_param":{"num_deleted":"14","num_feature":"28","num_nodes":"59","size_leaf_vector":"0"}},{"base_weights":[1.9803515E-3,-1.6965647E-1,2.2449414E-1,-6.268087E-1,-1.3028207E-1,1.3006654E-1,6.250111E-1,-9.515762E-1,-3.934789E-1,-1.955395E-1,5.561678E-2,2.7031345E-2,2.7332726E-1,6.8047875E-1,1.8466027E-1,-4.8541862E-1,3.0012253E-1,-2.1465608E-1,5.9372205E-1,1.8927005E-1,-1.695428E-1,4.5591772E-1,-3.6068343E-2,2.0037594E-1,6.73157E-1,-4.710691E-2,7.023452E-1,-2.875875E-1,4.7237784E-1,-5.657518E-1,-0E0,-4.0981136E-2,6.75346E-1,-6.858148E-1,-1.8218821E-1,-0E0,1.1247063E0,-1.0189575E-1,3.0511597E-1,-2.712315E-1,3.0645618E-1,7.972995E-2,9.725968E-1,-1.2816E0,5.0547794E-2,1.3743311E-1,6.0994273E-1,8.286526E-1,-0E0,7.51997E-2,-2.7337953E-1,4.7580054E-1,8.070344E-1,-7.087046E-1,-0E0,6.7239463E-1,-0E0],"categories":[],"categories_nodes":[],"categories_segments":[],"categories_sizes":[],"default_left":[1,1,1,1,1,1,1,0,1,1,1,1,1,1,1,1,1,1,1,1,1,1,1,1,1,1,1,1,1,0,0,1,1,0,0,0,0,0,0,0,0,0,0,0,0,0,0,0,0,1,1,0,0,1,1,0,0],"id":19,"left_children":[1,3,5,7,9,11,13,-1,15,17,19,21,23,25,27,29,-1,33,35,37,39,41,43,45,47,-1,51,-1,55,-1,-1,-1,-1,-1,-1,-1,-1,-1,-1,-1,-1,-1,-1,-1,-1,-1,-1,-1,-1,-1,-1,-1,-1,-1,-1,-1,-1],"loss_changes":[1.02587E2,2.6233723E1,4.3310665E1,6.411827E0,1.7143072E1,1.3757648E1,4.148857E0,0E0,5.411441E0,1.5695946E1,1.1004629E1,1.568448E1,1.0233221E1,3.823288E0,4.780734E0,2.9536572E0,1.9167278E0,1.4344131E1,6.875744E0,8.096865E0,6.679529E0,1.316843E1,5.438148E1,7.7699013E0,6.3090096E0,4.564805E-1,2.0425262E0,1.9754405E0,2.3175302E0,0E0,0E0,0E0,0E0,0E0,0E0,0E0,0E0,0E0,0E0,0E0,0E0,0E0,0E0,0E0,0E0,0E0,0E0,0E0,0E0,0E0,0E0,0E0,0E0,0E0,0E0,0E0,0E0],"parents":[2147483647,0,0,1,1,2,2,3,3,4,4,5,5,6,6,8,8,9,9,10,10,11,11,12,12,13,13,14,14,15,15,16,16,17,17,18,18,19,19,20,20,21,21,22,22,23,23,24,24,25,25,26,26,27,27,28,28],"right_children":[2,4,6,8,10,12,14,-1,16,18,20,22,24,26,28,30,-1,34,36,38,40,42,44,46,48,-1,52,-1,56,-1,-1,-1,-1,-1,-1,-1,-1,-1,-1,-1,-1,-1,-1,-1,-1,-1,-1,-1,-1,-1,-1,-1,-1,-1,-1,-1,-1],"split_conditions":[-1.9515727E-1,-1.2665563E0,7.570132E-2,-6.0509396E-1,3.0246615E-1,1.4930111E-1,1.3471501E0,-9.5157616E-2,1.448925E0,2.1636996E0,8.612887E-2,-1.7944162E0,1.5829636E0,-1.4300319E0,2.1232004E0,8.262793E-1,3.0012254E-2,-1.4599229E0,-5.5229026E-1,-5.425497E-1,1.115705E0,6.7972046E-1,-9.0342283E-1,1.4988908E0,1.2318656E0,-4.710691E-3,-4.776469E-1,-2.875875E-2,8.617704E-1,-5.657518E-2,-0E0,-4.0981136E-3,6.75346E-2,-6.8581484E-2,-1.821882E-2,-0E0,1.1247063E-1,-1.0189575E-2,3.0511597E-2,-2.7123151E-2,3.0645618E-2,7.972996E-3,9.7259685E-2,-1.2816E-1,5.0547794E-3,1.3743311E-2,6.0994275E-2,8.286526E-2,-0E0,7.51997E-3,-2.7337953E-2,4.7580056E-2,8.070344E-2,-7.087046E-2,-0E0,6.723946E-2,-0E0],"split_indices":[8,8,9,0,0,0,14,0,21,4,4,3,10,20,9,24,25,9,8,20,27,4,0,26,5,3,0,3,25,0,0,2147483647,2147483647,0,0,0,0,0,0,0,0,0,0,0,0,0,0,0,0,2147483647,2147483647,0,0,2147483647,2147483647,0,0],"split_type":[0,0,0,0,0,0,0,0,0,0,0,0,0,0,0,0,0,0,0,0,0,0,0,0,0,0,0,0,0,0,0,0,0,0,0,0,0,0,0,0,0,0,0,0,0,0,0,0,0,0,0,0,0,0,0,0,0],"sum_hessian":[2.6786895E3,1.5100925E3,1.1685968E3,1.1418657E2,1.395906E3,9.508834E2,2.1771336E2,4.208655E1,7.210001E1,1.037077E3,3.5882898E2,5.5922614E2,3.9165732E2,1.8988779E2,2.7825577E1,6.57295E1,6.3705206E0,1.01592163E3,2.1155396E1,2.2825674E2,1.3057225E2,7.136084E1,4.8786526E2,3.371473E2,5.4510002E1,4.1049356E0,1.8578285E2,9.2192335E0,1.8606344E1,5.682494E1,8.904558E0,3.3407862E0,3.0297341E0,5.9617138E1,9.5630444E2,1.1988518E1,9.166878E0,6.2613586E1,1.6564316E2,1.1038241E2,2.0189835E1,4.4418587E1,2.6942255E1,2.9780521E1,4.5808475E2,2.9782535E2,3.9321964E1,4.4139584E1,1.037042E1,1.09603E0,3.008906E0,6.699473E1,1.18788124E2,2.9452035E0,6.2740297E0,1.2789776E1,5.816568E0],"tree_param":{"num_deleted":"6","num_feature":"28","num_nodes":"57","size_leaf_vector":"0"}},{"base_weights":[2.2550214E-3,-1.0283917E-1,3.1365708E-1,-2.7094904E-1,-8.541111E-3,2.0791075E-1,6.787522E-1,-5.0959796E-1,-1.5829618E-1,-8.4511346E-1,6.3544093E-3,1.7463282E-1,6.40605E-1,1.6280843E-1,7.5500524E-1,-5.659217E-1,1.51970545E-2,-8.512093E-2,-4.2384374E-1,-8.7655866E-1,-0E0,-7.868565E-2,1.2640898E-1,-2.81385E-1,2.0607032E-1,7.846277E-1,-0E0,-4.1803908E-2,5.483059E-1,7.7545273E-1,-0E0,-6.4771295E-1,-2.3146325E-1,-4.2145422E-1,4.8967645E-1,-1.13072574E-1,6.3725346E-1,-5.932366E-1,-5.994444E-2,-9.114711E-1,-0E0,-5.403501E-1,-3.5420764E-2,-1.8691766E-1,1.790209E-1,-6.758066E-1,-0E0,3.4559816E-1,5.4895498E-2,8.190378E-1,-0E0,-2.2354981E-1,2.4140307E-1,2.6186398E-1,-3.83147E-1,6.2820566E-1,-0E0,-0E0,7.983662E-1,-2.5544456E-1,1.8874833E-1],"categories":[],"categories_nodes":[],"categories_segments":[],"categories_sizes":[],"default_left":[1,1,1,1,1,1,1,1,1,1,1,1,1,1,1,1,1,1,1,1,1,1,1,1,1,1,1,1,1,1,1,0,0,0,0,0,0,0,0,1,1,0,0,0,0,0,0,0,0,1,1,1,1,0,0,1,1,1,1,1,1],"id":20,"left_children":[1,3,5,7,9,11,13,15,17,-1,21,23,25,27,29,31,33,35,37,-1,-1,41,43,45,47,-1,-1,53,-1,-1,-1,-1,-1,-1,-1,-1,-1,-1,-1,-1,-1,-1,-1,-1,-1,-1,-1,-1,-1,-1,-1,-1,-1,-1,-1,-1,-1,-1,-1,-1,-1],"loss_changes":[8.715763E1,3.1165337E1,2.4664146E1,1.8153019E1,1.677984E1,6.4537163E0,4.5223083E0,7.173382E0,8.882624E0,4.413166E-1,1.2915057E1,7.219063E0,3.3137693E0,2.5097594E0,2.1797256E0,4.233803E0,5.417737E0,7.566246E0,5.5220413E0,5.081959E-1,0E0,1.4007947E1,8.786496E0,3.6440465E0,9.423229E0,1.340847E-1,6.500255E-1,2.1962674E0,4.8409176E-1,1.9735641E0,4.5099303E-1,0E0,0E0,0E0,0E0,0E0,0E0,0E0,0E0,0E0,0E0,0E0,0E0,0E0,0E0,0E0,0E0,0E0,0E0,0E0,0E0,0E0,0E0,0E0,0E0,0E0,0E0,0E0,0E0,0E0,0E0],"parents":[2147483647,0,0,1,1,2,2,3,3,4,4,5,5,6,6,7,7,8,8,9,9,10,10,11,11,12,12,13,13,14,14,15,15,16,16,17,17,18,18,19,19,21,21,22,22,23,23,24,24,25,25,26,26,27,27,28,28,29,29,30,30],"right_children":[2,4,6,8,10,12,14,16,18,-1,22,24,26,28,30,32,34,36,38,-1,-1,42,44,46,48,-1,-1,54,-1,-1,-1,-1,-1,-1,-1,-1,-1,-1,-1,-1,-1,-1,-1,-1,-1,-1,-1,-1,-1,-1,-1,-1,-1,-1,-1,-1,-1,-1,-1,-1,-1],"split_conditions":[5.191087E-1,-5.5229026E-1,1.5905077E0,-2.9190567E-1,-1.7158602E0,3.1915476E0,-4.776469E-1,1.9434102E0,7.1681994E-1,-8.451135E-2,3.004779E-1,-1.8477001E0,1.5449188E0,3.671474E-1,3.217174E0,3.256492E-1,5.1894516E-2,1.8982053E0,6.1999017E-1,-8.7655865E-2,-0E0,-1.4081782E0,-1.1262827E0,1.2803677E-1,-2.406702E-1,7.846277E-2,-0E0,-7.2966886E-1,5.4830592E-2,7.754528E-2,-0E0,-6.4771295E-2,-2.3146326E-2,-4.2145424E-2,4.8967645E-2,-1.1307257E-2,6.3725345E-2,-5.9323665E-2,-5.9944442E-3,-9.114712E-2,-0E0,-5.4035008E-2,-3.5420766E-3,-1.8691767E-2,1.790209E-2,-6.758066E-2,-0E0,3.4559816E-2,5.48955E-3,8.190378E-2,-0E0,-2.235498E-2,2.4140308E-2,2.6186397E-2,-3.83147E-2,6.282057E-2,-0E0,-0E0,7.983662E-2,-2.5544455E-2,1.8874833E-2],"split_indices":[8,8,8,0,9,15,0,6,4,24,1,2,2,23,0,19,3,3,3,2147483647,2147483647,20,27,27,2,4,0,27,4,7,0,0,0,0,0,0,0,0,0,2147483647,2147483647,0,0,0,0,0,0,0,0,2147483647,2147483647,2147483647,2147483647,0,0,2147483647,2147483647,2147483647,2147483647,2147483647,2147483647],"split_type":[0,0,0,0,0,0,0,0,0,0,0,0,0,0,0,0,0,0,0,0,0,0,0,0,0,0,0,0,0,0,0,0,0,0,0,0,0,0,0,0,0,0,0,0,0,0,0,0,0,0,0,0,0,0,0,0,0,0,0,0,0],"sum_hessian":[2.65081E3,1.9810343E3,6.6977563E2,7.060677E2,1.2749667E3,5.251255E2,1.4465019E2,2.201802E2,4.8588748E2,2.0553492E1,1.2544132E3,4.9367914E2,3.1446314E1,2.1525274E1,1.23124916E2,2.0034818E2,1.983203E1,3.8697787E2,9.890959E1,1.9468279E1,1.0852128E0,7.3001495E2,5.243982E2,2.8249142E1,4.6543E2,2.5343922E1,6.102393E0,1.4114356E1,7.410918E0,1.2018602E2,2.9388955E0,1.5632057E2,4.4027615E1,9.40476E0,1.042727E1,3.763308E2,1.0647056E1,6.4327065E1,3.4582527E1,1.8391726E1,1.0765529E0,5.7617474E1,6.7239746E2,7.15603E1,4.5283792E2,1.0396281E1,1.7852861E1,2.3659236E2,2.2883765E2,2.321221E1,2.1317103E0,3.6555095E0,2.4468837E0,6.288692E0,7.825664E0,6.1577196E0,1.2531983E0,3.8731813E0,1.1631284E2,1.473659E0,1.4652364E0],"tree_param":{"num_deleted":"14","num_feature":"28","num_nodes":"61","size_leaf_vector":"0"}},{"base_weights":[1.827974E-3,-9.403292E-2,2.8963757E-1,-2.9304168E-1,-2.4477951E-2,1.8975276E-1,6.4911854E-1,-9.490443E-1,-2.4516091E-1,-4.6163756E-2,4.2881986E-1,1.3249245E-1,4.323441E-1,1.1393534E-1,7.1888214E-1,-9.7267586E-1,-0E0,-3.5835892E-1,-0E0,-1.3668546E-1,4.6304572E-2,1.1689324E-1,6.400629E-1,8.168088E-2,5.079939E-1,4.9604246E-1,-1.1554784E-1,-9.8927744E-2,4.6815524E-1,7.3919684E-1,-0E0,-4.2989832E-1,1.3541863E-3,-3.7112033E-1,9.605962E-2,-5.4305476E-1,-9.323365E-2,2.693675E-2,5.5621326E-1,-1.4622508E-1,3.5652977E-1,7.0796984E-1,-1.8382865E-1,1.0926785E-1,-5.925827E-1,-4.5281526E-1,6.7230254E-1,5.884735E-1,-0E0,-4.654947E-1,2.1514574E-1,9.226269E-2,-4.0621388E-1,-4.798315E-2,6.69218E-1,-0E0,7.624761E-1,-2.5544456E-1,1.8874833E-1],"categories":[],"categories_nodes":[],"categories_segments":[],"categories_sizes":[],"default_left":[1,1,1,1,1,1,1,1,1,1,1,1,1,1,1,1,1,1,1,1,1,1,1,1,1,1,1,1,1,1,1,0,0,0,0,0,0,0,0,0,0,0,0,0,0,0,0,0,0,1,1,1,1,1,1,1,1,1,1],"id":21,"left_children":[1,3,5,7,9,11,13,-1,17,19,21,23,25,27,-1,-1,-1,31,33,35,37,39,41,43,45,47,-1,-1,-1,-1,-1,-1,-1,-1,-1,-1,-1,-1,-1,-1,-1,-1,-1,-1,-1,-1,-1,-1,-1,-1,-1,-1,-1,-1,-1,-1,-1,-1,-1],"loss_changes":[7.2778854E1,2.6942728E1,2.2486996E1,1.4015419E1,1.4102261E1,6.525999E0,4.1513977E0,3.4493828E-1,1.29132805E1,1.1872244E1,3.3138065E0,7.5027065E0,3.8742752E0,2.1196182E0,1.9990883E0,0E0,0E0,8.768494E0,5.943148E0,1.1860696E1,6.2054696E0,2.3782146E0,2.944561E0,6.8768983E0,8.775048E0,3.816513E0,1.7903879E0,1.2525835E0,1.7874005E0,1.991005E0,4.5099303E-1,0E0,0E0,0E0,0E0,0E0,0E0,0E0,0E0,0E0,0E0,0E0,0E0,0E0,0E0,0E0,0E0,0E0,0E0,0E0,0E0,0E0,0E0,0E0,0E0,0E0,0E0,0E0,0E0],"parents":[2147483647,0,0,1,1,2,2,3,3,4,4,5,5,6,6,7,7,8,8,9,9,10,10,11,11,12,12,13,13,14,14,17,17,18,18,19,19,20,20,21,21,22,22,23,23,24,24,25,25,26,26,27,27,28,28,29,29,30,30],"right_children":[2,4,6,8,10,12,14,-1,18,20,22,24,26,28,-1,-1,-1,32,34,36,38,40,42,44,46,48,-1,-1,-1,-1,-1,-1,-1,-1,-1,-1,-1,-1,-1,-1,-1,-1,-1,-1,-1,-1,-1,-1,-1,-1,-1,-1,-1,-1,-1,-1,-1,-1,-1],"split_conditions":[5.191087E-1,-9.094233E-1,1.5905077E0,-1.6236892E0,1.2415814E0,3.5455012E-1,-5.942352E-1,-9.490443E-2,2.638644E-2,9.867303E-3,-1.7356747E-1,1.9434102E0,1.823736E0,-4.843885E-1,7.1888216E-2,-9.726759E-2,-0E0,4.4147658E-1,-5.97788E-1,-1.3260622E0,7.570132E-2,-4.192291E-1,1.5315056E0,1.3846107E0,-1.3634005E0,9.6261704E-1,-1.1554784E-2,-9.892775E-3,4.6815526E-2,7.391968E-2,-0E0,-4.298983E-2,1.3541864E-4,-3.7112035E-2,9.605962E-3,-5.4305475E-2,-9.323365E-3,2.6936752E-3,5.5621326E-2,-1.4622509E-2,3.5652976E-2,7.079699E-2,-1.8382866E-2,1.0926786E-2,-5.925827E-2,-4.5281526E-2,6.7230254E-2,5.884735E-2,-0E0,-4.654947E-2,2.1514574E-2,9.226269E-3,-4.062139E-2,-4.798315E-3,6.69218E-2,-0E0,7.624761E-2,-2.5544455E-2,1.8874833E-2],"split_indices":[8,8,8,8,12,18,0,4,24,1,4,6,24,24,0,2147483647,2147483647,19,2,20,9,2,21,4,18,21,20,4,0,2147483647,2147483647,0,0,0,0,0,0,0,0,0,0,0,0,0,0,0,0,0,0,2147483647,2147483647,2147483647,2147483647,2147483647,2147483647,2147483647,2147483647,2147483647,2147483647],"split_type":[0,0,0,0,0,0,0,0,0,0,0,0,0,0,0,0,0,0,0,0,0,0,0,0,0,0,0,0,0,0,0,0,0,0,0,0,0,0,0,0,0,0,0,0,0,0,0,0,0,0,0,0,0,0,0,0,0,0,0],"sum_hessian":[2.6248496E3,1.9679341E3,6.569155E2,5.0345273E2,1.4644813E3,5.198392E2,1.3707635E2,2.898521E1,4.7446753E2,1.4022959E3,6.2185417E1,4.2765726E2,9.218189E1,1.8371922E1,1.1870443E2,2.7814493E1,1.1707169E0,3.2101935E2,1.5344818E2,7.1334656E2,6.8894934E2,2.8901995E1,3.328342E1,3.8224838E2,4.5408875E1,8.447038E1,7.7115097E0,1.106289E1,7.309032E0,1.1576553E2,2.9388955E0,2.6959683E2,5.142252E1,3.1799604E1,1.2164857E2,6.335271E1,6.4999384E2,6.686709E2,2.0278458E1,1.2344402E1,1.6557592E1,3.2260307E1,1.0231127E0,3.7106354E2,1.1184841E1,4.9733043E0,4.043557E1,7.017135E1,1.429904E1,4.6217403E0,3.0897691E0,6.107695E0,4.955195E0,1.2950524E0,6.0139794E0,3.7167063E0,1.1204883E2,1.473659E0,1.4652364E0],"tree_param":{"num_deleted":"14","num_feature":"28","num_nodes":"59","size_leaf_vector":"0"}},{"base_weights":[1.7143156E-3,-4.3908548E-2,5.342841E-1,-2.3244189E-1,3.0435354E-2,-4.7654298E-1,5.658042E-1,-4.3567216E-1,-1.0693919E-1,-7.70223E-3,3.56802E-1,6.268032E-1,1.12525485E-1,-5.925248E-1,-1.3935089E-1,2.4178478E-1,-1.7478146E-1,-4.6551272E-2,2.435659E-1,2.208448E-1,6.6067916E-1,6.714744E-1,7.848262E-2,-2.044942E-1,3.7266007E-1,-6.5041053E-1,-0E0,7.6075315E-2,-5.1793E-1,-0E0,6.125157E-1,-2.5130534E-1,1.7200962E-1,-3.2265934E-1,-1.7527884E-3,6.9359016E-1,1.3985707E-1,7.810871E-2,5.2961886E-1,-0E0,7.0595443E-1,3.794806E-1,7.491972E-1,2.8382653E-1,-3.8770092E-1,-5.787935E-1,1.0872313E-1,5.963348E-1,-2.1951247E-2],"categories":[],"categories_nodes":[],"categories_segments":[],"categories_sizes":[],"default_left":[1,1,1,1,1,0,1,1,1,1,1,1,1,1,1,1,1,1,1,1,1,1,1,1,1,0,0,0,0,0,0,0,0,0,0,0,0,0,0,1,1,1,1,1,1,0,0,0,0],"id":22,"left_children":[1,3,5,7,9,-1,11,13,15,17,19,21,23,25,27,29,31,33,35,37,-1,-1,-1,45,47,-1,-1,-1,-1,-1,-1,-1,-1,-1,-1,-1,-1,-1,-1,-1,-1,-1,-1,-1,-1,-1,-1,-1,-1],"loss_changes":[6.386224E1,3.3872913E1,7.5103226E0,1.6740845E1,2.177397E1,0E0,4.678116E0,1.0955036E1,1.0216934E1,1.4877681E1,6.2344894E0,3.4234085E0,2.8500655E0,5.4659386E0,8.308226E0,6.5661197E0,9.85679E0,1.6254223E1,8.366739E0,5.134288E0,1.9057865E0,1.6820297E0,1.9881046E0,2.2547522E0,2.3026648E0,0E0,0E0,0E0,0E0,0E0,0E0,0E0,0E0,0E0,0E0,0E0,0E0,0E0,0E0,0E0,0E0,0E0,0E0,0E0,0E0,0E0,0E0,0E0,0E0],"parents":[2147483647,0,0,1,1,2,2,3,3,4,4,6,6,7,7,8,8,9,9,10,10,11,11,12,12,13,13,14,14,15,15,16,16,17,17,18,18,19,19,20,20,21,21,22,22,23,23,24,24],"right_children":[2,4,6,8,10,-1,12,14,16,18,20,22,24,26,28,30,32,34,36,38,-1,-1,-1,46,48,-1,-1,-1,-1,-1,-1,-1,-1,-1,-1,-1,-1,-1,-1,-1,-1,-1,-1,-1,-1,-1,-1,-1,-1],"split_conditions":[7.570132E-2,-5.5229026E-1,-1.4451227E0,-1.7417434E-1,1.2415814E0,-4.7654297E-2,1.3471501E0,3.3594233E-1,-4.361734E-1,1.397619E0,3.92765E-1,1.4629203E0,2.1232004E0,1.4629203E0,3.34782E-1,1.4301449E-1,3.8190824E-1,-7.273973E-1,-9.5265645E-1,7.5255597E-1,6.606792E-2,6.714744E-2,7.848262E-3,5.1894516E-2,8.617704E-1,-6.504106E-2,-0E0,7.6075317E-3,-5.1792998E-2,-0E0,6.125157E-2,-2.5130535E-2,1.7200962E-2,-3.2265935E-2,-1.7527885E-4,6.935902E-2,1.3985707E-2,7.8108716E-3,5.2961886E-2,-0E0,7.059544E-2,3.794806E-2,7.491972E-2,2.8382653E-2,-3.877009E-2,-5.7879355E-2,1.0872313E-2,5.9633482E-2,-2.1951247E-3],"split_indices":[9,8,8,0,12,0,14,3,9,20,0,1,9,1,21,0,19,0,4,19,18,1,2,3,25,0,0,0,0,0,0,0,0,0,0,0,0,0,0,2147483647,2147483647,2147483647,2147483647,2147483647,2147483647,0,0,0,0],"split_type":[0,0,0,0,0,0,0,0,0,0,0,0,0,0,0,0,0,0,0,0,0,0,0,0,0,0,0,0,0,0,0,0,0,0,0,0,0,0,0,0,0,0,0,0,0,0,0,0,0],"sum_hessian":[2.6022825E3,2.3977527E3,2.0452974E2,6.801045E2,1.7176483E3,3.9446723E0,2.0058507E2,2.5377571E2,4.2632883E2,1.5378124E3,1.7983594E2,1.7383673E2,2.6748333E1,1.617713E2,9.200441E1,6.577894E1,3.6054987E2,1.3374506E3,2.0036174E2,1.3009944E2,4.9736507E1,1.5843187E2,1.5404862E1,1.0612566E1,1.6135767E1,1.4666832E2,1.5102974E1,5.8481728E1,3.3522682E1,4.0560337E1,2.5218603E1,2.9841122E2,6.2138645E1,1.8099405E2,1.1564565E3,3.2524044E1,1.678377E2,9.375643E1,3.6343002E1,2.72341E0,4.7013096E1,3.9720634E1,1.1871124E2,1.29980755E1,2.4067867E0,5.1305094E0,5.4820566E0,1.0936986E1,5.1987815E0],"tree_param":{"num_deleted":"6","num_feature":"28","num_nodes":"49","size_leaf_vector":"0"}},{"base_weights":[1.8268018E-3,-3.9532933E-2,4.9827504E-1,-2.1277048E-1,2.7929183E-2,-4.601947E-1,5.287815E-1,-4.762548E-1,-1.2406854E-1,-6.7661577E-3,3.29978E-1,5.8701295E-1,1.0105001E-1,5.495078E-2,-5.6744564E-1,2.3193536E-2,-2.44001E-1,-8.052478E-1,3.6561578E-3,2.0262565E-1,6.2141365E-1,6.299818E-1,7.21784E-2,-1.8615843E-1,3.4907869E-1,-3.226761E-1,9.295427E-1,-6.551448E-1,-1.2538372E-1,1.8378264E-1,-1.7567271E-1,-3.1334546E-1,8.865367E-2,-8.402306E-1,-0E0,-6.994504E-2,1.2434031E-1,4.3360293E-2,4.3885875E-1,-0E0,6.6851693E-1,3.2891455E-1,7.1149373E-1,2.7846575E-1,-3.9165986E-1,-7.011169E-1,2.1595802E-2,5.714771E-1,-2.0535462E-2],"categories":[],"categories_nodes":[],"categories_segments":[],"categories_sizes":[],"default_left":[1,1,1,1,1,0,1,1,1,1,1,1,1,1,1,1,1,1,1,1,1,1,1,1,1,0,0,0,0,0,0,0,0,1,1,0,0,0,0,1,1,0,0,1,1,0,0,0,0],"id":23,"left_children":[1,3,5,7,9,-1,11,13,15,17,19,21,23,25,27,29,31,-1,35,37,-1,41,-1,45,47,-1,-1,-1,-1,-1,-1,-1,-1,-1,-1,-1,-1,-1,-1,-1,-1,-1,-1,-1,-1,-1,-1,-1,-1],"loss_changes":[5.3609943E1,2.8108458E1,6.6737366E0,1.4968651E1,1.8323889E1,0E0,4.0442543E0,8.63715E0,9.261817E0,1.362714E1,5.476654E0,2.9406319E0,2.445394E0,9.90196E0,4.5313377E0,7.3971195E0,6.896307E0,5.0766945E-1,1.3599667E1,4.429261E0,1.9182911E0,2.073471E0,1.9689206E0,2.1871996E0,2.1180959E0,0E0,0E0,0E0,0E0,0E0,0E0,0E0,0E0,0E0,0E0,0E0,0E0,0E0,0E0,0E0,0E0,0E0,0E0,0E0,0E0,0E0,0E0,0E0,0E0],"parents":[2147483647,0,0,1,1,2,2,3,3,4,4,6,6,7,7,8,8,9,9,10,10,11,11,12,12,13,13,14,14,15,15,16,16,17,17,18,18,19,19,20,20,21,21,22,22,23,23,24,24],"right_children":[2,4,6,8,10,-1,12,14,16,18,20,22,24,26,28,30,32,-1,36,38,-1,42,-1,46,48,-1,-1,-1,-1,-1,-1,-1,-1,-1,-1,-1,-1,-1,-1,-1,-1,-1,-1,-1,-1,-1,-1,-1,-1],"split_conditions":[7.570132E-2,-5.5229026E-1,-1.4451227E0,-4.039219E-1,1.2415814E0,-4.6019472E-2,1.3471501E0,-7.2715724E-1,-2.406702E-1,-1.7158602E0,3.92765E-1,1.4629203E0,2.1232004E0,7.238928E-1,6.1999017E-1,6.2590533E-1,1.1723096E0,-8.052478E-2,1.2186857E-1,3.004779E-1,6.2141366E-2,-8.6196446E-1,7.2178403E-3,-1.0166156E0,8.617704E-1,-3.226761E-2,9.295427E-2,-6.551448E-2,-1.2538373E-2,1.8378263E-2,-1.7567271E-2,-3.1334545E-2,8.865367E-3,-8.402306E-2,-0E0,-6.994504E-3,1.2434031E-2,4.3360293E-3,4.3885875E-2,-0E0,6.68517E-2,3.2891456E-2,7.114937E-2,2.7846575E-2,-3.9165985E-2,-7.011169E-2,2.1595804E-3,5.714771E-2,-2.0535463E-3],"split_indices":[9,8,8,0,12,0,14,21,2,9,0,1,9,20,3,27,1,18,0,1,18,1,2,27,25,0,0,0,0,0,0,0,0,2147483647,2147483647,0,0,0,0,2147483647,2147483647,0,0,2147483647,2147483647,0,0,0,0],"split_type":[0,0,0,0,0,0,0,0,0,0,0,0,0,0,0,0,0,0,0,0,0,0,0,0,0,0,0,0,0,0,0,0,0,0,0,0,0,0,0,0,0,0,0,0,0,0,0,0,0],"sum_hessian":[2.5827004E3,2.384769E3,1.9793135E2,6.707348E2,1.7140342E3,3.7909012E0,1.9414046E2,1.627912E2,5.079436E2,1.5370952E3,1.7693895E2,1.678361E2,2.630434E1,2.2419456E1,1.4037173E2,2.2533823E2,2.8260538E2,1.8093143E1,1.5190021E3,1.2905934E2,4.78796E1,1.5249529E2,1.5340828E1,1.0667873E1,1.5636468E1,1.6182175E1,6.237282E0,1.1403961E2,2.6332119E1,1.2757473E2,9.77635E1,2.3648788E2,4.6117493E1,1.7092386E1,1.0007577E0,9.3919434E2,5.798078E2,8.173703E1,4.732231E1,2.6250021E0,4.5254597E1,3.832268E1,1.141726E2,1.294053E1,2.400298E0,2.4023485E0,8.265525E0,1.0428615E1,5.207853E0],"tree_param":{"num_deleted":"6","num_feature":"28","num_nodes":"49","size_leaf_vector":"0"}},{"base_weights":[1.7385485E-3,-7.4692085E-2,2.3740195E-1,-5.143243E-1,-4.9701825E-2,1.5643059E-1,5.627915E-1,-8.6914057E-1,-2.9470673E-1,-5.082175E-1,-3.2039985E-2,1.1345139E-1,5.085162E-1,4.6347395E-2,6.517275E-1,-0E0,-8.889755E-1,-3.9965433E-1,2.94954E-1,-7.7537984E-1,-1.0379373E-1,-8.856577E-2,1.0744855E-1,-3.198587E-1,1.696138E-1,1.2881708E-1,9.335642E-1,-1.4282179E-1,4.546994E-1,-0E0,6.786308E-1,1.3581178E-1,-4.8123696E-1,-2.3565853E-1,5.8514625E-1,-8.171019E-1,-0E0,3.001978E-1,-6.7670155E-1,-1.6501403E-1,2.7559275E-2,-5.7821084E-2,3.1289795E-1,3.3518055E-1,-7.834534E-1,1.933717E-1,-1.0075474E0,-5.6567454E-1,9.0154064E-1,1.0358279E0,-0E0,1.7310032E-1,-4.61607E-1,5.50289E-1,-0E0,1.5972473E-1,-3.0887863E-1,7.0502037E-1,-0E0],"categories":[],"categories_nodes":[],"categories_segments":[],"categories_sizes":[],"default_left":[1,1,1,1,1,1,1,1,1,1,1,1,1,1,1,1,1,1,1,1,1,1,1,1,1,1,1,1,1,1,1,0,0,0,0,1,1,0,0,0,0,0,0,0,0,0,0,0,0,0,0,0,0,1,1,1,1,0,0],"id":24,"left_children":[1,3,5,7,9,11,13,-1,17,19,21,23,25,27,29,-1,-1,31,33,-1,37,39,41,43,45,47,49,51,-1,-1,57,-1,-1,-1,-1,-1,-1,-1,-1,-1,-1,-1,-1,-1,-1,-1,-1,-1,-1,-1,-1,-1,-1,-1,-1,-1,-1,-1,-1],"loss_changes":[4.643204E1,2.0635496E1,1.5675838E1,5.9916267E0,1.4294517E1,6.9666166E0,4.832035E0,2.5250816E-1,4.733892E0,5.996092E0,1.4005153E1,1.1292379E1,7.0349483E0,2.2725441E0,2.2396202E0,0E0,0E0,3.2222166E0,2.4146385E0,1.8092575E0,8.196765E0,1.1424641E1,1.7562553E1,1.7081726E1,1.1357844E1,1.9255058E1,2.9061508E0,2.1629431E0,5.692488E-1,5.463303E-1,2.3064117E0,0E0,0E0,0E0,0E0,0E0,0E0,0E0,0E0,0E0,0E0,0E0,0E0,0E0,0E0,0E0,0E0,0E0,0E0,0E0,0E0,0E0,0E0,0E0,0E0,0E0,0E0,0E0,0E0],"parents":[2147483647,0,0,1,1,2,2,3,3,4,4,5,5,6,6,7,7,8,8,9,9,10,10,11,11,12,12,13,13,14,14,17,17,18,18,19,19,20,20,21,21,22,22,23,23,24,24,25,25,26,26,27,27,28,28,29,29,30,30],"right_children":[2,4,6,8,10,12,14,-1,18,20,22,24,26,28,30,-1,-1,32,34,-1,38,40,42,44,46,48,50,52,-1,-1,58,-1,-1,-1,-1,-1,-1,-1,-1,-1,-1,-1,-1,-1,-1,-1,-1,-1,-1,-1,-1,-1,-1,-1,-1,-1,-1,-1,-1],"split_conditions":[5.191087E-1,-1.2665563E0,1.5905077E0,-6.0509396E-1,-1.4599229E0,2.465095E0,-4.776469E-1,-8.6914055E-2,1.2779248E0,-9.8163314E-2,4.348579E-1,-7.3311245E-1,-7.763468E-1,3.671474E-1,-1.8765249E0,-0E0,-8.889755E-2,-5.3308344E-1,-8.492184E-1,-7.753798E-2,-5.5229026E-1,-3.494668E-1,1.2186857E-1,-1.4137825E0,3.5764844E0,3.8292468E-1,4.246555E-1,-7.2966886E-1,4.546994E-2,-0E0,3.2017434E0,1.3581178E-2,-4.81237E-2,-2.3565853E-2,5.8514625E-2,-8.171019E-2,-0E0,3.001978E-2,-6.767016E-2,-1.6501402E-2,2.7559276E-3,-5.7821083E-3,3.1289797E-2,3.3518057E-2,-7.834534E-2,1.933717E-2,-1.0075474E-1,-5.6567457E-2,9.015407E-2,1.0358279E-1,-0E0,1.7310033E-2,-4.61607E-2,5.5028897E-2,-0E0,1.5972473E-2,-3.0887863E-2,7.0502035E-2,-0E0],"split_indices":[8,8,8,0,9,25,0,2,21,0,19,0,2,23,7,2147483647,2147483647,0,20,20,8,24,0,0,16,4,20,27,4,20,0,0,0,0,0,2147483647,2147483647,0,0,0,0,0,0,0,0,0,0,0,0,0,0,0,0,2147483647,2147483647,2147483647,2147483647,0,0],"split_type":[0,0,0,0,0,0,0,0,0,0,0,0,0,0,0,0,0,0,0,0,0,0,0,0,0,0,0,0,0,0,0,0,0,0,0,0,0,0,0,0,0,0,0,0,0,0,0,0,0,0,0,0,0,0,0,0,0,0,0],"sum_hessian":[2.5628662E3,1.9335732E3,6.2929297E2,9.8687645E1,1.8348855E3,5.0991818E2,1.1937478E2,3.259727E1,6.609037E1,6.2866867E1,1.7720187E3,4.6051044E2,4.9407745E1,1.9859526E1,9.951525E1,1.251262E0,3.134601E1,5.8365147E1,7.7252283E0,3.4711838E1,2.8155027E1,1.2668925E3,5.0512628E2,4.9180054E1,4.1133038E2,2.9403349E1,2.0004395E1,1.3231777E1,6.6277475E0,3.1039784E0,9.641128E1,5.832431E0,5.2532715E1,1.7122251E0,6.013003E0,3.366882E1,1.0430195E0,1.6325495E1,1.1829533E1,7.6838934E2,4.9850308E2,2.78434E2,2.2669229E2,1.9832096E1,2.934796E1,4.064833E2,4.8471017E0,1.5227356E1,1.4175993E1,1.8394918E1,1.6094762E0,5.7587957E0,7.472982E0,5.4532638E0,1.1744835E0,1.6104655E0,1.493513E0,9.374861E1,2.662665E0],"tree_param":{"num_deleted":"8","num_feature":"28","num_nodes":"59","size_leaf_vector":"0"}},{"base_weights":[1.4276882E-3,-3.3671647E-2,4.4516996E-1,-6.140762E-2,2.9077107E-1,-4.146635E-1,4.7296444E-1,-8.307807E-2,3.1201518E-1,1.53124E-1,5.415337E-1,3.7245178E-1,7.9362154E-1,-3.1317076E-1,-4.5879327E-2,4.337659E-1,-2.8019515E-1,-0E0,3.8914737E-1,6.09638E-1,-8.508802E-2,4.7465992E-1,4.783105E-2,-0E0,8.209106E-1,3.4960236E-2,-5.146159E-1,-1.050747E-1,5.6298148E-2,1.8601657E-1,8.407851E-1,-4.8736E-1,3.8315916E-1,-1.0464791E-1,5.6043434E-1,5.029049E-1,-1.808523E-1,6.413943E-1,-0E0,2.6201174E-1,-5.1871985E-1,1.6204226E-1,6.408362E-1,2.8721473E-1,-4.1409993E-1,8.4124774E-1,-0E0],"categories":[],"categories_nodes":[],"categories_segments":[],"categories_sizes":[],"default_left":[1,1,1,1,1,0,1,1,1,1,1,1,1,1,1,1,1,1,1,1,1,1,1,1,1,0,0,0,0,0,0,0,0,0,0,0,0,1,1,1,1,0,0,0,0,1,1],"id":25,"left_children":[1,3,5,7,9,-1,11,13,15,17,19,21,-1,25,27,29,31,33,35,-1,-1,41,43,-1,-1,-1,-1,-1,-1,-1,-1,-1,-1,-1,-1,-1,-1,-1,-1,-1,-1,-1,-1,-1,-1,-1,-1],"loss_changes":[4.01058E1,2.105936E1,5.1611137E0,1.7483955E1,